{
  "version_id": "r2-gating-3d88dc1a-b52e-42b2-9691-386e551d9114",
  "trained_at": "2026-07-11T21:43:57.581949+00:00",
  "export": {
    "architecture": [
      {
        "type": "linear",
        "weight_key": "network.0.weight",
        "bias_key": "network.0.bias",
        "in_features": 26,
        "out_features": 16
      },
      {
        "type": "layernorm",
        "weight_key": "network.1.weight",
        "bias_key": "network.1.bias",
        "normalized_shape": [
          16
        ],
        "eps": 1e-05
      },
      {
        "type": "relu"
      },
      {
        "type": "dropout",
        "p": 0.2
      },
      {
        "type": "linear",
        "weight_key": "network.4.weight",
        "bias_key": "network.4.bias",
        "in_features": 16,
        "out_features": 1
      },
      {
        "type": "sigmoid"
      }
    ],
    "state_dict": {
      "network.0.weight": [
        [
          0.1605873852968216,
          0.17544753849506378,
          -0.031080033630132675,
          0.18568046391010284,
          -0.03285989165306091,
          0.05366618558764458,
          -0.08042439818382263,
          0.12457922101020813,
          0.1844470351934433,
          -0.12819728255271912,
          0.18220646679401398,
          0.04711003229022026,
          0.15322892367839813,
          0.0407223142683506,
          0.1080625131726265,
          -0.003682277165353298,
          0.16207370162010193,
          0.032933760434389114,
          -0.08191270381212234,
          0.06001218035817146,
          -0.09617409110069275,
          -0.03867780789732933,
          -0.04370822757482529,
          0.12680280208587646,
          -0.1429804563522339,
          -0.0786648690700531
        ],
        [
          -0.04666510224342346,
          -0.10976448655128479,
          0.02603098191320896,
          -0.1938885748386383,
          0.18751677870750427,
          -0.15853779017925262,
          0.15851417183876038,
          0.03827955201268196,
          -0.055256906896829605,
          0.12830542027950287,
          0.0379941388964653,
          0.16567231714725494,
          0.03107779659330845,
          -0.05404318496584892,
          0.060147471725940704,
          -0.06233258545398712,
          0.09099279344081879,
          0.1687476933002472,
          0.11907543241977692,
          -0.08023115992546082,
          0.12204992026090622,
          0.0623747743666172,
          0.06782031059265137,
          -0.11648578196763992,
          -0.1880791336297989,
          -0.0713030993938446
        ],
        [
          -0.1574000120162964,
          0.1513037085533142,
          0.047449205070734024,
          0.07554091513156891,
          0.05253742262721062,
          -0.011966289021074772,
          0.1440863013267517,
          -0.15016640722751617,
          0.0034242135006934404,
          -0.14150075614452362,
          0.05135619267821312,
          -0.07506345957517624,
          0.051681820303201675,
          -0.04927558824419975,
          0.15318536758422852,
          -0.12082463502883911,
          -0.12464381009340286,
          -0.11635759472846985,
          0.1644112914800644,
          0.05908669903874397,
          0.17885418236255646,
          -0.1651473343372345,
          -0.16519497334957123,
          -0.158504918217659,
          -0.12495791912078857,
          0.07220848649740219
        ],
        [
          0.0703374445438385,
          0.16207899153232574,
          -0.10058093070983887,
          -0.1268359273672104,
          0.10620589554309845,
          -0.07907100021839142,
          0.11848845332860947,
          -0.049733467400074005,
          0.11248678714036942,
          -0.15160466730594635,
          -0.09822525829076767,
          0.06380634009838104,
          0.044568225741386414,
          -0.04988580942153931,
          0.11635376513004303,
          0.12411312758922577,
          -0.1400875747203827,
          -0.07822936773300171,
          0.1749807596206665,
          -0.060422252863645554,
          -0.05976385995745659,
          -0.1685345619916916,
          -0.13624213635921478,
          0.05685620754957199,
          -0.030804552137851715,
          -0.1332845240831375
        ],
        [
          -0.01818961277604103,
          -0.15036432445049286,
          -0.18024373054504395,
          -0.10780296474695206,
          -0.18888743221759796,
          -0.14306816458702087,
          0.17039629817008972,
          0.020720811560750008,
          0.03881658613681793,
          -0.19803059101104736,
          -0.14358817040920258,
          -0.08361387997865677,
          0.006943947169929743,
          -0.19008944928646088,
          -0.10254450887441635,
          -0.11956533044576645,
          -0.01998937502503395,
          -0.06309060007333755,
          -0.02800055965781212,
          -0.14554908871650696,
          -0.14183096587657928,
          -0.14596427977085114,
          -0.03829996660351753,
          -0.15619565546512604,
          0.14777927100658417,
          -0.05120464786887169
        ],
        [
          0.16735175251960754,
          0.06650026142597198,
          -0.14797697961330414,
          0.14750045537948608,
          -0.04038670286536217,
          -0.06509839743375778,
          -0.14860491454601288,
          -0.1705896407365799,
          0.06284511089324951,
          -0.03272156044840813,
          0.07937727123498917,
          -0.16128599643707275,
          0.14854244887828827,
          -0.1321740746498108,
          -0.024375444278120995,
          0.053279001265764236,
          0.10520849376916885,
          0.1691213846206665,
          0.18864208459854126,
          -0.1635260283946991,
          0.04707878455519676,
          -0.06888248771429062,
          -0.020574580878019333,
          -0.13025708496570587,
          0.18644636869430542,
          -0.14857380092144012
        ],
        [
          0.11686684936285019,
          0.08190835267305374,
          0.07631048560142517,
          -0.08637116104364395,
          0.18421733379364014,
          0.057022418826818466,
          0.039165906608104706,
          -0.16560138761997223,
          0.09405462443828583,
          -0.014562748372554779,
          -0.07313920557498932,
          0.18248876929283142,
          0.05551457032561302,
          -0.09300066530704498,
          -0.08335229754447937,
          0.009465642273426056,
          0.12051284313201904,
          -0.03291614353656769,
          -0.10784423351287842,
          -0.05165807157754898,
          -0.12927690148353577,
          0.04942164197564125,
          0.18130625784397125,
          -0.16263194382190704,
          0.04568321630358696,
          0.1163298487663269
        ],
        [
          0.05767989158630371,
          -0.0466933511197567,
          0.12321292608976364,
          0.1168917715549469,
          0.097568079829216,
          -0.011775323189795017,
          -0.029039254412055016,
          0.04076102748513222,
          -0.01155912410467863,
          -0.035413891077041626,
          0.1456831991672516,
          0.1801939606666565,
          0.0037996128667145967,
          -0.021168315783143044,
          0.025272946804761887,
          -0.004023123066872358,
          0.06969264894723892,
          0.06364591419696808,
          -0.15773501992225647,
          -0.06513085216283798,
          0.17460376024246216,
          0.10534518212080002,
          -0.03915616497397423,
          -0.10216286778450012,
          -0.10158861428499222,
          -0.1674719899892807
        ],
        [
          -0.051785510033369064,
          0.07640475034713745,
          0.13391076028347015,
          0.09587156027555466,
          -0.1644788235425949,
          -0.10611902922391891,
          -0.019633738324046135,
          0.19651013612747192,
          0.03837955370545387,
          -0.039171040058135986,
          0.09061509370803833,
          -0.06535366177558899,
          -0.11860910803079605,
          0.1531876027584076,
          -0.07724417001008987,
          -0.020917091518640518,
          -0.1834801286458969,
          0.13118308782577515,
          0.15487289428710938,
          0.07947653532028198,
          -0.13923649489879608,
          -0.19930268824100494,
          -0.12792369723320007,
          0.14776930212974548,
          0.10067062079906464,
          0.1762118637561798
        ],
        [
          0.06660573929548264,
          0.014997676014900208,
          -0.035102494060993195,
          -0.1541818231344223,
          -0.19876374304294586,
          -0.21458075940608978,
          0.045164044946432114,
          -0.12631237506866455,
          -0.0723237618803978,
          -0.14344008266925812,
          -0.06759386509656906,
          -0.1597866415977478,
          -0.15906789898872375,
          0.030492374673485756,
          -0.09059219807386398,
          0.09256071597337723,
          -0.0947432741522789,
          -0.12902753055095673,
          -0.0627429261803627,
          -0.10688202828168869,
          -0.06554565578699112,
          -0.21233753859996796,
          0.10569284111261368,
          -0.1351051777601242,
          0.06919696182012558,
          0.06766480207443237
        ],
        [
          0.16918118298053741,
          -0.11574910581111908,
          0.1697603017091751,
          -0.062347084283828735,
          0.10452890396118164,
          0.21480201184749603,
          0.005013026762753725,
          0.025379478931427002,
          -0.011700201779603958,
          -0.12886330485343933,
          0.12375153601169586,
          -0.1662471890449524,
          0.15175685286521912,
          0.177728533744812,
          0.21499638259410858,
          -0.019761666655540466,
          -0.12600776553153992,
          0.061902910470962524,
          0.13257211446762085,
          -0.17876110970973969,
          -0.026204930618405342,
          -0.07803531736135483,
          -0.02028818428516388,
          -0.07167118787765503,
          -0.05488250404596329,
          -0.046524155884981155
        ],
        [
          -0.18311835825443268,
          0.1527653932571411,
          0.1545369029045105,
          -0.013963115401566029,
          -0.02861565351486206,
          -0.08237607032060623,
          -0.17650872468948364,
          -0.19641949236392975,
          0.06528735160827637,
          -0.10818590968847275,
          -0.12431594729423523,
          -0.01309474091976881,
          -0.06976701319217682,
          -0.06604834645986557,
          0.002542495960369706,
          -0.040322087705135345,
          -0.07059701532125473,
          -0.06833034008741379,
          -0.16647309064865112,
          0.16444899141788483,
          -0.07537169754505157,
          0.03476088494062424,
          -0.04954628646373749,
          0.033319469541311264,
          0.17127273976802826,
          0.08970212936401367
        ],
        [
          -0.17910225689411163,
          0.063791424036026,
          0.1693408042192459,
          0.048085976392030716,
          0.11465848982334137,
          0.17876914143562317,
          -0.04243406280875206,
          0.022428298369050026,
          -0.14712372422218323,
          -0.05251288786530495,
          0.12904579937458038,
          0.0887828916311264,
          -0.13510854542255402,
          -0.16865073144435883,
          -0.14491382241249084,
          -0.20419858396053314,
          -0.16093234717845917,
          -0.02723879925906658,
          0.11177985370159149,
          0.022621510550379753,
          -0.14447976648807526,
          -0.15891191363334656,
          0.08741716295480728,
          -0.11950694024562836,
          -0.04445336386561394,
          0.08292748034000397
        ],
        [
          -0.09716387838125229,
          -0.02574753947556019,
          -0.02136702463030815,
          -0.05077625438570976,
          -0.10695784538984299,
          -0.1776978075504303,
          -0.1606844663619995,
          -0.10265857726335526,
          0.18025177717208862,
          -0.0975986123085022,
          -0.1324690282344818,
          0.045881979167461395,
          0.04432955011725426,
          0.10143294930458069,
          0.14174360036849976,
          0.11152491718530655,
          -0.19600073993206024,
          0.012371244840323925,
          0.11779579520225525,
          -0.017985451966524124,
          -0.09545215964317322,
          0.17194917798042297,
          -0.05773580074310303,
          -0.1140587255358696,
          -0.17363522946834564,
          0.009182704612612724
        ],
        [
          0.07164813578128815,
          0.030027149245142937,
          0.025362463667988777,
          -0.1605980545282364,
          -0.19771869480609894,
          -0.009744135662913322,
          0.16492722928524017,
          0.1040174588561058,
          -0.12722045183181763,
          -0.038505300879478455,
          -0.15667183697223663,
          -0.10745695978403091,
          0.02007514238357544,
          0.09331637620925903,
          0.14860516786575317,
          -0.1775263398885727,
          0.11606364697217941,
          -0.14714880287647247,
          0.06560645252466202,
          0.15524575114250183,
          -0.006571977864950895,
          0.13832266628742218,
          -0.14096248149871826,
          -0.0905185341835022,
          0.10747843235731125,
          -0.046406183391809464
        ],
        [
          -0.03950248286128044,
          -0.08142926543951035,
          0.1328994482755661,
          0.08770551532506943,
          0.06264498084783554,
          -0.11009031534194946,
          -0.15840300917625427,
          0.015358406119048595,
          0.05760825425386429,
          -0.09015322476625443,
          -0.05458153784275055,
          0.13626734912395477,
          0.01586439274251461,
          0.00833060871809721,
          -0.04834619536995888,
          -0.18382543325424194,
          -0.18303661048412323,
          -0.10209193825721741,
          -0.10486552119255066,
          0.06448023021221161,
          -0.052751827985048294,
          -0.07970862090587616,
          0.1719459444284439,
          0.06673936545848846,
          0.1256832629442215,
          -0.08689292520284653
        ]
      ],
      "network.0.bias": [
        -0.06536911427974701,
        0.07956679165363312,
        -0.1387517750263214,
        -0.12786099314689636,
        -0.02925964444875717,
        -0.061739470809698105,
        -0.1311175376176834,
        0.13812929391860962,
        0.1676548272371292,
        -0.0023102140985429287,
        -0.00145125447306782,
        -0.18237526714801788,
        -0.08361107110977173,
        0.04454263672232628,
        0.07903700321912766,
        -0.025130176916718483
      ],
      "network.1.weight": [
        0.9819561243057251,
        0.9925743341445923,
        0.9655150771141052,
        0.9613595604896545,
        0.9297556281089783,
        0.9299125671386719,
        0.9669077396392822,
        0.9717061519622803,
        0.9798408150672913,
        0.9301135540008545,
        0.945264458656311,
        0.9297556281089783,
        0.9381062984466553,
        0.9548376798629761,
        0.9669415354728699,
        0.9375282526016235
      ],
      "network.1.bias": [
        -0.009389611892402172,
        0.0037762848660349846,
        -0.010442271828651428,
        -0.0002050903858616948,
        0.0,
        -0.005037997849285603,
        -0.010252772830426693,
        0.009466116316616535,
        -0.008551867678761482,
        -0.008809827268123627,
        -0.004269525874406099,
        0.0,
        -0.011853405274450779,
        -0.01578444428741932,
        -0.024972092360258102,
        -0.0038631416391581297
      ],
      "network.4.weight": [
        [
          -0.0880296602845192,
          0.1416959911584854,
          -0.18247006833553314,
          0.14093604683876038,
          -0.03580406680703163,
          -0.010848145931959152,
          -0.05042869970202446,
          0.04396376386284828,
          -0.07406134903430939,
          0.1333552896976471,
          -0.009905454702675343,
          0.1284465193748474,
          0.2231937050819397,
          -0.11217312514781952,
          -0.15122546255588531,
          0.19748125970363617
        ]
      ],
      "network.4.bias": [
        0.20278635621070862
      ]
    }
  }
}