{
  "version_id": "gating-only-26218402-34d9-4a0a-add8-ee5d50dd0459",
  "trained_at": "2026-07-07T17:23:49.667995+00:00",
  "export": {
    "architecture": [
      {
        "type": "linear",
        "weight_key": "network.0.weight",
        "bias_key": "network.0.bias",
        "in_features": 26,
        "out_features": 16
      },
      {
        "type": "layernorm",
        "weight_key": "network.1.weight",
        "bias_key": "network.1.bias",
        "normalized_shape": [
          16
        ],
        "eps": 1e-05
      },
      {
        "type": "relu"
      },
      {
        "type": "dropout",
        "p": 0.2
      },
      {
        "type": "linear",
        "weight_key": "network.4.weight",
        "bias_key": "network.4.bias",
        "in_features": 16,
        "out_features": 1
      },
      {
        "type": "sigmoid"
      }
    ],
    "state_dict": {
      "network.0.weight": [
        [
          0.15274456143379211,
          0.1616307646036148,
          -0.03892555832862854,
          0.1597147285938263,
          -0.035550329834222794,
          0.043714720755815506,
          -0.08722858875989914,
          0.11529921740293503,
          0.16022638976573944,
          -0.13374052941799164,
          0.16833029687404633,
          0.04213220626115799,
          0.1387355625629425,
          0.030432168394327164,
          0.09407214820384979,
          0.005437470972537994,
          0.15046189725399017,
          0.009803158231079578,
          -0.0863950252532959,
          0.07064495980739594,
          -0.1328742951154709,
          -0.08869625627994537,
          0.0026168576441705227,
          0.10052822530269623,
          -0.1479635387659073,
          -0.05092344805598259
        ],
        [
          -0.06599463522434235,
          -0.12258251011371613,
          0.011253895238041878,
          -0.20018421113491058,
          0.165034681558609,
          -0.17175520956516266,
          0.14190471172332764,
          0.03966568410396576,
          -0.061428140848875046,
          0.11215014010667801,
          0.023127729073166847,
          0.14254190027713776,
          0.014894955791532993,
          -0.06753966957330704,
          0.04444184899330139,
          -0.08629158139228821,
          0.07341928780078888,
          0.16112518310546875,
          0.1250269114971161,
          -0.10645350068807602,
          0.14461135864257812,
          0.1003439649939537,
          0.002154651563614607,
          -0.1135537326335907,
          -0.17679201066493988,
          -0.1146194115281105
        ],
        [
          -0.15398427844047546,
          0.1444128006696701,
          0.04342731460928917,
          0.06785257905721664,
          0.04932190850377083,
          -0.01385976281017065,
          0.13743728399276733,
          -0.11759071797132492,
          -0.0008926802547648549,
          -0.13899169862270355,
          0.047618377953767776,
          -0.08269862830638885,
          0.04529859125614166,
          -0.04959956556558609,
          0.14319396018981934,
          -0.09075847268104553,
          -0.12188338488340378,
          -0.12338346242904663,
          0.18269416689872742,
          0.04716043174266815,
          0.16332243382930756,
          -0.1698990762233734,
          -0.06668039411306381,
          -0.1676880419254303,
          -0.06350621581077576,
          0.07009036839008331
        ],
        [
          0.07197629660367966,
          0.16762548685073853,
          -0.0905851274728775,
          -0.11201015114784241,
          0.10690919309854507,
          -0.07028889656066895,
          0.12468208372592926,
          -0.04811735823750496,
          0.13173076510429382,
          -0.14125923812389374,
          -0.088743656873703,
          0.08912315964698792,
          0.055925510823726654,
          -0.040975600481033325,
          0.12119896709918976,
          0.09880977869033813,
          -0.1327795833349228,
          -0.08231187611818314,
          0.17297746241092682,
          -0.03480849415063858,
          -0.01726681739091873,
          -0.08065171539783478,
          -0.22006253898143768,
          0.07854046672582626,
          -0.029553711414337158,
          -0.12792730331420898
        ],
        [
          0.0025924339424818754,
          -0.12509851157665253,
          -0.14792869985103607,
          -0.1021295040845871,
          -0.15549148619174957,
          -0.12357746064662933,
          0.17075803875923157,
          0.036413561552762985,
          0.041812311857938766,
          -0.16879625618457794,
          -0.11887764930725098,
          -0.07021698355674744,
          0.021577635779976845,
          -0.1595601737499237,
          -0.0757996067404747,
          -0.0800691470503807,
          -0.003679259680211544,
          -0.0707472488284111,
          -0.008496617898344994,
          -0.12413833290338516,
          -0.1422116458415985,
          -0.1701253205537796,
          0.048662375658750534,
          -0.14599744975566864,
          0.15458372235298157,
          -0.03823351860046387
        ],
        [
          0.16567933559417725,
          0.0755554586648941,
          -0.1189856007695198,
          0.1383945196866989,
          -0.028139032423496246,
          -0.046709511429071426,
          -0.12168975174427032,
          -0.1596859246492386,
          0.07633071392774582,
          -0.015578596852719784,
          0.08761561661958694,
          -0.11410129070281982,
          0.1483430564403534,
          -0.1045626774430275,
          -0.007118431385606527,
          0.04318626597523689,
          0.10853222757577896,
          0.15259453654289246,
          0.1818893849849701,
          -0.11610379070043564,
          0.06119963154196739,
          0.007584230042994022,
          -0.07419808208942413,
          -0.09796365350484848,
          0.18205878138542175,
          -0.11792398989200592
        ],
        [
          0.12583456933498383,
          0.08647620677947998,
          0.08031231164932251,
          -0.08161552995443344,
          0.19522777199745178,
          0.06318528950214386,
          0.04505762830376625,
          -0.15098953247070312,
          0.08744090050458908,
          -0.006889751181006432,
          -0.06384754925966263,
          0.17705778777599335,
          0.05950363725423813,
          -0.0819932296872139,
          -0.07102496176958084,
          0.03383500874042511,
          0.12587419152259827,
          -0.034923553466796875,
          -0.09397542476654053,
          -0.04823099821805954,
          -0.14900770783424377,
          -0.018177639693021774,
          0.24644316732883453,
          -0.17257055640220642,
          0.05431423708796501,
          0.12427136301994324
        ],
        [
          0.040040016174316406,
          -0.05435803905129433,
          0.10798617452383041,
          0.10754566639661789,
          0.07776278257369995,
          -0.02105664275586605,
          -0.03734176233410835,
          0.0423426516354084,
          -0.015150350518524647,
          -0.043490808457136154,
          0.13097110390663147,
          0.16134878993034363,
          -0.008169379085302353,
          -0.02963639795780182,
          0.014553855173289776,
          -0.02932574599981308,
          0.05555553734302521,
          0.060795094817876816,
          -0.1473597139120102,
          -0.08066128939390182,
          0.19706344604492188,
          0.14629627764225006,
          -0.12052762508392334,
          -0.09000875055789948,
          -0.09146974235773087,
          -0.1956167370080948
        ],
        [
          -0.044529225677251816,
          0.07568157464265823,
          0.13008275628089905,
          0.09368764609098434,
          -0.15359370410442352,
          -0.10265294462442398,
          -0.01738003082573414,
          0.17796103656291962,
          0.02920275181531906,
          -0.0363466776907444,
          0.08952489495277405,
          -0.05262349918484688,
          -0.1114223524928093,
          0.14930492639541626,
          -0.07145638018846512,
          -0.001974189653992653,
          -0.174650177359581,
          0.1270284801721573,
          0.13418003916740417,
          0.10039793699979782,
          -0.1774303913116455,
          -0.24622318148612976,
          -0.061836786568164825,
          0.12373696267604828,
          0.08155031502246857,
          0.21230237185955048
        ],
        [
          0.05770917236804962,
          0.007441909518092871,
          -0.03643163666129112,
          -0.14462998509407043,
          -0.17852872610092163,
          -0.2088349312543869,
          0.03461328148841858,
          -0.12965267896652222,
          -0.07228321582078934,
          -0.13510215282440186,
          -0.06665890663862228,
          -0.1430140733718872,
          -0.14524780213832855,
          0.021026214584708214,
          -0.08175995945930481,
          0.10001625865697861,
          -0.08902481943368912,
          -0.1231093555688858,
          -0.07363370805978775,
          -0.0845552459359169,
          -0.08615361899137497,
          -0.2656674385070801,
          0.20978491008281708,
          -0.12248776108026505,
          0.04850127920508385,
          0.07054539769887924
        ],
        [
          0.14087817072868347,
          -0.11850861459970474,
          0.138015478849411,
          -0.06347215175628662,
          0.07984129339456558,
          0.19156965613365173,
          -0.00797770731151104,
          0.014054489322006702,
          -0.018926016986370087,
          -0.1305263787508011,
          0.10007327795028687,
          -0.15387968719005585,
          0.1231643483042717,
          0.14852306246757507,
          0.17267660796642303,
          -0.0358671210706234,
          -0.12595133483409882,
          0.04808773845434189,
          0.1156654879450798,
          -0.14815908670425415,
          -0.03665446862578392,
          -0.03693275526165962,
          -0.05099333077669144,
          -0.07009106874465942,
          -0.059504665434360504,
          -0.04088105633854866
        ],
        [
          -0.14559322595596313,
          0.15894964337348938,
          0.15612876415252686,
          -0.015691397711634636,
          -0.0041279844008386135,
          -0.057619839906692505,
          -0.13958969712257385,
          -0.16022378206253052,
          0.07062358409166336,
          -0.07769666612148285,
          -0.09235058724880219,
          -0.004319989122450352,
          -0.043432265520095825,
          -0.03872042894363403,
          0.022495876997709274,
          0.0066084666177630424,
          -0.04287685826420784,
          -0.0674634724855423,
          -0.13141950964927673,
          0.12614160776138306,
          -0.06386958062648773,
          -0.022299667820334435,
          0.050643693655729294,
          0.021217303350567818,
          0.18755263090133667,
          0.063351109623909
        ],
        [
          -0.18243886530399323,
          0.061153486371040344,
          0.16560815274715424,
          0.03618202358484268,
          0.11183703690767288,
          0.1758374124765396,
          -0.04423011839389801,
          0.025301717221736908,
          -0.14689785242080688,
          -0.05431588739156723,
          0.12663747370243073,
          0.0896245464682579,
          -0.1370631903409958,
          -0.16840167343616486,
          -0.14393529295921326,
          -0.2114466428756714,
          -0.16391904652118683,
          -0.021628953516483307,
          0.11791520565748215,
          0.026723619550466537,
          -0.1237364262342453,
          -0.1494935154914856,
          0.07444338500499725,
          -0.08892487734556198,
          -0.03673577308654785,
          0.08772147446870804
        ],
        [
          -0.06464331597089767,
          -0.007159315049648285,
          -0.002829443896189332,
          -0.02674894407391548,
          -0.07179185748100281,
          -0.15566928684711456,
          -0.13589511811733246,
          -0.10497816652059555,
          0.18883201479911804,
          -0.07582418620586395,
          -0.10957266390323639,
          0.06590079516172409,
          0.07239250838756561,
          0.11343251913785934,
          0.147591695189476,
          0.11579766869544983,
          -0.1630268543958664,
          0.026705797761678696,
          0.08431179076433182,
          0.004380041267722845,
          -0.0700099766254425,
          0.17395247519016266,
          0.016909189522266388,
          -0.08221551775932312,
          -0.1757548451423645,
          0.028474893420934677
        ],
        [
          0.08932719379663467,
          0.04262814298272133,
          0.037808846682310104,
          -0.13977764546871185,
          -0.17605088651180267,
          0.0035601332783699036,
          0.17533648014068604,
          0.11243104189634323,
          -0.11755069345235825,
          -0.024803975597023964,
          -0.1411123126745224,
          -0.09737706929445267,
          0.03620505705475807,
          0.10468383878469467,
          0.1574314832687378,
          -0.14970245957374573,
          0.13041700422763824,
          -0.1305645853281021,
          0.07350677251815796,
          0.15426890552043915,
          -0.02721591666340828,
          0.09776898473501205,
          -0.08952483534812927,
          -0.08399935066699982,
          0.11376333981752396,
          -0.030611012130975723
        ],
        [
          -0.04473596438765526,
          -0.08034946024417877,
          0.09503667056560516,
          0.07882237434387207,
          0.03858279436826706,
          -0.11328937113285065,
          -0.14555145800113678,
          -0.00959430355578661,
          0.03233959898352623,
          -0.08766314387321472,
          -0.05680596083402634,
          0.11116060614585876,
          0.0028425485361367464,
          -0.005028804764151573,
          -0.04748334363102913,
          -0.1408979296684265,
          -0.16215862333774567,
          -0.052126120775938034,
          -0.1165047362446785,
          0.053127896040678024,
          -0.05043448880314827,
          -0.1624465435743332,
          0.26589420437812805,
          0.06724070757627487,
          0.09445789456367493,
          -0.07049264758825302
        ]
      ],
      "network.0.bias": [
        -0.07352614402770996,
        0.06450745463371277,
        -0.1383858621120453,
        -0.11866746842861176,
        -0.015077234245836735,
        -0.04350125044584274,
        -0.12159709632396698,
        0.12580233812332153,
        0.1664706915616989,
        -0.008527386002242565,
        -0.01420010719448328,
        -0.15242162346839905,
        -0.08549994975328445,
        0.061084240674972534,
        0.09155434370040894,
        -0.03608882427215576
      ],
      "network.1.weight": [
        0.9578075408935547,
        0.9573637247085571,
        0.863106369972229,
        0.9384778141975403,
        0.7620511054992676,
        0.7655357718467712,
        0.9755992293357849,
        0.9338892102241516,
        0.946698784828186,
        0.7622238397598267,
        0.8379654884338379,
        0.7620511054992676,
        0.879608154296875,
        0.8214057087898254,
        0.9227293729782104,
        0.762706995010376
      ],
      "network.1.bias": [
        -0.0193528663367033,
        -0.004662681836634874,
        -0.020124314352869987,
        0.018925707787275314,
        0.0,
        -0.020388726145029068,
        0.0003745941212400794,
        -0.0103243887424469,
        -0.008834964595735073,
        -1.2412116348059499e-06,
        -0.014443136751651764,
        0.0,
        -0.015075341798365116,
        -0.010004744865000248,
        -0.022579170763492584,
        -0.0034666480496525764
      ],
      "network.4.weight": [
        [
          -0.08269025385379791,
          0.1424468606710434,
          -0.17763495445251465,
          0.17105185985565186,
          -0.00012825104931835085,
          -0.00788088422268629,
          -0.09744539856910706,
          0.05424356088042259,
          -0.08132656663656235,
          0.02495058812201023,
          -0.018898647278547287,
          0.027425095438957214,
          0.21573825180530548,
          -0.12577751278877258,
          -0.11627712100744247,
          0.06888438016176224
        ]
      ],
      "network.4.bias": [
        0.2026461809873581
      ]
    }
  }
}