{
  "project": "Aether Quant",
  "phase": "v2_sequence_multitask_horizons_model",
  "version_id": "r2-sequence-4f9bff92-86ef-4bf2-bbe5-f5767703ef73",
  "status": "trained",
  "trained_at": "2026-07-11T21:50:15.440511+00:00",
  "model": {
    "type": "sequence_multitask_direction_magnitude_volatility_horizons",
    "model_input_features": [
      "close_to_close_return_1d_scaled",
      "close_to_close_return_5d_scaled",
      "close_to_close_return_20d_scaled",
      "rolling_volatility_5d_scaled",
      "rolling_volatility_20d_scaled",
      "momentum_5d_scaled",
      "momentum_20d_scaled",
      "high_low_range_pct_scaled",
      "open_close_range_pct_scaled",
      "volume_change_1d_scaled",
      "rsi_14_scaled",
      "atr_pct_14_scaled",
      "bollinger_pctb_20_scaled",
      "volume_zscore_20_scaled",
      "macd_histogram_norm_scaled",
      "dist_52w_high_scaled",
      "regime_signal_confidence_scaled",
      "regime_signal_trend_score_scaled",
      "regime_signal_risk_score_scaled",
      "liquidity_log_dollar_volume_scaled",
      "liquidity_spread_proxy_scaled",
      "topology_correlation_strength_scaled",
      "peer_rank1_return_1d_scaled",
      "peer_rank2_return_1d_scaled",
      "peer_rank3_return_1d_scaled",
      "peer_mean_return_1d_scaled",
      "cs_momentum_rank_20_scaled",
      "regime_trend_bullish",
      "regime_trend_bearish",
      "regime_trend_sideways",
      "regime_volatility_low",
      "regime_volatility_normal",
      "regime_volatility_high",
      "regime_risk_on",
      "regime_risk_off",
      "regime_risk_neutral",
      "topology_risk_normal",
      "topology_risk_elevated",
      "topology_risk_isolated",
      "asset_AAPL",
      "asset_SPY",
      "asset_QQQ",
      "asset_IWM",
      "asset_EEM",
      "asset_BAC",
      "asset_IBM",
      "asset_AIG",
      "asset_BNO",
      "asset_FB",
      "asset_GOOG",
      "asset_GOOGL",
      "asset_USO",
      "asset_WM",
      "asset_AAA",
      "asset_BTCUSD",
      "asset_ETHUSD",
      "asset_LTCUSD",
      "asset_XRPUSD",
      "asset_ADAUSD"
    ],
    "window_size": 30,
    "channels": [
      32,
      32
    ],
    "kernel_size": 3,
    "dropout": 0.15,
    "decision_threshold": 0.475
  },
  "export": {
    "trunk": [
      {
        "type": "conv1d_causal",
        "weight_key": "conv_layers.0.weight",
        "bias_key": "conv_layers.0.bias",
        "dilation": 1,
        "in_channels": 59,
        "out_channels": 32,
        "kernel_size": 3
      },
      {
        "type": "relu"
      },
      {
        "type": "dropout",
        "p": 0.15
      },
      {
        "type": "conv1d_causal",
        "weight_key": "conv_layers.1.weight",
        "bias_key": "conv_layers.1.bias",
        "dilation": 2,
        "in_channels": 32,
        "out_channels": 32,
        "kernel_size": 3
      },
      {
        "type": "relu"
      },
      {
        "type": "dropout",
        "p": 0.15
      }
    ],
    "heads": {
      "direction": [
        {
          "type": "linear",
          "weight_key": "head_direction.weight",
          "bias_key": "head_direction.bias",
          "in_features": 32,
          "out_features": 1
        },
        {
          "type": "sigmoid"
        }
      ],
      "magnitude": [
        {
          "type": "linear",
          "weight_key": "head_magnitude.weight",
          "bias_key": "head_magnitude.bias",
          "in_features": 32,
          "out_features": 1
        }
      ],
      "volatility": [
        {
          "type": "linear",
          "weight_key": "head_volatility.weight",
          "bias_key": "head_volatility.bias",
          "in_features": 32,
          "out_features": 1
        },
        {
          "type": "softplus"
        }
      ],
      "direction_5d": [
        {
          "type": "linear",
          "weight_key": "head_direction_5d.weight",
          "bias_key": "head_direction_5d.bias",
          "in_features": 32,
          "out_features": 1
        },
        {
          "type": "sigmoid"
        }
      ],
      "direction_20d": [
        {
          "type": "linear",
          "weight_key": "head_direction_20d.weight",
          "bias_key": "head_direction_20d.bias",
          "in_features": 32,
          "out_features": 1
        },
        {
          "type": "sigmoid"
        }
      ],
      "rank_5d": [
        {
          "type": "linear",
          "weight_key": "head_rank_5d.weight",
          "bias_key": "head_rank_5d.bias",
          "in_features": 32,
          "out_features": 1
        },
        {
          "type": "sigmoid"
        }
      ],
      "rank_20d": [
        {
          "type": "linear",
          "weight_key": "head_rank_20d.weight",
          "bias_key": "head_rank_20d.bias",
          "in_features": 32,
          "out_features": 1
        },
        {
          "type": "sigmoid"
        }
      ]
    },
    "state_dict": {
      "conv_layers.0.weight": [
        [
          [
            0.046584319323301315,
            0.05767578259110451,
            -0.010989842936396599
          ],
          [
            0.039542973041534424,
            -0.03530609607696533,
            -0.008984660729765892
          ],
          [
            -0.04068252444267273,
            0.0376637727022171,
            0.0644405335187912
          ],
          [
            -0.07160133123397827,
            0.0577155165374279,
            -0.008413171395659447
          ],
          [
            0.047360859811306,
            0.005556721240282059,
            0.03065606951713562
          ],
          [
            -0.039273396134376526,
            0.038269542157649994,
            -0.012996749952435493
          ],
          [
            -0.0391937680542469,
            0.012939565815031528,
            -0.035407762974500656
          ],
          [
            -0.03433287888765335,
            -0.03888225927948952,
            0.04091418907046318
          ],
          [
            -0.0729009360074997,
            -0.029970111325383186,
            -0.01661849208176136
          ],
          [
            -0.06355629116296768,
            0.007846327498555183,
            -0.0796150267124176
          ],
          [
            0.07044688612222672,
            -0.07566762715578079,
            0.025863520801067352
          ],
          [
            -0.0034142606891691685,
            -0.0424824133515358,
            0.024038907140493393
          ],
          [
            -0.0015112119726836681,
            0.03295682370662689,
            -0.02431865967810154
          ],
          [
            -0.058645542711019516,
            -0.007042420096695423,
            -0.04613654688000679
          ],
          [
            0.03313370794057846,
            0.06449736654758453,
            0.04164033755660057
          ],
          [
            -0.03306734189391136,
            0.04356729984283447,
            0.021451029926538467
          ],
          [
            0.03599413111805916,
            -0.051591504365205765,
            -0.09312136471271515
          ],
          [
            -0.03664441034197807,
            -0.06516800075769424,
            0.05658210441470146
          ],
          [
            0.0348396934568882,
            0.022033287212252617,
            0.0111564751714468
          ],
          [
            -0.003068254329264164,
            0.05876631662249565,
            -0.050428301095962524
          ],
          [
            -0.007376107387244701,
            -0.06577147543430328,
            0.007895389571785927
          ],
          [
            -0.02034332975745201,
            0.02232309803366661,
            -0.026852067559957504
          ],
          [
            0.057339802384376526,
            -0.06292782723903656,
            -0.05169716849923134
          ],
          [
            -0.03728168457746506,
            0.036794908344745636,
            0.02505326084792614
          ],
          [
            0.06127116456627846,
            -0.11025001853704453,
            -0.0667920932173729
          ],
          [
            -0.06689612567424774,
            -0.09268861263990402,
            0.02900126948952675
          ],
          [
            0.04195885732769966,
            0.07428579032421112,
            -0.02109929732978344
          ],
          [
            -0.04878750443458557,
            0.029749486595392227,
            -0.04443209618330002
          ],
          [
            0.019182195886969566,
            -0.01840389519929886,
            0.013759712688624859
          ],
          [
            -0.05228796973824501,
            -0.02454085275530815,
            0.06011078134179115
          ],
          [
            0.024571789428591728,
            -0.005817539058625698,
            0.05499747022986412
          ],
          [
            0.03982548043131828,
            -0.0695706456899643,
            -0.05256004258990288
          ],
          [
            0.06324197351932526,
            -0.01948590576648712,
            -0.012080291286110878
          ],
          [
            -0.06364714354276657,
            -0.03692883253097534,
            0.02050495333969593
          ],
          [
            -0.04099494591355324,
            -0.06032584607601166,
            -0.03146791830658913
          ],
          [
            -0.055387936532497406,
            -0.0758388414978981,
            -0.016882533207535744
          ],
          [
            -0.060360509902238846,
            -0.04270199313759804,
            0.07871963828802109
          ],
          [
            0.013501187786459923,
            0.02560119330883026,
            -0.06770794838666916
          ],
          [
            -0.06532105803489685,
            -0.043884165585041046,
            0.00360457063652575
          ],
          [
            -0.07761157304048538,
            -0.047600556164979935,
            -0.060398127883672714
          ],
          [
            0.011239906772971153,
            -0.012960068881511688,
            0.006517340894788504
          ],
          [
            -0.04787050560116768,
            -0.048406485468149185,
            -0.04343679919838905
          ],
          [
            -0.03478147089481354,
            -0.065965935587883,
            0.051359813660383224
          ],
          [
            0.011792363598942757,
            0.0868685394525528,
            0.048774413764476776
          ],
          [
            -0.06556698679924011,
            0.041438113898038864,
            -0.025331610813736916
          ],
          [
            -0.06183527782559395,
            -0.09079744666814804,
            -0.10101748257875443
          ],
          [
            0.03206934034824371,
            -0.0028994381427764893,
            0.04207136854529381
          ],
          [
            -0.056430064141750336,
            0.052476540207862854,
            -0.051419343799352646
          ],
          [
            -0.023764947429299355,
            0.005251985043287277,
            0.03434014692902565
          ],
          [
            0.08320347219705582,
            0.0913173034787178,
            -0.02953096106648445
          ],
          [
            0.038519151508808136,
            -0.007890740409493446,
            0.01354984100908041
          ],
          [
            -0.06561245769262314,
            0.050652869045734406,
            -0.0661325678229332
          ],
          [
            0.022318758070468903,
            0.009268203750252724,
            0.008713938295841217
          ],
          [
            4.064951877333974e-16,
            6.300730336777915e-13,
            1.3284822393089084e-16
          ],
          [
            0.0028779073618352413,
            -0.07094216346740723,
            0.022593334317207336
          ],
          [
            -0.02763700671494007,
            -0.04626904055476189,
            0.039134033024311066
          ],
          [
            0.01743687316775322,
            -0.03781239315867424,
            -0.03066970594227314
          ],
          [
            0.009852745570242405,
            0.03304605931043625,
            0.013839184306561947
          ],
          [
            -0.04345957189798355,
            -0.028721755370497704,
            -0.05559348687529564
          ]
        ],
        [
          [
            0.028941575437784195,
            0.0376601479947567,
            -0.06813228130340576
          ],
          [
            0.0010724941967055202,
            0.024868600070476532,
            0.005024884827435017
          ],
          [
            -0.004729201085865498,
            0.04533350467681885,
            0.04272026941180229
          ],
          [
            0.014121538028120995,
            -0.03333824872970581,
            -0.04506359621882439
          ],
          [
            -0.006224299781024456,
            -0.029903829097747803,
            -0.04164262115955353
          ],
          [
            0.031142419204115868,
            0.050227824598550797,
            -0.01568436063826084
          ],
          [
            0.004946621134877205,
            0.008199026808142662,
            -0.00011333570728311315
          ],
          [
            0.005493353120982647,
            0.010347511619329453,
            -0.06553773581981659
          ],
          [
            -0.026781979948282242,
            0.04894063621759415,
            0.026074238121509552
          ],
          [
            -0.016756141558289528,
            -0.04823150858283043,
            -0.045428257435560226
          ],
          [
            -0.050957437604665756,
            -0.018806783482432365,
            0.017977874726057053
          ],
          [
            0.04658045992255211,
            0.028994720429182053,
            -0.08018624782562256
          ],
          [
            -0.04022584110498428,
            -0.006203687749803066,
            0.07797212153673172
          ],
          [
            -0.00755129661411047,
            -0.009941767901182175,
            0.04883286729454994
          ],
          [
            -0.03195630759000778,
            -0.05659133568406105,
            0.04006698727607727
          ],
          [
            -0.03536319360136986,
            -0.013526052236557007,
            -0.06766544282436371
          ],
          [
            0.04451349377632141,
            0.03966614976525307,
            -0.0013519874773919582
          ],
          [
            -0.035836219787597656,
            -0.07045824825763702,
            -0.05751169100403786
          ],
          [
            0.05942712724208832,
            0.04105229303240776,
            0.06370711326599121
          ],
          [
            0.02465478703379631,
            0.010120127350091934,
            -0.0055045862682163715
          ],
          [
            -0.05347181111574173,
            -0.06776478886604309,
            -0.07746545225381851
          ],
          [
            0.01940636709332466,
            -0.05578584969043732,
            -0.05299103632569313
          ],
          [
            -0.046594906598329544,
            -0.0374177061021328,
            -0.05320281162858009
          ],
          [
            -0.05759703740477562,
            0.017216775566339493,
            -0.013858922757208347
          ],
          [
            0.02887721173465252,
            -0.04770452156662941,
            -0.01907186396420002
          ],
          [
            -0.029408004134893417,
            -0.06303948909044266,
            -0.005221945699304342
          ],
          [
            -0.06175050511956215,
            0.050494711846113205,
            -0.051771555095911026
          ],
          [
            0.026295557618141174,
            0.022837869822978973,
            0.03870311379432678
          ],
          [
            -0.07909666001796722,
            0.024376079440116882,
            -0.06372904777526855
          ],
          [
            0.0372968390583992,
            0.08654679358005524,
            0.020428059622645378
          ],
          [
            -0.011213717050850391,
            -0.025292368605732918,
            -0.06607471406459808
          ],
          [
            0.038730163127183914,
            -0.06924480944871902,
            0.0496610552072525
          ],
          [
            0.03760809451341629,
            0.051805004477500916,
            -0.020110320299863815
          ],
          [
            -0.07036440819501877,
            0.012902849353849888,
            0.042867861688137054
          ],
          [
            -0.10096002370119095,
            -0.048575274646282196,
            -0.077578105032444
          ],
          [
            0.01233960222452879,
            -0.02031129226088524,
            -0.01524395402520895
          ],
          [
            -0.02482360042631626,
            -0.07335969805717468,
            0.055610425770282745
          ],
          [
            0.03882820904254913,
            -0.03357022628188133,
            -0.027300076559185982
          ],
          [
            -0.04195641353726387,
            -0.06811162829399109,
            -0.05337722226977348
          ],
          [
            0.06530565023422241,
            -0.0017731419065967202,
            -0.008149937726557255
          ],
          [
            -0.02086028829216957,
            -0.038050223141908646,
            -0.03559691831469536
          ],
          [
            0.018346121534705162,
            0.0026621047873049974,
            -0.006045915652066469
          ],
          [
            -0.026456160470843315,
            -0.05023603513836861,
            0.07323267310857773
          ],
          [
            -0.046026211231946945,
            0.0018093243706971407,
            -0.042051345109939575
          ],
          [
            0.03692665323615074,
            0.10088342428207397,
            0.06839260458946228
          ],
          [
            -0.10444750636816025,
            -0.012003951705992222,
            0.029638655483722687
          ],
          [
            0.025563616305589676,
            0.056884195655584335,
            0.08260589838027954
          ],
          [
            -0.02273540571331978,
            0.002102640690281987,
            -0.06204608455300331
          ],
          [
            -0.01983756758272648,
            0.05125533416867256,
            0.03766807168722153
          ],
          [
            -0.040605198591947556,
            -0.050351832062006,
            -0.03968581184744835
          ],
          [
            -0.07568734884262085,
            -0.058560218662023544,
            -0.019961973652243614
          ],
          [
            0.016962742432951927,
            -0.020227031782269478,
            -0.08822961896657944
          ],
          [
            -0.0654020681977272,
            0.031173352152109146,
            -0.05665877088904381
          ],
          [
            1.550967221957173e-16,
            -6.534886716637713e-16,
            -1.5936447387765646e-15
          ],
          [
            0.08443015813827515,
            0.08471094071865082,
            0.07394495606422424
          ],
          [
            -0.032737746834754944,
            -0.05229475349187851,
            -0.04806343838572502
          ],
          [
            -0.09136656671762466,
            0.016687219962477684,
            -0.0848868191242218
          ],
          [
            -0.02077522501349449,
            0.0031176533084362745,
            0.02453017421066761
          ],
          [
            -2.320560049659851e-15,
            3.060867396131525e-14,
            -3.534043166818885e-15
          ]
        ],
        [
          [
            -0.05070247873663902,
            -0.0024053389206528664,
            0.03864855319261551
          ],
          [
            -0.00659466115757823,
            -0.04558940231800079,
            0.06306629627943039
          ],
          [
            -0.029956897720694542,
            -0.04166746139526367,
            -0.07109988480806351
          ],
          [
            -0.005562656559050083,
            0.014470252208411694,
            0.0004470182175282389
          ],
          [
            -0.011605069041252136,
            -0.0835251659154892,
            -0.09436597675085068
          ],
          [
            0.0015975873684510589,
            0.06615893542766571,
            0.03501623868942261
          ],
          [
            -0.04538237676024437,
            -0.009099540300667286,
            -0.05891501158475876
          ],
          [
            -0.05111075937747955,
            -0.01151309348642826,
            0.02297894097864628
          ],
          [
            0.09756484627723694,
            -0.0692509338259697,
            0.025471199303865433
          ],
          [
            -0.030566386878490448,
            -0.0016126520931720734,
            0.04141201451420784
          ],
          [
            0.011359104886651039,
            0.07482555508613586,
            -0.05119112879037857
          ],
          [
            -0.01981244795024395,
            0.04673629626631737,
            -0.01494336873292923
          ],
          [
            -0.023737411946058273,
            -0.03984972834587097,
            0.055999379605054855
          ],
          [
            0.0793159157037735,
            0.04908641427755356,
            -0.030308524146676064
          ],
          [
            -0.05647224187850952,
            0.014397338964045048,
            0.03074749931693077
          ],
          [
            -0.019942060112953186,
            -0.0055153826251626015,
            0.07066165655851364
          ],
          [
            0.037827540189027786,
            0.03390541672706604,
            0.00800186675041914
          ],
          [
            -0.06934671103954315,
            -0.07002141326665878,
            -0.041394732892513275
          ],
          [
            -0.01338860485702753,
            0.03598412871360779,
            -0.008116071112453938
          ],
          [
            -0.021830877289175987,
            0.07858108729124069,
            0.03454353287816048
          ],
          [
            0.05641688406467438,
            -0.03516320511698723,
            -0.029102541506290436
          ],
          [
            0.054886989295482635,
            -0.02815350517630577,
            -0.035387881100177765
          ],
          [
            0.0053676036186516285,
            -0.026265069842338562,
            -0.05654817819595337
          ],
          [
            0.03886936232447624,
            0.08037413656711578,
            0.03867826610803604
          ],
          [
            -0.029900508001446724,
            -0.08384411782026291,
            -0.03314976394176483
          ],
          [
            0.009885718114674091,
            0.03273404389619827,
            -0.008979071862995625
          ],
          [
            -0.021024001762270927,
            0.0490531399846077,
            -0.0419267974793911
          ],
          [
            0.08549895882606506,
            0.0031684129498898983,
            0.035642124712467194
          ],
          [
            -0.006993555463850498,
            0.026498379185795784,
            -0.009217244572937489
          ],
          [
            0.06156671419739723,
            0.00543287955224514,
            0.06635261327028275
          ],
          [
            0.11043453961610794,
            0.0013373654801398516,
            -0.02254338562488556
          ],
          [
            0.06697852909564972,
            0.06530852615833282,
            -0.04802444949746132
          ],
          [
            -0.004137787967920303,
            -0.06543327867984772,
            -0.04633188620209694
          ],
          [
            0.0522938147187233,
            0.05091087147593498,
            0.04764368757605553
          ],
          [
            -0.023801114410161972,
            0.07230275124311447,
            0.008088309317827225
          ],
          [
            -0.03519114851951599,
            0.008312192745506763,
            0.0307721346616745
          ],
          [
            0.060006462037563324,
            -0.019409719854593277,
            0.058778371661901474
          ],
          [
            -0.06863857060670853,
            -0.10609310865402222,
            -0.06974609941244125
          ],
          [
            0.06502179056406021,
            0.06327762454748154,
            0.07004353404045105
          ],
          [
            0.037245798856019974,
            0.0494718998670578,
            -0.01664736680686474
          ],
          [
            -0.02668529376387596,
            0.049851372838020325,
            -0.02412634901702404
          ],
          [
            -0.0036030495539307594,
            0.022150933742523193,
            0.06045190244913101
          ],
          [
            0.050159573554992676,
            -0.015455487184226513,
            -0.028804371133446693
          ],
          [
            0.031206922605633736,
            -0.022005734965205193,
            -0.027032922953367233
          ],
          [
            0.038295213133096695,
            -0.012641367502510548,
            0.06752348691225052
          ],
          [
            0.06437575817108154,
            0.014861293137073517,
            0.01731855794787407
          ],
          [
            0.004916826728731394,
            -0.010262774303555489,
            -0.016782307997345924
          ],
          [
            0.0006060385494492948,
            0.026497695595026016,
            0.06692720949649811
          ],
          [
            0.011248956434428692,
            -0.00018966705829370767,
            0.013824544847011566
          ],
          [
            -0.010953066870570183,
            0.03674692660570145,
            0.0789635181427002
          ],
          [
            0.0823536068201065,
            0.057409726083278656,
            -0.030564121901988983
          ],
          [
            -0.08660995960235596,
            -0.06412278115749359,
            -0.06223789602518082
          ],
          [
            0.028147881850600243,
            -0.04386168345808983,
            0.04751618951559067
          ],
          [
            -3.829605361126143e-14,
            8.066005071434741e-15,
            1.7512515959952624e-13
          ],
          [
            0.0968175008893013,
            -0.037847407162189484,
            0.08582902699708939
          ],
          [
            0.01823846809566021,
            0.025155898183584213,
            0.06922084838151932
          ],
          [
            0.03645961731672287,
            0.08841805905103683,
            0.0960715040564537
          ],
          [
            -0.05230002477765083,
            0.017273074015975,
            0.007461769040673971
          ],
          [
            0.007146004121750593,
            0.00512304063886404,
            0.00936006661504507
          ]
        ],
        [
          [
            -0.028824154287576675,
            -0.04787420853972435,
            0.054097529500722885
          ],
          [
            0.018472468480467796,
            -0.040042322129011154,
            -0.09492026269435883
          ],
          [
            0.004986225161701441,
            -0.0508892647922039,
            0.055766236037015915
          ],
          [
            -0.06313148140907288,
            -0.01957734115421772,
            -0.026094062253832817
          ],
          [
            0.02108110301196575,
            0.07937266677618027,
            0.017519380897283554
          ],
          [
            0.011543168686330318,
            0.02078009955585003,
            0.035724326968193054
          ],
          [
            -0.02410326525568962,
            -0.0167066752910614,
            0.031004102900624275
          ],
          [
            -0.028168171644210815,
            0.032843489199876785,
            -0.017532074823975563
          ],
          [
            -0.03152192756533623,
            0.0011819569626823068,
            -0.015963755548000336
          ],
          [
            0.018292659893631935,
            0.03880549222230911,
            0.03366805613040924
          ],
          [
            0.09377370029687881,
            0.018051404505968094,
            -0.061926085501909256
          ],
          [
            -0.04925861582159996,
            -0.043513111770153046,
            -0.06320381909608841
          ],
          [
            -0.0417795367538929,
            -0.07938756048679352,
            -0.08839499205350876
          ],
          [
            -0.06647569686174393,
            -0.08010387420654297,
            -0.028315654024481773
          ],
          [
            0.04788966849446297,
            0.07247396558523178,
            -0.020140212029218674
          ],
          [
            -0.03555823862552643,
            0.025227142497897148,
            -0.048088088631629944
          ],
          [
            -0.030948640778660774,
            0.0545467883348465,
            -0.05403009057044983
          ],
          [
            0.006311361212283373,
            0.06302227824926376,
            0.00660958094522357
          ],
          [
            0.03878309205174446,
            -0.03178830072283745,
            -0.0017724031349644065
          ],
          [
            0.028441887348890305,
            0.04407050460577011,
            0.05990798771381378
          ],
          [
            0.07063281536102295,
            -0.055519040673971176,
            0.009009171277284622
          ],
          [
            -0.054951731115579605,
            -0.09458675235509872,
            -0.05155950412154198
          ],
          [
            -0.07091116160154343,
            0.016585752367973328,
            -0.017628397792577744
          ],
          [
            -0.06775297224521637,
            0.05434151738882065,
            -0.09615882486104965
          ],
          [
            -0.047136664390563965,
            0.00238770036958158,
            -0.04879250377416611
          ],
          [
            -0.06472913175821304,
            -0.012923157773911953,
            0.03464983403682709
          ],
          [
            0.12691844999790192,
            0.08148335665464401,
            -0.01974369026720524
          ],
          [
            -0.025083063170313835,
            0.09583445638418198,
            0.058537475764751434
          ],
          [
            -0.015758760273456573,
            -0.001782572129741311,
            -0.05199490860104561
          ],
          [
            0.006661359686404467,
            0.09401809424161911,
            -0.007884113118052483
          ],
          [
            0.01226857304573059,
            -0.04875073581933975,
            -0.03456391766667366
          ],
          [
            0.002651294693350792,
            -0.04167769476771355,
            -0.0009572459384799004
          ],
          [
            0.06318527460098267,
            -0.03267163038253784,
            0.07162661105394363
          ],
          [
            -0.019197940826416016,
            -0.005872108042240143,
            0.056186724454164505
          ],
          [
            0.03787306696176529,
            -0.03175916150212288,
            -0.02686687931418419
          ],
          [
            -0.04511154443025589,
            -0.023725546896457672,
            -0.05069996789097786
          ],
          [
            0.013497983105480671,
            0.040231794118881226,
            -0.04729504883289337
          ],
          [
            0.09153085947036743,
            0.07444648444652557,
            -0.027016550302505493
          ],
          [
            -0.05330805480480194,
            0.01787112094461918,
            -0.021714407950639725
          ],
          [
            -0.039269231259822845,
            -0.06541158258914948,
            0.02730288915336132
          ],
          [
            -0.05342194437980652,
            0.04841605946421623,
            -0.006868202239274979
          ],
          [
            0.05307002738118172,
            0.09526953846216202,
            0.02846430242061615
          ],
          [
            -0.05616826191544533,
            -0.0257024597376585,
            0.0494932197034359
          ],
          [
            -0.034589096903800964,
            0.03619976341724396,
            -0.052987031638622284
          ],
          [
            0.04303400591015816,
            0.03187350183725357,
            0.009888921864330769
          ],
          [
            0.015624594874680042,
            -0.016603417694568634,
            0.02530008926987648
          ],
          [
            -0.08166959881782532,
            -0.033240340650081635,
            0.011910931207239628
          ],
          [
            0.05151677876710892,
            0.015661180019378662,
            -0.0741204246878624
          ],
          [
            0.1064208447933197,
            0.035120055079460144,
            0.037973128259181976
          ],
          [
            0.004736769944429398,
            0.05977925658226013,
            0.12376876920461655
          ],
          [
            0.06928487867116928,
            0.0182810015976429,
            0.08264414966106415
          ],
          [
            -0.0738726481795311,
            0.01585131697356701,
            -0.11428523063659668
          ],
          [
            -0.002724399557337165,
            -0.04860126972198486,
            -0.003473247168585658
          ],
          [
            -5.432391279469476e-16,
            -2.897240823987457e-12,
            -2.291481673278407e-16
          ],
          [
            0.10046429187059402,
            0.04079175367951393,
            0.06747336685657501
          ],
          [
            0.0866551473736763,
            0.09216390550136566,
            0.01246161013841629
          ],
          [
            0.06850793212652206,
            0.04564052075147629,
            -0.03263859823346138
          ],
          [
            0.06406451761722565,
            0.04041760414838791,
            0.0869750902056694
          ],
          [
            -0.015516233630478382,
            0.06328064203262329,
            0.056035690009593964
          ]
        ],
        [
          [
            -0.050459522753953934,
            -0.013424918055534363,
            -0.024641497060656548
          ],
          [
            0.008442243561148643,
            0.0116903530433774,
            -0.08543837070465088
          ],
          [
            0.07054194062948227,
            0.06165473163127899,
            0.030640283599495888
          ],
          [
            -0.07559532672166824,
            -0.046953171491622925,
            -0.02943330816924572
          ],
          [
            -0.01429218240082264,
            0.04882417619228363,
            0.03831141069531441
          ],
          [
            0.03343188017606735,
            -0.058938346803188324,
            0.013709589838981628
          ],
          [
            0.028698205947875977,
            -0.06291474401950836,
            -0.07134479284286499
          ],
          [
            -0.047971710562705994,
            0.03677540272474289,
            -0.047899626195430756
          ],
          [
            -0.06427815556526184,
            0.006152093410491943,
            0.03139754757285118
          ],
          [
            0.053382162004709244,
            -0.07590566575527191,
            -0.0765777975320816
          ],
          [
            0.03381425142288208,
            0.04536744952201843,
            0.008561533875763416
          ],
          [
            0.004877238534390926,
            0.018667781725525856,
            0.07266645133495331
          ],
          [
            -0.07437723875045776,
            -0.061931755393743515,
            0.0068834088742733
          ],
          [
            -0.04445124417543411,
            -0.0594610795378685,
            0.03971122205257416
          ],
          [
            0.029419736936688423,
            0.02434190735220909,
            -0.03969813138246536
          ],
          [
            0.032428763806819916,
            0.0974792018532753,
            -0.02307209186255932
          ],
          [
            0.008252630941569805,
            0.0272272527217865,
            -0.059039972722530365
          ],
          [
            0.07315055280923843,
            -0.03932899609208107,
            -0.017042677849531174
          ],
          [
            -0.03693593665957451,
            -0.08038703352212906,
            -0.09352686256170273
          ],
          [
            0.06474094092845917,
            0.04145621880888939,
            -0.04871447756886482
          ],
          [
            -0.06424348056316376,
            0.06042720377445221,
            0.012234172783792019
          ],
          [
            2.4335007765330374e-05,
            -0.07447803020477295,
            -0.05998310446739197
          ],
          [
            -0.009830476716160774,
            -0.03095695935189724,
            -0.04344639554619789
          ],
          [
            0.020629752427339554,
            0.013833682984113693,
            -0.02943159081041813
          ],
          [
            -0.007090458646416664,
            -0.0246098842471838,
            -0.014757273718714714
          ],
          [
            0.029380986467003822,
            -0.03827131167054176,
            -0.08895642310380936
          ],
          [
            0.06500124931335449,
            0.03238373249769211,
            -0.021238673478364944
          ],
          [
            0.05927006155252457,
            -0.06196320429444313,
            0.026106782257556915
          ],
          [
            0.03808767721056938,
            -0.058388601988554,
            0.04550779238343239
          ],
          [
            -0.07757925242185593,
            -0.03192058950662613,
            -0.008123486302793026
          ],
          [
            -0.060665275901556015,
            0.05261607468128204,
            -0.039777498692274094
          ],
          [
            0.01319096703082323,
            -0.07540625333786011,
            0.03402073308825493
          ],
          [
            -0.006387665867805481,
            -0.04493781179189682,
            0.02413143962621689
          ],
          [
            0.030546260997653008,
            0.05121581256389618,
            -0.05425473302602768
          ],
          [
            -0.04381422698497772,
            0.02076726220548153,
            0.024398567155003548
          ],
          [
            0.016040360555052757,
            0.03033064492046833,
            -0.03328058123588562
          ],
          [
            0.04181808978319168,
            0.057224638760089874,
            -0.02084142342209816
          ],
          [
            0.04808943718671799,
            0.0421430803835392,
            0.08206207305192947
          ],
          [
            -0.06601689755916595,
            -0.07177317142486572,
            -0.058542147278785706
          ],
          [
            -0.059529710561037064,
            -0.020705027505755424,
            -0.10476358234882355
          ],
          [
            0.06933969259262085,
            0.008469770662486553,
            0.07624522596597672
          ],
          [
            0.017540743574500084,
            -0.04010477662086487,
            -0.017562881112098694
          ],
          [
            -0.03921143710613251,
            0.04708610475063324,
            -0.035447314381599426
          ],
          [
            -0.02463512122631073,
            -0.004494341555982828,
            -0.05923817306756973
          ],
          [
            0.03870740160346031,
            -0.05256356671452522,
            -0.03373672068119049
          ],
          [
            -0.09774705767631531,
            -0.0552467405796051,
            -0.05959943309426308
          ],
          [
            0.0009915665723383427,
            -0.022102244198322296,
            0.02528747171163559
          ],
          [
            0.0168289951980114,
            -0.02479381300508976,
            -0.08064410090446472
          ],
          [
            -0.04333558306097984,
            0.05182363837957382,
            -0.0097292335703969
          ],
          [
            0.05004400387406349,
            0.06187239661812782,
            0.04100966453552246
          ],
          [
            0.07481339573860168,
            0.07603027671575546,
            0.022368282079696655
          ],
          [
            -0.09472620487213135,
            0.021095003932714462,
            -0.07874954491853714
          ],
          [
            -0.04167306050658226,
            0.05264374241232872,
            0.04817913845181465
          ],
          [
            2.685376081251094e-16,
            7.972604310058006e-17,
            1.8448366749176937e-13
          ],
          [
            -0.00813783798366785,
            0.06975927203893661,
            0.018132107332348824
          ],
          [
            0.01637844555079937,
            -0.0016581517411395907,
            -0.010285671800374985
          ],
          [
            0.054727811366319656,
            0.01663972996175289,
            0.059941358864307404
          ],
          [
            0.05007142573595047,
            0.07174329459667206,
            0.07094550877809525
          ],
          [
            0.02345350570976734,
            0.05796803906559944,
            0.053959496319293976
          ]
        ],
        [
          [
            0.06976119428873062,
            0.03488772734999657,
            -0.0027636971790343523
          ],
          [
            -0.07306408882141113,
            -0.006472259759902954,
            -0.007989085279405117
          ],
          [
            -0.012415907345712185,
            -0.014152051880955696,
            0.00945603009313345
          ],
          [
            0.03730574995279312,
            -0.00809169840067625,
            -0.04353419318795204
          ],
          [
            -0.056671641767024994,
            -0.04933052137494087,
            -0.05396609753370285
          ],
          [
            0.057401835918426514,
            0.019451158121228218,
            0.06019965931773186
          ],
          [
            0.007272818591445684,
            0.013378685340285301,
            0.03182258829474449
          ],
          [
            -0.07301440089941025,
            -0.008574199862778187,
            -0.009964080527424812
          ],
          [
            -0.05300215259194374,
            -0.08059286326169968,
            0.07726069539785385
          ],
          [
            0.0596151128411293,
            -0.001572017790749669,
            0.0638776645064354
          ],
          [
            -0.023708315566182137,
            -0.0035364944487810135,
            0.03223657235503197
          ],
          [
            -0.0034599110949784517,
            -0.011521855369210243,
            -0.06671544164419174
          ],
          [
            0.01002059131860733,
            -0.05182141065597534,
            -0.0031989351846277714
          ],
          [
            0.09893657267093658,
            -0.001589201739989221,
            0.014937941916286945
          ],
          [
            0.07160516083240509,
            -0.005526799708604813,
            0.013767692260444164
          ],
          [
            0.07016200572252274,
            -0.028481869027018547,
            -0.046582095324993134
          ],
          [
            -0.035216834396123886,
            -0.014434446580708027,
            -0.022774308919906616
          ],
          [
            -0.03455197811126709,
            0.024548988789319992,
            0.016062233597040176
          ],
          [
            -0.015232039615511894,
            -0.05123591795563698,
            -0.0191436018794775
          ],
          [
            -0.019488835707306862,
            -0.011609009467065334,
            -0.05086882784962654
          ],
          [
            0.010617919266223907,
            -0.06419046968221664,
            -0.06805064529180527
          ],
          [
            -0.07119990885257721,
            0.015826521441340446,
            -0.06635136157274246
          ],
          [
            -0.05225684493780136,
            0.03551686182618141,
            0.043561067432165146
          ],
          [
            0.04992353171110153,
            -0.04412190988659859,
            -0.05209605023264885
          ],
          [
            -0.06345593929290771,
            0.03170078620314598,
            0.005561038386076689
          ],
          [
            -0.07841255515813828,
            -0.016844458878040314,
            -0.056637346744537354
          ],
          [
            0.003991829697042704,
            -0.0032579617109149694,
            0.08803899586200714
          ],
          [
            0.040469177067279816,
            0.010019111447036266,
            0.0440426841378212
          ],
          [
            -0.019618535414338112,
            0.03667321428656578,
            0.03972773253917694
          ],
          [
            0.051821690052747726,
            -0.006237000692635775,
            0.08288586139678955
          ],
          [
            0.03602711483836174,
            0.010834712535142899,
            0.08119048178195953
          ],
          [
            0.06292560696601868,
            0.08208154141902924,
            0.034239135682582855
          ],
          [
            -0.011974825523793697,
            0.054700784385204315,
            0.09071426838636398
          ],
          [
            -0.039205342531204224,
            0.03199686482548714,
            -0.0019220400135964155
          ],
          [
            0.002475733868777752,
            0.029243845492601395,
            -0.011914940550923347
          ],
          [
            0.01205255463719368,
            0.03407314047217369,
            -0.02346302755177021
          ],
          [
            -0.03469771146774292,
            0.08784059435129166,
            -0.012091523967683315
          ],
          [
            -0.008154927752912045,
            0.014102357439696789,
            0.014038643799722195
          ],
          [
            -0.06943589448928833,
            0.03661017492413521,
            -0.023711424320936203
          ],
          [
            -0.057338327169418335,
            -0.001599984592758119,
            -0.05803534761071205
          ],
          [
            0.017704103142023087,
            0.02678431011736393,
            0.02604745142161846
          ],
          [
            0.03552248701453209,
            0.04627686366438866,
            0.08583314716815948
          ],
          [
            -0.024806462228298187,
            -0.008912861347198486,
            0.039191629737615585
          ],
          [
            0.020435942336916924,
            0.051125459372997284,
            -0.042417023330926895
          ],
          [
            0.034286268055438995,
            0.05389929190278053,
            0.05476889759302139
          ],
          [
            -0.09893395006656647,
            -0.05822055786848068,
            -0.09298583120107651
          ],
          [
            -0.04335922747850418,
            0.046016890555620193,
            -0.004654257092624903
          ],
          [
            0.011867528781294823,
            -0.06409649550914764,
            -0.009567752480506897
          ],
          [
            -0.018563997000455856,
            0.06526826322078705,
            -0.0023801224306225777
          ],
          [
            0.00820089876651764,
            -0.036999545991420746,
            0.02773640863597393
          ],
          [
            0.08983898162841797,
            0.05542558431625366,
            -0.020988276228308678
          ],
          [
            -0.043385956436395645,
            -0.052538760006427765,
            -0.1042468398809433
          ],
          [
            0.09278998523950577,
            0.03694705665111542,
            0.053301408886909485
          ],
          [
            -6.635349588742401e-16,
            -1.318402229599227e-15,
            -1.442616223182281e-16
          ],
          [
            0.08174088597297668,
            0.07056874781847,
            0.01780865341424942
          ],
          [
            0.08866611868143082,
            0.043970737606287,
            0.01728460006415844
          ],
          [
            -0.02711118757724762,
            0.08114389330148697,
            0.009153642691671848
          ],
          [
            0.051243819296360016,
            0.03481714054942131,
            0.052427373826503754
          ],
          [
            -0.006357178557664156,
            -0.003978751599788666,
            0.023787857964634895
          ]
        ],
        [
          [
            0.047141414135694504,
            0.08061634749174118,
            -0.03198448196053505
          ],
          [
            0.012370627373456955,
            -0.05332013592123985,
            0.052475493401288986
          ],
          [
            0.028403695672750473,
            0.03394194692373276,
            0.03340499475598335
          ],
          [
            0.053875554352998734,
            -0.0009682702366262674,
            0.027386710047721863
          ],
          [
            -0.02581234835088253,
            0.030337153002619743,
            -0.026505673304200172
          ],
          [
            -0.02922755852341652,
            -0.07207556068897247,
            -0.011526806280016899
          ],
          [
            -0.06467841565608978,
            -0.04899180680513382,
            -0.06801408529281616
          ],
          [
            -0.06868357211351395,
            0.0019517519976943731,
            0.04280094802379608
          ],
          [
            0.048675257712602615,
            0.05659806728363037,
            -0.0006385811138898134
          ],
          [
            -0.10311014950275421,
            0.006038163788616657,
            0.009558397345244884
          ],
          [
            -0.09944223612546921,
            0.011639595031738281,
            0.0468253418803215
          ],
          [
            0.028986405581235886,
            -0.023492466658353806,
            0.07505042850971222
          ],
          [
            0.0038056382909417152,
            0.028959278017282486,
            -0.06401728838682175
          ],
          [
            0.06641389429569244,
            -0.026484709233045578,
            0.06667748093605042
          ],
          [
            -0.06344917416572571,
            0.025216737762093544,
            0.007872872985899448
          ],
          [
            -0.0036698938347399235,
            -0.030051473528146744,
            0.017623644322156906
          ],
          [
            -0.012762624770402908,
            -0.07270307838916779,
            -0.0450204536318779
          ],
          [
            0.03043539449572563,
            -0.04201379045844078,
            0.004874291829764843
          ],
          [
            -0.05113690346479416,
            0.04712579399347305,
            0.027860742062330246
          ],
          [
            0.018586818128824234,
            -0.04596574231982231,
            -0.0702667161822319
          ],
          [
            0.013599320314824581,
            -0.03461085632443428,
            0.06478559225797653
          ],
          [
            -0.07969313859939575,
            0.03424236550927162,
            0.068965844810009
          ],
          [
            0.01847338303923607,
            0.028343988582491875,
            -0.05009593069553375
          ],
          [
            0.0757855549454689,
            0.0027195867151021957,
            -0.04787885770201683
          ],
          [
            0.06891345232725143,
            -0.028086313977837563,
            0.001979883061721921
          ],
          [
            0.05208487808704376,
            -0.04431816190481186,
            -0.028301885351538658
          ],
          [
            -0.0015461982693523169,
            -0.0009170664707198739,
            0.021263249218463898
          ],
          [
            -0.0767831802368164,
            -0.006936156190931797,
            -0.047533657401800156
          ],
          [
            0.0006904680049046874,
            -0.0535060279071331,
            0.04949868470430374
          ],
          [
            0.004575406201183796,
            -0.06111240014433861,
            0.06567130982875824
          ],
          [
            0.043644294142723083,
            0.027010992169380188,
            -0.05019129440188408
          ],
          [
            0.0007375141140073538,
            0.06702034175395966,
            0.054569996893405914
          ],
          [
            -0.06551432609558105,
            0.05798414349555969,
            -0.0017921000253409147
          ],
          [
            0.030735716223716736,
            0.05558464676141739,
            0.05694296583533287
          ],
          [
            -0.04004914313554764,
            0.0726810097694397,
            -0.03556729108095169
          ],
          [
            -0.0017450815066695213,
            -0.05316415801644325,
            -0.020960696041584015
          ],
          [
            0.006171181332319975,
            0.0032514024060219526,
            -0.00239658635109663
          ],
          [
            -0.021336251869797707,
            0.04971267655491829,
            0.008711201138794422
          ],
          [
            0.03559653460979462,
            0.01640463061630726,
            0.05563676357269287
          ],
          [
            0.00788384024053812,
            0.016605941578745842,
            0.023809852078557014
          ],
          [
            -0.07711906731128693,
            -0.07244297862052917,
            -0.007248374633491039
          ],
          [
            -0.05137122422456741,
            -0.02452079951763153,
            -0.03961058333516121
          ],
          [
            0.011076831258833408,
            0.04676380753517151,
            -0.02405877225100994
          ],
          [
            0.05727175623178482,
            0.05645432323217392,
            -0.05618533492088318
          ],
          [
            -0.061927080154418945,
            -0.06458477675914764,
            -0.04575590044260025
          ],
          [
            -0.01542650442570448,
            0.007331307046115398,
            -0.005000466015189886
          ],
          [
            -0.0698167011141777,
            -0.05628064647316933,
            -0.0594598725438118
          ],
          [
            0.07259423285722733,
            -0.026076732203364372,
            -0.05297522246837616
          ],
          [
            0.018433691933751106,
            -0.012530694715678692,
            0.04765988141298294
          ],
          [
            0.04257149249315262,
            0.06397584825754166,
            -0.05585021525621414
          ],
          [
            0.04528294503688812,
            0.059494201093912125,
            -0.03757123649120331
          ],
          [
            0.049099940806627274,
            0.03673824295401573,
            -0.017723824828863144
          ],
          [
            0.05559779703617096,
            -0.004732746630907059,
            -0.042636387050151825
          ],
          [
            -2.614411660930129e-16,
            5.605875803165773e-16,
            8.715758327801121e-16
          ],
          [
            0.05717407539486885,
            -0.04176585376262665,
            0.0829133540391922
          ],
          [
            0.08361659944057465,
            0.03978678211569786,
            -0.018792463466525078
          ],
          [
            0.041309867054224014,
            0.018675563856959343,
            0.026036126539111137
          ],
          [
            0.02597331814467907,
            0.05444412678480148,
            -0.003105833427980542
          ],
          [
            -0.00016645608411636204,
            0.027697939425706863,
            0.018420539796352386
          ]
        ],
        [
          [
            0.07250582426786423,
            -0.04306469485163689,
            0.01329287514090538
          ],
          [
            -0.004717136733233929,
            -0.029873443767428398,
            0.056249793618917465
          ],
          [
            0.0030253473669290543,
            -0.0789908841252327,
            -0.0187344029545784
          ],
          [
            -0.031631309539079666,
            0.005844028666615486,
            -0.00836387649178505
          ],
          [
            -0.0833883285522461,
            -0.024077972397208214,
            -0.018366506323218346
          ],
          [
            -0.040718238800764084,
            0.05861840024590492,
            -0.011003495194017887
          ],
          [
            0.042823221534490585,
            0.00852317363023758,
            -0.07370024919509888
          ],
          [
            0.020437806844711304,
            0.06005636230111122,
            -0.04595471918582916
          ],
          [
            -0.0373188853263855,
            0.060483336448669434,
            0.07289120554924011
          ],
          [
            -0.06455697119235992,
            0.02028663083910942,
            -0.025162771344184875
          ],
          [
            -0.056888796389102936,
            0.024867331609129906,
            0.0351385772228241
          ],
          [
            -0.003997995052486658,
            0.0413496308028698,
            -0.05354417487978935
          ],
          [
            0.060909632593393326,
            0.08358068764209747,
            0.06459853798151016
          ],
          [
            0.014949016273021698,
            0.019409121945500374,
            -0.061446696519851685
          ],
          [
            -0.006718488410115242,
            0.004674963653087616,
            -0.029013730585575104
          ],
          [
            -0.03930876776576042,
            0.07077039033174515,
            0.07843156903982162
          ],
          [
            -0.04696369543671608,
            0.03388633206486702,
            0.017478587105870247
          ],
          [
            0.0632883757352829,
            0.033761706203222275,
            0.059594642370939255
          ],
          [
            -0.0041539547964930534,
            0.07863988727331161,
            0.07997538149356842
          ],
          [
            -0.09456028789281845,
            -0.0829339325428009,
            -0.004485194571316242
          ],
          [
            0.04505949094891548,
            -0.033532191067934036,
            0.0128059983253479
          ],
          [
            -0.002841534558683634,
            0.014747613109648228,
            -0.049000922590494156
          ],
          [
            0.015817798674106598,
            0.04383164271712303,
            -0.03534844517707825
          ],
          [
            -0.003448575735092163,
            0.014709124341607094,
            0.014404034242033958
          ],
          [
            0.050133123993873596,
            0.05095655471086502,
            -0.004730085376650095
          ],
          [
            0.04334995150566101,
            -0.017995841801166534,
            -0.012564250268042088
          ],
          [
            0.07737588882446289,
            0.00965771172195673,
            0.07173508405685425
          ],
          [
            -0.0193195678293705,
            0.04336443915963173,
            0.03670579567551613
          ],
          [
            0.019319208338856697,
            -0.0779632180929184,
            -0.0985008254647255
          ],
          [
            0.05104838311672211,
            0.0839637741446495,
            -0.0260565634816885
          ],
          [
            0.04605632647871971,
            -0.04095664620399475,
            0.014983337372541428
          ],
          [
            0.09159668534994125,
            0.0806628167629242,
            -0.023575635626912117
          ],
          [
            0.0816308930516243,
            0.08448220789432526,
            0.05149586871266365
          ],
          [
            0.10686904191970825,
            0.006376716773957014,
            0.018633980304002762
          ],
          [
            -0.031073089689016342,
            -0.004448688123375177,
            -0.0028071734122931957
          ],
          [
            0.008045267313718796,
            -0.033424604684114456,
            -0.011035695672035217
          ],
          [
            0.05589786544442177,
            -0.03853382170200348,
            0.01764925941824913
          ],
          [
            0.015675805509090424,
            0.001061955001205206,
            0.052820175886154175
          ],
          [
            0.01462873350828886,
            0.06348827481269836,
            0.008845425210893154
          ],
          [
            -0.020222123712301254,
            0.07763653248548508,
            0.03674688562750816
          ],
          [
            -0.02629130147397518,
            -0.05254807695746422,
            0.015570421703159809
          ],
          [
            -0.05524289235472679,
            0.034337371587753296,
            0.05276278406381607
          ],
          [
            -0.05862174928188324,
            -0.04102983698248863,
            -0.04287135228514671
          ],
          [
            0.07125493884086609,
            0.07189866900444031,
            0.014545745216310024
          ],
          [
            0.08254356682300568,
            -0.008438230492174625,
            -0.05379174277186394
          ],
          [
            0.048054128885269165,
            0.04898407682776451,
            0.09630845487117767
          ],
          [
            0.0385892391204834,
            0.09620945155620575,
            0.08618494868278503
          ],
          [
            0.057967767119407654,
            -0.0678192675113678,
            0.06568237394094467
          ],
          [
            -0.07756703346967697,
            0.052526362240314484,
            -0.013113228604197502
          ],
          [
            -0.08125466108322144,
            0.005128148477524519,
            -0.029549671337008476
          ],
          [
            -0.06820790469646454,
            -0.02779604308307171,
            0.005951652303338051
          ],
          [
            0.04620052129030228,
            -0.0332246795296669,
            0.03234073147177696
          ],
          [
            0.036856263875961304,
            0.03101837821304798,
            0.043814267963171005
          ],
          [
            -1.2191911663114621e-15,
            1.744899526517213e-13,
            5.962206682207896e-16
          ],
          [
            -0.018256844952702522,
            0.015296694822609425,
            0.05256807431578636
          ],
          [
            -0.03159983456134796,
            -0.017056230455636978,
            -0.003494113916531205
          ],
          [
            0.004703428130596876,
            -0.02700316347181797,
            0.018657300621271133
          ],
          [
            0.0052567231468856335,
            0.01361770462244749,
            0.005016215145587921
          ],
          [
            -0.057633958756923676,
            -0.04708034172654152,
            -0.02567007765173912
          ]
        ],
        [
          [
            -0.024299509823322296,
            0.0032072972971946,
            0.008852431550621986
          ],
          [
            0.002830631798133254,
            -0.010235481895506382,
            0.0465916246175766
          ],
          [
            -0.020391542464494705,
            -0.0800570473074913,
            0.016191907227039337
          ],
          [
            -0.06173126772046089,
            -0.03615304082632065,
            -0.044778354465961456
          ],
          [
            -0.035399604588747025,
            -0.03847448155283928,
            0.061815500259399414
          ],
          [
            0.01661108061671257,
            -0.007212863303720951,
            0.06083178147673607
          ],
          [
            -0.08550798892974854,
            -0.012920012697577477,
            0.030605511739850044
          ],
          [
            0.035074636340141296,
            -0.07797969877719879,
            0.023426104336977005
          ],
          [
            -0.013928703963756561,
            0.0029072691686451435,
            -0.004336560145020485
          ],
          [
            -0.05764134228229523,
            -0.11066672205924988,
            -0.04455950856208801
          ],
          [
            0.026515867561101913,
            0.021657738834619522,
            -0.07367072254419327
          ],
          [
            -0.017703620716929436,
            0.0018854161025956273,
            -0.0718412697315216
          ],
          [
            0.01566421426832676,
            0.04440712183713913,
            0.0006406232132576406
          ],
          [
            -0.0379519909620285,
            0.015935687348246574,
            0.04044422507286072
          ],
          [
            0.05934731662273407,
            -0.04026460647583008,
            -0.061561089009046555
          ],
          [
            0.02951601892709732,
            0.005533858202397823,
            -0.017797093838453293
          ],
          [
            -0.03264406695961952,
            -0.044692475348711014,
            0.04639828950166702
          ],
          [
            -0.036201272159814835,
            0.025567252188920975,
            0.049575868993997574
          ],
          [
            0.005755244754254818,
            0.010411061346530914,
            -0.012664983980357647
          ],
          [
            0.049017246812582016,
            -0.07152726501226425,
            0.028521820902824402
          ],
          [
            -0.011707897298038006,
            0.03276524692773819,
            -0.001235755393281579
          ],
          [
            -0.019040804356336594,
            -0.007829217240214348,
            0.03610652685165405
          ],
          [
            -0.04158777743577957,
            -0.06643560528755188,
            -0.014968542382121086
          ],
          [
            -0.034970320761203766,
            0.054255370050668716,
            0.060588374733924866
          ],
          [
            -0.006482579279690981,
            0.030885163694620132,
            -0.013617107644677162
          ],
          [
            -0.044876206666231155,
            -0.051030222326517105,
            -0.04409900680184364
          ],
          [
            -0.02144174836575985,
            -0.04393764212727547,
            -0.04214099794626236
          ],
          [
            0.046753235161304474,
            0.07256858795881271,
            0.09999683499336243
          ],
          [
            0.09779293835163116,
            0.033660341054201126,
            0.05015820637345314
          ],
          [
            -0.01763073168694973,
            0.05776676908135414,
            -0.04021294042468071
          ],
          [
            0.05739849805831909,
            0.03543615713715553,
            0.04270298779010773
          ],
          [
            0.05704566091299057,
            -0.002500251866877079,
            0.09882640838623047
          ],
          [
            0.08499644696712494,
            0.1021728366613388,
            0.07132288813591003
          ],
          [
            0.07427351176738739,
            0.07891588658094406,
            0.06746562570333481
          ],
          [
            0.08535773307085037,
            0.018522432073950768,
            0.07933327555656433
          ],
          [
            0.04986518993973732,
            0.07777094841003418,
            0.10138438642024994
          ],
          [
            0.05074560269713402,
            0.0034611108712852,
            0.02266499772667885
          ],
          [
            0.047661036252975464,
            0.04691460728645325,
            0.021110842004418373
          ],
          [
            0.07643190026283264,
            0.07246679812669754,
            -0.011777501553297043
          ],
          [
            0.009868806228041649,
            0.0088320542126894,
            -0.030054431408643723
          ],
          [
            0.007259022910147905,
            -0.024738216772675514,
            -0.03866748511791229
          ],
          [
            -0.0002744254597928375,
            -0.00219542789272964,
            0.09548146277666092
          ],
          [
            0.04836947098374367,
            0.09474195539951324,
            0.04455449804663658
          ],
          [
            0.03908030316233635,
            0.05289049446582794,
            0.035344261676073074
          ],
          [
            -0.03061356581747532,
            -0.01527341827750206,
            0.012432987801730633
          ],
          [
            0.03557936102151871,
            0.06305822730064392,
            0.0644548162817955
          ],
          [
            0.07203231006860733,
            0.0301820021122694,
            -0.010091493837535381
          ],
          [
            -0.03227655589580536,
            -0.03110520914196968,
            -0.02076365239918232
          ],
          [
            0.039879441261291504,
            0.05928047373890877,
            0.08578626811504364
          ],
          [
            -0.002677719574421644,
            0.015508042648434639,
            0.00011802805965999141
          ],
          [
            0.02833227813243866,
            0.052994173020124435,
            0.02801930531859398
          ],
          [
            0.0007815617136657238,
            0.006649719085544348,
            0.024641944095492363
          ],
          [
            -0.0026921285316348076,
            -0.023179126903414726,
            0.03869033232331276
          ],
          [
            -1.1010966416651855e-16,
            -7.619955509707377e-16,
            4.0840095892516037e-16
          ],
          [
            0.05653170496225357,
            0.0450374037027359,
            0.019850585609674454
          ],
          [
            0.020945506170392036,
            -0.028792018070816994,
            0.04925975203514099
          ],
          [
            0.023951822891831398,
            0.0679442510008812,
            0.027800127863883972
          ],
          [
            0.02208521030843258,
            0.041846226900815964,
            0.08113110065460205
          ],
          [
            -0.02132445201277733,
            0.048078689724206924,
            0.03134047985076904
          ]
        ],
        [
          [
            -0.025774018839001656,
            0.01244085468351841,
            -0.017821991816163063
          ],
          [
            -0.01711946725845337,
            -0.03269514441490173,
            -0.03793393820524216
          ],
          [
            0.06991619616746902,
            -0.06078459322452545,
            0.050163205713033676
          ],
          [
            -0.063371941447258,
            -0.017964091151952744,
            -0.0040234229527413845
          ],
          [
            0.07119635492563248,
            -0.013663046061992645,
            0.030144160613417625
          ],
          [
            0.017964277416467667,
            0.04685245081782341,
            0.01734190620481968
          ],
          [
            0.03908033296465874,
            -0.03915729746222496,
            -0.03903825581073761
          ],
          [
            0.06158240884542465,
            -0.06702572852373123,
            -0.018205812200903893
          ],
          [
            0.007153365761041641,
            0.0624370314180851,
            0.005251038819551468
          ],
          [
            -0.04513971880078316,
            -0.04906491935253143,
            0.011960790492594242
          ],
          [
            0.029270177707076073,
            0.06091790646314621,
            -0.01604761928319931
          ],
          [
            0.06572800129652023,
            -0.04523267224431038,
            0.045639768242836
          ],
          [
            0.023394184187054634,
            0.034848883748054504,
            -0.045233793556690216
          ],
          [
            -0.0029623121954500675,
            0.032696373760700226,
            -0.03770816698670387
          ],
          [
            -0.03773565590381622,
            -0.05142899230122566,
            0.028852442279458046
          ],
          [
            0.029363976791501045,
            0.005276843439787626,
            -0.0007087475387379527
          ],
          [
            0.04613269865512848,
            -0.04912129044532776,
            -0.0016990716103464365
          ],
          [
            -0.008399059064686298,
            -0.030818257480859756,
            0.07789671421051025
          ],
          [
            -0.056170281022787094,
            0.010491671971976757,
            -0.07477892935276031
          ],
          [
            0.005443419795483351,
            -0.02434401400387287,
            0.03524033725261688
          ],
          [
            -0.030669240280985832,
            0.05537313222885132,
            -0.05612866207957268
          ],
          [
            0.0480063296854496,
            -0.058135852217674255,
            0.02451126091182232
          ],
          [
            -0.04324284568428993,
            -0.017592692747712135,
            -0.002415305469185114
          ],
          [
            0.0669528990983963,
            0.0460825078189373,
            -0.03574806824326515
          ],
          [
            0.011153270490467548,
            -0.06969253718852997,
            0.0632823184132576
          ],
          [
            0.01045910082757473,
            -0.026748141273856163,
            -0.02336847223341465
          ],
          [
            0.03530867397785187,
            -0.027448805049061775,
            0.059864919632673264
          ],
          [
            0.06250829249620438,
            0.06583864241838455,
            0.04290572926402092
          ],
          [
            -0.043388962745666504,
            0.07524770498275757,
            0.0009472654783166945
          ],
          [
            -0.0021265128161758184,
            0.01570274867117405,
            0.07701265811920166
          ],
          [
            0.07512227445840836,
            0.027888255193829536,
            0.04714912548661232
          ],
          [
            -0.04903267323970795,
            0.022820312529802322,
            -0.03772358223795891
          ],
          [
            0.06872187554836273,
            -0.008711311966180801,
            0.023470595479011536
          ],
          [
            0.0746806189417839,
            0.09361235797405243,
            -0.017553724348545074
          ],
          [
            -0.027278272435069084,
            0.02195826545357704,
            0.04842293635010719
          ],
          [
            0.012676309794187546,
            0.005637353286147118,
            -0.031670715659856796
          ],
          [
            0.05653891712427139,
            0.09744801372289658,
            -0.012580028735101223
          ],
          [
            0.05891798809170723,
            0.06309586763381958,
            0.08561132848262787
          ],
          [
            0.003657837398350239,
            0.01750893145799637,
            0.07903972268104553
          ],
          [
            0.05516824126243591,
            0.08113210648298264,
            -0.013531500473618507
          ],
          [
            0.025302143767476082,
            0.048706360161304474,
            -0.05099226161837578
          ],
          [
            0.04120798036456108,
            0.010087944567203522,
            0.07500176876783371
          ],
          [
            -0.02297327108681202,
            0.01628796197474003,
            0.05647964030504227
          ],
          [
            -0.057675495743751526,
            -0.05181330442428589,
            -0.02667466178536415
          ],
          [
            0.06669656932353973,
            0.06904517114162445,
            -0.029753150418400764
          ],
          [
            0.017549464479088783,
            -0.0359317883849144,
            -0.029812578111886978
          ],
          [
            0.060461703687906265,
            0.03257978707551956,
            -0.02218218892812729
          ],
          [
            0.020894965156912804,
            0.023618053644895554,
            0.02661852166056633
          ],
          [
            0.0060844337567687035,
            -0.011243381537497044,
            0.08304624259471893
          ],
          [
            0.03574233874678612,
            0.05741802230477333,
            -0.0010105547262355685
          ],
          [
            0.06655511260032654,
            0.08529146760702133,
            0.07648982852697372
          ],
          [
            0.007018519099801779,
            0.05932490527629852,
            -0.013951442204415798
          ],
          [
            0.037136100232601166,
            0.09320002049207687,
            0.09611822664737701
          ],
          [
            -7.430313303146612e-17,
            6.702008197544129e-13,
            8.121225902123328e-16
          ],
          [
            0.04040301963686943,
            0.11336366832256317,
            0.009714256040751934
          ],
          [
            0.09253138303756714,
            0.11575198918581009,
            0.0014214817201718688
          ],
          [
            -0.01817011833190918,
            -0.04774117469787598,
            0.012777348048985004
          ],
          [
            -0.00856746081262827,
            0.03619761019945145,
            0.06763871014118195
          ],
          [
            0.09316390752792358,
            0.08325380831956863,
            0.08313176780939102
          ]
        ],
        [
          [
            0.02638375572860241,
            -0.02891336753964424,
            -0.07638934254646301
          ],
          [
            -0.003197005484253168,
            0.07303550839424133,
            0.0017123781144618988
          ],
          [
            -0.0051764147356152534,
            -0.04854174330830574,
            -0.04184938222169876
          ],
          [
            -0.05082610622048378,
            0.06324910372495651,
            -0.009462950751185417
          ],
          [
            -0.0650838166475296,
            0.012194259092211723,
            0.005351180210709572
          ],
          [
            -0.015459953807294369,
            0.029070036485791206,
            0.03749001398682594
          ],
          [
            -0.06855586916208267,
            -0.05502158775925636,
            -0.008629849180579185
          ],
          [
            -0.06600309908390045,
            -0.06940578669309616,
            0.05584278702735901
          ],
          [
            -0.010887675918638706,
            -0.027833597734570503,
            -0.04038326069712639
          ],
          [
            0.004489913582801819,
            0.0345449335873127,
            -0.02721131034195423
          ],
          [
            -0.07335836440324783,
            -0.07720112055540085,
            0.023422846570611
          ],
          [
            -0.014041401445865631,
            -0.013559122569859028,
            -0.03184765949845314
          ],
          [
            -0.03965600207448006,
            0.020229019224643707,
            0.05277393385767937
          ],
          [
            -0.020070400089025497,
            0.0020578906405717134,
            -0.05533702298998833
          ],
          [
            -0.08486564457416534,
            0.015022406354546547,
            -0.05143015459179878
          ],
          [
            0.06326303631067276,
            -0.017205577343702316,
            -0.0423026867210865
          ],
          [
            -0.06970401853322983,
            0.05678733438253403,
            -0.06949635595083237
          ],
          [
            0.03838825970888138,
            0.019838444888591766,
            0.01655522920191288
          ],
          [
            0.045767009258270264,
            -0.018981777131557465,
            0.04974579066038132
          ],
          [
            -0.08837484568357468,
            -0.06018452346324921,
            0.020944206044077873
          ],
          [
            0.019179033115506172,
            -0.012977835722267628,
            -0.024096190929412842
          ],
          [
            0.0008746364037506282,
            0.088578000664711,
            0.04979078099131584
          ],
          [
            -0.03485789895057678,
            0.03111140802502632,
            0.04745066538453102
          ],
          [
            -0.058974239975214005,
            -0.03707651048898697,
            0.01755899004638195
          ],
          [
            0.03285745531320572,
            -0.011417464353144169,
            -0.05334389582276344
          ],
          [
            -0.01887657307088375,
            0.041862037032842636,
            0.008261462673544884
          ],
          [
            0.09488454461097717,
            -0.018000179901719093,
            0.06718204915523529
          ],
          [
            0.00783819891512394,
            0.09625335782766342,
            0.11702397465705872
          ],
          [
            0.04511486738920212,
            0.09007211774587631,
            -0.011039049364626408
          ],
          [
            -0.03014477901160717,
            -0.036510221660137177,
            0.07799530774354935
          ],
          [
            0.02841295301914215,
            -0.04935450479388237,
            0.04677361249923706
          ],
          [
            0.13393279910087585,
            -0.004109138622879982,
            0.13128578662872314
          ],
          [
            0.0400126576423645,
            0.041238535195589066,
            0.10096956789493561
          ],
          [
            0.11177719384431839,
            0.07047200947999954,
            0.11126232892274857
          ],
          [
            0.05965714529156685,
            0.046531688421964645,
            -0.021949706599116325
          ],
          [
            0.06115192547440529,
            0.004296642728149891,
            0.0614718496799469
          ],
          [
            0.0634593591094017,
            0.0500568225979805,
            0.00046861637383699417
          ],
          [
            -0.017334461212158203,
            0.08172568678855896,
            0.07703166455030441
          ],
          [
            0.07241960614919662,
            0.02326299622654915,
            0.03549261763691902
          ],
          [
            0.00756482221186161,
            0.07661107182502747,
            -0.0007792827673256397
          ],
          [
            0.010702671483159065,
            0.01521369256079197,
            -0.09636915475130081
          ],
          [
            -0.03764491155743599,
            -0.05167525261640549,
            -0.07401933521032333
          ],
          [
            0.03961801156401634,
            0.0008160806028172374,
            0.07471148669719696
          ],
          [
            -0.01484253816306591,
            0.06406579911708832,
            -0.028666911646723747
          ],
          [
            0.0017069688765332103,
            0.043716154992580414,
            0.09820336103439331
          ],
          [
            0.12946443259716034,
            0.03255579620599747,
            0.10243332386016846
          ],
          [
            -0.005752670578658581,
            0.0420275554060936,
            -0.0175711028277874
          ],
          [
            0.04034919664263725,
            0.11178575456142426,
            -0.003938110079616308
          ],
          [
            -0.0991363525390625,
            -0.017024094238877296,
            -0.018520932644605637
          ],
          [
            -0.004832753911614418,
            0.07295697927474976,
            -0.031521398574113846
          ],
          [
            -0.034642983227968216,
            -0.043566275388002396,
            -0.0013222657144069672
          ],
          [
            0.06817034631967545,
            0.13122883439064026,
            0.08323021978139877
          ],
          [
            0.02072836086153984,
            -0.03133902698755264,
            0.05947493761777878
          ],
          [
            -1.7996556664606062e-13,
            -6.351552313613174e-13,
            4.557558181490697e-16
          ],
          [
            -0.07266240566968918,
            0.019718386232852936,
            -0.07436662912368774
          ],
          [
            -0.01603243127465248,
            0.04491015523672104,
            -0.0524371899664402
          ],
          [
            0.06572096794843674,
            0.020343683660030365,
            0.07375214993953705
          ],
          [
            -0.04920642450451851,
            0.0028833718970417976,
            -0.021646512672305107
          ],
          [
            -0.03131498023867607,
            0.006680324673652649,
            -0.09368741512298584
          ]
        ],
        [
          [
            -0.047554466873407364,
            0.049227017909288406,
            -0.03653449937701225
          ],
          [
            -0.06064090132713318,
            -0.015656936913728714,
            -0.024481140077114105
          ],
          [
            -0.006124258041381836,
            -0.04199308529496193,
            0.041385114192962646
          ],
          [
            -0.07666732370853424,
            -0.0132061168551445,
            0.020638709887862206
          ],
          [
            0.03258924558758736,
            0.02524915151298046,
            0.023959903046488762
          ],
          [
            -0.02871917374432087,
            -0.026225287467241287,
            -0.03206421062350273
          ],
          [
            -0.046384889632463455,
            -0.03149080276489258,
            0.08829127997159958
          ],
          [
            -0.016421891748905182,
            0.014556416310369968,
            0.0313098281621933
          ],
          [
            0.009471306577324867,
            -0.04463251680135727,
            -0.04157952591776848
          ],
          [
            -0.03466606140136719,
            -0.011307361535727978,
            -0.1007603332400322
          ],
          [
            0.003059245180338621,
            0.04137403890490532,
            0.06863635778427124
          ],
          [
            0.0461222305893898,
            0.032253898680210114,
            0.06071850284934044
          ],
          [
            0.028001394122838974,
            0.013011562637984753,
            -0.02866809256374836
          ],
          [
            -0.06918422132730484,
            -0.026693902909755707,
            -0.04358099400997162
          ],
          [
            0.034788522869348526,
            0.020646728575229645,
            0.06271962076425552
          ],
          [
            0.025937100872397423,
            -0.05116264522075653,
            -0.0858803316950798
          ],
          [
            -0.04844406992197037,
            -0.04403204470872879,
            0.03275484964251518
          ],
          [
            -0.04497181624174118,
            5.376317130867392e-05,
            -0.0018103878246620297
          ],
          [
            -0.06323927640914917,
            0.01861746981739998,
            -0.047319795936346054
          ],
          [
            0.004630302079021931,
            -0.04394056648015976,
            -0.0008166359039023519
          ],
          [
            0.02488911710679531,
            0.008625085465610027,
            -0.017627716064453125
          ],
          [
            -0.0052979085594415665,
            -0.048681385815143585,
            -0.07395269721746445
          ],
          [
            -0.06383509188890457,
            -0.05341054126620293,
            -0.06731296330690384
          ],
          [
            0.08521150797605515,
            -0.03600231930613518,
            0.006137907970696688
          ],
          [
            0.013136087916791439,
            -0.009452386759221554,
            0.0019227146403864026
          ],
          [
            0.053019724786281586,
            -0.07248685508966446,
            0.04576703906059265
          ],
          [
            0.008524050004780293,
            -0.04950109124183655,
            -0.011893645860254765
          ],
          [
            0.023905128240585327,
            0.01964736543595791,
            0.06648801267147064
          ],
          [
            0.05956662818789482,
            -0.028941059485077858,
            -0.01876997947692871
          ],
          [
            0.011416066437959671,
            -0.025104569271206856,
            0.0035077810753136873
          ],
          [
            -0.05793338641524315,
            0.0354452058672905,
            0.057926375418901443
          ],
          [
            0.02123507484793663,
            -0.04143845662474632,
            -0.04133138060569763
          ],
          [
            0.0042440821416676044,
            0.061230551451444626,
            0.044588252902030945
          ],
          [
            0.023497235029935837,
            0.08478833734989166,
            0.056108780205249786
          ],
          [
            0.01760491542518139,
            -0.009184595197439194,
            0.04512632265686989
          ],
          [
            0.062362443655729294,
            -0.03982296213507652,
            -0.03195421025156975
          ],
          [
            0.01343238353729248,
            0.03836250677704811,
            0.04599100723862648
          ],
          [
            -0.02093443274497986,
            -0.044213972985744476,
            0.028017010539770126
          ],
          [
            0.009419654496014118,
            0.04133344814181328,
            0.004788517486304045
          ],
          [
            0.06835497915744781,
            0.016565317288041115,
            0.06552406400442123
          ],
          [
            -0.03916157782077789,
            0.04162964969873428,
            0.021947229281067848
          ],
          [
            -0.01568746753036976,
            0.05788116529583931,
            -0.05029868707060814
          ],
          [
            0.040375012904405594,
            -0.011200097389519215,
            -0.010025247000157833
          ],
          [
            0.03767856955528259,
            0.009507655166089535,
            0.0353366918861866
          ],
          [
            0.07607654482126236,
            -0.02713225595653057,
            0.08082976937294006
          ],
          [
            -0.014559079892933369,
            -0.020672596991062164,
            0.012731481343507767
          ],
          [
            0.03709469363093376,
            -0.06022822856903076,
            -0.06985128670930862
          ],
          [
            0.03776940330862999,
            -0.043347302824258804,
            0.015036026015877724
          ],
          [
            0.013530584052205086,
            0.04717511311173439,
            0.0863700807094574
          ],
          [
            0.01479875948280096,
            0.016204798594117165,
            0.08953702449798584
          ],
          [
            0.05118076503276825,
            0.040031082928180695,
            -0.016414768993854523
          ],
          [
            0.0358116514980793,
            -0.030244922265410423,
            -0.04133692383766174
          ],
          [
            -0.034072451293468475,
            -0.016783321276307106,
            0.033765532076358795
          ],
          [
            -2.1992333664008602e-17,
            -9.072955467438401e-14,
            3.223102308495727e-17
          ],
          [
            0.030552441254258156,
            0.08252643048763275,
            0.03867180645465851
          ],
          [
            0.04043543338775635,
            0.07598638534545898,
            0.10672084242105484
          ],
          [
            0.03418106958270073,
            0.06702964007854462,
            0.06462012231349945
          ],
          [
            0.0648946613073349,
            0.07564952224493027,
            0.08089233934879303
          ],
          [
            0.06117105856537819,
            0.11217399686574936,
            0.12020358443260193
          ]
        ],
        [
          [
            0.020567363128066063,
            -0.008115224540233612,
            0.06402097642421722
          ],
          [
            -0.05966118723154068,
            0.04936647042632103,
            0.03252295032143593
          ],
          [
            0.04021475091576576,
            -0.014980392530560493,
            -0.06875555962324142
          ],
          [
            0.026730041950941086,
            -0.06041727960109711,
            -0.01155513059347868
          ],
          [
            0.02630174532532692,
            -0.08892194926738739,
            -0.020428825169801712
          ],
          [
            -0.028344929218292236,
            0.047514624893665314,
            -0.053752537816762924
          ],
          [
            0.03762874752283096,
            0.03674938902258873,
            0.0271780826151371
          ],
          [
            0.03709723427891731,
            -0.013417528010904789,
            -0.09094156324863434
          ],
          [
            0.0498063862323761,
            0.004531113896518946,
            -0.005655850749462843
          ],
          [
            -0.07638110220432281,
            -0.02815737947821617,
            -0.024642417207360268
          ],
          [
            0.04263671115040779,
            0.018210740759968758,
            0.02429845556616783
          ],
          [
            0.03228155896067619,
            -0.06996800750494003,
            -0.06435711681842804
          ],
          [
            -0.03998817503452301,
            -0.043755870312452316,
            0.03908497095108032
          ],
          [
            0.0028415718115866184,
            0.057406868785619736,
            -0.00663022743538022
          ],
          [
            -0.071317158639431,
            -0.027935756370425224,
            0.043072573840618134
          ],
          [
            0.046258918941020966,
            0.028452755883336067,
            -0.010270573198795319
          ],
          [
            -0.0622364841401577,
            -0.040414921939373016,
            0.027139373123645782
          ],
          [
            -0.0367768369615078,
            0.026406841352581978,
            0.0068503781221807
          ],
          [
            -0.024402102455496788,
            0.05017966404557228,
            -0.02080742083489895
          ],
          [
            0.015492540784180164,
            -0.01041321363300085,
            -0.0486803762614727
          ],
          [
            -0.002380920108407736,
            0.005457584746181965,
            -0.053628310561180115
          ],
          [
            0.05437079071998596,
            -0.06720121204853058,
            -0.0854799896478653
          ],
          [
            -0.05514610931277275,
            -0.031123725697398186,
            0.01129153836518526
          ],
          [
            -0.041634123772382736,
            0.019662363454699516,
            -0.058149196207523346
          ],
          [
            -0.006970152258872986,
            -0.005634633358567953,
            0.03524642437696457
          ],
          [
            0.04816437140107155,
            0.0375489704310894,
            -0.02337530441582203
          ],
          [
            -0.0628935918211937,
            -0.014184844680130482,
            -0.039347827434539795
          ],
          [
            -0.005666368640959263,
            -0.02619512379169464,
            0.028486186638474464
          ],
          [
            0.018954964354634285,
            -0.020381705835461617,
            -0.010420268401503563
          ],
          [
            -0.004041366744786501,
            -0.01821359433233738,
            0.06904295831918716
          ],
          [
            -0.056895628571510315,
            0.047988973557949066,
            -0.02169830910861492
          ],
          [
            -0.09252145886421204,
            -0.045743513852357864,
            0.006757601164281368
          ],
          [
            0.022360442206263542,
            -0.00404208293184638,
            -0.025860687717795372
          ],
          [
            -0.020833469927310944,
            -0.0400620736181736,
            -0.013059714809060097
          ],
          [
            -0.012566357851028442,
            0.05557584762573242,
            0.02748017944395542
          ],
          [
            -0.09565391391515732,
            -0.026280762627720833,
            -0.058049678802490234
          ],
          [
            -0.03590545430779457,
            -0.08328011631965637,
            -0.008825535885989666
          ],
          [
            -0.07726013660430908,
            0.051896266639232635,
            0.03508647158741951
          ],
          [
            -0.0650208443403244,
            -0.07388655841350555,
            0.012753226794302464
          ],
          [
            -0.022658102214336395,
            0.016928626224398613,
            -0.04357330873608589
          ],
          [
            0.0213419571518898,
            -0.021762827411293983,
            -0.006101334933191538
          ],
          [
            -0.035630423575639725,
            0.026151154190301895,
            0.008370039984583855
          ],
          [
            -0.06394200772047043,
            -0.04277186095714569,
            -0.01605779118835926
          ],
          [
            -0.05803169310092926,
            0.013333810493350029,
            0.029874838888645172
          ],
          [
            -0.014817198738455772,
            -0.022841624915599823,
            0.008062046952545643
          ],
          [
            -0.016558678820729256,
            -0.002319842576980591,
            0.03713562712073326
          ],
          [
