{
  "project": "Aether Quant",
  "phase": "v2_sequence_multitask_model",
  "version_id": "v1",
  "status": "trained",
  "trained_at": "2026-07-10T23:12:58.382370+00:00",
  "model": {
    "type": "sequence_multitask_direction_magnitude_volatility",
    "model_input_features": [
      "close_to_close_return_1d_scaled",
      "close_to_close_return_5d_scaled",
      "close_to_close_return_20d_scaled",
      "rolling_volatility_5d_scaled",
      "rolling_volatility_20d_scaled",
      "momentum_5d_scaled",
      "momentum_20d_scaled",
      "high_low_range_pct_scaled",
      "open_close_range_pct_scaled",
      "volume_change_1d_scaled",
      "regime_signal_confidence_scaled",
      "regime_signal_trend_score_scaled",
      "regime_signal_risk_score_scaled",
      "liquidity_log_dollar_volume_scaled",
      "liquidity_spread_proxy_scaled",
      "topology_correlation_strength_scaled",
      "regime_trend_bullish",
      "regime_trend_bearish",
      "regime_trend_sideways",
      "regime_volatility_low",
      "regime_volatility_normal",
      "regime_volatility_high",
      "regime_risk_on",
      "regime_risk_off",
      "regime_risk_neutral",
      "topology_risk_normal",
      "topology_risk_elevated",
      "topology_risk_isolated",
      "asset_AAPL",
      "asset_SPY",
      "asset_QQQ",
      "asset_IWM",
      "asset_EEM",
      "asset_BAC",
      "asset_IBM",
      "asset_AIG",
      "asset_BNO",
      "asset_FB",
      "asset_GOOG",
      "asset_GOOGL",
      "asset_USO",
      "asset_WM",
      "asset_AAA",
      "asset_BTCUSD",
      "asset_ETHUSD",
      "asset_LTCUSD",
      "asset_XRPUSD",
      "asset_ADAUSD"
    ],
    "window_size": 30,
    "channels": [
      32,
      32
    ],
    "kernel_size": 3,
    "dropout": 0.15,
    "decision_threshold": 0.52
  },
  "export": {
    "trunk": [
      {
        "type": "conv1d_causal",
        "weight_key": "conv_layers.0.weight",
        "bias_key": "conv_layers.0.bias",
        "dilation": 1,
        "in_channels": 48,
        "out_channels": 32,
        "kernel_size": 3
      },
      {
        "type": "relu"
      },
      {
        "type": "dropout",
        "p": 0.15
      },
      {
        "type": "conv1d_causal",
        "weight_key": "conv_layers.1.weight",
        "bias_key": "conv_layers.1.bias",
        "dilation": 2,
        "in_channels": 32,
        "out_channels": 32,
        "kernel_size": 3
      },
      {
        "type": "relu"
      },
      {
        "type": "dropout",
        "p": 0.15
      }
    ],
    "heads": {
      "direction": [
        {
          "type": "linear",
          "weight_key": "head_direction.weight",
          "bias_key": "head_direction.bias",
          "in_features": 32,
          "out_features": 1
        },
        {
          "type": "sigmoid"
        }
      ],
      "magnitude": [
        {
          "type": "linear",
          "weight_key": "head_magnitude.weight",
          "bias_key": "head_magnitude.bias",
          "in_features": 32,
          "out_features": 1
        }
      ],
      "volatility": [
        {
          "type": "linear",
          "weight_key": "head_volatility.weight",
          "bias_key": "head_volatility.bias",
          "in_features": 32,
          "out_features": 1
        },
        {
          "type": "softplus"
        }
      ]
    },
    "state_dict": {
      "conv_layers.0.weight": [
        [
          [
            0.061775222420692444,
            0.055969562381505966,
            -0.02799161709845066
          ],
          [
            0.07686512917280197,
            -0.024448219686746597,
            0.011711332947015762
          ],
          [
            -0.05836652219295502,
            0.02735256776213646,
            0.055845651775598526
          ],
          [
            -0.06646759063005447,
            0.06141161546111107,
            0.006904931273311377
          ],
          [
            0.055301133543252945,
            0.003157403552904725,
            0.03239677846431732
          ],
          [
            -0.01115327700972557,
            0.057845331728458405,
            0.007223259191960096
          ],
          [
            -0.05670507252216339,
            -0.00024027102335821837,
            -0.05561121925711632
          ],
          [
            -0.013981294818222523,
            -0.035171881318092346,
            0.05532349273562431
          ],
          [
            -0.06777577847242355,
            -0.050020407885313034,
            -0.030632926151156425
          ],
          [
            -0.07059311121702194,
            0.025304850190877914,
            -0.09346850216388702
          ],
          [
            0.09830919653177261,
            -0.06906767934560776,
            0.0748281329870224
          ],
          [
            -0.0016780090518295765,
            -0.04634648561477661,
            0.03592291474342346
          ],
          [
            0.021612009033560753,
            0.07269175350666046,
            0.01197009813040495
          ],
          [
            -0.04225033521652222,
            0.00742059201002121,
            -0.03592237830162048
          ],
          [
            0.04206245020031929,
            0.08300327509641647,
            0.056862104684114456
          ],
          [
            -0.03961610421538353,
            0.0424249991774559,
            0.008600631728768349
          ],
          [
            0.07768649607896805,
            -0.01589095965027809,
            -0.04388955608010292
          ],
          [
            0.0011494978098198771,
            -0.04079858958721161,
            0.09954854846000671
          ],
          [
            0.06124410033226013,
            0.0837787315249443,
            0.06582134962081909
          ],
          [
            0.04632476344704628,
            0.10695493221282959,
            -0.01707548089325428
          ],
          [
            0.04990047216415405,
            -0.005884767509996891,
            0.07691241055727005
          ],
          [
            -0.005679515656083822,
            0.0471779890358448,
            0.004861759953200817
          ],
          [
            0.11225709319114685,
            -0.006238511763513088,
            -0.008738934993743896
          ],
          [
            -0.020818276330828667,
            0.09776992350816727,
            0.0620926208794117
          ],
          [
            0.09931574761867523,
            -0.031607724726200104,
            -0.056666210293769836
          ],
          [
            -0.010634778998792171,
            -0.0036736256442964077,
            0.08032025396823883
          ],
          [
            0.06109011545777321,
            0.09932003170251846,
            -0.010166903026401997
          ],
          [
            -0.037578411400318146,
            0.06812826544046402,
            -0.003175144549459219
          ],
          [
            0.08641992509365082,
            0.017333878204226494,
            0.08326005935668945
          ],
          [
            -0.02940535731613636,
            -0.007085758727043867,
            0.037280235439538956
          ],
          [
            0.027538390830159187,
            -0.009740633890032768,
            0.05946376547217369
          ],
          [
            0.0636608898639679,
            -0.040634457021951675,
            -0.025661809369921684
          ],
          [
            0.08407144248485565,
            0.003119663568213582,
            0.001766871428117156
          ],
          [
            -0.047482095658779144,
            -0.016806291416287422,
            0.03703860566020012
          ],
          [
            0.019047226756811142,
            -0.02731396071612835,
            0.023222001269459724
          ],
          [
            -0.01610574871301651,
            -0.029275458306074142,
            -0.005607857368886471
          ],
          [
            -0.06116267666220665,
            -0.04170304164290428,
            0.09201352298259735
          ],
          [
            0.027007661759853363,
            0.037778351455926895,
            -0.06274712830781937
          ],
          [
            -0.0216580368578434,
            0.004759087692946196,
            0.042644817382097244
          ],
          [
            -0.051493920385837555,
            -0.014928143471479416,
            -0.028414864093065262
          ],
          [
            0.0409182645380497,
            0.012083028443157673,
            0.036621708422899246
          ],
          [
            -0.0235237218439579,
            -0.02390657551586628,
            -0.015803279355168343
          ],
          [
            -5.711780204364914e-07,
            -0.0005749302799813449,
            0.0010560196824371815
          ],
          [
            0.008679183200001717,
            0.09636891633272171,
            0.051007483154535294
          ],
          [
            -0.06178766116499901,
            0.05864420160651207,
            -0.01516273245215416
          ],
          [
            -0.005165359936654568,
            -0.041761115193367004,
            -0.05525551736354828
          ],
          [
            0.019809585064649582,
            -0.020742706954479218,
            0.029806014150381088
          ],
          [
            -0.07210027426481247,
            0.039474006742239,
            -0.06440108269453049
          ]
        ],
        [
          [
            -0.003775205696001649,
            0.02159889228641987,
            0.03542551025748253
          ],
          [
            0.06384853273630142,
            0.07645287364721298,
            -0.06522637605667114
          ],
          [
            0.02551996149122715,
            -0.027345528826117516,
            -0.0028223192784935236
          ],
          [
            -0.05894405394792557,
            0.08069007843732834,
            -0.05291903391480446
          ],
          [
            0.05068587139248848,
            0.037895455956459045,
            0.03528612107038498
          ],
          [
            -0.048235148191452026,
            0.07628592103719711,
            0.018957965075969696
          ],
          [
            0.015290132723748684,
            -0.06484447419643402,
            0.04118233919143677
          ],
          [
            -0.006487441249191761,
            -0.0313105471432209,
            0.08731349557638168
          ],
          [
            0.027265582233667374,
            -0.042797282338142395,
            -0.05016780272126198
          ],
          [
            0.0004187976010143757,
            0.023131079971790314,
            -0.03205837309360504
          ],
          [
            -0.024815715849399567,
            -0.014438197016716003,
            -0.04811724275350571
          ],
          [
            0.03338468447327614,
            0.07182993739843369,
            -0.07243883609771729
          ],
          [
            0.03185386583209038,
            0.049876172095537186,
            0.01779932901263237
          ],
          [
            -0.042644720524549484,
            0.03161298856139183,
            0.030395088717341423
          ],
          [
            0.04326913505792618,
            -0.0014161530416458845,
            -0.007005692925304174
          ],
          [
            0.0020998723339289427,
            -0.020384492352604866,
            -0.030929045751690865
          ],
          [
            0.0701286643743515,
            0.0873110368847847,
            0.005626951344311237
          ],
          [
            0.00015583474305458367,
            0.022669116035103798,
            0.01944936253130436
          ],
          [
            0.02906688116490841,
            0.03127187862992287,
            -0.06658923625946045
          ],
          [
            -0.01512495893985033,
            0.08228050172328949,
            0.04554164782166481
          ],
          [
            0.0022637315560132265,
            -0.040637776255607605,
            -0.0415237732231617
          ],
          [
            -0.05058428272604942,
            -0.004002658650279045,
            0.05126449465751648
          ],
          [
            0.06874622404575348,
            0.053571417927742004,
            -0.060337748378515244
          ],
          [
            -0.04503174126148224,
            -0.0014365131501108408,
            0.09422217309474945
          ],
          [
            0.020924439653754234,
            -0.012584235519170761,
            0.05255816876888275
          ],
          [
            -0.01371089369058609,
            -0.035644371062517166,
            0.07840724289417267
          ],
          [
            -0.01002545841038227,
            0.0130850188434124,
            -0.05096142366528511
          ],
          [
            0.061370398849248886,
            0.06782637536525726,
            0.03717618063092232
          ],
          [
            -0.05702519789338112,
            -0.08080652356147766,
            -0.06657059490680695
          ],
          [
            0.06014635041356087,
            0.03784004598855972,
            0.06794275343418121
          ],
          [
            0.057284433394670486,
            0.03492352366447449,
            0.013644015416502953
          ],
          [
            -0.058646026998758316,
            -0.06687387079000473,
            -0.07320639491081238
          ],
          [
            0.03994979336857796,
            -0.03203393146395683,
            -0.008500675670802593
          ],
          [
            -0.043258652091026306,
            -0.011595520190894604,
            -0.05427367985248566
          ],
          [
            -0.04929504543542862,
            0.031723376363515854,
            -0.019991625100374222
          ],
          [
            0.04335711523890495,
            -0.03314308077096939,
            -0.06699936836957932
          ],
          [
            -0.010375392623245716,
            -0.034787897020578384,
            -0.020653411746025085
          ],
          [
            -0.07793911546468735,
            0.046002473682165146,
            -0.056723691523075104
          ],
          [
            0.05231044068932533,
            0.048444680869579315,
            0.0699707567691803
          ],
          [
            -0.05338528752326965,
            0.06895998865365982,
            -0.028992101550102234
          ],
          [
            0.027152033522725105,
            0.07337625324726105,
            -0.014813215471804142
          ],
          [
            0.017840834334492683,
            -0.00042411283357068896,
            -0.05013318732380867
          ],
          [
            3.939650468964828e-06,
            -0.003769336733967066,
            -1.2769575732818339e-05
          ],
          [
            0.09428998082876205,
            0.11028090864419937,
            0.012819604948163033
          ],
          [
            -0.04274171218276024,
            0.03848319128155708,
            0.067363440990448
          ],
          [
            -0.08068963140249252,
            -0.017484469339251518,
            -0.04804687574505806
          ],
          [
            0.0047343214973807335,
            -0.027570778504014015,
            -0.018780995160341263
          ],
          [
            -0.011493546888232231,
            -0.06233040243387222,
            0.06738438457250595
          ]
        ],
        [
          [
            0.06157044321298599,
            -0.014454241842031479,
            -0.010264676995575428
          ],
          [
            -0.05274903029203415,
            -0.0901464894413948,
            -0.09466961771249771
          ],
          [
            0.016051070764660835,
            -0.06362557411193848,
            -0.0713285505771637
          ],
          [
            0.005865686107426882,
            -0.020397037267684937,
            -0.022785499691963196
          ],
          [
            0.00868965219706297,
            -0.013794852420687675,
            -0.026029877364635468
          ],
          [
            -0.05859087407588959,
            -0.08275812864303589,
            0.0555037297308445
          ],
          [
            -0.04781319200992584,
            0.0036915030796080828,
            -0.046836234629154205
          ],
          [
            0.011922944337129593,
            0.0707290917634964,
            0.037595074623823166
          ],
          [
            -0.07994408160448074,
            0.03443913534283638,
            0.08103873580694199
          ],
          [
            0.016930898651480675,
            0.06447345018386841,
            0.081233449280262
          ],
          [
            -0.02500980906188488,
            0.006397724151611328,
            -0.08105489611625671
          ],
          [
            -0.03409656137228012,
            0.03925344720482826,
            0.023115074262022972
          ],
          [
            -0.07883775979280472,
            -0.09513133019208908,
            -0.08274026215076447
          ],
          [
            -0.09868142008781433,
            -0.08187603205442429,
            -0.039402369409799576
          ],
          [
            0.05762429162859917,
            0.018954629078507423,
            -0.06064165383577347
          ],
          [
            -0.06408996880054474,
            0.043868567794561386,
            -0.062029484659433365
          ],
          [
            0.0012364644790068269,
            0.04904530197381973,
            -0.02834412083029747
          ],
          [
            0.015754561871290207,
            0.015992121770977974,
            6.088603549869731e-05
          ],
          [
            -0.030605211853981018,
            -0.05843956023454666,
            -0.04669247567653656
          ],
          [
            -0.046377863734960556,
            0.0786604955792427,
            -0.04092205688357353
          ],
          [
            -0.025782505050301552,
            0.04919574037194252,
            0.05083432421088219
          ],
          [
            0.05931761860847473,
            0.07988763600587845,
            0.06095359846949577
          ],
          [
            -0.07196754962205887,
            0.013502013869583607,
            0.05728419870138168
          ],
          [
            0.025709038600325584,
            -0.020259784534573555,
            0.10320586711168289
          ],
          [
            -0.025770071893930435,
            -0.025488756597042084,
            -0.04638095945119858
          ],
          [
            0.01927962899208069,
            0.054438330233097076,
            0.03503090888261795
          ],
          [
            0.04565272852778435,
            -0.037261586636304855,
            -0.05366949737071991
          ],
          [
            0.013447444885969162,
            0.08907861262559891,
            0.06263761967420578
          ],
          [
            -0.036353699862957,
            0.0007271794602274895,
            -0.04735526442527771
          ],
          [
            -0.0408509336411953,
            0.01239408552646637,
            0.04147198796272278
          ],
          [
            0.06221591308712959,
            -0.07616840302944183,
            0.05112303048372269
          ],
          [
            -0.05916142836213112,
            0.023486310616135597,
            0.06049259006977081
          ],
          [
            0.01677645556628704,
            0.08876866847276688,
            -0.05279456079006195
          ],
          [
            -0.002889191033318639,
            0.07649239897727966,
            0.010866217315196991
          ],
          [
            -0.0026401556096971035,
            -0.019686395302414894,
            0.07093840092420578
          ],
          [
            0.053434666246175766,
            0.039536699652671814,
            -0.03353476896882057
          ],
          [
            -0.045487068593502045,
            0.03050387091934681,
            0.04603356868028641
          ],
          [
            -0.04771440848708153,
            -0.0328398235142231,
            0.044657785445451736
          ],
          [
            -0.011362511664628983,
            -0.014674410223960876,
            -0.038254428654909134
          ],
          [
            -0.08690130710601807,
            -0.08942770212888718,
            -0.051937881857156754
          ],
          [
            0.001329936203546822,
            0.06909381598234177,
            0.019880693405866623
          ],
          [
            -0.04012582451105118,
            0.07005099207162857,
            0.02072972059249878
          ],
          [
            0.00014235098205972463,
            -3.934569576813374e-06,
            1.4257766451919451e-06
          ],
          [
            0.03176680952310562,
            -0.053138408809900284,
            -0.05195368453860283
          ],
          [
            0.0013019797625020146,
            -0.019670037552714348,
            -0.046995628625154495
          ],
          [
            0.07388903200626373,
            0.09121949970722198,
            0.038826704025268555
          ],
          [
            -0.019651087000966072,
            -0.0778818354010582,
            -0.037074070423841476
          ],
          [
            -0.001087079057469964,
            0.016594380140304565,
            -0.017466872930526733
          ]
        ],
        [
          [
            -0.019955448806285858,
            0.05415084585547447,
            -0.07895359396934509
          ],
          [
            0.05765433982014656,
            -0.025190485641360283,
            0.011498517356812954
          ],
          [
            -0.036807894706726074,
            -0.0033881983254104853,
            -0.04231593385338783
          ],
          [
            0.04215848073363304,
            -0.018457092344760895,
            0.04458156228065491
          ],
          [
            0.0592920258641243,
            -0.059133369475603104,
            -0.08391605317592621
          ],
          [
            0.07167144864797592,
            0.0716768205165863,
            -0.052732065320014954
          ],
          [
            -0.026951707899570465,
            -0.09435983002185822,
            -0.08473321795463562
          ],
          [
            -0.007909631356596947,
            0.010080131702125072,
            0.008963797241449356
          ],
          [
            -0.017943136394023895,
            0.08840682357549667,
            2.7981644961982965e-05
          ],
          [
            -0.07442648708820343,
            -0.021519659087061882,
            0.0018635664600878954
          ],
          [
            0.02645271271467209,
            -0.07263966649770737,
            0.02226852998137474
          ],
          [
            -0.05976489186286926,
            -0.07754943519830704,
            -0.05858376622200012
          ],
          [
            0.09275344759225845,
            0.08126558363437653,
            0.0863170400261879
          ],
          [
            0.05898047983646393,
            0.0743953287601471,
            -0.0003977091982960701
          ],
          [
            -0.057995185256004333,
            0.028287537395954132,
            -0.0606875941157341
          ],
          [
            -0.06933188438415527,
            -0.03974277526140213,
            0.004243123810738325
          ],
          [
            0.06209448724985123,
            -0.013191699050366879,
            -0.02579769492149353
          ],
          [
            0.03247276321053505,
            -0.031040800735354424,
            -0.020674319937825203
          ],
          [
            0.06713417172431946,
            0.009689070284366608,
            0.09538206458091736
          ],
          [
            0.0987265557050705,
            0.039411675184965134,
            0.045605581253767014
          ],
          [
            0.0437593050301075,
            0.027857834473252296,
            0.020220771431922913
          ],
          [
            0.02616194449365139,
            0.055352892726659775,
            0.09496619552373886
          ],
          [
            -0.002016555517911911,
            -0.015096355229616165,
            0.001912817358970642
          ],
          [
            -0.023357205092906952,
            0.028945527970790863,
            0.09193724393844604
          ],
          [
            0.09036357700824738,
            0.063789963722229,
            -0.04148682579398155
          ],
          [
            -0.022282999008893967,
            0.0038550959434360266,
            0.006540821865200996
          ],
          [
            0.03399292379617691,
            -0.04726774990558624,
            0.05254492908716202
          ],
          [
            -0.04660073667764664,
            -0.033440522849559784,
            -0.04590873047709465
          ],
          [
            0.09713345766067505,
            -0.05195702239871025,
            0.08861953765153885
          ],
          [
            -0.00294569437392056,
            -0.009773699566721916,
            0.052309490740299225
          ],
          [
            0.009768703952431679,
            0.06941966712474823,
            0.07778488844633102
          ],
          [
            -0.06018400564789772,
            0.04280894994735718,
            0.027337543666362762
          ],
          [
            0.038265179842710495,
            0.03228408098220825,
            0.043414875864982605
          ],
          [
            -0.03352438658475876,
            -0.004634945187717676,
            0.08488328009843826
          ],
          [
            0.07067297399044037,
            0.015035955235362053,
            -0.0586748942732811
          ],
          [
            0.012413346208631992,
            -0.04561806097626686,
            0.07744326442480087
          ],
          [
            -0.039270415902137756,
            -0.0026336219161748886,
            -0.009931134060025215
          ],
          [
            0.03554203361272812,
            0.09882935881614685,
            0.029598066583275795
          ],
          [
            0.07453158497810364,
            0.09033886343240738,
            0.09319926798343658
          ],
          [
            -0.013637769967317581,
            -0.0034937921445816755,
            0.054511431604623795
          ],
          [
            -0.012996990233659744,
            0.04593966528773308,
            -0.00857225526124239
          ],
          [
            -0.029838090762495995,
            0.059744976460933685,
            0.03956548869609833
          ],
          [
            1.7697373095870716e-06,
            0.0037875655107200146,
            5.749268166255206e-05
          ],
          [
            0.09951380640268326,
            0.027214428409934044,
            -0.04467570409178734
          ],
          [
            -0.040388792753219604,
            -0.045080602169036865,
            -0.06601700931787491
          ],
          [
            -0.023951424285769463,
            -0.056994494050741196,
            -0.05626002699136734
          ],
          [
            -0.02329609915614128,
            -0.04703246057033539,
            -0.016731631010770798
          ],
          [
            0.014155532233417034,
            0.035704925656318665,
            -0.005088403820991516
          ]
        ],
        [
          [
            -0.029520409181714058,
            0.03640762344002724,
            -0.05758390575647354
          ],
          [
            -0.04341553524136543,
            0.04658382385969162,
            -0.0844612643122673
          ],
          [
            -0.0012840437702834606,
            0.0586736798286438,
            -0.0021270052529871464
          ],
          [
            0.00480465404689312,
            -0.06425896286964417,
            -0.018799565732479095
          ],
          [
            -0.011226078495383263,
            0.0027026880998164415,
            0.012864724732935429
          ],
          [
            0.068032406270504,
            -0.06808382272720337,
            -0.009652219712734222
          ],
          [
            -0.05291498824954033,
            -0.08039461076259613,
            -0.02301682159304619
          ],
          [
            -0.08146415650844574,
            0.04324118420481682,
            -0.006906830705702305
          ],
          [
            -0.04816499724984169,
            0.037247348576784134,
            -0.09840939193964005
          ],
          [
            -0.04157254099845886,
            -0.03431957960128784,
            -0.09658638387918472
          ],
          [
            -0.039051562547683716,
            -0.0008482252014800906,
            0.07389939576387405
          ],
          [
            0.06934342533349991,
            0.03952237218618393,
            -0.06616311520338058
          ],
          [
            -0.036511290818452835,
            0.08665159344673157,
            0.04574821516871452
          ],
          [
            -0.027309715747833252,
            -0.02058282494544983,
            -0.09755174070596695
          ],
          [
            -0.020076440647244453,
            0.08505553007125854,
            -0.013221477158367634
          ],
          [
            -0.030309032648801804,
            -0.09881459176540375,
            -0.07624779641628265
          ],
          [
            0.030592916533350945,
            -0.02013161964714527,
            0.02150803431868553
          ],
          [
            0.06262274086475372,
            -0.04779611900448799,
            0.05674657225608826
          ],
          [
            -0.029520545154809952,
            -0.012551148422062397,
            0.05971274524927139
          ],
          [
            0.08533454686403275,
            -0.002474165754392743,
            -0.012692310847342014
          ],
          [
            -0.037768445909023285,
            -0.0044321720488369465,
            -0.033228714019060135
          ],
          [
            0.01974794641137123,
            0.05541615188121796,
            -0.041123855859041214
          ],
          [
            0.10207289457321167,
            0.08054058998823166,
            -0.050523798912763596
          ],
          [
            -0.011809632182121277,
            0.05992588773369789,
            0.007375875487923622
          ],
          [
            0.022078953683376312,
            -0.001972758211195469,
            0.10109592974185944
          ],
          [
            -0.02092563919723034,
            0.09419625252485275,
            0.03182969242334366
          ],
          [
            0.06503094732761383,
            0.11484143882989883,
            0.03651998192071915
          ],
          [
            -0.017365695908665657,
            0.018933789804577827,
            0.10027527809143066
          ],
          [
            -0.020502036437392235,
            0.050013892352581024,
            -0.0391281358897686
          ],
          [
            0.05009131133556366,
            0.037847962230443954,
            0.011819691397249699
          ],
          [
            0.042621105909347534,
            0.008253381587564945,
            0.054428812116384506
          ],
          [
            -0.051523055881261826,
            0.001798855373635888,
            0.05080792307853699
          ],
          [
            0.10539043694734573,
            0.06581151485443115,
            -0.03364820405840874
          ],
          [
            0.08680766820907593,
            0.007120667491108179,
            0.008394758217036724
          ],
          [
            -0.0472077950835228,
            0.014890075661242008,
            0.08556833118200302
          ],
          [
            0.026004185900092125,
            -0.032660819590091705,
            0.04133516550064087
          ],
          [
            0.004862628411501646,
            0.10725301504135132,
            -0.03882116451859474
          ],
          [
            -0.011776220053434372,
            -0.06386829167604446,
            -0.016537416726350784
          ],
          [
            0.05153246968984604,
            0.10533834248781204,
            0.04058760777115822
          ],
          [
            0.11064505577087402,
            0.0466151125729084,
            0.07839255779981613
          ],
          [
            0.09615379571914673,
            0.09939275681972504,
            -0.013370790518820286
          ],
          [
            0.09209747612476349,
            0.06661462038755417,
            -0.021754451096057892
          ],
          [
            -3.902488515450386e-06,
            -0.0010592229664325714,
            -3.715429954809224e-07
          ],
          [
            -0.03445107862353325,
            0.06781629472970963,
            0.058987006545066833
          ],
          [
            -0.0606524720788002,
            0.02269567735493183,
            -0.0028199469670653343
          ],
          [
            0.07222788780927658,
            0.08260916918516159,
            -0.04610372707247734
          ],
          [
            0.0655224397778511,
            0.05907474830746651,
            0.025702212005853653
          ],
          [
            -0.0862237811088562,
            -0.04352864623069763,
            -0.0362582691013813
          ]
        ],
        [
          [
            -0.010752902366220951,
            0.05816235393285751,
            0.0362965427339077
          ],
          [
            0.06418351083993912,
            -0.03130244091153145,
            0.03395044431090355
          ],
          [
            0.012136588804423809,
            -0.08420387655496597,
            -0.0948377475142479
          ],
          [
            -0.04061222821474075,
            0.056296516209840775,
            -0.08902870863676071
          ],
          [
            -0.08018672466278076,
            0.039359867572784424,
            0.03317036107182503
          ],
          [
            0.06669072806835175,
            -0.06284881383180618,
            -0.05473094806075096
          ],
          [
            0.02518455870449543,
            0.057085830718278885,
            0.035404521971940994
          ],
          [
            0.008422911167144775,
            0.022095153108239174,
            0.06964806467294693
          ],
          [
            -0.04384225234389305,
            -0.0308174230158329,
            0.06096787750720978
          ],
          [
            -0.084563247859478,
            -0.04999419301748276,
            0.054640259593725204
          ],
          [
            0.027005886659026146,
            0.022944336757063866,
            -0.03833279386162758
          ],
          [
            -0.016958095133304596,
            0.062129586935043335,
            -0.061848513782024384
          ],
          [
            -0.007608847226947546,
            0.035900164395570755,
            -0.06097001954913139
          ],
          [
            0.056326352059841156,
            -0.06403359770774841,
            -0.045107461512088776
          ],
          [
            -0.014932822436094284,
            -0.04492301493883133,
            -0.07356350868940353
          ],
          [
            0.04408705234527588,
            0.018088776618242264,
            -0.08815231919288635
          ],
          [
            -0.03131416067481041,
            0.10422099381685257,
            0.057046592235565186
          ],
          [
            0.051342789083719254,
            -0.03610082343220711,
            -0.019833439961075783
          ],
          [
            0.01770768314599991,
            0.02467348426580429,
            -0.025819994509220123
          ],
          [
            0.024332314729690552,
            0.025575462728738785,
            0.00832423847168684
          ],
          [
            0.03497307747602463,
            -0.010140202939510345,
            0.04503370448946953
          ],
          [
            0.060307566076517105,
            -0.013105547986924648,
            -0.051436152309179306
          ],
          [
            0.07030915468931198,
            0.04849770665168762,
            -0.012172259390354156
          ],
          [
            0.09562073647975922,
            -0.027114782482385635,
            0.07061086595058441
          ],
          [
            0.06675425171852112,
            -0.03976430371403694,
            0.07555227726697922
          ],
          [
            -0.05221734941005707,
            -0.023044297471642494,
            0.00869930349290371
          ],
          [
            -0.01707608439028263,
            0.12150904536247253,
            0.022103581577539444
          ],
          [
            0.04995163157582283,
            -0.05586840212345123,
            0.0694231390953064
          ],
          [
            -0.004120325669646263,
            -0.04040238633751869,
            0.034183699637651443
          ],
          [
            0.03538641706109047,
            0.06616923213005066,
            -0.05418555811047554
          ],
          [
            -0.021739771589636803,
            0.03448854014277458,
            0.04152046516537666
          ],
          [
            0.044874828308820724,
            0.05820407345890999,
            -0.004962288774549961
          ],
          [
            0.05680624768137932,
            0.0715574249625206,
            -0.010217513889074326
          ],
          [
            0.059957634657621384,
            0.04133584350347519,
            0.07427635788917542
          ],
          [
            -0.03546425327658653,
            -0.02908071130514145,
            -0.011800089851021767
          ],
          [
            0.019025998190045357,
            0.06440519541501999,
            -0.031841326504945755
          ],
          [
            0.04423731192946434,
            -0.026384538039565086,
            0.053085826337337494
          ],
          [
            -0.0023269543889909983,
            -0.06937092542648315,
            -0.041838791221380234
          ],
          [
            -0.03588585928082466,
            0.06318085640668869,
            -0.030695121735334396
          ],
          [
            0.005707136355340481,
            0.030487060546875,
            -0.031452808529138565
          ],
          [
            0.032006919384002686,
            -0.06699962168931961,
            -0.04453498125076294
          ],
          [
            -0.05438429117202759,
            -0.005083946511149406,
            -0.010044582188129425
          ],
          [
            -3.079084649471042e-07,
            3.973553646119399e-07,
            3.6653439110523323e-06
          ],
          [
            0.1170705109834671,
            0.07108449935913086,
            0.008724827319383621
          ],
          [
            -0.0740162804722786,
            0.017634758725762367,
            -0.04859760403633118
          ],
          [
            0.06631205230951309,
            0.07955879718065262,
            0.05695324018597603
          ],
          [
            0.07495278120040894,
            0.07745195925235748,
            0.02016174979507923
          ],
          [
            -0.06473689526319504,
            0.04619809240102768,
            -0.045388322323560715
          ]
        ],
        [
          [
            -0.04357757046818733,
            0.06038510799407959,
            0.05659918114542961
          ],
          [
            0.015496430918574333,
            -0.006249070167541504,
            -0.08091718703508377
          ],
          [
            -0.028554117307066917,
            0.05952078104019165,
            0.0009684900869615376
          ],
          [
            -0.004925134591758251,
            -0.03228800743818283,
            -0.04469466209411621
          ],
          [
            0.03066646121442318,
            -0.01393824815750122,
            0.034673698246479034
          ],
          [
            -0.02430533990263939,
            0.024845052510499954,
            0.023208927363157272
          ],
          [
            -0.006680689752101898,
            0.03202049434185028,
            0.03189357742667198
          ],
          [
            0.062010131776332855,
            0.053052857518196106,
            -0.03519994392991066
          ],
          [
            -0.07478129863739014,
            0.006667392328381538,
            -0.009080782532691956
          ],
          [
            -0.01255107019096613,
            -0.007272604387253523,
            0.0038651861250400543
          ],
          [
            0.031832341104745865,
            0.004321495536714792,
            -0.05151037871837616
          ],
          [
            -0.05337033420801163,
            -0.04023696854710579,
            -0.05185861885547638
          ],
          [
            0.04577239975333214,
            0.018928900361061096,
            0.04895809292793274
          ],
          [
            0.005070659331977367,
            0.02167344279587269,
            0.03391323238611221
          ],
          [
            -0.09275950491428375,
            -0.007219150196760893,
            -0.020946461707353592
          ],
          [
            -0.031221725046634674,
            -0.052272453904151917,
            0.08931577950716019
          ],
          [
            0.04249565675854683,
            0.015325497835874557,
            0.05639100819826126
          ],
          [
            -0.023357795551419258,
            -0.019621582701802254,
            0.03663834184408188
          ],
          [
            -0.006108997389674187,
            -0.019100723788142204,
            -0.07140375673770905
          ],
          [
            0.004886088892817497,
            -0.06645377725362778,
            -0.013739336282014847
          ],
          [
            0.06573247909545898,
            -0.040754284709692,
            -0.03984948992729187
          ],
          [
            0.03770877793431282,
            -0.04213225841522217,
            -0.019845031201839447
          ],
          [
            0.053536899387836456,
            -0.0574256107211113,
            -0.08315600454807281
          ],
          [
            -0.038685962557792664,
            -0.02897791564464569,
            -0.03258029371500015
          ],
          [
            -0.030503766611218452,
            0.02982991188764572,
            0.010899493470788002
          ],
          [
            -0.043145421892404556,
            -0.08500687032938004,
            -0.04570528864860535
          ],
          [
            -0.04123736917972565,
            -0.02894040010869503,
            -0.07660383731126785
          ],
          [
            -0.005490709561854601,
            -0.07944235950708389,
            -0.08340102434158325
          ],
          [
            -0.07481254637241364,
            0.024831213057041168,
            -0.057458169758319855
          ],
          [
            -0.029733220115303993,
            0.06697797030210495,
            0.046540167182683945
          ],
          [
            0.027800381183624268,
            -0.0957157090306282,
            -0.07686947286128998
          ],
          [
            -0.02972301095724106,
            0.06620077043771744,
            0.007707537617534399
          ],
          [
            -0.06532090157270432,
            -0.004822004586458206,
            -0.06762903928756714
          ],
          [
            -0.027286315336823463,
            -0.031810011714696884,
            0.061324913054704666
          ],
          [
            0.0166561771184206,
            -0.022272968664765358,
            0.005332804284989834
          ],
          [
            -0.021804269403219223,
            0.03305983915925026,
            0.03327425941824913
          ],
          [
            0.01511307992041111,
            -0.03804100304841995,
            0.062319424003362656
          ],
          [
            -0.01189069077372551,
            -0.03179550543427467,
            0.050735268741846085
          ],
          [
            0.059997376054525375,
            0.07458987832069397,
            0.017963435500860214
          ],
          [
            -0.02899014763534069,
            0.04010336846113205,
            0.06859970092773438
          ],
          [
            -0.08287464827299118,
            -0.014618784189224243,
            -0.05907053127884865
          ],
          [
            -0.002177285496145487,
            0.016148323193192482,
            -0.033865176141262054
          ],
          [
            1.7365258031531994e-07,
            2.182465777877951e-06,
            -3.1777290132595226e-07
          ],
          [
            -0.07415011525154114,
            0.059492334723472595,
            -0.04673200100660324
          ],
          [
            -0.009683051146566868,
            0.0025731618516147137,
            -0.007085404824465513
          ],
          [
            -0.08770860731601715,
            0.026727091521024704,
            -0.047933176159858704
          ],
          [
            -0.04916546121239662,
            0.00984986498951912,
            -0.04941490665078163
          ],
          [
            -0.043721944093704224,
            -0.03383943811058998,
            -0.036893974989652634
          ]
        ],
        [
          [
            -0.0494796559214592,
            -0.04269801080226898,
            0.004836391657590866
          ],
          [
            -0.08063974231481552,
            -0.06943430006504059,
            -0.018880639225244522
          ],
          [
            -0.009292172268033028,
            0.024256808683276176,
            -0.08018808811903
          ],
          [
            0.013788455165922642,
            0.029235143214464188,
            0.025819960981607437
          ],
          [
            -0.09282699972391129,
            -0.04859652370214462,
            -0.08944853395223618
          ],
          [
            -0.06601669639348984,
            0.026909634470939636,
            -0.03246375918388367
          ],
          [
            0.014399295672774315,
            -0.07024242728948593,
            -0.009321690537035465
          ],
          [
            -0.07186801731586456,
            0.023963483050465584,
            -0.056103095412254333
          ],
          [
            -0.04012457653880119,
            -0.09298925846815109,
            -0.020555755123496056
          ],
          [
            0.06523437052965164,
            -0.005986103322356939,
            -0.07855021208524704
          ],
          [
            -0.013751006685197353,
            -0.028352614492177963,
            -0.08657313138246536
          ],
          [
            0.04517240822315216,
            -0.019973034039139748,
            -0.004341628402471542
          ],
          [
            -0.05167774856090546,
            -0.05709366872906685,
            -0.004445553291589022
          ],
          [
            0.025798559188842773,
            0.015357701107859612,
            -0.04559886455535889
          ],
          [
            0.07035111635923386,
            -0.02344106324017048,
            -0.06293076276779175
          ],
          [
            -0.016151143237948418,
            0.10093452036380768,
            0.015302401036024094
          ],
          [
            0.025891875848174095,
            0.0027837816160172224,
            0.014478646218776703
          ],
          [
            -0.042859651148319244,
            -0.03931792452931404,
            0.0773535743355751
          ],
          [
            0.09816707670688629,
            0.10688242316246033,
            -0.033173758536577225
          ],
          [
            0.07306646555662155,
            -0.022893836721777916,
            0.07732442021369934
          ],
          [
            0.08880220353603363,
            0.0933682844042778,
            0.08962500095367432
          ],
          [
            0.09303932636976242,
            0.044852469116449356,
            0.08011794090270996
          ],
          [
            0.0037032454274594784,
            0.06971728801727295,
            0.005840246099978685
          ],
          [
            0.025189563632011414,
            -0.04674774780869484,
            0.0063582914881408215
          ],
          [
            -0.016585005447268486,
            0.000512915023136884,
            -0.02498670108616352
          ],
          [
            -0.04585004597902298,
            0.03402087837457657,
            0.08236707746982574
          ],
          [
            0.121299147605896,
            0.0949302688241005,
            0.0010171495378017426
          ],
          [
            -0.055355459451675415,
            0.06005392223596573,
            0.07830903679132462
          ],
          [
            -0.04482496529817581,
            0.05590253695845604,
            0.0966029167175293
          ],
          [
            0.014035404659807682,
            -0.04076346382498741,
            0.07661664485931396
          ],
          [
            0.05832035839557648,
            0.07769660651683807,
            -0.03281432390213013
          ],
          [
            0.07269349694252014,
            -0.0319012813270092,
            0.1066724881529808
          ],
          [
            -0.006418828386813402,
            0.07843339443206787,
            0.0451391227543354
          ],
          [
            0.04313935339450836,
            0.008567409589886665,
            0.05553930997848511
          ],
          [
            -0.004531983286142349,
            -0.047780297696590424,
            -0.0011655655689537525
          ],
          [
            0.08255774527788162,
            -0.003593149594962597,
            0.04411418363451958
          ],
          [
            -0.011516540311276913,
            0.08102738857269287,
            0.06866151839494705
          ],
          [
            0.05217248201370239,
            -0.018774643540382385,
            -0.043768007308244705
          ],
          [
            0.030326880514621735,
            -0.02100754715502262,
            0.09551751613616943
          ],
          [
            -0.051490187644958496,
            0.06520001590251923,
            0.11059200763702393
          ],
          [
            0.06388743221759796,
            0.050629790872335434,
            -0.057040754705667496
          ],
          [
            0.1053728461265564,
            0.011961989104747772,
            -0.05106696859002113
          ],
          [
            0.003638942027464509,
            1.497942207606684e-06,
            -7.986855621311406e-11
          ],
          [
            0.11060667037963867,
            -0.022376997396349907,
            -0.023557966575026512
          ],
          [
            0.013607782311737537,
            -0.006671114359050989,
            0.020917072892189026
          ],
          [
            -0.03665183112025261,
            0.03379787504673004,
            -0.003943282645195723
          ],
          [
            -0.03545770421624184,
            -0.06675628572702408,
            0.034513186663389206
          ],
          [
            -0.0019067754037678242,
            -0.011495123617351055,
            0.008712509647011757
          ]
        ],
        [
          [
            0.01636483334004879,
            -0.0042521096765995026,
            -0.04129699617624283
          ],
          [
            0.0003947838849853724,
            0.06790997087955475,
            0.04429011419415474
          ],
          [
            -0.08629472553730011,
            0.05417357012629509,
            -0.016898496076464653
          ],
          [
            0.020758772268891335,
            0.04404529184103012,
            0.04650093987584114
          ],
          [
            -0.08601486682891846,
            0.04967141151428223,
            -0.08223038911819458
          ],
          [
            -0.005907319486141205,
            -0.07022135704755783,
            -0.030926421284675598
          ],
          [
            -0.02545347809791565,
            -0.03151227906346321,
            -0.036445748060941696
          ],
          [
            -0.020433062687516212,
            0.0634201318025589,
            0.02603384479880333
          ],
          [
            0.03318318724632263,
            0.01427737157791853,
            0.073290154337883
          ],
          [
            -0.04601205885410309,
            -0.006068839225918055,
            0.011744020506739616
          ],
          [
            -0.09607736021280289,
            -0.09146732836961746,
            -0.012559274211525917
          ],
          [
            -0.052849266678094864,
            -0.021806789562106133,
            -0.04082562401890755
          ],
          [
            -0.004519192967563868,
            0.0348140187561512,
            -0.03907151520252228
          ],
          [
            0.0656343400478363,
            0.06495418399572372,
            -0.06625130772590637
          ],
          [
            -0.07211364805698395,
            -0.0774456188082695,
            -0.0556107722222805
          ],
          [
            -0.03609119728207588,
            -0.009558537974953651,
            -0.02969728410243988
          ],
          [
            -0.0016106514958664775,
            0.014979632571339607,
            0.013854283839464188
          ],
          [
            0.10760075598955154,
            -0.002888492541387677,
            -0.032506559044122696
          ],
          [
            0.07121708244085312,
            0.031223146244883537,
            0.09980862587690353
          ],
          [
            0.08544720709323883,
            0.10976592451334,
            -0.025784557685256004
          ],
          [
            0.08886536955833435,
            0.10568153113126755,
            -0.005290378350764513
          ],
          [
            0.11862900853157043,
            0.10263412445783615,
            0.04112036153674126
          ],
          [
            0.08091314136981964,
            0.012484961189329624,
            -0.02876303903758526
          ],
          [
            0.047385696321725845,
            0.05204025283455849,
            -0.02475051023066044
          ],
          [
            0.07658760249614716,
            -0.03545147553086281,
            0.10065103322267532
          ],
          [
            0.11722147464752197,
            0.0593014657497406,
            -0.01627625711262226
          ],
          [
            0.08317181468009949,
            0.053874898701906204,
            0.06434673070907593
          ],
          [
            0.05998935550451279,
            0.09480928629636765,
            0.0004754792607855052
          ],
          [
            0.01772368513047695,
            0.05898710712790489,
            0.04547783359885216
          ],
          [
            0.07886309921741486,
            -0.030171435326337814,
            0.010685114189982414
          ],
          [
            0.035083696246147156,
            -0.0016005150973796844,
            0.07612273097038269
          ],
          [
            0.04157695919275284,
            -0.04358290508389473,
            0.02377360686659813
          ],
          [
            -0.0063336812891066074,
            0.03919154033064842,
            0.022085903212428093
          ],
          [
            -0.06460990011692047,
            0.00224085315130651,
            0.009366246871650219
          ],
          [
            0.004812020808458328,
            0.10558291524648666,
            0.011729545891284943
          ],
          [
            0.07613713294267654,
            0.043966032564640045,
            -0.04600656032562256
          ],
          [
            0.0434609018266201,
            0.09235674142837524,
            -0.02945476956665516
          ],
          [
            -0.029607629403471947,
            0.1048760637640953,
            0.0910193994641304
          ],
          [
            -0.010356638580560684,
            0.08506874740123749,
            0.025521118193864822
          ],
          [
            -0.05675750970840454,
            0.030650923028588295,
            0.05152127891778946
          ],
          [
            0.005065987352281809,
            0.05841889977455139,
            -0.040654782205820084
          ],
          [
            0.08286962658166885,
            0.09599971771240234,
            0.07126052677631378
          ],
          [
            2.722019303291745e-07,
            1.0499884410819504e-06,
            -0.00018261128570884466
          ],
          [
            0.015598462894558907,
            0.028687994927167892,
            -0.008962898515164852
          ],
          [
            -0.05009129270911217,
            0.057759951800107956,
            0.05777133256196976
          ],
          [
            -0.03622099384665489,
            0.06490679085254669,
            0.07269090414047241
          ],
          [
            0.07925529778003693,
            0.05010068789124489,
            0.07721588015556335
          ],
          [
            -0.022038981318473816,
            0.036269426345825195,
            0.044875819236040115
          ]
        ],
        [
          [
            -0.08974470943212509,
            -0.05819180980324745,
            0.010185711085796356
          ],
          [
            0.04547157511115074,
            -0.039336755871772766,
            0.008837868459522724
          ],
          [
            0.002194676548242569,
            0.02418801374733448,
            -0.04208061099052429
          ],
          [
            0.05291043221950531,
            0.06127512454986572,
            -0.05229337140917778
          ],
          [
            0.006344799883663654,
            0.006121970247477293,
            0.03268078342080116
          ],
          [
            0.07755579054355621,
            0.026402192190289497,
            -0.01919621229171753
          ],
          [
            0.07704184204339981,
            -0.0284994225949049,
            -0.021540649235248566
          ],
          [
            0.012604836374521255,
            -0.05615055933594704,
            0.016907837241888046
          ],
          [
            -0.06659810245037079,
            0.01373427826911211,
            0.004141008015722036
          ],
          [
            0.025457248091697693,
            -0.03980805724859238,
            -0.06129719316959381
          ],
          [
            0.03793829306960106,
            0.07243244349956512,
            -0.06865659356117249
          ],
          [
            0.032788436859846115,
            -0.058218952268362045,
            0.007531879469752312
          ],
          [
            0.06632710248231888,
            0.051971882581710815,
            -0.07403239607810974
          ],
          [
            0.035048358142375946,
            0.028555473312735558,
            -0.015033339150249958
          ],
          [
            0.08800145983695984,
            -0.024456696584820747,
            -0.010939893312752247
          ],
          [
            -0.03643104434013367,
            0.01589074544608593,
            0.02309299260377884
          ],
          [
            -0.0068416716530919075,
            -0.06038496270775795,
            -0.05338872969150543
          ],
          [
            0.019713284447789192,
            -0.07423156499862671,
            -0.01968442089855671
          ],
          [
            -0.015066912397742271,
            -0.044520556926727295,
            0.01991937682032585
          ],
          [
            -0.004966702777892351,
            0.048614248633384705,
            -0.01703137531876564
          ],
          [
            -0.06991761177778244,
            0.041780516505241394,
            -0.003325567115098238
          ],
          [
            -0.03158087655901909,
            -0.06315698474645615,
            0.00991714559495449
          ],
          [
            -0.09216048568487167,
            0.008088166825473309,
            0.02581094764173031
          ],
          [
            -0.0651053786277771,
            -0.04622849449515343,
            -0.061477307230234146
          ],
          [
            0.05244781821966171,
            0.056973330676555634,
            -0.004530623089522123
          ],
          [
            0.06576823443174362,
            -0.037873364984989166,
            -0.09103041142225266
          ],
          [
            0.01830122619867325,
            0.018134303390979767,
            0.06813590228557587
          ],
          [
            -0.01191762089729309,
            0.0522809736430645,
            0.04022620990872383
          ],
          [
            0.0464024543762207,
            -0.09289255738258362,
            0.05475468188524246
          ],
          [
            -0.07943575084209442,
            0.06420368701219559,
            -0.012239488773047924
          ],
          [
            -0.057774219661951065,
            0.032266054302453995,
            -0.004846855066716671
          ],
          [
            -0.07144251465797424,
            -0.03003600239753723,
            0.0059637767262756824
          ],
          [
            0.0582798533141613,
            -0.028888097032904625,
            0.04392067342996597
          ],
          [
            0.00011624443141045049,
            -0.00715705007314682,
            0.005370853003114462
          ],
          [
            -0.048470307141542435,
            -0.061944011598825455,
            -0.02212410978972912
          ],
          [
            -0.07423679530620575,
            -0.039591528475284576,
            -0.0030661574564874172
          ],
          [
            -0.005636417306959629,
            0.01091716531664133,
            0.026234611868858337
          ],
          [
            -0.02222605049610138,
            -0.057019367814064026,
            -0.009220070205628872
          ],
          [
            -0.016317032277584076,
            0.017727339640259743,
            -0.001565811806358397
          ],
          [
            -0.051101043820381165,
            -0.04037845879793167,
            -0.014789903536438942
          ],
          [
            -0.05093357339501381,
            0.0022903461940586567,
            -0.007984982803463936
          ],
          [
            0.014763116836547852,
            0.0026083197444677353,
            0.04463149607181549
          ],
          [
            -6.12397741406312e-08,
            -0.0002512673963792622,
            1.8838245523511432e-06
          ],
          [
            -0.057657353579998016,
            -0.016285531222820282,
            -0.030636334791779518
          ],
          [
            -0.027930116280913353,
            -0.027177689597010612,
            0.07369637489318848
          ],
          [
            0.02779504284262657,
            0.003602084470912814,
            0.05722063034772873
          ],
          [
            -0.06126886233687401,
            0.023258954286575317,
            0.06142692267894745
          ],
          [
            0.05017029866576195,
            -0.05320974439382553,
            0.025494836270809174
          ]
        ],
        [
          [
            -0.045516226440668106,
            -0.005591855384409428,
            0.005114657338708639
          ],
          [
            -0.08125271648168564,
            -0.0903354212641716,
            -0.05373084172606468
          ],
          [
            0.02220061793923378,
            0.023888863623142242,
            -0.08351109176874161
          ],
          [
            -0.034936144948005676,
            -0.004186411388218403,
            -0.08113857358694077
          ],
          [
            0.04120626300573349,
            0.06817859411239624,
            0.00521107716485858
          ],
          [
            -0.07362890243530273,
            0.008080964908003807,
            0.03086773119866848
          ],
          [
            0.05023561418056488,
            -0.05816219747066498,
            -0.08567871898412704
          ],
          [
            0.0204264298081398,
            -0.009227325208485126,
            -0.046546030789613724
          ],
          [
            -0.032917097210884094,
            -0.054029569029808044,
            0.08880851417779922
          ],
          [
            -0.03624387085437775,
            0.013935061171650887,
            0.06313953548669815
          ],
          [
            -0.0037763791624456644,
            -0.0012242720695212483,
            -0.014987298287451267
          ],
          [
            0.04195231571793556,
            -0.0884031131863594,
            0.023372329771518707
          ],
          [
            -0.029905876144766808,
            0.027492068707942963,
            0.000748711870983243
          ],
          [
            -0.04640142619609833,
            -0.02475924976170063,
            0.02734786458313465
          ],
          [
            -0.052815962582826614,
            -0.04641195014119148,
            -0.01297476701438427
          ],
          [
            -0.028603537008166313,
            0.028968380764126778,
            0.04571615159511566
          ],
          [
            0.01954674907028675,
            0.10717535018920898,
            -0.0039319200441241264
          ],
          [
            -0.021037625148892403,
            -0.012841997668147087,
            -0.03506268188357353
          ],
          [
            -0.03457624465227127,
            -0.049388498067855835,
            -0.049011263996362686
          ],
          [
            0.042212847620248795,
            0.07311306148767471,
            0.10298982262611389
          ],
          [
            0.09649854898452759,
            0.020421694964170456,
            0.04092022031545639
          ],
          [
            -0.0028587498236447573,
            0.07552951574325562,
            -0.03584909439086914
          ],
          [
            0.06549198180437088,
            0.04188457876443863,
            0.05436674878001213
          ],
          [
            0.05543434992432594,
            -0.01653776504099369,
            0.09035014361143112
          ],
          [
            0.0651269257068634,
            0.08221595734357834,
            0.037192486226558685
          ],
          [
            0.07487598806619644,
            0.0788281187415123,
            0.0607527531683445
          ],
          [
            0.1067565530538559,
            0.026278741657733917,
            0.09447639435529709
          ],
          [
            0.04999881237745285,
            0.08119405806064606,
            0.11372528970241547
          ],
          [
            0.04434114322066307,
            -0.004825936164706945,
            0.018063204362988472
          ],
          [
            0.029124805703759193,
            0.02023259922862053,
            -0.016114257276058197
          ],
          [
            0.0726945549249649,
            0.05757206678390503,
            -0.042787905782461166
          ],
          [
            0.015553378500044346,
            0.014178850688040257,
            -0.02950359880924225
          ],
          [
            0.0357668437063694,
            -0.0015500879380851984,
            -0.018715573474764824
          ],
          [
            0.0012151990085840225,
            -0.0015733784530311823,
            0.10711554437875748
          ],
          [
            0.05493189021945,
            0.10495530813932419,
            0.046403300017118454
          ],
          [
            0.03515688329935074,
            0.050621189177036285,
            0.03114069066941738
          ],
          [
            -0.04174194112420082,
            -0.0254767294973135,
            0.003871466498821974
          ],
          [
            0.015696387737989426,
            0.04574570432305336,
            0.04715242236852646
          ],
          [
            0.08557376265525818,
            0.036621782928705215,
            -0.007644051685929298
          ],
          [
            -0.03568754345178604,
            -0.03397468850016594,
            -0.022880012169480324
          ],
          [
            0.05104672908782959,
            0.07121367752552032,
            0.09927485883235931
          ],
          [
            -0.0006193419685587287,
            0.019006356596946716,
            0.001019050134345889
          ],
          [
            -5.246495238253601e-09,
            1.1171772484885878e-06,
            -2.0764399977224457e-08
          ],
          [
            0.04006101191043854,
            0.04651518166065216,
            0.06684926152229309
          ],
          [
            -0.022497838363051414,
            -0.049191735684871674,
            0.013682001270353794
          ],
          [
            0.030043095350265503,
            0.0028531234711408615,
            0.07523530721664429
          ],
          [
            0.013659468851983547,
            0.01410386711359024,
            -0.00910706166177988
          ],
          [
            -0.006159460637718439,
            -0.0489850752055645,
            0.005604924168437719
          ]
        ],
        [
          [
            -0.0010165775893256068,
            0.05124093219637871,
            0.018421035259962082
          ],
          [
            -0.0013604180421680212,
            0.015707993879914284,
            0.060262907296419144
          ],
          [
            -0.06018956005573273,
            0.03042301908135414,
            0.0028633358888328075
          ],
          [
            -0.07374368607997894,
            0.011045794934034348,
            -0.07072354108095169
          ],
          [
            -0.050226885825395584,
            -0.06293490529060364,
            -0.08335411548614502
          ],
          [
            0.05729404836893082,
            -0.08105549961328506,
            0.03863850235939026
          ],
          [
            -0.09549513459205627,
            -0.028975550085306168,
            -0.012416898272931576
          ],
          [
            0.04024767875671387,
            -0.05111554637551308,
            0.010449007153511047
          ],
          [
            0.005529021844267845,
            0.04845131188631058,
            0.015772957354784012
          ],
          [
            0.013687370344996452,
            -0.0683094784617424,
            -0.08869528770446777
          ],
          [
            0.05068639665842056,
            -0.08263412117958069,
            -0.03621210530400276
          ],
          [
            -0.02855069935321808,
            0.06438526511192322,
            -0.03265070542693138
          ],
          [
            -0.08264394849538803,
            -0.04364185407757759,
            0.04070329666137695
          ],
          [
            0.03339994326233864,
            0.06958260387182236,
            -0.01773865334689617
          ],
          [
            0.03093801811337471,
            -0.08632200211286545,
            0.02254900150001049
          ],
          [
            0.053633566945791245,
            0.0671260803937912,
            -0.04324691742658615
          ],
          [
            0.01169395912438631,
            0.05395766347646713,
            -0.021814018487930298
          ],
          [
            -0.03588702157139778,
            -0.04335213825106621,
            0.030941126868128777
          ],
          [
            0.08444878458976746,
            0.050540290772914886,
            0.0358748659491539
          ],
          [
            0.054977402091026306,
            -0.023275235667824745,
            0.040454063564538956
          ],
          [
            0.017446137964725494,
            -0.003980699460953474,
            0.1087745949625969
          ],
          [
            -0.03924944996833801,
            0.033314891159534454,
            -0.058053355664014816
          ],
          [
            0.03398037701845169,
            9.530437091598287e-05,
            0.06501201540231705
          ],
          [
            -0.01743079349398613,
            0.08446966856718063,
            -0.042945608496665955
          ],
          [
            0.0815771296620369,
            -0.033062949776649475,
            0.07705798745155334
          ],
          [
            -0.00031142003717832267,
            0.035147227346897125,
            0.02036435343325138
          ],
          [
            0.0863717794418335,
            0.06099754944443703,
            -0.03988366201519966
          ],
          [
            0.031370677053928375,
            -0.03442366421222687,
            0.09121372550725937
          ],
          [
            0.044325947761535645,
            0.010365873575210571,
            -0.010347493924200535
          ],
          [
            0.022297201678156853,
            -0.05470534414052963,
            0.03301878646016121
          ],
          [
            0.060502104461193085,
            0.06624447554349899,
            0.03739151358604431
          ],
          [
            -0.049659594893455505,
            0.08050939440727234,
            -0.002656541531905532
          ],
          [
            0.008428704924881458,
            0.02368004247546196,
            0.09184815734624863
          ],
          [
            0.08296670764684677,
            0.03229648619890213,
            0.058773741126060486
          ],
          [
            -0.05052854120731354,
            0.02362232841551304,
            -0.04624295234680176
          ],
          [
            0.049327485263347626,
            -0.03607641160488129,
            -0.0064842416904866695
          ],
          [
            0.07449264079332352,
            0.09536752104759216,
            -0.0265728197991848
          ],
          [
            -0.022852765396237373,
            0.03310787305235863,
            0.05601789057254791
          ],
          [
            0.01868792623281479,
            0.00635156687349081,
            -0.021142661571502686
          ],
          [
            0.06096921116113663,
            0.10597217828035355,
            -0.014153340831398964
          ],
          [
            0.06725028157234192,
            0.06862010061740875,
            0.09509590268135071
          ],
          [
            0.016795840114355087,
            0.02864791639149189,
            0.08611961454153061
          ],
          [
            -7.765986083541065e-06,
            0.0036516098771244287,
            2.554060642978584e-07
          ],
          [
            0.058663174510002136,
            0.08323421329259872,
            -0.02725016325712204
          ],
          [
            0.01828920654952526,
            -0.010870847851037979,
            0.0537676140666008
          ],
          [
            -0.011887713335454464,
            0.02958759479224682,
            0.07274175435304642
          ],
          [
            -0.06662831455469131,
            -0.061901435256004333,
            -0.04016393423080444
          ],
          [
            0.030551189556717873,
            0.03252878040075302,
            -0.04149949550628662
          ]
        ],
        [
          [
            0.00951166357845068,
            -0.05260639265179634,
            -0.04303092509508133
          ],
          [
            0.06355052441358566,
            0.028297128155827522,
            -0.03366256505250931
          ],
          [
            -0.004766717087477446,
            -0.0014949759934097528,
            0.00220178603194654
          ],
          [
            -0.038253478705883026,
            -0.06119709461927414,
            0.04064217954874039
          ],
          [
            0.008014907129108906,
            0.02976866438984871,
            -0.03832074627280235
          ],
          [
            0.03210039436817169,
            0.04865734651684761,
            0.03963351994752884
          ],
          [
            0.005589548498392105,
            0.06417667865753174,
            -0.017445974051952362
          ],
          [
            0.0047383722849190235,
            0.0667705163359642,
            0.06732893735170364
          ],
          [
            -0.04598299413919449,
            0.06725594401359558,
            0.03233436867594719
          ],
          [
            -0.007224685978144407,
            0.05918513610959053,
            -0.05683344602584839
          ],
          [
            0.04540761560201645,
            0.07395279407501221,
            -0.07611630856990814
          ],
          [
            -0.06385492533445358,
            -0.09895604848861694,
            -0.031356025487184525
          ],
          [
            -0.10313994437456131,
            -0.05289367958903313,
            0.0014280957402661443
          ],
          [
            0.048965368419885635,
            0.03674890100955963,
            0.03704516962170601
          ],
          [
            0.030528761446475983,
            -0.055765550583601,
            -0.07142197340726852
          ],
          [
            0.030182290822267532,
            0.10724420845508575,
            0.028591131791472435
          ],
          [
            0.010338803753256798,
            -0.040427546948194504,
            -0.020566049963235855
          ],
          [
            -0.03287755325436592,
            0.09460113942623138,
            0.017436392605304718
          ],
          [
            -0.05404386669397354,
            0.03471597284078598,
            0.02917790599167347
          ],
          [
            -0.0008380848448723555,
            0.038903042674064636,
            0.05514786019921303
          ],
          [
            -0.04271985590457916,
            -0.026588939130306244,
            0.0342215858399868
          ],
          [
            -0.052165549248456955,
            -0.05287577584385872,
            0.0935143455862999
          ],
          [
            0.008152985014021397,
            -0.024137090891599655,
            -0.012404966168105602
          ],
          [
            -0.035769637674093246,
            0.0958549752831459,
            0.015949483960866928
          ],
          [
            -0.017561117187142372,
            -0.03451045602560043,
            0.07773002237081528
          ],
          [
            0.011993318796157837,
            0.016167297959327698,
            0.003179520135745406
          ],
          [
            -0.003646604251116514,
            0.05026218667626381,
            0.09727657586336136
          ],
          [
            -0.04415617138147354,
            0.004673559684306383,
            -0.04817128926515579
          ],
          [
            -0.020629845559597015,
            0.08928260952234268,
            0.018846195191144943
          ],
          [
            0.08081082999706268,
            -0.012380745261907578,
            -0.04229046404361725
          ],
          [
            -0.0540003702044487,
            0.06778011471033096,
            -0.06765145808458328
          ],
          [
            0.05588884651660919,
            0.03313057869672775,
            0.037376388907432556
          ],
          [
            0.06984405964612961,
            0.0023454849142581224,
            0.07501934468746185
          ],
          [
            -0.0436614491045475,
            -0.007382899988442659,
            0.081854447722435
          ],
          [
            0.037664007395505905,
            0.0026907280553132296,
            -0.005195401143282652
          ],
          [
            -0.044918011873960495,
            0.05154762417078018,
            0.004348639864474535
          ],
          [
            0.0326591394841671,
            0.04623141139745712,
            0.08719594031572342
          ],
          [
            -0.037344854325056076,
            -0.023501219227910042,
            0.0602436438202858
          ],
          [
            0.05282000079751015,
            -0.03344772011041641,
            -0.07326868176460266
          ],
          [
            0.03170713037252426,
            0.05986082926392555,
            0.036752086132764816
          ],
          [
            0.09431599825620651,
            -0.029152674600481987,
            0.07747242599725723
          ],
          [
            -0.04260346293449402,
            0.05404581502079964,
            0.06951034069061279
          ],
          [
            1.0717636769186356e-06,
            0.0007477268809452653,
            -1.6975558537524194e-05
          ],
          [
            -0.04855664074420929,
            -0.051844529807567596,
            0.07466792315244675
          ],
          [
            0.021178530529141426,
            -0.06231218948960304,
            0.03080265037715435
          ],
          [
            0.09745144844055176,
            -0.05769841745495796,
            0.08342288434505463
          ],
          [
            0.006483357399702072,
            0.0016873347340151668,
            0.06579013913869858
          ],
          [
            0.049978937953710556,
            0.011375765316188335,
            0.04075735807418823
          ]
        ],
        [
          [
            0.05103287100791931,
            0.0114147262647748,
            -0.07535847276449203
          ],
          [
            0.007992753759026527,
            -0.062240712344646454,
            0.020116597414016724
          ],
          [
            0.002400427358224988,
            -0.010819802060723305,
            -0.06866302341222763
          ],
          [
            -0.04323718696832657,
            0.06230301409959793,
            0.035450417548418045
          ],
          [
            0.04011764004826546,
            -0.028449732810258865,
            -0.01909337192773819
          ],
          [
            -0.02868291549384594,
            0.053626835346221924,
            -0.04103377088904381
          ],
          [
            0.039824653416872025,
            0.04425207898020744,
            -0.08771699666976929
          ],
          [
            -0.0007590325549244881,
            -0.024281509220600128,
            -0.05360019952058792
          ],
          [
            0.0494089350104332,
            -0.020021755248308182,
            0.05854778364300728
          ],
          [
            -0.056181054562330246,
            0.00447278143838048,
            -0.08673527091741562
          ],
          [
            -0.056951701641082764,
            -0.015504973009228706,
            0.05013304948806763
          ],
          [
            0.03226171433925629,
            -0.07845301926136017,
            -0.0021825165022164583
          ],
          [
            -0.05679669976234436,
            -0.0020514926873147488,
            -0.07768771797418594
          ],
          [
            -0.01799272932112217,
            0.060610730201005936,
            -0.07362569868564606
          ],
          [
            -0.07858921587467194,
            0.02319994382560253,
            0.025020863860845566
          ],
          [
            -0.008090099319815636,
            0.07482686638832092,
            -0.050725407898426056
          ],
          [
            -0.0398130789399147,
            -0.05097310245037079,
            -0.0050479029305279255
          ],
          [
            -0.012827945873141289,
            0.05815296992659569,
            0.005236056167632341
          ],
          [
            0.05218734219670296,
            -0.009485889226198196,
            0.09180817753076553
          ],
          [
            0.0911489725112915,
            -0.051001500338315964,
            -0.0002950216003227979
          ],
          [
            -0.056118182837963104,
            0.047615669667720795,
            -0.05500582233071327
          ],
          [
            -0.03277432918548584,
            0.08812594413757324,
            -0.07181131839752197
          ],
          [
            0.07858709245920181,
            0.025207743048667908,
            0.08800166100263596
          ],
          [
            -0.03741747885942459,
            0.05538575351238251,
            0.016701247543096542
          ],
          [
            0.03267361596226692,
            0.09051350504159927,
            -0.05628715455532074
          ],
          [
            -0.04221721738576889,
            0.10337918251752853,
            -0.026550613343715668
          ],
          [
            -0.06215737760066986,
            -0.004304180387407541,
            -0.027033844962716103
          ],
          [
            -0.007331568282097578,
            -0.04987110197544098,
            0.039985667914152145
          ],
          [
            -0.06581994891166687,
            0.009867685846984386,
            0.05124600976705551
          ],
          [
            0.010784353129565716,
            0.005893549416214228,
            0.006937813945114613
          ],
          [
            -0.01464766263961792,
            -0.006238075904548168,
            -0.023988420143723488
          ],
          [
            -0.05101756006479263,
            -0.03900112584233284,
            0.08631015568971634
          ],
          [
            -0.010530424304306507,
            0.03195299953222275,
            0.06020607054233551
          ],
          [
            0.0010249143233522773,
            -0.035394325852394104,
            -0.05019685626029968
          ],
          [
            -0.026925891637802124,
            0.032561011612415314,
            -0.06555715203285217
          ],
          [
            -0.008362344466149807,
            0.033392783254384995,
            0.06932279467582703
          ],
          [
            0.023506028577685356,
            0.014933856204152107,
            0.05507739633321762
          ],
          [
            0.0609968937933445,
            0.05101362243294716,
            -0.001889439532533288
          ],
          [
            -0.041554778814315796,
            0.005496038589626551,
            0.008818523027002811
          ],
          [
            0.029048467054963112,
            0.013834145851433277,
            0.056526415050029755
          ],
          [
            0.04817308112978935,
            -0.0380634181201458,
            -0.08183741569519043
          ],
          [
            -0.030738430097699165,
            -0.028081193566322327,
            0.05761602893471718
          ],
          [
            -1.5638415788998827e-06,
            -1.9566915909763338e-07,
            -2.962260623462498e-07
          ],
          [
            -0.04935751482844353,
            0.03653930500149727,
            -0.03361118584871292
          ],
          [
            -0.004361975472420454,
            -0.019317271187901497,
            -0.004231167957186699
          ],
          [
            0.03419196605682373,
            0.018528832122683525,
            -0.008273467421531677
          ],
          [
            0.015432264655828476,
            -0.022794494405388832,
            -0.03807874396443367
          ],
          [
            -0.017734358087182045,
            0.004720600321888924,
            -0.03595341742038727
          ]
        ],
        [
          [
            0.08859053999185562,
            -0.05197123810648918,
            -0.03662235289812088
          ],
          [
            0.029831597581505775,
            0.03368204087018967,
            -0.0045892721973359585
          ],
          [
            0.045152951031923294,
            -0.062051303684711456,
            0.017702605575323105
          ],
          [
            -0.00865473598241806,
            -0.08086280524730682,
            -0.05137220770120621
          ],
          [
            0.01295962929725647,
            0.006288606207817793,
            0.046983517706394196
          ],
          [
            0.07736533135175705,
            -0.03265529125928879,
            -0.03201260790228844
          ],
          [
            -0.028923574835062027,
            -0.07306013256311417,
            -0.034107498824596405
          ],
          [
            -0.0839950293302536,
            0.024907998740673065,
            0.039110492914915085
          ],
          [
            0.017680739983916283,
            -0.07134668529033661,
            -0.06642571836709976
          ],
          [
            -0.06144079193472862,
            -0.018014857545495033,
            -0.003465574001893401
          ],
          [
            0.007398348767310381,
            0.06259339302778244,
            0.029605891555547714
          ],
          [
            0.01119467057287693,
            -0.02844329923391342,
            0.029951630160212517
          ],
          [
            0.0414704792201519,
            -0.06374899297952652,
            -0.03999023884534836
          ],
          [
            0.004777422174811363,
            0.033091410994529724,
            0.039948720484972
          ],
          [
            -0.051888998597860336,
            -0.0865323543548584,
            -0.0077999308705329895
          ],
          [
            -0.010096333920955658,
            0.019426783546805382,
            -0.02785058692097664
          ],
          [
            0.09799200296401978,
            0.03917436674237251,
            0.09483841806650162
          ],
          [
            -0.03142475709319115,
            0.05732269212603569,
            0.0390225425362587
          ],
          [
            -0.0054804477840662,
            0.07989612966775894,
            -0.04548543319106102
          ],
          [
            0.09716206789016724,
            0.034778203815221786,
            0.036645833402872086
          ],
          [
            0.07024810463190079,
            0.04024236276745796,
            0.06970608979463577
          ],
          [
            0.10137129575014114,
            -0.01605870947241783,
            0.10129642486572266
          ],
          [
            0.022244809195399284,
            0.015162221156060696,
            0.050203289836645126
          ],
          [
            0.08826751261949539,
            -0.023253127932548523,
            -0.02927376702427864
          ],
          [
            0.08791135996580124,
            0.00022101399372331798,
            0.06672947853803635
          ],
          [
            0.01917552389204502,
            0.054212674498558044,
            0.09436259418725967
          ],
          [
            0.004067936446517706,
            0.007821965031325817,
            0.09001956880092621
          ],
          [
            0.03754085302352905,
            0.025243794545531273,
            -0.03541599586606026
          ],
          [
            0.09305520355701447,
            0.019998589530587196,
            0.008328191004693508
          ],
          [
            -0.022753318771719933,
            -0.00515199126675725,
            0.05198964104056358
          ],
          [
            0.020703913643956184,
            0.09331624209880829,
            0.018870875239372253
          ],
          [
            0.013074143789708614,
            0.07147137820720673,
            0.023423057049512863
          ],
          [
            0.010843158699572086,
            0.05464399233460426,
            0.09259720146656036
          ],
          [
            0.03628681227564812,
            0.07317125797271729,
            0.07013612985610962
          ],
          [
            0.04652012512087822,
            0.05203893408179283,
            0.05052701383829117
          ],
          [
            0.028243983164429665,
            0.09017621725797653,
            0.09640752524137497
          ],
          [
            0.05712771788239479,
            0.023775679990649223,
            0.10189449787139893
          ],
          [
            -0.03602557256817818,
            0.08909133821725845,
            0.07240564376115799
          ],
          [
            0.08515240997076035,
            0.026385540142655373,
            -0.02860720269382
          ],
          [
            0.09021878987550735,
            -0.004361910745501518,
            0.05326990410685539
          ],
          [
            0.06824095547199249,
            -0.05523043870925903,
            0.027136806398630142
          ],
          [
            0.007142894435673952,
            0.09512295573949814,
            -0.015589957125484943
          ],
          [
            -1.5605317457811907e-05,
            -1.178833917947486e-05,
            -7.141495188989211e-06
          ],
          [
            0.1207774206995964,
            0.05410243943333626,
            -0.03313498944044113
          ],
          [
            0.07237836718559265,
            0.017548948526382446,
            0.012210436165332794
          ],
          [
            -0.03586705029010773,
            0.024151569232344627,
            0.0026695753913372755
          ],
          [
            0.08846655488014221,
            0.07119603455066681,
            0.07592909783124924
          ],
          [
            0.005307904444634914,
            -0.01243333239108324,
            -0.011326657608151436
          ]
        ],
        [
          [
            -0.030959976837038994,
            -0.03912962228059769,
            0.07303357124328613
          ],
          [
            0.030540937557816505,
            0.06382054835557938,
            -0.008447974920272827
          ],
          [
            -0.08232204616069794,
            -0.033593978732824326,
            0.04894647002220154
          ],
          [
            0.03585638105869293,
            0.008550952188670635,
            -0.04172049090266228
          ],
          [
            -0.08421128988265991,
            -0.054381757974624634,
            0.03292950987815857
          ],
          [
            -0.030656717717647552,
            0.03719678521156311,
            0.01788935996592045
          ],
          [
            -0.0405857227742672,
            0.04037327691912651,
            -0.03526361659169197
          ],
          [
            -0.01722060702741146,
            -0.044368140399456024,
            -0.09257341921329498
          ],
          [
            0.010842693969607353,
            0.015354370698332787,
            -0.03479441627860069
          ],
          [
            0.05413016676902771,
            -0.0798814445734024,
            -0.0829034298658371
          ],
          [
            -0.04761403053998947,
            -0.021704936400055885,
            -0.0029139274265617132
          ],
          [
            -0.02377571351826191,
            0.02792801707983017,
            -0.08115475624799728
          ],
          [
            0.02376880683004856,
            0.010899573564529419,
            0.03465249761939049
          ],
          [
            0.09365418553352356,
            0.061405546963214874,
            -0.03517219051718712
          ],
          [
            -0.08016134053468704,
            -0.03320397436618805,
            -0.05541815608739853
          ],
          [
            0.03843395784497261,
            0.010612161830067635,
            0.07341358065605164
          ],
          [
            0.052931416779756546,
            0.002886295784264803,
            0.02151580899953842
          ],
          [
            0.023922551423311234,
            -0.007817828096449375,
            0.0705842599272728
          ],
          [
            -0.052532244473695755,
            0.055714063346385956,
            -0.039972271770238876
          ],
          [
            -0.061870504170656204,
            -0.005538229830563068,
            0.052621908485889435
          ],
          [
            0.07119658589363098,
            0.03319912403821945,
            0.005403553135693073
          ],
          [
            0.02771788276731968,
            -0.007090083323419094,
            0.012977981008589268
          ],
          [
            0.010438713245093822,
            0.08606318384408951,
            0.06543314456939697
          ],
          [
            -0.058195147663354874,
            0.006888893898576498,
            -0.04475335031747818
          ],
          [
            -0.008200191892683506,
            -0.05298897624015808,
            0.033031295984983444
          ],
          [
            -0.048118527978658676,
            0.09416045248508453,
            0.07501998543739319
          ],
          [
            -0.020558906719088554,
            -0.04429665952920914,
            0.0327010452747345
          ],
          [
            -0.007556222844868898,
            0.04234646260738373,
            -0.03379576653242111
          ],
          [
            0.05380188673734665,
            -0.05088718235492706,
            -0.023231711238622665
          ],
          [
            -0.03910647705197334,
            0.04461279883980751,
            0.002871620235964656
          ],
          [
            -0.07896251231431961,
            -0.046841513365507126,
            -0.03809848427772522
          ],
          [
            -0.0720113143324852,
            0.01547895185649395,
            0.034297265112400055
          ],
          [
            -0.002135608345270157,
            -0.019587000831961632,
            0.012861920520663261
          ],
          [
            -0.040565840899944305,
            -0.02500668354332447,
            0.02296474389731884
          ],
          [
            0.08663289994001389,
            -0.010942773893475533,
            0.05545598268508911
          ],
          [
            -0.019789263606071472,
            -0.009051892906427383,
            -0.06504778563976288
          ],
          [
            0.08228012174367905,
            0.09422105550765991,
            0.012439104728400707
          ],
          [
            0.05232815816998482,
            0.0678906962275505,
            0.04158869385719299
          ],
          [
            0.05379917472600937,
            -0.0668025016784668,
            -0.06594366580247879
          ],
          [
            -0.053083859384059906,
            0.03618328273296356,
            -0.06033068522810936
          ],
          [
            -0.0370967760682106,
            -0.014256616123020649,
            -0.050076261162757874
          ],
          [
            0.003960974048823118,
            0.015893185511231422,
            -0.04383851960301399
          ],
          [
            1.1543762411747593e-05,
            1.583944822414196e-06,
            4.853616815125861e-07
          ],
          [
            0.050092462450265884,
            0.05800742283463478,
            -0.021674517542123795
          ],
          [
            -0.020073629915714264,
            -0.004289417061954737,
            0.00936904363334179
          ],
          [
            0.060996413230895996,
            0.054464854300022125,
            -0.021207332611083984
          ],
          [
