{
  "project": "Aether Quant",
  "phase": "v2_multitask_horizons_model",
  "version_id": "multitask-only-f5708084-512b-4484-a47b-0720f9c1460c",
  "status": "trained",
  "trained_at": "2026-07-12T18:07:29.979308+00:00",
  "model": {
    "type": "multitask_direction_magnitude_volatility_horizons",
    "model_input_features": [
      "close_to_close_return_1d_scaled",
      "close_to_close_return_5d_scaled",
      "close_to_close_return_20d_scaled",
      "rolling_volatility_5d_scaled",
      "rolling_volatility_20d_scaled",
      "momentum_5d_scaled",
      "momentum_20d_scaled",
      "high_low_range_pct_scaled",
      "open_close_range_pct_scaled",
      "volume_change_1d_scaled",
      "rsi_14_scaled",
      "atr_pct_14_scaled",
      "bollinger_pctb_20_scaled",
      "volume_zscore_20_scaled",
      "macd_histogram_norm_scaled",
      "dist_52w_high_scaled",
      "regime_signal_confidence_scaled",
      "regime_signal_trend_score_scaled",
      "regime_signal_risk_score_scaled",
      "liquidity_log_dollar_volume_scaled",
      "liquidity_spread_proxy_scaled",
      "topology_correlation_strength_scaled",
      "peer_rank1_return_1d_scaled",
      "peer_rank2_return_1d_scaled",
      "peer_rank3_return_1d_scaled",
      "peer_mean_return_1d_scaled",
      "cs_momentum_rank_20_scaled",
      "macro_yield_curve_slope_proxy_scaled",
      "macro_credit_spread_proxy_scaled",
      "macro_crypto_risk_appetite_proxy_scaled",
      "regime_trend_bullish",
      "regime_trend_bearish",
      "regime_trend_sideways",
      "regime_volatility_low",
      "regime_volatility_normal",
      "regime_volatility_high",
      "regime_risk_on",
      "regime_risk_off",
      "regime_risk_neutral",
      "topology_risk_normal",
      "topology_risk_elevated",
      "topology_risk_isolated",
      "asset_AAPL",
      "asset_SPY",
      "asset_QQQ",
      "asset_IWM",
      "asset_EEM",
      "asset_BAC",
      "asset_IBM",
      "asset_AIG",
      "asset_BNO",
      "asset_FB",
      "asset_GOOG",
      "asset_GOOGL",
      "asset_USO",
      "asset_WM",
      "asset_AAA",
      "asset_BTCUSD",
      "asset_ETHUSD",
      "asset_LTCUSD",
      "asset_XRPUSD",
      "asset_ADAUSD",
      "asset_SHY",
      "asset_IEF",
      "asset_TLT",
      "asset_AGG",
      "asset_LQD",
      "asset_HYG",
      "asset_TIP",
      "asset_MBB",
      "asset_EMB",
      "asset_MUB"
    ],
    "hidden_layers": [
      64,
      32
    ],
    "dropout": 0.15,
    "activation": "relu",
    "normalization": "layernorm",
    "decision_threshold": 0.52
  },
  "export": {
    "trunk": [
      {
        "type": "linear",
        "weight_key": "trunk.0.weight",
        "bias_key": "trunk.0.bias",
        "in_features": 72,
        "out_features": 64
      },
      {
        "type": "layernorm",
        "weight_key": "trunk.1.weight",
        "bias_key": "trunk.1.bias",
        "normalized_shape": [
          64
        ],
        "eps": 1e-05
      },
      {
        "type": "relu"
      },
      {
        "type": "dropout",
        "p": 0.15
      },
      {
        "type": "linear",
        "weight_key": "trunk.4.weight",
        "bias_key": "trunk.4.bias",
        "in_features": 64,
        "out_features": 32
      },
      {
        "type": "layernorm",
        "weight_key": "trunk.5.weight",
        "bias_key": "trunk.5.bias",
        "normalized_shape": [
          32
        ],
        "eps": 1e-05
      },
      {
        "type": "relu"
      },
      {
        "type": "dropout",
        "p": 0.15
      }
    ],
    "heads": {
      "direction": [
        {
          "type": "linear",
          "weight_key": "head_direction.weight",
          "bias_key": "head_direction.bias",
          "in_features": 32,
          "out_features": 1
        },
        {
          "type": "sigmoid"
        }
      ],
      "magnitude": [
        {
          "type": "linear",
          "weight_key": "head_magnitude.weight",
          "bias_key": "head_magnitude.bias",
          "in_features": 32,
          "out_features": 1
        }
      ],
      "volatility": [
        {
          "type": "linear",
          "weight_key": "head_volatility.weight",
          "bias_key": "head_volatility.bias",
          "in_features": 32,
          "out_features": 1
        },
        {
          "type": "softplus"
        }
      ],
      "direction_5d": [
        {
          "type": "linear",
          "weight_key": "head_direction_5d.weight",
          "bias_key": "head_direction_5d.bias",
          "in_features": 32,
          "out_features": 1
        },
        {
          "type": "sigmoid"
        }
      ],
      "direction_20d": [
        {
          "type": "linear",
          "weight_key": "head_direction_20d.weight",
          "bias_key": "head_direction_20d.bias",
          "in_features": 32,
          "out_features": 1
        },
        {
          "type": "sigmoid"
        }
      ],
      "rank_5d": [
        {
          "type": "linear",
          "weight_key": "head_rank_5d.weight",
          "bias_key": "head_rank_5d.bias",
          "in_features": 32,
          "out_features": 1
        },
        {
          "type": "sigmoid"
        }
      ],
      "rank_20d": [
        {
          "type": "linear",
          "weight_key": "head_rank_20d.weight",
          "bias_key": "head_rank_20d.bias",
          "in_features": 32,
          "out_features": 1
        },
        {
          "type": "sigmoid"
        }
      ],
      "sector_neutral_rank_20d": [
        {
          "type": "linear",
          "weight_key": "head_sector_neutral_rank_20d.weight",
          "bias_key": "head_sector_neutral_rank_20d.bias",
          "in_features": 32,
          "out_features": 1
        },
        {
          "type": "sigmoid"
        }
      ]
    },
    "state_dict": {
      "trunk.0.weight": [
        [
          0.05510375276207924,
          0.08490040898323059,
          -0.06410492211580276,
          0.06308165192604065,
          -0.09008423238992691,
          0.011703316122293472,
          -0.09328969568014145,
          0.018048029392957687,
          0.0383317656815052,
          -0.08471386879682541,
          0.09508825838565826,
          -0.02730972319841385,
          0.07064469158649445,
          0.026921482756733894,
          0.022635770961642265,
          0.029815126210451126,
          0.06672018021345139,
          -0.01782655157148838,
          -0.05033423751592636,
          0.05436012148857117,
          -0.0961698368191719,
          0.0035112244077026844,
          -0.04222220182418823,
          0.06175592169165611,
          -0.0663391724228859,
          -0.04843702167272568,
          -0.03765306994318962,
          -0.08326971530914307,
          -0.006731194909662008,
          -0.1103484258055687,
          0.0708649531006813,
          -0.13518734276294708,
          0.09840879589319229,
          0.026769427582621574,
          -0.07091434299945831,
          0.021489666774868965,
          0.002226239535957575,
          0.057926472276449203,
          0.02743680216372013,
          -0.04934603348374367,
          -0.006847611162811518,
          -0.04218040406703949,
          -0.02027890644967556,
          0.08503977209329605,
          0.011489087715744972,
          -0.026080990210175514,
          0.05863110348582268,
          -0.01135981921106577,
          0.1306036114692688,
          -0.07308753579854965,
          -0.12851329147815704,
          -0.05618971586227417,
          -0.06216326728463173,
          0.07954378426074982,
          0.05589083209633827,
          0.0312326829880476,
          2.4625275288300884e-24,
          -0.09281475096940994,
          0.05434270575642586,
          -0.07724375277757645,
          -0.033102452754974365,
          -0.06504548341035843,
          0.05470764636993408,
          -0.004781459458172321,
          0.06901483982801437,
          -0.011957400478422642,
          0.1212092787027359,
          -0.10690400749444962,
          -0.02335440367460251,
          -0.07413680851459503,
          0.08508244901895523,
          0.014282455667853355
        ],
        [
          0.11368824541568756,
          -0.10418633371591568,
          -0.07594247907400131,
          -0.07981196790933609,
          -0.07637054473161697,
          0.0383770614862442,
          0.07809903472661972,
          0.09625894576311111,
          -0.07791789621114731,
          -0.1371290683746338,
          0.0885678306221962,
          -0.0381915457546711,
          0.1476944386959076,
          -0.03019738756120205,
          0.06582234054803848,
          -0.16462470591068268,
          -0.07795339077711105,
          0.06551894545555115,
          0.03904207423329353,
          -0.0009587670210748911,
          0.06750715523958206,
          0.1622421145439148,
          -0.08355642110109329,
          -0.05029117316007614,
          0.07139600813388824,
          -0.049172040075063705,
          0.016275111585855484,
          -0.16680659353733063,
          -0.06566961109638214,
          0.09943482279777527,
          0.041822440922260284,
          -0.06750153005123138,
          0.008633162826299667,
          -0.09090317785739899,
          -0.027800029143691063,
          -0.11227507889270782,
          -0.08247655630111694,
          -0.05311492457985878,
          0.14236362278461456,
          0.07409334927797318,
          0.013013395480811596,
          -0.1390196979045868,
          -0.05935487523674965,
          -0.0724795013666153,
          -0.016887670382857323,
          -0.11964114010334015,
          0.026296162977814674,
          -0.01920141652226448,
          0.09070152789354324,
          -0.15696431696414948,
          0.05197804421186447,
          -0.15543386340141296,
          -0.01908651366829872,
          -0.025088846683502197,
          0.08055373281240463,
          -0.10131548345088959,
          -1.840903158730972e-16,
          -0.16691602766513824,
          0.04960907995700836,
          0.08262897282838821,
          -0.08719547837972641,
          -0.023025352507829666,
          0.019299307838082314,
          -0.05689721927046776,
          -0.1277843564748764,
          -0.15797734260559082,
          0.02787676267325878,
          -0.01686909608542919,
          0.13270248472690582,
          -0.10280302911996841,
          0.04807834327220917,
          -0.24896639585494995
        ],
        [
          -0.05426875129342079,
          -0.003386571304872632,
          0.04921429976820946,
          0.09684817492961884,
          0.10391594469547272,
          -0.1192898228764534,
          0.018738338723778725,
          -0.039073873311281204,
          -0.056112807244062424,
          -0.04430032894015312,
          0.105095274746418,
          -0.0637110248208046,
          0.04101303592324257,
          0.07683093100786209,
          0.03133692219853401,
          -0.023973647505044937,
          0.09562420845031738,
          0.010237948969006538,
          -0.014439824968576431,
          -0.0901976004242897,
          0.05534590035676956,
          -0.019790953025221825,
          -0.0687805637717247,
          0.09480436891317368,
          -0.025873074308037758,
          -0.09355904161930084,
          -0.07846289873123169,
          -0.016797984018921852,
          0.08394927531480789,
          0.029922770336270332,
          -0.07085926830768585,
          0.005220980849117041,
          -0.08262789249420166,
          0.04521062597632408,
          0.11365820467472076,
          -0.10704014450311661,
          0.026488950476050377,
          0.10142843425273895,
          0.02987840585410595,
          -0.02754042111337185,
          0.03538135811686516,
          0.08004486560821533,
          0.06059576943516731,
          -0.03029729425907135,
          0.00783097930252552,
          0.024799777194857597,
          -0.016123849898576736,
          -0.029599934816360474,
          0.05804187431931496,
          0.11284079402685165,
          -0.020085807889699936,
          0.009135736152529716,
          0.0275300033390522,
          0.008211965672671795,
          -0.01422061212360859,
          0.07685847580432892,
          1.1145024044812747e-14,
          -0.023622995242476463,
          0.06519584357738495,
          0.02668466605246067,
          -0.02580200508236885,
          -0.04369629919528961,
          -0.11208794265985489,
          -0.1246950775384903,
          -0.0836123451590538,
          0.012173444032669067,
          0.039567720144987106,
          0.04496695101261139,
          -0.10484011471271515,
          -0.09916284680366516,
          0.033288225531578064,
          0.14767709374427795
        ],
        [
          -0.031772978603839874,
          -0.092352956533432,
          0.024415113031864166,
          -0.04794030264019966,
          -0.0947924479842186,
          0.022090625017881393,
          -0.07509894669055939,
          -0.04621783271431923,
          -0.16237613558769226,
          0.060239583253860474,
          0.08510799705982208,
          0.026659514755010605,
          -0.10211092233657837,
          -0.1269589066505432,
          -0.12153194844722748,
          0.08456778526306152,
          0.06883586943149567,
          0.06343446671962738,
          0.060555197298526764,
          0.02401626855134964,
          -0.03793950751423836,
          -0.08550729602575302,
          -0.15983261168003082,
          -0.18077796697616577,
          -0.004789586178958416,
          -0.13287442922592163,
          0.016300633549690247,
          -0.10030410438776016,
          -0.031048795208334923,
          -0.1000661551952362,
          -0.06282071024179459,
          0.07456370443105698,
          0.007847211323678493,
          0.11336609721183777,
          -0.023709215223789215,
          -0.03100622445344925,
          0.019341157749295235,
          -0.020628660917282104,
          -0.022651342675089836,
          -0.055427998304367065,
          0.1134316623210907,
          -0.07675684243440628,
          0.08290228247642517,
          0.06531330943107605,
          0.13427509367465973,
          -0.11881105601787567,
          0.11261053383350372,
          -0.02941393107175827,
          -0.002003028290346265,
          0.09117342531681061,
          -0.05709894374012947,
          0.018076252192258835,
          -0.0023134280927479267,
          -0.0507899671792984,
          0.013698851689696312,
          -0.10774191468954086,
          -1.2825401470304882e-20,
          0.16119708120822906,
          0.08799812942743301,
          0.008510694839060307,
          -0.01786845736205578,
          0.02009003609418869,
          0.055340491235256195,
          -0.1351001262664795,
          -0.028996901586651802,
          -0.04784754663705826,
          0.030852196738123894,
          -0.025170866400003433,
          -0.04087493196129799,
          -0.02743225172162056,
          -0.05181276053190231,
          0.12319986522197723
        ],
        [
          0.09725765138864517,
          -0.03607591241598129,
          -0.028885964304208755,
          -0.10888846963644028,
          -0.15930017828941345,
          -0.12990522384643555,
          0.025813337415456772,
          -0.11645445227622986,
          -0.11236383765935898,
          0.0013328560162335634,
          -0.07252199202775955,
          -0.09404762834310532,
          -0.03435059264302254,
          -0.04548231139779091,
          -0.0537862628698349,
          -0.012583090923726559,
          -0.10710643976926804,
          0.07676295936107635,
          -0.028636988252401352,
          0.03897334635257721,
          -0.10800101608037949,
          -0.044181354343891144,
          0.1369239091873169,
          0.05602556839585304,
          -0.09998748451471329,
          0.06225346028804779,
          0.13300396502017975,
          0.008282260969281197,
          0.048967380076646805,
          0.11577040702104568,
          0.02637423574924469,
          0.04409419745206833,
          -0.05077013000845909,
          0.02937295287847519,
          0.09770704060792923,
          0.04936344921588898,
          -0.01244225725531578,
          -0.0761946588754654,
          -0.09309347718954086,
          -0.07086527347564697,
          -0.08022269606590271,
          -0.012667306698858738,
          0.0900215357542038,
          0.046568866819143295,
          -0.1343410760164261,
          -0.09783608466386795,
          0.049991440027952194,
          -0.07394355535507202,
          0.030304765328764915,
          0.06354536861181259,
          -0.10710831731557846,
          -0.03758173808455467,
          -0.022677943110466003,
          -0.041825924068689346,
          -0.045885104686021805,
          -0.1146746501326561,
          5.347944675431733e-17,
          -0.07084587216377258,
          0.057679906487464905,
          -0.0478094257414341,
          -0.03206726908683777,
          0.0007508692797273397,
          0.048088446259498596,
          0.07356296479701996,
          0.10876114666461945,
          0.09617456048727036,
          -0.0769292563199997,
          0.046642035245895386,
          0.03848792612552643,
          0.07581844180822372,
          -0.07638226449489594,
          0.12629283964633942
        ],
        [
          -0.04666341096162796,
          -0.05781862512230873,
          -0.09890756756067276,
          0.006399359088391066,
          0.054863009601831436,
          0.03381229564547539,
          0.027929192408919334,
          -0.08671000599861145,
          -0.08775872737169266,
          0.0039193290285766125,
          0.1430785059928894,
          0.08505802601575851,
          -0.044306863099336624,
          -0.022461436688899994,
          -0.07169628888368607,
          -0.041150420904159546,
          0.05798521637916565,
          0.06895454972982407,
          0.10603825747966766,
          -0.09670781344175339,
          0.10543215274810791,
          -0.09227675199508667,
          0.035778749734163284,
          0.08931847661733627,
          0.010862812399864197,
          0.1009892001748085,
          -0.08588269352912903,
          -0.05177735909819603,
          0.07667044550180435,
          0.00814641360193491,
          0.016106238588690758,
          -0.036895573139190674,
          0.09161020815372467,
          0.06894756853580475,
          0.07122204452753067,
          -0.04148159176111221,
          -0.07543464004993439,
          0.0276021808385849,
          0.04338886961340904,
          -0.029700445011258125,
          -0.05368629842996597,
          0.09079176187515259,
          0.03821073845028877,
          -0.01125208381563425,
          0.06204252317547798,
          -0.07595667988061905,
          -0.14186245203018188,
          -0.01119285635650158,
          -0.12658554315567017,
          0.05946191027760506,
          -0.04238566383719444,
          0.01569242775440216,
          0.19577054679393768,
          0.09583176672458649,
          0.037885334342718124,
          -0.03497660160064697,
          3.3391182075233625e-23,
          0.07885103672742844,
          -0.0362972691655159,
          -0.05422012880444527,
          0.012181134894490242,
          0.015933478251099586,
          -0.12829726934432983,
          0.03601939231157303,
          0.07707485556602478,
          0.007929299958050251,
          -0.026777204126119614,
          -0.14681245386600494,
          -0.022335845977067947,
          -0.006995979230850935,
          0.12478385120630264,
          0.01640916056931019
        ],
        [
          -0.05263883247971535,
          0.05958820506930351,
          -0.1225215345621109,
          0.07282105833292007,
          -0.05104919895529747,
          -0.0033475507516413927,
          -0.053787361830472946,
          0.006482197903096676,
          -0.040091633796691895,
          0.09238549321889877,
          -0.029634127393364906,
          0.08812745660543442,
          0.09518944472074509,
          0.0052162217907607555,
          -0.09531847387552261,
          0.08924637734889984,
          0.05302257463335991,
          -0.11529013514518738,
          -0.009051506407558918,
          -0.13062788546085358,
          -0.10759077966213226,
          0.00393163925036788,
          0.04414822533726692,
          0.016034435480833054,
          -0.04922487959265709,
          0.10679847002029419,
          0.0032966164872050285,
          -0.0743798315525055,
          0.015426866710186005,
          -0.026848753914237022,
          0.056573789566755295,
          -0.057129982858896255,
          0.0711207389831543,
          -0.038350217044353485,
          -0.05526408180594444,
          -0.0705324113368988,
          0.1324310451745987,
          0.12602749466896057,
          0.13707903027534485,
          0.08744486421346664,
          0.07330384105443954,
          0.039879538118839264,
          -0.0317545123398304,
          0.05329679325222969,
          -0.07849884778261185,
          -0.07489489763975143,
          -0.009234936907887459,
          0.06006794795393944,
          0.10179835557937622,
          -0.003734610276296735,
          -0.04701504483819008,
          -0.0023721472825855017,
          -0.10982228070497513,
          -0.12374106794595718,
          0.11328046023845673,
          0.003732426092028618,
          -2.2586841658079823e-14,
          0.11753891408443451,
          0.02282620035111904,
          0.051960915327072144,
          0.0038836037274450064,
          -0.02073213830590248,
          0.025664178654551506,
          0.006992435548454523,
          0.048924967646598816,
          0.10103418678045273,
          -0.021557552739977837,
          -0.056847281754016876,
          -0.0332840234041214,
          -0.013033302500844002,
          -0.016126371920108795,
          0.0869862511754036
        ],
        [
          0.09977254271507263,
          0.0644255131483078,
          -0.06377166509628296,
          -0.03062298521399498,
          -0.01630994863808155,
          -0.009974204003810883,
          0.03024763986468315,
          -0.07662688195705414,
          0.05585534870624542,
          -0.07633216679096222,
          -0.07091086357831955,
          -0.07848748564720154,
          0.09341024607419968,
          -0.08665429055690765,
          0.07900130748748779,
          -0.012126199901103973,
          -0.013649853877723217,
          0.09334839135408401,
          -0.02127121016383171,
          0.031802497804164886,
          0.10350070893764496,
          -0.1278974413871765,
          0.023391390219330788,
          0.00954103097319603,
          0.00637038191780448,
          -0.006594943348318338,
          0.04152918606996536,
          -0.05937990918755531,
          0.012463507242500782,
          0.05951651930809021,
          0.0697869285941124,
          -0.00628116587176919,
          -0.0916764959692955,
          0.011544876731932163,
          -0.07612556219100952,
          0.1091293916106224,
          -0.06109016016125679,
          -0.018891558051109314,
          -0.012661993503570557,
          0.02084420621395111,
          0.09744303673505783,
          0.030281180515885353,
          0.11277571320533752,
          0.0957525372505188,
          0.13884888589382172,
          -0.08777125179767609,
          -0.06565067917108536,
          0.06485307216644287,
          -0.06096592918038368,
          0.03130791336297989,
          -0.026369014754891396,
          -0.059522949159145355,
          0.032243646681308746,
          0.009938608855009079,
          0.005913338623940945,
          0.1716862916946411,
          -1.1234294035782418e-19,
          0.18049556016921997,
          -0.034151215106248856,
          -0.09140493720769882,
          -0.050522830337285995,
          -0.0358598493039608,
          -0.13348440825939178,
          -0.06310395896434784,
          -0.10345856845378876,
          -0.10986185073852539,
          -0.0937533751130104,
          -0.13311168551445007,
          -0.04437335580587387,
          0.03965919837355614,
          0.10417677462100983,
          -0.05510430783033371
        ],
        [
          -0.019382571801543236,
          0.07202191650867462,
          -0.05450991541147232,
          -0.05492786318063736,
          0.08985200524330139,
          -0.09078622609376907,
          0.016472365707159042,
          0.09483091533184052,
          0.04846259579062462,
          0.03705495223402977,
          -0.039061930030584335,
          0.007914305664598942,
          0.030442602932453156,
          0.029798690229654312,
          0.08165136724710464,
          0.09120134264230728,
          -0.07398510724306107,
          0.007335279602557421,
          -0.05522535368800163,
          -0.06912308931350708,
          0.001391523634083569,
          -0.07576478272676468,
          0.06195614114403725,
          -0.01124633103609085,
          -0.07653496414422989,
          0.03891505300998688,
          -0.09811895340681076,
          0.004976833704859018,
          -0.0487256795167923,
          -0.08432353287935257,
          -0.0984833836555481,
          -0.02424865961074829,
          0.07384611666202545,
          0.10308419913053513,
          0.04931759834289551,
          -0.07734360545873642,
          -0.08801382035017014,
          0.09749454259872437,
          0.014400788582861423,
          -0.010472415015101433,
          0.03518735617399216,
          -0.11409290134906769,
          -0.04964352771639824,
          0.14673106372356415,
          -0.04249328747391701,
          0.009989326819777489,
          -0.11196228861808777,
          -0.03877021744847298,
          -0.009640387259423733,
          -0.07786242663860321,
          0.014472829177975655,
          -0.00409674970433116,
          -0.12766461074352264,
          0.03132404386997223,
          -0.05243625491857529,
          -0.07947894185781479,
          1.3236107802086104e-23,
          0.032799169421195984,
          -0.009659869596362114,
          -0.02793736383318901,
          -0.06369089335203171,
          -0.03871017321944237,
          -0.10248150676488876,
          -0.027580898255109787,
          0.004194526467472315,
          -0.1270037293434143,
          0.0720435306429863,
          0.05740487575531006,
          -0.12600859999656677,
          -0.06930263340473175,
          0.027823513373732567,
          -0.009944567456841469
        ],
        [
          -0.04135226458311081,
          -0.045712124556303024,
          0.10925742983818054,
          -0.07588855177164078,
          0.1049126610159874,
          0.013951068744063377,
          0.04000042378902435,
          0.11387855559587479,
          -0.02703920751810074,
          -0.029299065470695496,
          0.020666146650910378,
          0.0996464416384697,
          -0.070100799202919,
          0.012182005681097507,
          -0.09973324835300446,
          0.06570573896169662,
          0.06816600263118744,
          0.020474126562476158,
          0.06819238513708115,
          0.0076875085942447186,
          0.09580594301223755,
          -0.051779672503471375,
          -0.05409683287143707,
          0.013402845710515976,
          0.08948342502117157,
          0.019412972033023834,
          -0.049153443425893784,
          0.08904922753572464,
          -0.023291774094104767,
          -0.025058437138795853,
          -0.11360922455787659,
          -0.04581838473677635,
          0.05426390469074249,
          -0.014015048742294312,
          -0.10299606621265411,
          0.05039043352007866,
          -0.06067420914769173,
          0.08540084958076477,
          -0.1251424103975296,
          -0.06486959755420685,
          -0.0965164303779602,
          -0.07873254269361496,
          0.03400244563817978,
          0.10911507904529572,
          0.005183705594390631,
          0.10666625201702118,
          0.019263921305537224,
          0.022632231935858727,
          0.03622109442949295,
          0.02723018079996109,
          -0.07552598416805267,
          0.10939537733793259,
          0.08326944708824158,
          -0.05697675794363022,
          -0.08823394030332565,
          -0.127511665225029,
          2.7346502256819603e-24,
          -0.08617644757032394,
          0.042116980999708176,
          0.04656550660729408,
          -0.03823435306549072,
          0.002811212558299303,
          0.004433032590895891,
          0.03667308762669563,
          0.07160469144582748,
          -0.09531530737876892,
          0.09989325702190399,
          0.10369191318750381,
          0.06354860216379166,
          -0.07970227301120758,
          -0.036939576268196106,
          -0.050723616033792496
        ],
        [
          -0.03458036109805107,
          0.06597823649644852,
          0.05041797459125519,
          0.11540013551712036,
          -0.022380566224455833,
          0.03951284661889076,
          0.049518875777721405,
          -0.0710461437702179,
          -0.1386544555425644,
          -0.07290332019329071,
          0.03353094682097435,
          -0.09845578670501709,
          -0.16622556746006012,
          0.007725364528596401,
          0.02747626230120659,
          0.09583505988121033,
          -0.11352024972438812,
          -0.07552260160446167,
          0.044127173721790314,
          0.07990733534097672,
          0.06991041451692581,
          0.030082056298851967,
          0.029674259945750237,
          0.09053304046392441,
          -0.07955382019281387,
          -0.065948985517025,
          0.07737298309803009,
          -0.06865949928760529,
          -0.0817108005285263,
          0.08173000067472458,
          0.022763729095458984,
          0.026884833350777626,
          -0.05110195651650429,
          -0.011273400858044624,
          0.10563836991786957,
          -0.0683986023068428,
          0.0003446699120104313,
          0.056170254945755005,
          -0.11565463244915009,
          0.11280906200408936,
          -0.03787638619542122,
          -0.08604646474123001,
          -0.055645622313022614,
          -0.06453235447406769,
          -0.10092946141958237,
          0.06139256805181503,
          0.01921074278652668,
          -0.1312667578458786,
          -0.11066137999296188,
          0.09707974642515182,
          0.003069101134315133,
          0.04709400609135628,
          -0.08698522299528122,
          -0.04444465413689613,
          -0.08823870867490768,
          0.014462181366980076,
          6.977989018746505e-20,
          0.04328688234090805,
          0.0050473082810640335,
          -0.003831194480881095,
          0.07488331198692322,
          -0.01427774503827095,
          -0.005039211828261614,
          0.05037125572562218,
          -0.07104649394750595,
          -0.07520453631877899,
          0.0704655721783638,
          -0.00011851369345095009,
          -0.056430067867040634,
          0.12360617518424988,
          -0.06399809569120407,
          0.06826500594615936
        ],
        [
          0.09175272285938263,
          -0.06811629980802536,
          0.08313405513763428,
          -0.10115792602300644,
          -0.04644561558961868,
          0.009868534281849861,
          -0.06863678246736526,
          0.10976862907409668,
          0.021568745374679565,
          0.0380743183195591,
          -0.10722638666629791,
          0.05788515880703926,
          -0.06854143738746643,
          -0.08335213363170624,
          0.07919369637966156,
          0.05631604045629501,
          0.06314197182655334,
          -0.05590549111366272,
          -0.06917863339185715,
          0.06706816703081131,
          0.023480724543333054,
          0.026066230610013008,
          0.08729168027639389,
          0.028098417446017265,
          0.09500830620527267,
          0.13401372730731964,
          -0.03162973374128342,
          0.11677803844213486,
          0.028732068836688995,
          0.10260047018527985,
          -0.1137794703245163,
          -0.08332812041044235,
          0.003206531284376979,
          0.011528733186423779,
          0.056287411600351334,
          -0.01633240096271038,
          0.068952776491642,
          -0.06621300429105759,
          0.07546520233154297,
          -0.0001862191711552441,
          -0.04945344105362892,
          -0.11006663739681244,
          -0.1237717792391777,
          0.10170542448759079,
          -0.02827710099518299,
          -0.011618496850132942,
          0.03578343614935875,
          -0.09661169350147247,
          -0.056107934564352036,
          -0.15333710610866547,
          -0.13028044998645782,
          -0.06233392283320427,
          0.022775815799832344,
          0.014521021395921707,
          -0.07822972536087036,
          0.03680434450507164,
          -1.2405717472281913e-22,
          0.10293564945459366,
          0.07642953842878342,
          0.015661491081118584,
          -0.06838453561067581,
          0.06812687963247299,
          -0.101781465113163,
          -0.003963002935051918,
          0.05335661396384239,
          0.059525806456804276,
          0.09701820462942123,
          0.1523311883211136,
          0.027477268129587173,
          -0.10070507228374481,
          0.20238792896270752,
          -0.09151437878608704
        ],
        [
          -0.052403707057237625,
          0.07184748351573944,
          0.10705776512622833,
          0.020452821627259254,
          0.004778856411576271,
          -0.12420664727687836,
          0.005100604146718979,
          0.11781968921422958,
          0.03777260333299637,
          -0.023568443953990936,
          -0.05963175371289253,
          -0.06308229267597198,
          0.017277536913752556,
          -0.02631366439163685,
          0.08248355984687805,
          -0.0004215962253510952,
          0.034842461347579956,
          0.05772172287106514,
          0.011903983540832996,
          0.09461630880832672,
          0.0531478151679039,
          0.09855865687131882,
          0.08652515709400177,
          -0.019040390849113464,
          -0.07254084199666977,
          0.03466218337416649,
          -0.02738814614713192,
          -0.009506821632385254,
          0.002299956977367401,
          -0.016273468732833862,
          0.07463985681533813,
          0.008667662739753723,
          -0.06431186944246292,
          -0.07491419464349747,
          -0.04301433265209198,
          -0.03996128961443901,
          0.09179232269525528,
          0.021305007860064507,
          0.09195181727409363,
          -0.02151404693722725,
          0.06245867908000946,
          -0.0012280000373721123,
          -0.11071134358644485,
          0.029921341687440872,
          0.05826215445995331,
          -0.06050128489732742,
          -0.08475105464458466,
          0.07414466887712479,
          0.035076264292001724,
          0.01723795011639595,
          0.08209153264760971,
          -0.08530502021312714,
          -0.017605623230338097,
          0.05156944692134857,
          -0.061618316918611526,
          0.005760180298238993,
          2.1802846438007405e-16,
          0.03970390558242798,
          -0.0988696739077568,
          -0.04500254616141319,
          0.09926984459161758,
          0.02214234322309494,
          -0.026958059519529343,
          0.03002944216132164,
          -0.07235632091760635,
          -0.02799837663769722,
          0.0912797749042511,
          0.02322051115334034,
          -0.08853129297494888,
          -0.07939399033784866,
          -0.017266230657696724,
          -0.08669110387563705
        ],
        [
          -0.04069657623767853,
          0.07156766951084137,
          0.03481192886829376,
          -0.04400567337870598,
          -0.11323827505111694,
          -0.011627992615103722,
          -0.03302847221493721,
          -0.05561032518744469,
          -0.08202675729990005,
          0.0064814165234565735,
          -0.05177726969122887,
          -0.1054554283618927,
          -0.07738953083753586,
          0.005393688101321459,
          -0.04462664574384689,
          -0.01422293670475483,
          0.06706016510725021,
          0.07901374250650406,
          0.09600211679935455,
          -0.10553852468729019,
          -0.10213185101747513,
          -0.0021656062453985214,
          0.07706871628761292,
          0.010051492601633072,
          -0.06438107043504715,
          0.001100721419788897,
          -0.0542258694767952,
          0.00010569067671895027,
          -0.085894376039505,
          0.15240316092967987,
          -0.0017578455153852701,
          -0.06935816258192062,
          0.04604146257042885,
          -0.022374683991074562,
          0.0028621458914130926,
          0.03587101399898529,
          0.04555441066622734,
          -0.08334822952747345,
          0.0653897076845169,
          -0.0030601273756474257,
          -0.03168772906064987,
          0.017688747495412827,
          0.051262982189655304,
          0.1410265862941742,
          0.05490750074386597,
          -0.06411602348089218,
          0.05836493521928787,
          0.12642434239387512,
          -0.1405690610408783,
          -0.10842626541852951,
          -0.12213252484798431,
          0.05151118338108063,
          0.061004966497421265,
          0.008129851892590523,
          -0.023950260132551193,
          0.055609364062547684,
          -2.5248832362985095e-24,
          -0.029691141098737717,
          0.04145034775137901,
          -0.07555583119392395,
          0.025791676715016365,
          -0.006328107789158821,
          -0.05293891206383705,
          -0.1207270398736,
          0.021761713549494743,
          -0.006131297443062067,
          -0.01597779057919979,
          -0.0018614399014040828,
          -0.05820876359939575,
          -0.010227213613688946,
          -0.05111919716000557,
          -0.03878730908036232
        ],
        [
          -0.020480873063206673,
          -0.005486856680363417,
          0.07833927869796753,
          -0.09575971215963364,
          -0.08472299575805664,
          0.02750636637210846,
          0.06438634544610977,
          0.04114433750510216,
          -0.0761411190032959,
          0.0440518856048584,
          0.10279116779565811,
          0.04370516166090965,
          -0.07093925774097443,
          -0.058881696313619614,
          -0.13777469098567963,
          -0.056973621249198914,
          0.09781105816364288,
          0.028581390157341957,
          0.10516320168972015,
          -0.08889790624380112,
          0.028513934463262558,
          -0.062317073345184326,
          0.08116132766008377,
          -0.007498693186789751,
          0.005371498875319958,
          -0.06483034044504166,
          -0.010684414766728878,
          0.16489426791667938,
          0.02527163177728653,
          -0.03429283946752548,
          0.022111350670456886,
          -0.037008173763751984,
          -0.1129816398024559,
          0.08778510987758636,
          -0.003476249985396862,
          -0.0021529165096580982,
          -0.047467850148677826,
          -0.07748531550168991,
          -0.0011176944244652987,
          0.03670675307512283,
          -0.01269068568944931,
          -0.04730244353413582,
          0.07352472096681595,
          -0.05927901342511177,
          -0.10366284102201462,
          -0.0335320420563221,
          0.06979858130216599,
          -0.01880713924765587,
          0.054477375000715256,
          0.019605042412877083,
          -0.0128203509375453,
          -0.10524376481771469,
          -0.09376686066389084,
          0.048334017395973206,
          0.1562083214521408,
          0.06561324745416641,
          -6.036176036695259e-21,
          0.016318324953317642,
          -0.05422580614686012,
          0.022331347689032555,
          -0.0005463942652568221,
          -0.03379955515265465,
          0.10726718604564667,
          0.10184068232774734,
          0.049363743513822556,
          0.029035471379756927,
          -0.08886729925870895,
          -0.0005284716025926173,
          0.020251287147402763,
          -0.013951909728348255,
          -0.16333886981010437,
          -0.028604857623577118
        ],
        [
          -0.04777215048670769,
          -0.01787460967898369,
          -0.07676677405834198,
          -0.11447007209062576,
          0.00022508982510771602,
          0.09716972708702087,
          0.10334137082099915,
          0.05715056136250496,
          -0.026928894221782684,
          -0.1038258969783783,
          0.07923122495412827,
          0.06514761596918106,
          -0.07514870911836624,
          0.06682580709457397,
          0.11825466901063919,
          0.0008633043617010117,
          -0.05578099936246872,
          0.09641613066196442,
          0.06664802134037018,
          0.08994865417480469,
          -0.07030729949474335,
          0.04520174115896225,
          -0.0771363228559494,
          0.11586925387382507,
          -0.03892804682254791,
          0.07435844093561172,
          0.0509481206536293,
          0.0033634279388934374,
          -0.011478354223072529,
          0.02512374334037304,
          -0.044228632003068924,
          -0.10303547233343124,
          -0.0330253429710865,
          0.10812904685735703,
          -0.03071199543774128,
          0.027851447463035583,
          -0.0321221686899662,
          0.09610547125339508,
          0.06968463957309723,
          0.05264082923531532,
          -0.08023928105831146,
          -0.07178293913602829,
          0.016348445788025856,
          -0.06717947125434875,
          0.11642419546842575,
          -0.10014838725328445,
          0.04890822619199753,
          0.1385931372642517,
          0.023479092866182327,
          0.09390542656183243,
          -0.13193418085575104,
          0.12367156147956848,
          0.03299679607152939,
          -0.05673232674598694,
          0.08463104814291,
          -0.03866133093833923,
          1.9997254168803327e-26,
          0.127228245139122,
          -0.027622127905488014,
          -0.08824894577264786,
          -0.0059341005980968475,
          0.00991039164364338,
          0.0022866518702358007,
          -0.10361912846565247,
          -0.02134612388908863,
          -0.03295719623565674,
          -0.056576598435640335,
          -0.11088231205940247,
          0.036888930946588516,
          0.004118196666240692,
          -0.06738697737455368,
          0.12236461788415909
        ],
        [
          0.0119237145408988,
          0.0254050325602293,
          -0.060917384922504425,
          0.0013082341756671667,
          0.12574593722820282,
          0.08358745276927948,
          -0.08309376239776611,
          0.1317743957042694,
          0.014182675629854202,
          0.03650076687335968,
          0.1162845715880394,
          0.1095147505402565,
          -0.054807648062705994,
          0.08420445024967194,
          -0.04234496131539345,
          0.0346202589571476,
          -0.04343763366341591,
          -0.02021455019712448,
          0.012928435578942299,
          -0.03756370767951012,
          0.016697239130735397,
          -0.06885005533695221,
          0.06040284410119057,
          0.02502541057765484,
          0.012308554723858833,
          -0.023537088185548782,
          0.09309026598930359,
          -0.04096509516239166,
          0.017641166225075722,
          0.0587908998131752,
          -0.10396413505077362,
          -0.11905539780855179,
          -0.019562769681215286,
          -0.06571070849895477,
          -0.05212391912937164,
          0.008036077953875065,
          -0.0037573983427137136,
          0.04925862327218056,
          -0.07701222598552704,
          0.04377538710832596,
          0.08149442821741104,
          -0.039706964045763016,
          -0.09482572227716446,
          -0.11058104783296585,
          -0.08067990094423294,
          -0.04953404888510704,
          -0.033201683312654495,
          -0.07148140668869019,
          -0.04626759886741638,
          -0.04402783513069153,
          -0.042141612619161606,
          0.11867637187242508,
          -0.08219233900308609,
          -0.11275386810302734,
          -0.0032457485795021057,
          0.03895997628569603,
          5.2289221533998455e-18,
          0.11931055784225464,
          0.1466362327337265,
          -0.11231078207492828,
          0.10081416368484497,
          0.06586989760398865,
          -0.05663655325770378,
          0.11197780817747116,
          0.07955025881528854,
          0.003943591378629208,
          0.053765419870615005,
          -0.05834946408867836,
          -0.0946071520447731,
          0.02798096090555191,
          -0.004360075108706951,
          -0.08738882094621658
        ],
        [
          0.07702326029539108,
          -0.07203735411167145,
          0.09853377193212509,
          0.10078393667936325,
          0.009098159149289131,
          -0.045696333050727844,
          0.055368248373270035,
          0.004724904429167509,
          0.027584100142121315,
          0.053905636072158813,
          0.09265140444040298,
          -0.06706569343805313,
          -0.004508294630795717,
          0.02167283371090889,
          0.011767718940973282,
          0.09394607692956924,
          -0.07907064259052277,
          -0.00025627133436501026,
          0.03256570175290108,
          -0.03301794081926346,
          0.04705635830760002,
          0.05467939004302025,
          -0.06652647256851196,
          0.008471055887639523,
          -0.025207074359059334,
          0.04750639200210571,
          -0.042915794998407364,
          -0.10852073132991791,
          -0.00255467277020216,
          -0.017943069338798523,
          -0.06375068426132202,
          0.07271992415189743,
          -0.037622738629579544,
          0.05973656848073006,
          0.004167335573583841,
          -0.1293649673461914,
          0.005731584504246712,
          0.05317976325750351,
          -0.061241839081048965,
          -0.09349150210618973,
          0.08458945155143738,
          0.07032029330730438,
          -0.08375204354524612,
          0.05554083734750748,
          -0.05568617209792137,
          -0.08995335549116135,
          0.00785504188388586,
          0.03048165887594223,
          -0.003787234192714095,
          0.02384081296622753,
          -0.07718049734830856,
          0.05219649150967598,
          0.055477261543273926,
          0.02767167240381241,
          0.039627332240343094,
          0.009158127941191196,
          1.866144277338007e-19,
          -0.07039957493543625,
          -0.039702028036117554,
          -0.07866288721561432,
          -0.0738287940621376,
          0.012123736552894115,
          0.09523534774780273,
          -0.1106553003191948,
          0.06079477816820145,
          0.03442906588315964,
          0.12825672328472137,
          0.05931859090924263,
          0.12984345853328705,
          -0.012667756527662277,
          0.05266452953219414,
          0.037599772214889526
        ],
        [
          -0.07777954638004303,
          -0.04930359870195389,
          0.024017341434955597,
          0.06023451313376427,
          -0.056438855826854706,
          0.056859567761421204,
          0.0005031671607866883,
          0.03456253558397293,
          -0.03674213960766792,
          0.06368497759103775,
          0.08702277392148972,
          -0.06496161967515945,
          0.030223045498132706,
          0.0029633850790560246,
          0.05395178124308586,
          0.07636195421218872,
          0.04983102157711983,
          -0.016531648114323616,
          0.0960143432021141,
          -0.03664599731564522,
          -0.015237648971378803,
          0.013050359673798084,
          -0.06055840477347374,
          0.04099693149328232,
          -0.03363608196377754,
          0.04884793236851692,
          -0.014007052406668663,
          0.02936912700533867,
          -0.08232951164245605,
          -0.06839463859796524,
          0.030602773651480675,
          0.07216589152812958,
          -0.1302518993616104,
          0.016115998849272728,
          -0.1045202985405922,
          -0.0316406786441803,
          0.07459473609924316,
          0.06872668117284775,
          -0.09564273059368134,
          0.046054888516664505,
          0.017422927543520927,
          -0.02697695977985859,
          0.061033688485622406,
          -0.0940374955534935,
          -0.07014305144548416,
          -0.02959301508963108,
          -0.0024804743006825447,
          0.012813237495720387,
          0.05032302811741829,
          -0.029917312785983086,
          -0.03356018289923668,
          0.04339561238884926,
          -0.08473289012908936,
          -0.008047526702284813,
          0.03843654319643974,
          -0.12940309941768646,
          1.5353973718385628e-23,
          -0.05402674153447151,
          0.025685112923383713,
          -0.025792371481657028,
          -0.10301423072814941,
          0.049111850559711456,
          0.0014034175546839833,
          -0.022202204912900925,
          -0.08479518443346024,
          -0.0036468496546149254,
          -0.10881250351667404,
          -0.023372439667582512,
          0.08364682644605637,
          -0.10825733095407486,
          -0.08251124620437622,
          -0.10289037972688675
        ],
        [
          0.07380721718072891,
          0.07724946737289429,
          -0.02755042351782322,
          0.08697236329317093,
          -0.015544543974101543,
          -0.13427521288394928,
          0.005593386013060808,
          0.041651394218206406,
          0.10438209027051926,
          -0.023772450163960457,
          0.10868821293115616,
          0.10428538918495178,
          0.07885874062776566,
          -0.1283605694770813,
          0.0974651426076889,
          -0.0856168195605278,
          0.07890279591083527,
          -0.03986070305109024,
          -0.1434488147497177,
          0.07653431594371796,
          0.013705793768167496,
          -0.14095763862133026,
          -0.05050395429134369,
          0.014112529344856739,
          0.08004287630319595,
          -0.04650194197893143,
          0.04269354045391083,
          -0.05368361249566078,
          0.0817120298743248,
          -0.046341679990291595,
          -0.09069600701332092,
          -0.056306373327970505,
          -0.038595590740442276,
          -0.1336597204208374,
          -0.02661568485200405,
          -0.00011345137318130583,
          -0.09430099278688431,
          -0.018246574327349663,
          0.004616125486791134,
          -0.014013493433594704,
          -0.09364381432533264,
          0.037524089217185974,
          -0.03710119053721428,
          0.08288530260324478,
          0.0477432943880558,
          -0.026331646367907524,
          -0.07114990055561066,
          0.01844741404056549,
          -0.04968196153640747,
          0.032592859119176865,
          -0.09131855517625809,
          0.13299785554409027,
          0.0037535002920776606,
          0.09709902107715607,
          -0.12009511888027191,
          -0.12596425414085388,
          3.135550915437089e-24,
          -0.0026201813016086817,
          0.040340445935726166,
          -0.008635998703539371,
          0.01426709070801735,
          -0.020280780270695686,
          0.0950460284948349,
          0.04656296968460083,
          0.009454268030822277,
          0.07906243950128555,
          -0.05804559588432312,
          -0.014556356705725193,
          0.08757580071687698,
          0.041011180728673935,
          -0.1266607791185379,
          -0.0020806919783353806
        ],
        [
          -0.08323508501052856,
          -0.017066393047571182,
          -0.022008303552865982,
          -0.11678607016801834,
          -0.12767437100410461,
          -0.08882908523082733,
          0.05429936572909355,
          0.04434246942400932,
          -0.13068421185016632,
          -0.03443712741136551,
          -0.005865403451025486,
          -0.11625741422176361,
          0.06203713268041611,
          0.09311263263225555,
          0.02574203722178936,
          -0.05110485106706619,
          0.05844009295105934,
          0.04154866933822632,
          0.12360023707151413,
          -0.07250770926475525,
          -0.114302858710289,
          0.03209366649389267,
          0.00044022162910550833,
          -0.042185958474874496,
          -0.05292465537786484,
          -0.06615932285785675,
          0.08905767649412155,
          -0.04276478663086891,
          0.10386356711387634,
          0.11899177730083466,
          0.0465831533074379,
          0.024050217121839523,
          0.004416699521243572,
          0.0985250473022461,
          -0.1094537079334259,
          0.07905114442110062,
          -0.0018074115505442023,
          0.045214034616947174,
          0.0027399687096476555,
          -0.03133206069469452,
          0.03048650175333023,
          0.08782842010259628,
          -0.09565610438585281,
          -0.06991801410913467,
          -0.03973326086997986,
          -0.02624124102294445,
          0.02144470252096653,
          0.09021136909723282,
          0.006818537600338459,
          0.12535163760185242,
          -0.05298493430018425,
          -0.06145865470170975,
          -0.059330809861421585,
          -0.07139681279659271,
          -0.06682783365249634,
          -0.11049902439117432,
          -3.998542694324224e-15,
          0.024622410535812378,
          0.03061482682824135,
          0.10082115232944489,
          0.08205070346593857,
          -0.0033396503422409296,
          0.04583024978637695,
          -0.04997004196047783,
          0.06848212331533432,
          -0.09891455620527267,
          0.07236246764659882,
          0.037628479301929474,
          0.04375084489583969,
          0.0538974329829216,
          -0.019491488113999367,
          0.10231117159128189
        ],
        [
          0.05922441929578781,
          0.05530915409326553,
          0.022671448066830635,
          0.10213512927293777,
          0.10014069825410843,
          0.031628016382455826,
          0.09544267505407333,
          -0.02266489528119564,
          0.08909692615270615,
          0.03005000576376915,
          0.06895466893911362,
          0.11398933082818985,
          0.012182864360511303,
          -0.05843638256192207,
          -0.03560890629887581,
          0.0074400450102984905,
          0.02440079301595688,
          -0.029496915638446808,
          0.08227954059839249,
          0.041384413838386536,
          -0.04916625842452049,
          -0.016010351479053497,
          -0.005880311597138643,
          -0.05043483525514603,
          0.02963152714073658,
          -0.02135036326944828,
          -0.0459909662604332,
          -0.03622914105653763,
          -0.07002656161785126,
          0.08946994692087173,
          0.040721744298934937,
          0.11832622438669205,
          0.025089789181947708,
          0.01483720913529396,
          0.05181645229458809,
          0.020383311435580254,
          -0.09744208306074142,
          -0.04331434890627861,
          -0.04337919130921364,
          -0.015025532804429531,
          0.037799328565597534,
          0.06610871106386185,
          0.08305870741605759,
          0.007326350547373295,
          -0.04595379903912544,
          -0.08146509528160095,
          -0.10489640384912491,
          -0.0734827071428299,
          0.03788796439766884,
          0.10214018076658249,
          0.10775791853666306,
          -0.008448943495750427,
          -0.02206464670598507,
          -0.0376175157725811,
          0.01429446879774332,
          0.004325964022427797,
          1.4408769998776867e-25,
          0.0024272932205349207,
          0.009877864271402359,
          0.05778070166707039,
          -0.027051705867052078,
          -0.030486542731523514,
          0.034914787858724594,
          0.001650527585297823,
          -0.06406773626804352,
          0.03414421156048775,
          0.0030103472527116537,
          -0.015135840512812138,
          -0.025700634345412254,
          -0.012470356188714504,
          -0.11915723979473114,
          0.00990530289709568
        ],
        [
          0.0026988093741238117,
          0.09598351269960403,
          0.020502984523773193,
          0.0005740824271924794,
          0.008629212155938148,
          0.11381570994853973,
          -0.04124213755130768,
          0.06694173067808151,
          0.030015714466571808,
          -0.058704886585474014,
          0.06213323026895523,
          -0.08606728911399841,
          0.0021367056760936975,
          -0.010708453133702278,
          -0.06798480451107025,
          0.1202843189239502,
          -0.08221157640218735,
          0.07544828206300735,
          -0.0640287846326828,
          -0.03386729583144188,
          0.010222380049526691,
          0.08897415548563004,
          -0.02644689939916134,
          0.012659062631428242,
          -0.0014966244343668222,
          0.05697951465845108,
          0.02807685360312462,
          0.06261090189218521,
          -0.11441656202077866,
          -0.07656356692314148,
          0.12798844277858734,
          -0.08746867626905441,
          -0.01282859593629837,
          0.0049376655369997025,
          0.10640449821949005,
          -0.012345490045845509,
          -0.07059954106807709,
          -0.031200068071484566,
          0.0355253592133522,
          0.05578300729393959,
          0.10643769800662994,
          -0.013494529761373997,
          0.07466504722833633,
          -0.1022758036851883,
          0.01657208614051342,
          0.06098959222435951,
          0.027032623067498207,
          -0.03477970138192177,
          -0.025723528116941452,
          0.016230139881372452,
          -0.06340847164392471,
          -0.07624432444572449,
          -0.0797286331653595,
          0.007186150178313255,
          0.05643470212817192,
          0.02407235838472843,
          5.264538192778418e-25,
          0.05774731561541557,
          -0.06386960297822952,
          0.017308199778199196,
          -0.00954830925911665,
          -0.026590930297970772,
          0.12783198058605194,
          -0.06596320867538452,
          0.04944632947444916,
          -0.09243280440568924,
          -0.01291966438293457,
          -0.07072792947292328,
          0.07043357938528061,
          -0.05991106107831001,
          0.06014307215809822,
          -0.09529489278793335
        ],
        [
          0.09290336817502975,
          -0.08256488293409348,
          0.051092568784952164,
          -0.038720324635505676,
          0.014232676476240158,
          -0.016205644235014915,
          0.06426191329956055,
          0.033629026263952255,
          -0.07434601336717606,
          0.04479213431477547,
          -0.08671147376298904,
          0.09338828176259995,
          0.016571449115872383,
          0.012918365187942982,
          -0.051647961139678955,
          0.0072004529647529125,
          -0.08108928799629211,
          0.04604843258857727,
          0.04577457532286644,
          0.06975564360618591,
          0.029090607538819313,
          -0.0756727010011673,
          0.07759466767311096,
          -0.006597633473575115,
          -0.008706079795956612,
          0.0038779093883931637,
          0.06546224653720856,
          0.08235300332307816,
          0.026446109637618065,
          0.05400104075670242,
          -0.11731941998004913,
          0.00797482579946518,
          -0.13712254166603088,
          0.005902085453271866,
          -0.07505573332309723,
          -0.06773050129413605,
          0.05264205485582352,
          0.11014442145824432,
          -0.07127796858549118,
          -0.07757015526294708,
          -0.029213080182671547,
          0.023958439007401466,
          -0.042324408888816833,
          -0.052861765027046204,
          -0.07175135612487793,
          0.024517038837075233,
          0.1502860188484192,
          -0.05568341538310051,
          0.04014835134148598,
          0.00952167809009552,
          0.1422443389892578,
          0.023280495777726173,
          0.00018979479500558227,
          0.08334284275770187,
          0.09194236993789673,
          0.08770908415317535,
          -2.816300484815956e-24,
          0.037450969219207764,
          0.06785041093826294,
          -0.09249748289585114,
          0.024050042033195496,
          -0.0034494642168283463,
          0.049611881375312805,
          -0.042120613157749176,
          -0.00444312347099185,
          0.031042948365211487,
          -0.07020285725593567,
          -0.11108244210481644,
          -0.050440941005945206,
          0.06323673576116562,
          0.056125737726688385,
          -0.11482924968004227
        ],
        [
          0.010379652492702007,
          -0.07040176540613174,
          -0.054742481559515,
          0.09679248929023743,
          0.05675869807600975,
          -0.04079507291316986,
          0.015246344730257988,
          0.02337855100631714,
          0.017203515395522118,
          -0.03121262788772583,
          -0.03419410437345505,
          0.08755812048912048,
          0.04506143555045128,
          0.07748343795537949,
          -0.04352135956287384,
          0.05789200961589813,
          0.10314540565013885,
          0.06626826524734497,
          0.0475875586271286,
          0.10864904522895813,
          -0.005295454524457455,
          0.0361127145588398,
          0.11386165767908096,
          0.11586680263280869,
          -0.06240851804614067,
          0.1004701629281044,
          0.04282600060105324,
          0.00026644417084753513,
          0.1195012703537941,
          -0.07642187923192978,
          0.08559353649616241,
          0.11522851139307022,
          -0.0744028240442276,
          -0.05565506964921951,
          -0.11490423232316971,
          -0.03489485755562782,
          -0.09313298016786575,
          -0.026696261018514633,
          0.01981884054839611,
          0.08826030045747757,
          0.03683929145336151,
          0.09087648242712021,
          0.054411303251981735,
          -0.08224160224199295,
          -0.06350353360176086,
          0.007502093445509672,
          0.11125253885984421,
          0.009471144527196884,
          -0.013271800242364407,
          -0.05549630522727966,
          -0.03909805417060852,
          -0.11670294404029846,
          0.09145759046077728,
          -0.00837621372193098,
          -0.0751771628856659,
          0.017609236761927605,
          -6.799981003005122e-25,
          0.002171345753595233,
          0.018429843708872795,
          0.04873340204358101,
          -0.07927460223436356,
          -0.04069497436285019,
          -0.010709783062338829,
          -0.14034010469913483,
          -0.1000678613781929,
          0.06209969148039818,
          -0.010647241026163101,
          -0.054270848631858826,
          -0.05514422804117203,
          -0.08894629031419754,
          0.12228643149137497,
          -0.047659311443567276
        ],
        [
          -0.06720471382141113,
          -0.074653260409832,
          0.04883286729454994,
          -0.025335248559713364,
          -0.018361281603574753,
          -0.016992289572954178,
          -0.07390418648719788,
          0.024001793935894966,
          0.0781235322356224,
          -0.061050884425640106,
          0.016785286366939545,
          -0.08635786920785904,
          -0.04473363235592842,
          0.11784495413303375,
          0.019993992522358894,
          0.11960858851671219,
          -0.024700654670596123,
          -0.07696977257728577,
          -0.06864245235919952,
          0.11959780007600784,
          -0.08592091500759125,
          0.07547808438539505,
          0.005798587575554848,
          0.045526087284088135,
          0.06836624443531036,
          -0.03600233793258667,
          0.0857277661561966,
          -0.08277495950460434,
          -0.035680994391441345,
          0.09327629953622818,
          0.037914641201496124,
          -0.0016695383237674832,
          -0.01709595136344433,
          -0.05986711382865906,
          0.07918085157871246,
          -0.03601035103201866,
          0.005483781918883324,
          0.037420518696308136,
          0.09375245869159698,
          -0.04781557619571686,
          -0.04779081791639328,
          0.07805728912353516,
          0.052731335163116455,
          -0.07030440866947174,
          -0.08317854255437851,
          0.03039923682808876,
          0.055597636848688126,
          0.020033953711390495,
          0.0624026283621788,
          -0.08397410064935684,
          0.0587083138525486,
          -0.03145158663392067,
          0.10535494238138199,
          0.11549387872219086,
          0.019468102604150772,
          0.07056939601898193,
          1.922916720081333e-20,
          -0.13349668681621552,
          -0.06238489970564842,
          0.03595156967639923,
          0.008864627219736576,
          -0.001077062333934009,
          0.034942351281642914,
          0.09360212087631226,
          -0.10208312422037125,
          0.08396928012371063,
          0.030978044494986534,
          0.005574068054556847,
          0.1004752516746521,
          0.1320335865020752,
          0.07944636046886444,
          0.10741978138685226
        ],
        [
          0.075087770819664,
          0.03701440617442131,
          -0.08955636620521545,
          0.05359867960214615,
          -0.05678640305995941,
          0.053717419505119324,
          0.028258157894015312,
          -0.009139242582023144,
          -0.050815604627132416,
          -0.09115636348724365,
          0.06608308851718903,
          0.08064258843660355,
          0.07173536717891693,
          -0.0864906907081604,
          0.0046130078844726086,
          -0.08615532517433167,
          0.06196770817041397,
          -0.033600255846977234,
          0.055249594151973724,
          0.061200544238090515,
          -0.09774761646986008,
          0.01575460098683834,
          0.014240858145058155,
          -0.032714780420064926,
          0.06680294126272202,
          0.01869112439453602,
          0.08592961728572845,
          -0.09447745978832245,
          0.07696607708930969,
          -0.10200876742601395,
          -0.06494076550006866,
          -0.010220350697636604,
          0.07279574126005173,
          0.028885429725050926,
          -0.06911629438400269,
          0.011325860396027565,
          -0.09652940183877945,
          -0.019820798188447952,
          -0.057208362966775894,
          -0.06264413148164749,
          0.09000041335821152,
          -0.10436469316482544,
          -0.13277111947536469,
          0.025271441787481308,
          -0.030760593712329865,
          -0.025824567303061485,
          0.10915428400039673,
          -0.08053907006978989,
          -0.021320372819900513,
          -0.08639539778232574,
          0.016262445598840714,
          -0.07374884188175201,
          0.05312475562095642,
          -0.012266143225133419,
          0.11231245845556259,
          -0.03692973777651787,
          -7.715236657757237e-17,
          0.025920366868376732,
          -0.053936347365379333,
          -0.014652333222329617,
          -0.05897717922925949,
          -0.01655641198158264,
          -0.08609901368618011,
          -0.07158299535512924,
          0.11018548905849457,
          -0.10728229582309723,
          0.0926770269870758,
          0.026726799085736275,
          0.08112617582082748,
          -0.06447166949510574,
          0.06981831043958664,
          0.004218630492687225
        ],
        [
          0.005799582228064537,
          0.09027519077062607,
          -0.0994008481502533,
          -0.10007879137992859,
          0.10000059753656387,
          -0.058354150503873825,
          -0.0730755403637886,
          -0.017572149634361267,
          -0.06644494086503983,
          -0.03131116181612015,
          -0.05225512757897377,
          0.01222301460802555,
          -0.08037492632865906,
          0.011696998029947281,
          0.05349806323647499,
          0.058519840240478516,
          0.06598610430955887,
          0.02762940153479576,
          0.001978963380679488,
          0.003380306763574481,
          -0.07715719938278198,
          -0.07694793492555618,
          -0.06341475993394852,
          0.08925039321184158,
          -0.03288371115922928,
          0.023684820160269737,
          0.1058129221200943,
          -0.017063258215785027,
          -0.09133268147706985,
          -0.07097942382097244,
          -0.018288016319274902,
          0.02170831523835659,
          -0.10846883803606033,
          -0.01518905907869339,
          0.04642985761165619,
          0.0559140145778656,
          0.03906547650694847,
          0.011349346488714218,
          0.07039269804954529,
          0.0606224462389946,
          0.01987200230360031,
          -0.05550846457481384,
          -0.1050872877240181,
          -0.021673044189810753,
          -0.0646195188164711,
          0.04459446296095848,
          -0.006497138179838657,
          0.02972784824669361,
          0.13282452523708344,
          -0.010208136402070522,
          -0.10775087028741837,
          -0.10689036548137665,
          -0.048938773572444916,
          0.07199551165103912,
          -0.03813924640417099,
          -0.09126291424036026,
          -2.816279185571515e-24,
          -0.11645334959030151,
          -0.015428977087140083,
          -0.06856213510036469,
          -0.026272011920809746,
          -0.013539117760956287,
          0.007382143754512072,
          0.027077190577983856,
          0.010757793672382832,
          -0.03869939595460892,
          0.028775174170732498,
          -0.023943113163113594,
          -0.043715156614780426,
          -0.11194398254156113,
          -0.03718150779604912,
          -0.12374788522720337
        ],
        [
          0.09956789761781693,
          -0.07505331188440323,
          -0.051886387169361115,
          0.013343868777155876,
          0.04028632864356041,
          -0.0304600577801466,
          0.07518205046653748,
          -0.07563874125480652,
          0.054722387343645096,
          0.0049024177715182304,
          -0.08480662107467651,
          -0.046429045498371124,
          0.0259553212672472,
          -0.03570640832185745,
          0.07295981049537659,
          0.060203514993190765,
          -0.04390509054064751,
          -0.05691807344555855,
          -0.030351385474205017,
          -0.07563164830207825,
          -0.037441227585077286,
          -0.08630161732435226,
          0.04406529292464256,
          0.06243171542882919,
          0.015875549986958504,
          -0.08665982633829117,
          -0.06772007793188095,
          -0.03339725732803345,
          0.004086441360414028,
          -0.001331151695922017,
          0.014348944649100304,
          0.11094041168689728,
          0.04359159618616104,
          0.016484251245856285,
          -0.029489442706108093,
          0.05462447926402092,
          0.03180886432528496,
          -0.09154181182384491,
          -0.08917110413312912,
          -0.0055075157433748245,
          0.05729934200644493,
          0.041500721126794815,
          -0.05917153134942055,
          -0.11370138078927994,
          -0.021226536482572556,
          -0.0020283348858356476,
          0.05378735065460205,
          -0.0749618262052536,
          0.05743132904171944,
          0.013351619243621826,
          0.09836184233427048,
          -0.09647435694932938,
          0.04458396136760712,
          0.020645439624786377,
          -0.03446166217327118,
          0.021788455545902252,
          -1.4308836233933864e-12,
          0.04984355717897415,
          0.00349216815084219,
          0.030230995267629623,
          0.01397969201207161,
          -0.025073135271668434,
          0.09327204525470734,
          0.05849487707018852,
          -0.11487337201833725,
          0.08838403970003128,
          -0.019124673679471016,
          -0.001754128490574658,
          0.016271432861685753,
          0.07461513578891754,
          -0.07268363237380981,
          -0.07172549515962601
        ],
        [
          0.05935097113251686,
          -0.052243635058403015,
          0.03460073471069336,
          -0.02055537886917591,
          0.02172413468360901,
          0.09103953093290329,
          -0.06100517138838768,
          -0.07673415541648865,
          0.03577965870499611,
          -0.010687718167901039,
          -0.008716641925275326,
          -0.10693363845348358,
          0.11145719140768051,
          0.024514922872185707,
          -0.019086729735136032,
          -0.037020210176706314,
          -0.012942826375365257,
          0.05400283634662628,
          0.007003253325819969,
          0.08695416152477264,
          -0.005396892316639423,
          -0.04729339852929115,
          0.08536781370639801,
          0.010766775347292423,
          -0.011744300834834576,
          0.055709127336740494,
          0.09131310880184174,
          0.044885847717523575,
          0.08707232773303986,
          0.02112475037574768,
          0.06162039190530777,
          0.08841989189386368,
          0.060808178037405014,
          0.04577153921127319,
          0.11923684179782867,
          0.1328049749135971,
          0.07414346188306808,
          0.048117343336343765,
          0.10361311584711075,
          -0.06115514785051346,
          0.09666129946708679,
          0.09628386050462723,
          0.08990674465894699,
          -0.033047109842300415,
          -0.12060946226119995,
          0.13106007874011993,
          -0.057378221303224564,
          0.030491037294268608,
          0.07611800730228424,
          -0.059685055166482925,
          0.02956431545317173,
          -0.05424204841256142,
          0.10146570950746536,
          -0.050628844648599625,
          0.08983003348112106,
          0.04764736443758011,
          -3.4777325543854743e-22,
          0.1129160076379776,
          0.029319509863853455,
          -0.08212916553020477,
          0.019304687157273293,
          -0.004354665521532297,
          0.025379963219165802,
          -0.07995355874300003,
          0.01122476626187563,
          -0.02515222690999508,
          0.09753001481294632,
          0.11759648472070694,
          0.12161599099636078,
          0.07352066040039062,
          -0.026825273409485817,
          -0.032513782382011414
        ],
        [
          -0.07065408676862717,
          -0.03482203930616379,
          0.08907196670770645,
          0.03344651311635971,
          0.08771094679832458,
          0.006452173460274935,
          -0.10464469343423843,
          -0.04324457049369812,
          0.05954837426543236,
          0.06218248978257179,
          0.024660347029566765,
          -0.05100848153233528,
          -0.11162349581718445,
          -0.08979146182537079,
          0.059647634625434875,
          -0.0436968095600605,
          0.050505269318819046,
          0.0331595204770565,
          -0.039810020476579666,
          0.060372091829776764,
          -0.05148924142122269,
          0.0037276947405189276,
          -0.04951324686408043,
          -0.12332000583410263,
          -0.0028677762020379305,
          0.01771860010921955,
          -0.04964953660964966,
          0.052378371357917786,
          -0.10721655189990997,
          -0.12249995768070221,
          -0.042959947139024734,
          -0.03841392695903778,
          0.021327650174498558,
          0.011920563876628876,
          0.062255408614873886,
          -0.06927204132080078,
          0.059069689363241196,
          0.0038244968745857477,
          0.03580694645643234,
          0.14174199104309082,
          0.09137517958879471,
          -0.02559325471520424,
          -0.09386737644672394,
          -0.0123590137809515,
          -0.04348640888929367,
          0.056180525571107864,
          -0.009198002517223358,
          0.09569254517555237,
          0.037681519985198975,
          -0.005034394562244415,
          -0.015233123674988747,
          0.05772848799824715,
          0.012151912786066532,
          0.10590134561061859,
          -0.0998438224196434,
          0.11271403729915619,
          -3.063359677896142e-20,
          -0.06595386564731598,
          -0.027306068688631058,
          0.08167482912540436,
          0.06387358158826828,
          -0.005852230358868837,
          -0.07682640105485916,
          0.01789725199341774,
          -0.03164424002170563,
          0.02039562538266182,
          -0.001088827382773161,
          0.11921914666891098,
          0.048919375985860825,
          -0.06561800837516785,
          0.058626722544431686,
          -0.05116758868098259
        ],
        [
          -0.001398214022628963,
          -0.09285074472427368,
          0.05509762093424797,
          -0.06864666938781738,
          0.13062307238578796,
          0.08774705976247787,
          -0.054439887404441833,
          -0.09178852289915085,
          0.02844824269413948,
          -0.03709476441144943,
          0.008047787472605705,
          -0.07373333722352982,
          0.00865964125841856,
          -0.1338070034980774,
          -0.05642537400126457,
          -0.06342300772666931,
          0.03332272171974182,
          0.018162915483117104,
          -0.11462186276912689,
          -0.06759780645370483,
          -0.06071064993739128,
          -0.12457277625799179,
          0.027601882815361023,
          0.04423142597079277,
          -0.02469165250658989,
          -0.04115554317831993,
          0.00741869630292058,
          -0.08782245963811874,
          -0.07888281345367432,
          -0.03355742618441582,
          0.10294909030199051,
          -0.05507363751530647,
          0.056946348398923874,
          -0.05830682814121246,
          -0.03213723003864288,
          -0.07566102594137192,
          0.09136195480823517,
          0.09090766310691833,
          0.014358948916196823,
          0.07325904816389084,
          0.1397244781255722,
          0.03368271887302399,
          0.0632394552230835,
          -0.10361799597740173,
          -0.09573496133089066,
          -0.07994012534618378,
          0.05159948393702507,
          -0.10604821890592575,
          -0.11834519356489182,
          -0.05998259782791138,
          -0.15392623841762543,
          -0.013938033021986485,
          -0.02627905085682869,
          -0.0825604498386383,
          0.08395907282829285,
          -0.012017754837870598,
          6.922156624562131e-24,
          0.10604441165924072,
          0.08214063942432404,
          -0.005625233054161072,
          -0.02202870137989521,
          -0.0005610283697023988,
          0.004197204485535622,
          0.03754246234893799,
          0.03650142624974251,
          -0.024252763018012047,
          -0.08931565284729004,
          -0.07870400696992874,
          -0.07557626813650131,
          0.04171421006321907,
          -0.052160345017910004,
          -0.07352758198976517
        ],
        [
          -0.008330588229000568,
          -0.09447339177131653,
          -0.1273343712091446,
          -0.09692902117967606,
          -0.04375927522778511,
          0.10003839433193207,
          0.006297814194113016,
          -0.013736885040998459,
          0.0011505885049700737,
          0.041579220443964005,
          -0.007785490248352289,
          -0.0986008271574974,
          -0.09497395157814026,
          -0.09258054941892624,
          0.015216031111776829,
          -0.10180989652872086,
          -0.05773934721946716,
          -0.07532594352960587,
          0.09492029994726181,
          0.11300056427717209,
          0.05788782238960266,
          0.007884664461016655,
          -0.05341486260294914,
          0.014417560771107674,
          -0.10163449496030807,
          -0.06846398860216141,
          -0.030133115127682686,
          -0.009924194775521755,
          -0.10076126456260681,
          0.04061398282647133,
          0.08671113103628159,
          -0.02679491601884365,
          0.05883039906620979,
          0.009923914447426796,
          0.001305608544498682,
          0.0511494055390358,
          0.1222933754324913,
          0.04053333401679993,
          -0.061321720480918884,
          -0.017940975725650787,
          0.07867739349603653,
          0.02172224223613739,
          0.009371129795908928,
          0.0002053012722171843,
          0.0158129520714283,
          -0.018565403297543526,
          -0.07515428960323334,
          0.014662717469036579,
          -0.06804242730140686,
          0.047731753438711166,
          -0.04940945282578468,
          0.08371083438396454,
          0.09776730835437775,
          0.07764992117881775,
          -0.004869895987212658,
          0.07811490446329117,
          -5.076107918728933e-25,
          -0.04969961196184158,
          0.039442028850317,
          0.012465831823647022,
          0.09046277403831482,
          0.053428590297698975,
          -0.026422960683703423,
          0.09455129504203796,
          -0.05261986330151558,
          0.11299092322587967,
          0.09937993437051773,
          0.025172175839543343,
          -0.109019435942173,
          0.013678794726729393,
          0.04665575549006462,
          0.05726921558380127
        ],
        [
          -0.10293735563755035,
          0.028753673657774925,
          -0.01829923316836357,
          -0.012823366560041904,
          -0.054610736668109894,
          -0.017296381294727325,
          -0.07738693058490753,
          -0.06341180205345154,
          0.003310912987217307,
          0.04363113269209862,
          0.10519814491271973,
          -0.07526572048664093,
          0.0644790306687355,
          -0.0757913663983345,
          -0.1433354616165161,
          0.0016628673765808344,
          -0.06316866725683212,
          -0.07288264483213425,
          -0.10258249193429947,
          -0.06257472187280655,
          0.10847834497690201,
          0.06752534210681915,
          -0.05178634822368622,
          -0.049109622836112976,
          -0.056819118559360504,
          -0.0488496832549572,
          -0.030035723000764847,
          0.09286455810070038,
          0.013347018510103226,
          -0.02633940987288952,
          0.08445931226015091,
          -0.09314069151878357,
          -0.11680112034082413,
          -0.003117726882919669,
          -0.04090024158358574,
          -0.009287039749324322,
          0.07126662880182266,
          -0.06641706824302673,
          -0.05211269110441208,
          0.02131674624979496,
          -0.13547055423259735,
          0.10225631296634674,
          -0.05969548597931862,
          0.04015493765473366,
          -0.16190484166145325,
          -0.07985146343708038,
          0.007356058340519667,
          0.02564438059926033,
          0.16015081107616425,
          0.14497515559196472,
          0.0007930163410492241,
          -0.0559253990650177,
          -0.03183673694729805,
          -0.07129079848527908,
          0.07552044093608856,
          -0.1390407532453537,
          1.7126398712040094e-16,
          0.033454228192567825,
          -0.0693630799651146,
          0.05901971459388733,
          -0.027357980608940125,
          -0.03052087500691414,
          0.10351577401161194,
          -0.039787065237760544,
          0.020785735920071602,
          -0.02916976623237133,
          0.03468532860279083,
          -0.11746567487716675,
          0.04276680573821068,
          -0.11098852753639221,
          -0.012354258447885513,
          0.04916008934378624
        ],
        [
          -0.017222831025719643,
          -0.014182749204337597,
          0.017876116558909416,
          0.10747329145669937,
          0.05642556771636009,
          0.008931429125368595,
          -0.04256527125835419,
          -0.047309890389442444,
          0.08102183789014816,
          0.06983071565628052,
          0.029893778264522552,
          -0.10179014503955841,
          0.054122764617204666,
          0.003703140653669834,
          0.04968881979584694,
          0.13171005249023438,
          0.006481808610260487,
          -0.025958970189094543,
          0.11753109097480774,
          -0.05420968681573868,
          0.0798725038766861,
          -0.13984224200248718,
          -0.05764427408576012,
          -0.09358334541320801,
          -0.04517398774623871,
          0.04813901335000992,
          -0.06095711514353752,
          -0.14753800630569458,
          0.07455603778362274,
          0.006148096174001694,
          0.0021758326329290867,
          -0.09237296134233475,
          -0.0173917468637228,
          -0.02860884927213192,
          0.07834796607494354,
          -0.04020532965660095,
          -0.021104028448462486,
          -0.09811989963054657,
          -0.04874901846051216,
          0.05722011253237724,
          0.07261665910482407,
          0.05428498238325119,
          -0.016376469284296036,
          0.10707987844944,
          0.00830028671771288,
          -0.02096407674252987,
          -0.037725262343883514,
          -0.00556736346334219,
          0.07593072205781937,
          0.047677114605903625,
          0.09441611915826797,
          -0.022375447675585747,
          0.08794336020946503,
          -0.028058430179953575,
          -0.022310877218842506,
          -0.04960789903998375,
          1.2837033682138593e-13,
          -0.11037816107273102,
          -0.09796208888292313,
          0.02879905328154564,
          -0.022801842540502548,
          -0.04892171546816826,
          -0.03845030069351196,
          0.1323803812265396,
          -0.02041882835328579,
          0.061684172600507736,
          0.09353797882795334,
          -0.055935803800821304,
          -0.013758327811956406,
          0.01507456786930561,
          0.08971088379621506,
          -0.03219959884881973
        ],
        [
          0.1117984801530838,
          -0.07423853874206543,
          -0.053636569529771805,
          0.1045122891664505,
          -0.01418259833008051,
          0.1320875585079193,
          0.029710669070482254,
          -0.05241188034415245,
          0.12226008623838425,
          0.10490884631872177,
          0.046297863125801086,
          -0.0622074194252491,
          0.04158623144030571,
          -0.05893305689096451,
          0.09834422916173935,
          0.009077366441488266,
          0.06680755317211151,
          0.09127546101808548,
          0.08979883790016174,
          -0.05959675833582878,
          0.09552481770515442,
          0.06943648308515549,
          -0.03245072439312935,
          0.10740014165639877,
          0.05626951903104782,
          0.010197209194302559,
          -0.06542916595935822,
          0.01947084069252014,
          -0.14039896428585052,
          0.05708112195134163,
          0.1365949660539627,
          -0.01872020959854126,
          0.12515372037887573,
          -0.01762641780078411,
          0.05192789435386658,
          -0.059236008673906326,
          0.023410718888044357,
          0.06850695610046387,
          0.06944487988948822,
          0.022308597341179848,
          -0.034249238669872284,
          0.11332989484071732,
          0.13261538743972778,
          -0.004210146609693766,
          -0.08775147795677185,
          0.07843992114067078,
          -0.00995053444057703,
          0.12429915368556976,
          0.06161758676171303,
          0.031880881637334824,
          0.035495031625032425,
          0.08300142735242844,
          0.024492260068655014,
          0.11486347019672394,
          0.10844913125038147,
          -0.1231345385313034,
          1.5336122369257227e-28,
          -0.11006560921669006,
          -0.056321024894714355,
          0.015951599925756454,
          -0.0024284557439386845,
          -0.0293054711073637,
          0.15417766571044922,
          -0.025865014642477036,
          -0.013783078640699387,
          -0.027813410386443138,
          0.0012341937981545925,
          0.03683735057711601,
          0.14526955783367157,
          -0.03925122693181038,
          -0.08748152107000351,
          -0.01117229089140892
        ],
        [
          0.08190630376338959,
          0.0002947747416328639,
          0.03440111130475998,
          0.03630700334906578,
          0.119998499751091,
          0.04247860610485077,
          0.0547572523355484,
          0.014232596382498741,
          -0.07791716605424881,
          -0.05065056309103966,
          0.03724183887243271,
          0.10487111657857895,
          -0.043841131031513214,
          0.07446476817131042,
          0.0063140965066850185,
          -0.0580141507089138,
          -0.01751561649143696,
          -0.05018152296543121,
          0.06426689773797989,
          -0.008361678570508957,
          0.08538320660591125,
          -0.08760238438844681,
          -0.0841781347990036,
          0.00983181782066822,
          0.07487297058105469,
          0.03679325804114342,
          -0.012473651207983494,
          -0.12398050725460052,
          0.014566058292984962,
          -0.06415379792451859,
          -0.13084189593791962,
          0.0281270369887352,
          -0.10693112015724182,
          0.05834351107478142,
          -0.06904307752847672,
          0.027277691289782524,
          0.023663805797696114,
          -0.05488133803009987,
          0.05660298466682434,
          -0.05021703243255615,
          0.041571833193302155,
          0.0868491604924202,
          -0.04419790580868721,
          -0.029609596356749535,
          0.07085840404033661,
          -0.008023994043469429,
          -0.020532460883259773,
          0.10109081864356995,
          -0.08708646148443222,
          -0.029479162767529488,
          0.07447530329227448,
          0.038204375654459,
          -0.12486964464187622,
          -0.00033552912645973265,
          -0.11810498684644699,
          -0.07620139420032501,
          4.306308085064744e-20,
          0.02364388108253479,
          0.013783834874629974,
          -0.019570473581552505,
          0.08712498098611832,
          0.0016630793688818812,
          -0.07150009274482727,
          -0.11464891582727432,
          0.0028370267245918512,
          -0.08532930910587311,
          -0.0021760205272585154,
          -0.05173596739768982,
          -0.0909925028681755,
          -0.04896463826298714,
          -0.1108279749751091,
          -0.06545234471559525
        ],
        [
          -0.010972509160637856,
          -0.10261711478233337,
          -0.11255538463592529,
          0.07356002926826477,
          0.008141092024743557,
          -0.05449260398745537,
          -0.01475437730550766,
          0.0944419726729393,
          -0.09065404534339905,
          -0.0429689958691597,
          -0.08384475111961365,
          -0.02307882532477379,
          -0.014675618149340153,
          -0.0773375928401947,
          0.10389430820941925,
          -0.0757410004734993,
          0.07703187316656113,
          -0.08961272239685059,
          -0.01924886368215084,
          0.03624343499541283,
          -0.056991688907146454,
          0.07427576184272766,
          -0.07788026332855225,
          -0.022284463047981262,
          -0.0979958102107048,
          0.024906693026423454,
          0.07475639879703522,
          0.06466815620660782,
          0.05432315915822983,
          -0.04816323146224022,
          0.07998200505971909,
          -0.010427436791360378,
          0.08098579198122025,
          -0.05861417576670647,
          -0.10162943601608276,
          -0.0788620337843895,
          0.10124099254608154,
          -0.008704143576323986,
          -0.10590984672307968,
          -0.009365880861878395,
          -0.03816327825188637,
          -0.002575577236711979,
          0.05649731680750847,
          -0.040840886533260345,
          0.06441333889961243,
          -0.09421710669994354,
          0.01107835303992033,
          -0.09543702751398087,
          -0.05044407770037651,
          0.07018154859542847,
          0.06445755809545517,
          0.070391945540905,
          0.1064343973994255,
          0.1487683355808258,
          -0.0853685513138771,
          0.08299405127763748,
          1.7214094716691837e-24,
          0.15287967026233673,
          0.11445166170597076,
          -0.050555817782878876,
          0.02411176636815071,
          0.015303274616599083,
          0.007135734893381596,
          -0.12044107168912888,
          0.004707093816250563,
          -0.0133719053119421,
          0.01383502222597599,
          0.028275324031710625,
          -0.0971418023109436,
          0.04903295263648033,
          0.07421046495437622,
          -0.10449402779340744
        ],
        [
          0.12207495421171188,
          0.0918719619512558,
          0.06308185309171677,
          -0.012286480516195297,
          0.034924499690532684,
          -0.07074049860239029,
          -0.047981880605220795,
          0.06214446201920509,
          0.03482764959335327,
          0.02872874215245247,
          -0.11081703007221222,
          0.0943664088845253,
          -0.019063999876379967,
          0.0936829224228859,
          0.13190758228302002,
          0.0303689856082201,
          0.06759365648031235,
          0.05817994475364685,
          0.05278300866484642,
          -0.06763927638530731,
          0.1128460168838501,
          0.050193995237350464,
          0.07158336043357849,
          0.00652610557153821,
          0.08798005431890488,
          0.11810312420129776,
          -0.09746649116277695,
          0.11752097308635712,
          -0.10422546416521072,
          -0.0882619172334671,
          -0.10912451893091202,
          0.016544003039598465,
          -0.07136482000350952,
          -0.07244955003261566,
          -0.019213702529668808,
          0.020246809348464012,
          -0.13324104249477386,
          -0.060541797429323196,
          0.04786977171897888,
          0.011814862489700317,
          -0.05612862482666969,
          0.028846459463238716,
          -0.0464220754802227,
          -0.09165068715810776,
          -0.016043132171034813,
          -0.04593921825289726,
          0.06721632927656174,
          -0.06622856855392456,
          -0.0407741516828537,
          0.05485936999320984,
          -0.10635737329721451,
          0.06619904935359955,
          -0.06350040435791016,
          -0.06047401577234268,
          -0.08467064052820206,
          -0.03624292463064194,
          -2.2288581723475767e-23,
          -0.07826656848192215,
          0.03313897177577019,
          -0.008510344661772251,
          0.10151693969964981,
          0.08776795119047165,
          0.061357248574495316,
          0.022853946313261986,
          0.044776253402233124,
          0.10393577069044113,
          0.06062507629394531,
          -0.06405580788850784,
          -0.019446833059191704,
          -0.10281218588352203,
          0.06965746730566025,
          -0.06751823425292969
        ],
        [
          0.07790043950080872,
          0.00922399666160345,
          0.006204511970281601,
          -0.050222549587488174,
          -0.07521815598011017,
          0.009144267067313194,
          -0.052929025143384933,
          -0.040698662400245667,
          0.030352672562003136,
          -0.0403004065155983,
          -0.08439967781305313,
          0.09433256834745407,
          0.025570804253220558,
          -0.023680923506617546,
          -0.017918601632118225,
          0.057013045996427536,
          -0.06454817950725555,
          0.024037880823016167,
          0.007189488038420677,
          0.012935719452798367,
          0.11583495140075684,
          -0.04091724380850792,
          0.06656762957572937,
          -0.06805147230625153,
          -0.09207265079021454,
          0.08211348205804825,
          -0.05392571538686752,
          -0.03769747167825699,
          0.049387186765670776,
          -0.0761578157544136,
          -0.09829159080982208,
          0.06265291571617126,
          0.06609491258859634,
          -0.04541119933128357,
          0.09879959374666214,
          0.01883632317185402,
          2.5850458769127727e-05,
          -0.0604218989610672,
          0.12511557340621948,
          0.02979743666946888,
          0.021317245438694954,
          0.0710056871175766,
          -0.06846018880605698,
          -0.00015233317390084267,
          -0.07020384818315506,
          -0.020639164373278618,
          0.08965875208377838,
          0.04172899201512337,
          0.09688618034124374,
          -0.11609534919261932,
          -0.0003044232726097107,
          -0.048393379896879196,
          -0.027643458917737007,
          -0.08955366909503937,
          0.18226900696754456,
          -0.0030980093870311975,
          -6.445947094987251e-19,
          -0.014739623293280602,
          -0.039379410445690155,
          -0.09750288724899292,
          0.018756376579403877,
          -0.061400409787893295,
          0.017330963164567947,
          0.12556268274784088,
          0.1036074161529541,
          0.004366005305200815,
          -0.017831778153777122,
          0.010948892682790756,
          0.041491903364658356,
          -0.015168748795986176,
          -0.018322844058275223,
          -0.029246853664517403
        ],
        [
          -0.03599497675895691,
          -0.023593353107571602,
          -0.09756848216056824,
          -0.05935005098581314,
          -0.039274219423532486,
          0.1527087241411209,
          0.0314800962805748,
          -0.07777487486600876,
          -0.04349277913570404,
          0.030810154974460602,
          -0.029331987723708153,
          -0.00020853517344221473,
          -0.025254730135202408,
          -0.01676027476787567,
          0.07066314667463303,
          -0.016857746988534927,
          0.057703617960214615,
          0.0885920375585556,
          0.07957333326339722,
          0.008379047736525536,
          -0.026651563122868538,
          0.024762270972132683,
          -0.07936855405569077,
          0.04065348953008652,
          -0.0008875949424691498,
          -0.03318004682660103,
          -0.0983811765909195,
          0.09485451132059097,
          0.0825735405087471,
          0.0805247351527214,
          -0.05703021213412285,
          0.028138594701886177,
          -0.02097289450466633,
          -0.10813037306070328,
          -0.0750216394662857,
          0.07591989636421204,
          -0.10306485742330551,
          0.0822354182600975,
          0.04511474072933197,
          0.014343996532261372,
          0.09173711389303207,
          0.03238673508167267,
          0.08101118355989456,
          0.08415819704532623,
          -0.06482535600662231,
          -0.0691448226571083,
          -0.03108636476099491,
          0.10701296478509903,
          0.04235410690307617,
          0.05687783285975456,
          -0.060358256101608276,
          -0.02801656350493431,
          -0.060563478618860245,
          0.046591535210609436,
          -0.07393074780702591,
          -0.02156493440270424,
          -2.127006800814037e-16,
