{
  "project": "aether_quant",
  "phase": "multitask_direction_magnitude_volatility_horizons",
  "version_id": "multitask-only-f5708084-512b-4484-a47b-0720f9c1460c",
  "trained_at": "2026-07-12T18:07:29.979308+00:00",
  "row_counts": {
    "train": 20604,
    "validation": 7849,
    "backtest": 17650
  },
  "best_epoch": 3,
  "epochs_ran": 21,
  "loss_weights": {
    "magnitude_loss_weight": 1.0,
    "volatility_loss_weight": 1.0
  },
  "horizon_heads": {
    "direction_5d": {
      "enabled": true,
      "loss_weight": 1.0
    },
    "direction_20d": {
      "enabled": true,
      "loss_weight": 0.5
    },
    "rank_5d": {
      "enabled": true,
      "loss_weight": 1.0
    },
    "rank_20d": {
      "enabled": true,
      "loss_weight": 0.5
    },
    "sector_neutral_rank_20d": {
      "enabled": true,
      "loss_weight": 0.3
    }
  },
  "threshold_optimization": {
    "metric": "mcc",
    "default_threshold": 0.5,
    "selected_threshold": 0.52,
    "selected_validation_metrics": {
      "loss": 0.659020185470581,
      "accuracy": 0.511020512167155,
      "balanced_accuracy": 0.5083305088597568,
      "precision": 0.5571955719557196,
      "recall": 0.07743589743589743,
      "specificity": 0.9392251202836162,
      "f1": 0.13597478613237282,
      "mcc": 0.03285550900068992,
      "threshold": 0.52,
      "positive_rate": 0.06905338168144226,
      "average_probability": 0.4878903329372406,
      "confusion_matrix": {
        "tp": 302,
        "tn": 3709,
        "fp": 240,
        "fn": 3598
      }
    },
    "head_thresholds": {
      "direction": 0.52,
      "direction_5d": 0.47,
      "direction_20d": 0.47
    }
  },
  "train": {
    "direction": {
      "loss": 0.656335711479187,
      "accuracy": 0.48568239176858863,
      "balanced_accuracy": 0.508550984701825,
      "precision": 0.6169102296450939,
      "recall": 0.05461602439700582,
      "specificity": 0.9624859450066442,
      "f1": 0.1003480770863401,
      "mcc": 0.04055982065664801,
      "threshold": 0.52,
      "positive_rate": 0.04649582505226135,
      "average_probability": 0.48777031898498535,
      "confusion_matrix": {
        "tp": 591,
        "tn": 9416,
        "fp": 367,
        "fn": 10230
      }
    },
    "magnitude": {
      "mae": 0.01233401894569397,
      "rmse": 0.027010561898350716,
      "bias": -0.000127860126667656,
      "mean_prediction": 0.0011037118965759873,
      "mean_target": 0.00123157212510705
    },
    "volatility": {
      "mae": 0.01975838467478752,
      "rmse": 0.031475964933633804,
      "bias": 0.011149192228913307,
      "mean_prediction": 0.02653367444872856,
      "mean_target": 0.015384482219815254
    },
    "direction_5d": {
      "loss": 0.6455923914909363,
      "accuracy": 0.5671424410136906,
      "balanced_accuracy": 0.5090870699160075,
      "precision": 0.5654569825745916,
      "recall": 0.9858911105340604,
      "specificity": 0.03228302929795467,
      "f1": 0.7187026754164563,
      "mcc": 0.06136740553703807,
      "threshold": 0.47,
      "positive_rate": 0.9779104590415955,
      "average_probability": 0.5452847480773926,
      "confusion_matrix": {
        "tp": 11390,
        "tn": 292,
        "fp": 8753,
        "fn": 163
      }
    },
    "direction_20d": {
      "loss": 0.625644862651825,
      "accuracy": 0.6120099110916776,
      "balanced_accuracy": 0.5021431092165347,
      "precision": 0.611769294524889,
      "recall": 0.9981703921724604,
      "specificity": 0.006115826260609086,
      "f1": 0.7585998428148236,
      "mcc": 0.0353972903039072,
      "threshold": 0.47,
      "positive_rate": 0.9965019822120667,
      "average_probability": 0.5940155386924744,
      "confusion_matrix": {
        "tp": 12548,
        "tn": 49,
        "fp": 7963,
        "fn": 23
      }
    },
    "rank_5d": {
      "mae": 0.2450467199087143,
      "rmse": 0.2844526171684265,
      "bias": -0.014673846773803234,
      "mean_prediction": 0.5047416687011719,
      "mean_target": 0.519415557384491
    },
    "rank_5d_ic": {
      "mean_ic": 0.166982007126571,
      "std_ic": 0.3564552805519379,
      "t_stat": 13.049548470490526,
      "num_dates": 776,
      "ic_values": [
        -0.003846147315874258,
        -0.23384615010984172,
        -0.23769231003439087,
        -0.06695653270529214,
        -0.2738461542649733,
        -0.5191304268620974,
        -0.33692308658899267,
        0.49391305208816816,
        0.4453846257283575,
        0.66695651955858,
        0.6756521734878441,
        0.44521740807452553,
        0.8207692281736504,
        0.3365217420053501,
        0.3721739148821177,
        -0.3269565114023326,
        -0.2904347791112436,
        -0.41913043446946413,
        -0.29652174445743346,
        -0.35652173992411146,
        -0.13391303590628498,
        -0.03391305548641088,
        -0.04000000885984173,
        0.4008695672743596,
        -0.17304348383577411,
        -0.23307693024645346,
        -0.04347826867450609,
        -0.1060869569224986,
        0.21000000207756558,
        0.7107692348361891,
        0.5981919684234512,
        0.5661538437291005,
        0.2407692245916411,
        -0.049230760005715954,
        0.010769225522963945,
        -0.13307690717830972,
        -0.26615384043365153,
        0.2099999960597889,
        0.3138461648677225,
        0.2115384604307937,
        0.4876923113955545,
        0.36307693089121507,
        0.35615383778296417,
        0.4623076911118516,
        0.781538471248463,
        0.4438461508978837,
        0.6623076842343923,
        0.686923075628042,
        0.6392307785605265,
        0.552029245989312,
        0.43769231289999866,
        -0.04307692544656034,
        0.043846152617248904,
        -0.0492307856529069,
        -0.6546153917518501,
        0.43153845785174616,
        0.28769230838666615,
        0.36153846293820036,
        0.36153845061608636,
        0.44076922559460374,
        -0.0007692383465594562,
        -0.7100000009313217,
        -0.34461538881460196,
        -0.1730769305330143,
        -0.21384615884994593,
        -0.2969230873053945,
        0.15307691376920796,
        0.3623076992788343,
        0.07923074703884012,
        0.18692307004010694,
        -0.2100000006447616,
        -0.23999999756423304,
        0.2046153835132275,
        -0.4315384637262425,
        -0.5530769295300512,
        -0.5315384657321679,
        -0.6146153906056067,
        -0.28538462515523605,
        -0.26461537792529205,
        -0.049230762011641505,
        -0.41846153992740676,
        0.03692308472634767,
        0.34538460079756855,
        0.19769229284074336,
        0.44461537735217016,
        0.13230767685545253,
        0.2746153855907932,
        0.009230774906877228,
        -0.24153847411407137,
        0.2207692215827529,
        0.49461537613428697,
        0.49769230774190437,
        0.29307692910021016,
        0.4976922959929117,
        0.15846153605883628,
        0.20461539483237884,
        0.09692308945460068,
        -0.1430769244435975,
        -0.3923077026459235,
        -0.14461539454581812,
        -0.05538462737608234,
        -0.16384616637216678,
        0.456153826177252,
        -0.012307700353437635,
        0.18307692143470905,
        0.543076932324019,
        0.6384615437959773,
        0.6584615436526967,
        0.07923076423248769,
        0.2761538438007408,
        0.5846153806476192,
        0.5076923075269836,
        0.2207692354809513,
        0.46384615204412694,
        -0.03230769992359639,
        -0.02461538050433942,
        0.14615384115005373,
        -0.36923077304423163,
        -0.4315384698872997,
        0.25923078357534085,
        0.03307692021682593,
        -0.08153845806666724,
        0.5053846069586254,
        0.38615383842772577,
        0.27692307999809457,
        -0.1215384612188359,
        -0.290769232543703,
        -0.3323076825866682,
        -0.04000000687745898,
        0.39230769519534286,
        -0.09076923526603076,
        0.47307691090359966,
        0.4646153730537584,
        0.3853846046661391,
        0.12230768065238302,
        0.5220234664002698,
        0.10692308279206231,
        0.10769230294201138,
        0.12615384587830678,
        -0.3146153788566145,
        -0.2799999952717467,
        -0.2730769225093121,
        -0.1900000103878285,
        0.42153845233545106,
        -0.3238461563425389,
        -0.13846155583153094,
        0.23846154895407184,
        0.5292307680294176,
        0.7484615445840193,
        0.7846153848027505,
        0.740769218287303,
        0.5038461550530151,
        0.4646153876683587,
        0.508461541575131,
        0.36999999520010646,
        0.25384615698730073,
        -0.2207692373435964,
        0.00538461440920652,
        -0.07769231261343812,
        -0.2215384736842302,
        -0.23846154393925803,
        0.3053846194240201,
        0.3576923060225397,
        0.10230768996560874,
        0.21153845985767208,
        0.12230769612666584,
        0.06846153326486858,
        0.48153847740952027,
        0.01076921105164384,
        -0.07076922437672073,
        0.21846152388000256,
        0.612307697057988,
        0.22000000472825282,
        0.42923076143851957,
        0.20846153383799002,
        -0.006153855764654312,
        -0.16846154515714132,
        -0.18923076659661403,
        0.08230769798931105,
        -0.3999999952717465,
        -0.33846154336613626,
        0.2876923164103684,
        0.4000000120355529,
        0.4023077031474049,
        -0.04153844875344157,
        -0.013846156700740216,
        -0.05692309446941468,
        -0.026153845735026517,
        0.590000002793967,
        0.5599999955583072,
        0.5846153787849743,
        0.5407692192902663,
        0.40846154444073923,
        0.5715384604307935,
        0.333076924371957,
        -0.010000007235660021,
        0.5415384523354511,
        -0.2276923188461352,
        -0.5092307740471943,
        -0.5761538515378819,
        -0.0776923179148128,
        -0.476923078851851,
        -0.6423077084487793,
        -0.24692308049957584,
        -0.39923077526507783,
        -0.013076916921376806,
        0.7592307648056086,
        0.7238461602111091,
        0.5869230866606326,
        0.4053846048094195,
        0.4669230902426425,
        0.382307687959683,
        0.424615386665396,
        0.2153846210717447,
        0.5676923039449735,
        0.4707692296780949,
        0.6123076904670895,
        0.5153846137644442,
        0.4292307687458198,
        0.29307692007354536,
        0.6400000138981977,
        0.72846153756328,
        0.746923079639893,
        0.6638461501814814,
        0.6269230794966127,
        0.14846153498423328,
        0.2884615480227492,
        0.281538463511322,
        0.43615384695290943,
        0.7153846081765085,
        0.591538472609627,
        0.5899999866032827,
        0.13461537656412834,
        0.25538461920909955,
        -0.10230768681344012,
        -0.27769230043460424,
        -0.23615384895883523,
        -0.40692308594423066,
        0.27384615010984165,
        0.20307692530327975,
        0.41999999570158764,
        0.4838461523306876,
        -0.06692307921005242,
        0.015384614624127138,
        0.02846153326486871,
        -0.1907692447225368,
        0.28384614316074247,
        0.28384615476645464,
        -0.23307692465851804,
        0.5415384615053962,
        0.4638461458830698,
        -0.024615389387723945,
        -0.030769243146452678,
        0.2830769235839149,
        -0.16615384530518518,
        -0.09461538129238149,
        0.049230776339681113,
        0.6376923159088865,
        0.18923075556402355,
        0.4423077094517423,
        0.4469230870904739,
        0.1353846066004248,
        -0.5007692254513234,
        0.022307689535767613,
        0.5453846091078314,
        0.09923077469195653,
        0.0923076861686783,
        -0.21846152502624575,
        -0.4199999879644462,
        -0.10000000888338446,
        -0.21461537326867916,
        -0.24153846336804172,
        -0.27615383907248786,
        -0.34974357966052094,
        0.00376069329226472,
        -0.18700853802186443,
        -0.17196580498660025,
        -0.3811965727982693,
        -0.15008546807324433,
        0.12410257340272272,
        0.15487179979483282,
        -0.0017094110691990194,
        0.5364102599064503,
        0.22598290694907844,
        -0.2006837634607597,
        0.14393162849037724,
        0.32102564158439606,
        0.23008546874611444,
        -0.13777778135758847,
        0.5500854615697148,
        -0.24170941441235713,
        -0.7558974312172989,
        -0.5562393157888337,
        -0.5562393152590147,
        -0.6943589704857924,
        -0.6444444333668101,
        -0.40649572198214307,
        0.521367522169042,
        0.6936752216215485,
        0.6594871832238297,
        0.6758974401473992,
        0.5500854699805925,
        0.12820513526598606,
        -0.2505982971359182,
        0.5432478653077722,
        0.4953845997492466,
        -0.12752135428146052,
        0.8017094123010274,
        0.8023931628209565,
        0.6205128306547798,
        0.5801709326072971,
        0.3456410340229668,
        -0.13367522664688258,
        -0.06256410313447312,
        -0.06735041757071443,
        0.5343589685440059,
        0.37504273805000143,
        0.5876922941578752,
        0.6629059816528244,
        0.7976068405698841,
        0.5699145280484796,
        0.724444447086475,
        0.6170940154702571,
        0.18974359520276377,
        0.04341880114961547,
        -0.3169230915758344,
        -0.021538469666905,
        0.08581194565737657,
        0.1808546856571122,
        0.4235897332006026,
        0.0858119542007091,
        -0.46188034286587276,
        -0.30119657894681967,
        -0.5015384699953924,
        -0.3244444614048356,
        -0.37435898335774725,
        0.2793162416360994,
        0.3552136673326841,
        0.3073504323049826,
        0.40102564801904855,
        0.33606836938769685,
        0.28957264844664793,
        0.2738461544275281,
        0.3880341921735689,
        0.4577777750421448,
        0.2116239165526845,
        -0.10700855211770084,
        -0.25196582433559267,
        -0.16581198308644485,
        -0.35863249099431194,
        -0.2813675265744879,
        -0.264957271306603,
        -0.3784615325715802,
        -0.08444444494865559,
        -0.22598291039290236,
        0.05230769148932559,
        0.4577777843139787,
        0.5480341947776295,
        0.625299153700581,
        -0.11316238428310092,
        -0.04205127686394575,
        -0.401025646694501,
        0.24786323763706034,
        -0.05162393832030125,
        0.39487179366747494,
        -0.20068377200409218,
        0.3647863203781619,
        0.4393162387432871,
        0.6205128209855816,
        0.6861538548390066,
        0.47555555545665573,
        0.5295726556972217,
        0.03999999861452314,
        -0.296410258218977,
        0.1282051090399421,
        -0.027692311898867377,
        -0.15282052359845913,
        -0.20752137343177082,
        -0.38871794852150776,
        0.07418802800531726,
        0.29094018193792404,
        0.3476923163784874,
        -0.0741880352903295,
        -0.33538461621867266,
        -0.11658120589167985,
        -0.06803419160136474,
        -0.28273503774713565,
        -0.4105982835142696,
        -0.10085469816349153,
        0.09059830532692109,
        -0.03658119448997352,
        0.29094016710299003,
        -0.04615384230348788,
        0.21709400852962757,
        0.7333333314657206,
        0.4167521350842932,
        0.2328205026812019,
        0.500170942332126,
        0.5555555603018508,
        0.39555554849218394,
        0.258803408279242,
        0.4119658140253135,
        0.28752136966740616,
        0.39760683972217375,
        0.5329914398211014,
        0.6984615270508652,
        0.5370940112211084,
        0.5261538437578408,
        0.40512819531228766,
        0.40991453200092975,
        0.437948716576894,
        0.69162392959683,
        0.6177777769839318,
        0.4543589627053998,
        0.28683759636525724,
        0.2964102641132142,
        -0.11726494462313448,
        0.15897435662481502,
        -0.2013675231200676,
        0.4249572527841278,
        0.5808547053133997,
        0.25743590465651606,
        -0.17948718210061368,
        0.011965814965742717,
        0.25264956538500577,
        0.17811965933817392,
        0.1822222086844618,
        0.45846153006553597,
        0.06735041359707138,
        0.13025640503830357,
        -0.20410257977114787,
        -0.3039316369224477,
        -0.21914531187922867,
        -0.13198837611173084,
        -0.4147008727294426,
        -0.3258119756239432,
        -0.25948719012472354,
        -0.027008555286019035,
        0.4769230694770807,
        0.2252991362960247,
        0.6348717905203496,
        0.11247863912759003,
        -0.037948713146315566,
        -0.35863248072906745,
        -0.18837605376420158,
        -0.2758974451276989,
        0.03863246797102447,
        -0.0365812052850371,
        0.48923076493475126,
        -0.05572647899080179,
        -0.2376068394360718,
        -0.029059840091952685,
        -0.43247863466651315,
        -0.23350428187758826,
        -0.1076923113134172,
        -0.4235897538635464,
        0.16034188124162166,
        -0.19384614262845745,
        0.020854707623411177,
        0.17811965834476318,
        0.5897435909509656,
        0.3476923052522867,
        0.48854699653342865,
        0.429743589406543,
        0.325128195434146,
        0.025641015569368857,
        -0.20615386583540185,
        -0.11247862839875382,
        0.2991452932137026,
        0.141880322028089,
        0.4577777675584505,
        0.3969230804602303,
        0.5808546926639692,
        0.6772649591348785,
        0.3723076847765176,
        0.28888890315868243,
        0.18974358401033586,
        -0.10290597959182861,
        -0.12478633379053188,
        -0.07145299526232253,
        -0.13709401500931476,
        -0.2711111086377388,
        -0.038632477507767805,
        0.43658118460884743,
        0.4523076769722826,
        0.3996581166470489,
        0.46529913367871817,
        0.07076921149624679,
        0.06666666453414481,
        0.29709400403676156,
        0.36957263845690924,
        0.3511111144763449,
        0.3565811910223073,
        0.5199999935123651,
        0.47829060786918326,
        0.704615388157632,
        0.4625640984853106,
        -0.0037606825634285256,
        -0.057094010164119455,
        -0.2505982930298203,
        -0.3818803399412718,
        -0.035213666230660745,
        -0.15418803477110668,
        0.5254700918471369,
        0.6875213613095101,
        0.6642734993157557,
        0.7278632590258558,
        0.550769235070546,
        0.6259829108432484,
        0.5842735090405847,
        0.4837606811037765,
        0.4926495667413424,
        0.34290598167666647,
        -0.02495727114235917,
        -0.5063247897298243,
        -0.3415384634176888,
        -0.3278632430120747,
        -0.5678632621835776,
        -0.38051283486154314,
        -0.26427352237613105,
        -0.3470085514209885,
        -0.10837606872099406,
        0.23145298389240515,
        0.5740170861367819,
        0.829059824502026,
        0.48512820346885205,
        0.3217093909122321,
        0.39076922365824335,
        0.3538461554315351,
        -0.4160683775442614,
        -0.015384613196055073,
        0.10632477855064239,
        0.5227350455937557,
        0.10564102524916325,
        0.503589747383859,
        0.42564101972844837,
        0.2417093972594647,
        0.3627350414002379,
        0.42700853798742594,
        0.10632478510715335,
        0.027008556941703597,
        0.013333327926529689,
        -0.022222220385516106,
        0.12752136024192504,
        0.5247863160283471,
        0.530256414561801,
        0.7962393217148597,
        0.6943589798900811,
        0.5726495685400781,
        0.36888888436070166,
        0.24376067425056705,
        0.4270085408352034,
        0.42837606810110573,
        0.206837606553678,
        0.74358974205123,
        0.35111110844965293,
        0.256068370304284,
        0.2020512889385222,
        0.0037606724968661737,
        0.660854696581981,
        0.4611965891008021,
        0.826324783281926,
        0.5589743459489603,
        0.5022222276016512,
        0.017435898995399497,
        0.15897435841295435,
        0.21162393840772128,
        0.3415384539471729,
        0.48923078904151907,
        0.5822222205259175,
        0.2813675206802506,
        0.015384609950913225,
        -0.40102563974062566,
        -0.5056410336467951,
        -0.24854702782719226,
        -0.45367520867541944,
        -0.25128205162949013,
        -0.1418803497773629,
        0.14256409705215006,
        0.07418804277402392,
        0.3039316406974086,
        0.2724786466324771,
        0.34427351397584965,
        0.16991451965084753,
        0.11042734836119175,
        -0.14324786816879553,
        0.03863247750776782,
        0.08307692019939408,
        0.09401708620565888,
        -0.361367533472732,
        -0.35999999892181783,
        0.2581196683556943,
        -0.031111106884037912,
        0.20752136078234065,
        0.4577777757706461,
        0.8393162429685939,
        0.8550427333452078,
        0.813333324986033,
        0.7353846183909302,
        0.824273497747491,
        0.5658119731390914,
        0.5678632463552329,
        0.4174359085851243,
        0.6287179504738907,
        0.5364102599064505,
        0.8557264931369702,
        0.6540170953529849,
        0.5760683655120702,
        0.5979487172603604,
        0.20957264194576802,
        0.03794871387481682,
        -0.182905984437024,
        -0.5049572610069198,
        -0.6396581188643413,
        -0.6779487181981398,
        -0.4960683835815498,
        -0.011282063584857652,
        0.006495714445467136,
        0.61230770143138,
        0.8105982979385936,
        0.7196581229148079,
        0.04273504122539796,
        0.13162392753583396,
        0.27384614813592667,
        -0.01606837755750731,
        0.5076922971275112,
        0.49401708566259395,
        0.6314529852037069,
        0.5411965691107284,
        0.14051281966368342,
        0.22324786506670474,
        0.5261538401815622,
        0.3463247795096146,
        0.2847863187781082,
        -0.03863248247482163,
        0.6770388217128075,
        0.07350427927352761,
        0.4427350359139614,
        0.44888888178842973,
        0.5699145269888414,
        -0.21982905902156105,
        -0.5282051354514223,
        -0.29572650379163223,
        -0.39418803857785667,
        -0.4475213647877725,
        -0.234188035642659,
        0.057094001620786886,
        -0.2663247983075953,
        0.7203418682027738,
        0.7982905961893214,
        0.5719658090794524,
        0.16960163498968422,
        0.20136750437771794,
        0.2608546907672171,
        0.014700849165739726,
        0.0823931515331619,
        -0.06803419411800526,
        0.12683759104587378,
        0.3018803406591765,
        0.6328205090920124,
        0.2731623829135185,
        0.29162392073560595,
        -0.13025641338295396,
        -0.006495731068540575,
        -0.07897436224354636,
        -0.25401710271747013,
        0.31829058943677785,
        -0.017435917936431324,
        0.007863243102144231,
        0.41333331605858203,
        0.3087179514911438,
        0.20136750782154195,
        -0.19247862801198576,
        -0.0591453111295348,
        0.12888888863369258,
        0.10153845418029338,
        0.11589744484159684,
        0.17401709264031143,
        -0.18290599827854728,
        -0.550085474881419,
        -0.12683760627817217,
        -0.49401709811334243,
        0.256068387390949,
        0.5685470103193208,
        0.6061538493315375,
        0.19658118563669663,
        0.7107692271444527,
        0.7292307697349122,
        0.8598290628150651,
        0.41743589024013894,
        0.4769230831861493,
        -0.10085469683894385,
        -0.37025642560058153,
        -0.515213683248449,
        0.09059829287617284,
        0.21025640107525684,
        -0.102222220329885,
        -0.005128216915660581,
        -0.4311111140233495,
        -0.42358975399600113,
        -0.31145300668522147,
        0.4256410270796877,
        0.30735042508619764,
        -0.35589743480682345,
        -0.2950427415494565,
        0.052307673210567604,
        0.44136752070144325,
        0.4570940090912353,
        0.5500854652784485,
        0.6191453007397822,
        0.31692307640976336,
        0.4447863030371835,
        0.26017094044597033,
        0.2537185782441851,
        0.6061538438346645,
        0.3818803525244745,
        0.2861538548522523,
        0.03042734146294748,
        0.45094017242237333,
        0.6663247781612248,
        0.48717948483096185,
        0.10290597330022717,
        0.27999998427496964,
        0.11589743225839384,
        0.044786327554561474,
        -0.13435898849169423,
        -0.22598291211481433,
        -0.2601709395850144,
        0.0017093943798982866,
        0.27042735434284887,
        0.2820512755049596,
        0.3770940284852626,
        0.07965812216776384,
        -0.052307689237594546,
        -0.12000000630749591,
        0.0030769238975313458,
        0.22256410401662174,
        0.14051281972991078,
        -0.21299145891843005,
        -0.3757264928084828,
        -0.22119658873787623,
        0.2924297877536479,
        0.1945812928417589,
        0.48522168737243004,
        0.7556650193722455,
        0.6669950655886053,
        0.4275862075836196,
        0.7463054165744822,
        0.7674876924220894,
        0.4620689796226948,
        0.4965517275538196,
        0.06305417833630877,
        0.3975369416369169,
        0.2817733990032954,
        0.3980295611475444,
        0.471428574171601,
        0.26995074628289284,
        0.34450472448529,
        0.37684729631615255,
        0.5404606510333042,
        0.2935960770556719,
        0.589655172049705,
        0.7502463052849646,
        0.5506294551690841,
        0.4723590512116377,
        0.5073891716939114,
        0.3049261122877475,
        -0.19753694332926328,
        -0.23842365240490707,
        -0.30344827823634474,
        -0.4798029472081173,
        0.4024630459525435,
        0.21379310059870377,
        0.2600985196638091,
        0.6334975411921713,
        0.6142857251331506
      ]
    },
    "rank_5d_ic_non_overlapping": {
      "mean_ic": 0.15577152618408383,
      "std_ic": 0.35706939548466277,
      "t_stat": 5.4487608376890515,
      "num_dates": 156,
      "ic_values": [
        -0.003846147315874258,
        -0.5191304268620974,
        0.6756521734878441,
        -0.3269565114023326,
        -0.13391303590628498,
        -0.23307693024645346,
        0.5981919684234512,
        -0.13307690717830972,
        0.4876923113955545,
        0.4438461508978837,
        0.43769231289999866,
        0.43153845785174616,
        -0.0007692383465594562,
        -0.2969230873053945,
        -0.2100000006447616,
        -0.5315384657321679,
        -0.41846153992740676,
        0.13230767685545253,
        0.49461537613428697,
        0.20461539483237884,
        -0.05538462737608234,
        0.543076932324019,
        0.5846153806476192,
        -0.02461538050433942,
        0.03307692021682593,
        -0.1215384612188359,
        -0.09076923526603076,
        0.5220234664002698,
        -0.2799999952717467,
        -0.13846155583153094,
        0.740769218287303,
        0.25384615698730073,
        -0.23846154393925803,
        0.12230769612666584,
        0.21846152388000256,
        -0.006153855764654312,
        -0.33846154336613626,
        -0.013846156700740216,
        0.5846153787849743,
        -0.010000007235660021,
        -0.0776923179148128,
        -0.013076916921376806,
        0.4669230902426425,
        0.4707692296780949,
        0.6400000138981977,
        0.14846153498423328,
        0.591538472609627,
        -0.27769230043460424,
        0.41999999570158764,
        -0.1907692447225368,
        0.4638461458830698,
        -0.09461538129238149,
        0.4469230870904739,
        0.09923077469195653,
        -0.21461537326867916,
        -0.18700853802186443,
        0.15487179979483282,
        0.14393162849037724,
        -0.24170941441235713,
        -0.6444444333668101,
        0.6758974401473992,
        0.4953845997492466,
        0.5801709326072971,
        0.5343589685440059,
        0.5699145280484796,
        -0.3169230915758344,
        0.0858119542007091,
        -0.37435898335774725,
        0.33606836938769685,
        0.2116239165526845,
        -0.2813675265744879,
        0.05230769148932559,
        -0.04205127686394575,
        -0.20068377200409218,
        0.47555555545665573,
        -0.027692311898867377,
        0.29094018193792404,
        -0.06803419160136474,
        -0.03658119448997352,
        0.4167521350842932,
        0.258803408279242,
        0.6984615270508652,
        0.437948716576894,
        0.2964102641132142,
        0.5808547053133997,
        0.17811965933817392,
        -0.20410257977114787,
        -0.3258119756239432,
        0.6348717905203496,
        -0.2758974451276989,
        -0.2376068394360718,
        -0.4235897538635464,
        0.5897435909509656,
        0.025641015569368857,
        0.4577777675584505,
        0.28888890315868243,
        -0.13709401500931476,
        0.3996581166470489,
        0.36957263845690924,
        0.704615388157632,
        -0.3818803399412718,
        0.6642734993157557,
        0.4837606811037765,
        -0.3415384634176888,
        -0.3470085514209885,
        0.48512820346885205,
        -0.015384613196055073,
        0.42564101972844837,
        0.027008556941703597,
        0.530256414561801,
        0.24376067425056705,
        0.35111110844965293,
        0.4611965891008021,
        0.15897435841295435,
        0.2813675206802506,
        -0.45367520867541944,
        0.3039316406974086,
        -0.14324786816879553,
        -0.35999999892181783,
        0.8393162429685939,
        0.5658119731390914,
        0.8557264931369702,
        0.03794871387481682,
        -0.4960683835815498,
        0.7196581229148079,
        0.5076922971275112,
        0.22324786506670474,
        0.6770388217128075,
        -0.21982905902156105,
        -0.234188035642659,
        0.5719658090794524,
        0.0823931515331619,
        0.2731623829135185,
        -0.25401710271747013,
        0.3087179514911438,
        0.10153845418029338,
        -0.12683760627817217,
        0.19658118563669663,
        0.4769230831861493,
        0.21025640107525684,
        -0.31145300668522147,
        0.052307673210567604,
        0.31692307640976336,
        0.3818803525244745,
        0.48717948483096185,
        -0.13435898849169423,
        0.2820512755049596,
        0.0030769238975313458,
        -0.22119658873787623,
        0.6669950655886053,
        0.4965517275538196,
        0.471428574171601,
        0.2935960770556719,
        0.5073891716939114,
        -0.4798029472081173,
        0.6142857251331506
      ]
    },
    "rank_20d": {
      "mae": 0.23622196912765503,
      "rmse": 0.27789539098739624,
      "bias": 0.007874413393437862,
      "mean_prediction": 0.5273025631904602,
      "mean_target": 0.5194281935691833
    },
    "rank_20d_ic": {
      "mean_ic": 0.25066880555588683,
      "std_ic": 0.32690404539905793,
      "t_stat": 21.360472602890713,
      "num_dates": 776,
      "ic_values": [
        0.02076922760052967,
        -0.13999999054349369,
        -0.3946153927548129,
        -0.5434782687328145,
        -0.32461538379978827,
        -0.37565218130512334,
        -0.1576922987152396,
        -0.3521739142422749,
        -0.09384615956634805,
        -0.18173912905757705,
        -0.4034782686853901,
        -0.45913042159952555,
        -0.38384615863502525,
        -0.4130434792301489,
        -0.24782609803368985,
        -0.09217391743060536,
        -0.18608695108538972,
        -0.37043478524689377,
        -0.39478260550444855,
        -0.18608695621657223,
        -0.07304347690479056,
        -0.23043476933945078,
        0.07826087840518335,
        0.22608695143213317,
        0.37913044034233573,
        0.0684615261008488,
        0.19913042875286063,
        0.3852173871851707,
        0.36999999276433937,
        0.7738461519724863,
        0.8023076966997867,
        0.8223076972729083,
        0.7130769250883587,
        0.5761538450902641,
        0.5438461507546033,
        0.4592307802798917,
        0.4900000010746024,
        0.6430769307479345,
        0.7938461516859254,
        0.7338461555544965,
        0.6923076828732286,
        0.5100000142563991,
        0.49230769275957603,
        0.6915384589979893,
        0.6576922961361921,
        0.3700000019342849,
        0.3076923121119566,
        0.38230769240137513,
        0.41230769920719407,
        0.024615372337356816,
        0.1761538400754507,
        0.07461537885661473,
        0.12846153527079415,
        0.007692305091217416,
        -0.05846153505587361,
        0.17999999598814873,
        0.07923077254275057,
        -0.2038461666587276,
        -0.2407692420718494,
        -0.2569230870188338,
        -0.38076922645428607,
        -0.4438461657990449,
        -0.3515384522638109,
        -0.40615384029037105,
        -0.410769229678095,
        -0.3646153796446567,
        -0.21923076365936592,
        0.09999999383894287,
        0.1523076838761919,
        -0.025384605669102327,
        -0.231538475761796,
        -0.20538460796158856,
        0.0869230812159779,
        -0.18999999663291042,
        -0.13307691692137666,
        -0.17153845341005428,
        0.08461539239661219,
        0.21076923841819942,
        0.18076923805999845,
        0.4576923088881475,
        0.36538460108412935,
        0.340769232901904,
        0.2661538468812695,
        0.21692308042793562,
        0.2407692311825394,
        0.34692307118634996,
        0.2323076798643407,
        0.005384600081166887,
        0.31999998065714613,
        0.2961538565526962,
        0.2669230740519579,
        0.35307691290952536,
        0.2953846225045488,
        0.5300000089550242,
        0.35923077053682473,
        0.534615388886242,
        0.3084615336947096,
        0.423846157488782,
        0.013846150109842045,
        -0.17538461061227587,
        0.4200000020059251,
        0.48230769297449677,
        0.34307692659280326,
        0.48153845863978834,
        0.4653846085347098,
        0.6861538521826438,
        0.6407692324720622,
        0.5815384602158727,
        0.3576922944168276,
        0.2953845971439185,
        0.45076922781544976,
        0.4584615351991536,
        0.1399999939822233,
        0.2307692240901598,
        0.2599999984239154,
        0.1338461330594747,
        0.15230769505206282,
        0.20692306574169517,
        0.22538461211672006,
        0.3584615405005284,
        0.24692308637407195,
        0.1599999773616973,
        0.36769231769989186,
        0.17999998681820334,
        0.3438461493217995,
        0.22307692100486784,
        -0.24615384645142832,
        0.23384614796063585,
        0.2530769283838082,
        0.1515384445266697,
        0.1146153815789423,
        0.2053845979319608,
        0.4884615272470916,
        0.5646153709045523,
        0.5484615401423273,
        0.7069230700401063,
        0.6853846162718509,
        0.5623077054398911,
        0.7353846166300518,
        0.5869230823622207,
        0.4384615508167167,
        0.6238461569156601,
        0.32230769240137536,
        0.37846152989777887,
        0.5538461587066651,
        0.5092307575699487,
        0.3938461595663478,
        0.3230769075365106,
        0.2846153704747113,
        0.5307692352660304,
        0.33615383792624465,
        0.2461538384277261,
        0.44307691957206363,
        0.3000000010029625,
        0.003076917852699423,
        0.07384614051005538,
        -0.30846153555735467,
        -0.44230768652687896,
        -0.2146153747014832,
        -0.21000000608941657,
        -0.21846154651830516,
        -0.4846153806476193,
        -0.4176923164820085,
        -0.4776923110373534,
        -0.3607692230155566,
        -0.26692307820708944,
        -0.45923077239946986,
        -0.483846147459154,
        -0.6676923111089934,
        -0.5684615387095233,
        -0.2846153913936492,
        -0.34153846623364953,
        -0.2999999909733348,
        -0.45615385769893924,
        -0.29307691305280587,
        -0.11384613907725137,
        -0.22769229377206585,
        -0.11538462150158603,
        0.1507692215111127,
        0.12999999204793788,
        0.12538460194381196,
        0.5376923139029612,
        0.6476923039449736,
        0.8261538537587279,
        0.08076921757090189,
        0.0907692269557678,
        -0.3976923202072989,
        -0.5330769212197881,
        0.048461523951642896,
        -0.31692308701883376,
        0.20230768924920678,
        0.4092307658802118,
        0.21307692480179843,
        0.27769231017767126,
        0.2669230812159777,
        0.39461538659375583,
        0.5069230870904737,
        0.11076922179767348,
        -0.26461538236698434,
        0.1238461630767177,
        0.4338461615722733,
        0.24076923333174538,
        0.4684615308291013,
        0.4207692298930156,
        0.4669230723325931,
        0.6846153859489938,
        0.683076921577989,
        0.6269230794966126,
        0.8123076888910052,
        0.7353846202120621,
        0.6769230832935432,
        0.6300000010746024,
        0.4792307633728049,
        0.6969230693953447,
        0.5992307682443383,
        0.7738461501098413,
        0.6107692322571419,
        0.47923077669788167,
        0.4753846149106874,
        0.46923077118158635,
        0.5023076924013751,
        0.4438461433040229,
        0.6961538538303683,
        0.7438461544798933,
        0.6823076829448688,
        0.6861538448753434,
        0.6884615324051857,
        0.6769230840099449,
        0.3599999972776722,
        0.5084615377065607,
        0.48923076043555674,
        0.2953846184926975,
        0.0923076853089959,
        -0.010000001791004924,
        0.07461537498804403,
        -0.25153845656222285,
        -0.048461529396297935,
        0.017692306309100767,
        -0.0492307631578847,
        -0.1330769283838084,
        0.3369230734071961,
        0.5107692371286756,
        0.4961538367800012,
        0.1453846285939656,
        -0.16846154888243173,
        0.20230769010888913,
        -0.1261538500334382,
        -0.0007692443643360496,
        -0.26923075728338824,
        -0.14153845878306914,
        0.41538461175851876,
        0.09461538157894225,
        0.022307696269946373,
        -0.10615385318560704,
        -0.09769231576560691,
        -0.2930769305330141,
        -0.10538461039735529,
        -0.13538462236126841,
        -0.0730769256614809,
        -0.43076922910497367,
        -0.024615382366984517,
        -0.2384615277485732,
        0.057692322069944325,
        -0.225384603090055,
        -0.13538461204507982,
        -0.07615383362783301,
        -0.12538460996751416,
        -0.282307688676085,
        -0.23923076810105814,
        -0.36384614616963074,
        -0.04384615705894119,
        -0.3830769250167188,
        -0.3815384600725925,
        -0.023589736458990228,
        -0.3422222254611825,
        -0.3360683704473351,
        -0.3736751956180285,
        -0.43179487070242534,
        0.08581197910220545,
        -0.2218803430327661,
        -0.3654700907000786,
        -0.26905983403082234,
        -0.0037606817686998873,
        0.13641024958822445,
        -0.286837616167245,
        -0.15692308426962956,
        -0.2430769269757799,
        -0.009230768778589022,
        -0.08239315378489295,
        0.23897436305946754,
        0.06461539297368801,
        -0.328547010486214,
        0.35521367945229537,
        0.46393161243950815,
        0.06119657474270553,
        0.45982905494725207,
        0.6875213693230235,
        0.7039316265115024,
        0.6943589820755846,
        0.7052991431147956,
        0.7620512838469605,
        0.8023931576552205,
        0.8297435939629868,
        0.6136752193592208,
        0.7052991427836589,
        0.761367521869694,
        0.7483760692693563,
        0.8249572678707255,
        0.7271794863859807,
        0.7025641064643853,
        0.775042732407428,
        0.7148718031803762,
        0.6184615475045304,
        0.5494017129041525,
        0.6211965742870608,
        0.31692306455506175,
        0.2519658035401941,
        0.4564102526108417,
        0.3982905774602176,
        0.4482051202747552,
        0.10837606865476673,
        0.3976068252846041,
        0.4988034179802289,
        0.6082051242695911,
        0.5323076857248936,
        0.39965811850141564,
        0.24170940553788772,
        0.24376067100542523,
        0.6061538464837598,
        0.07760682808999644,
        0.10905982665839006,
        0.10222222172066002,
        0.290940167963946,
        0.1815384513431122,
        0.6061538390662927,
        0.41470084060916135,
        0.4147008433907115,
        0.3107692235814196,
        0.38940171076368374,
        0.4858119721350843,
        0.3422222188384441,
        0.3456410152143898,
        0.4051281934579209,
        0.30461537492540103,
        0.24512820244365238,
        0.2512820422252015,
        0.07760682001025553,
        -0.15897437271806936,
        -0.36341880807964855,
        -0.31487180107434565,
        -0.1870085512673412,
        0.01811964686623314,
        0.5063247892662326,
        0.4892307836108735,
        0.46051283116340613,
        0.406495731783796,
        0.5152136702678815,
        0.5808546985582065,
        0.5829059881987392,
        0.30598290238998516,
        0.2929914590614811,
        0.412649573088575,
        0.5623931607361189,
        0.35863247238441703,
        0.3223931532206355,
        0.09333332369857339,
        0.18905983355663433,
        -0.05777778598290909,
        -0.3333333316776484,
        -0.24512820681465985,
        -0.225982912379724,
        -0.49675213714793837,
        -0.3087179497030043,
        -0.658119665494671,
        -0.3066666817850536,
        -0.2642735131705247,
        -0.46256411444610984,
        -0.25333334762785176,
        -0.32991453622888606,
        -0.2191452936666981,
        -0.16376067887588766,
        0.11794871905114906,
        -0.3059829035158508,
        -0.06803419729691969,
        0.21709402058301128,
        0.15282051498889912,
        0.20136752563670815,
        0.26700854624465636,
        0.4919658116517239,
        0.5521367402165019,
        0.5432478578903053,
        0.676581197687431,
        0.5658119696290401,
        0.2560683692446457,
        0.7353846169339279,
        0.6519658126001,
        0.671111114982322,
        0.37641025405724815,
        0.447521364191726,
        0.5008546954349229,
        0.3408546837577107,
        0.5576068295443495,
        0.4803418726082195,
        0.3695726415695962,
        0.208888873147081,
        0.23829058181003235,
        0.24034186449668982,
        0.5398290424408727,
        0.5213675189901278,
        0.6082051207595396,
        0.33880340497846906,
        0.5603418821555591,
        0.2622222265102244,
        0.4994871853219136,
        0.5316239334830526,
        0.4181196627475596,
        0.15897436225414274,
        0.3716239300180362,
        0.1562393211002702,
        0.39350426587175386,
        0.3682051212575697,
        0.1883760687315904,
        0.036581199721936825,
        -0.09196580987683034,
        0.03452990465075862,
        0.22119656886966105,
        0.09059829300862761,
        0.08581195771076043,
        -0.02974359889030466,
        0.1097435901588863,
        0.3511110989129096,
        0.08239315457962161,
        0.12547006907816255,
        -0.042051290175649965,
        0.1405128052923411,
        0.268376061390947,
        0.27179487578074124,
        0.0447863221901434,
        0.23145297574643695,
        0.20478630505844347,
        0.32444443544370116,
        0.4953846193525522,
        -0.0441025622659259,
        -0.30051281915505695,
        -0.11863249500239348,
        -0.04820513989130668,
        0.2635897355635958,
        0.4516239387706471,
        0.407179494754473,
        0.5213675297851913,
        0.275897444266743,
        0.21982906173688382,
        0.2608546963303173,
        0.20683760701726966,
        0.34290597637847575,
        0.09948717248704676,
        0.36273504226119396,
        0.3011965896756559,
        0.5165811997855148,
        0.46735042159733897,
        0.44410256549782184,
        0.3347008370885137,
        0.5432478608705372,
        0.4358974242210382,
        0.22393162465978542,
        0.05367520570843286,
        -0.10427351129496544,
        -0.06529915197072213,
        0.1637606751009268,
        0.3052991471016846,
        0.17128204903602584,
        0.19452991586437915,
        0.035213687887015295,
        0.35863247927206515,
        0.36752135153169924,
        0.17059828712498676,
        0.34358972557385703,
        0.35042733071026927,
        0.26085469460840555,
        0.1473504266544623,
        0.2806837685708646,
        0.16581197043701446,
        0.2991453008298518,
        0.03999999530315389,
        0.019487186980247612,
        -0.017435889061291846,
        0.1986324830258333,
        0.12000000173780646,
        0.02222222614729847,
        0.4399999884684874,
        0.5418803518171661,
        0.46803419185302836,
        0.489230784405602,
        0.7702564244614702,
        0.7429059838489244,
        0.7394871776050984,
        0.7586324832324622,
        0.6294017121862475,
        0.5952136836564094,
        0.5801709469786391,
        0.5220512819608049,
        0.472136765968358,
        0.4762393192882887,
        0.6458119712953208,
        0.5302564143631189,
        0.7251282046265067,
        0.6929914564653673,
        0.55555555222211,
        0.5117948760112123,
        0.2485469992831898,
        0.3128204999102482,
        0.5316239288471357,
        0.4926495795894549,
        0.05162393633347971,
        -0.1015384546438851,
        -0.07350427271701662,
        0.1719658123378399,
        0.09743590059545303,
        0.42085469105331935,
        0.3729914432437327,
        0.10495725777502392,
        0.27247862702917147,
        0.24923076722092063,
        0.2547008588004994,
        0.40512821273008953,
        0.11589741669495868,
        -0.02769232276015828,
        0.1917948572927048,
        0.15282051147884784,
        0.09333332568539493,
        0.17743589424822048,
        0.43863248762731183,
        0.46598290664973047,
        0.5384615337848657,
        0.6690598311697988,
        0.4105982890111426,
        0.6464957307559466,
        0.48307691025204064,
        0.29709400860645113,
        0.08649570948900964,
        0.4967521337041143,
        0.4680341871508839,
        0.4174358875910436,
        0.4933333331558435,
        0.585641024451785,
        0.5979487265984214,
        0.8003418835781232,
        0.6909401707322501,
        0.5856410183588657,
        0.6075213666633315,
        0.6526495744449115,
        0.7182905896222141,
        0.6827350457474031,
        0.5343589688751427,
        0.5753846163829165,
        0.6895726351216979,
        0.7182905961124978,
        0.725811965742817,
        0.22666665700541566,
        0.22393162108350653,
        0.2786324683339503,
        0.04068375840628584,
        0.1295726373654822,
        0.06735043233942102,
        0.002393153045795437,
        -0.06461539330482488,
        -0.06598289858323542,
        0.14051282039218463,
        -0.030427362324573527,
        -0.11658120171935468,
        -0.5630769282102579,
        -0.26632479029408185,
        -0.329914531195605,
        -0.29914530089607927,
        -0.4112820570813282,
        -0.4051282137235002,
        -0.23213675633359826,
        -0.25401709298204467,
        0.014017091360798584,
        0.2861538426001863,
        0.36683760803187304,
        0.7784615330219261,
        0.7223931643998174,
        0.6123076928218202,
        0.7552136634782499,
        0.4078632424266246,
        0.64717948445479,
        0.4666666641897621,
        0.6533333267529798,
        0.759999989967875,
        0.7230769145886095,
        0.7688888901754656,
        0.7750427322749732,
        0.8454700841409182,
        0.795555552783718,
        0.7941880363128796,
        0.8037606796229319,
        0.748376068011036,
        0.5022222074685265,
        0.6670085423239949,
        0.5535042782774674,
        0.3811965852490175,
        0.3299145259636417,
        0.371623922733024,
        0.47555554744314205,
        0.5193162300780962,
        0.3955555389554408,
        0.3401709204558967,
        0.592478624554916,
        0.4666666584279799,
        0.4235897397571136,
        0.026324777414180375,
        0.28752137403841355,
        0.3305982899939568,
        0.17880339608280701,
        0.1480341891615478,
        0.35794870656596234,
        0.18564101691510915,
        0.6109401674102847,
        0.48307692376242695,
        0.64854700721723,
        0.5117948535601291,
        0.34837606928260223,
        0.2888889013705429,
        0.2943589765919578,
        0.4058119485475392,
        0.3846153941419387,
        0.4584615152306018,
        0.279316230708581,
        0.11726495356383128,
        0.1494017106656674,
        0.22051281974050713,
        0.2451281984700093,
        0.28410254878732855,
        0.22051282080014523,
        0.31692307289971205,
        0.2594871610509019,
        0.7360683787787397,
        0.6382906020623659,
        0.617094021496949,
        0.029059827641204513,
        0.23213674189602856,
        0.05572649296477983,
        0.25880341708748406,
        0.13299145791442304,
        0.22051282080014528,
        0.316923073032167,
        0.09538461016019167,
        0.13094016946598322,
        0.45025641633934405,
        0.24991451224397682,
        0.06393161841321864,
        -0.07350428291603374,
        0.15145297970948368,
        0.08307691788143573,
        0.07076924023893154,
        -0.033846151879098625,
        -0.21230770329899257,
        -0.2355555704584828,
        0.2341880175625832,
        0.24376067696588974,
        0.14735040672001973,
        -0.030427355304470792,
        -0.016752148541697872,
        -0.07487180448638076,
        -0.05367521266230827,
        0.0851281989786358,
        -0.17606837492960456,
        0.03999998728964045,
        -0.11931624618459624,
        -0.1466666737503475,
        0.10700854801160309,
        0.3121367384628009,
        0.32923077597353184,
        -0.06529915031503747,
        -0.007179505032963443,
        0.028376062683705787,
        0.4071794878005979,
        0.6129914438715681,
        0.32444446120615344,
        0.24376068901927364,
        0.01948718062241869,
        0.45435898628234844,
        0.8010256393300155,
        0.6205128344959678,
        0.4960683810649092,
        0.4974358999861608,
        0.3381196649224668,
        -0.055726494223100095,
        0.0953846147961086,
        0.022905974018132148,
        0.10700854509759825,
        0.19042734353718901,
        0.06188034764749035,
        0.17948717143800494,
        0.22393161770591,
        0.24444444159225154,
        0.25470085575403967,
        0.24512820900016352,
        -0.012649575088642282,
        0.02632478781187976,
        0.45846152999930856,
        0.5350427266800838,
        0.4803418779064102,
        0.46871794396241434,
        0.3852991465824618,
        0.7620512909332906,
        0.6307692299154064,
        0.5316239280524073,
        0.6458119620234873,
        0.6252991327727275,
        0.6170940161325307,
        0.6376068372373221,
        0.6041025676382907,
        0.5473504378998717,
        0.4495726668790533,
        0.5726495742356328,
        0.2882051267438462,
        0.4167521451508555,
        0.5446154010507793,
        0.4078632494467272,
        0.11111111868310859,
        0.27111111956525724,
        0.16239316790192207,
        0.05572648680563311,
        0.08239315842080984,
        0.1856410350614123,
        0.19521366452994132,
        0.018803410697866264,
        0.21572649742320715,
        0.4256410243643652,
        0.4160683728421173,
        0.4092307577715974,
        0.2888888893833864,
        0.4988034081123487,
        0.17743588855266548,
        0.2246153799480859,
        0.2765811879652514,
        0.23487179152700602,
        0.19863246401857412,
        0.4659829001594468,
        0.5103785074437734,
        0.3541871954110578,
        0.5435139573553405,
        0.6699507412360983,
        0.6576354574157806,
        0.5472906490924444,
        0.6847290616991081,
        0.6586206884542705,
        0.6527093673626938,
        0.6970443455849745,
        0.7438423657666813,
        0.6064586724842683,
        0.4625615873188299,
        0.5090312024230282,
        0.5921182345851129,
        0.610344836529105,
        0.6201970281304601,
        0.62857142378481,
        0.6327312346890288,
        0.4230979688953911,
        0.49917897737305567,
        0.5146520034941379,
        0.12454212764255919,
        0.2600732654279429,
        0.43497537028361605,
        0.2047071693687572,
        0.48817734126591406,
        0.48029556267414353,
        0.466995073401072,
        0.3862068965062128,
        0.2655172379021279,
        0.47931033935232636,
        0.2433497411807515,
        0.03399015199626349,
        0.11280788086380936
      ]
    },
    "rank_20d_ic_non_overlapping": {
      "mean_ic": 0.26746797483150053,
      "std_ic": 0.26962326915693874,
      "t_stat": 6.195077200425704,
      "num_dates": 39,
      "ic_values": [
        0.02076922760052967,
        -0.07304347690479056,
        0.6923076828732286,
        -0.38076922645428607,
        0.36538460108412935,
        0.4200000020059251,
        0.24692308637407195,
        0.4384615508167167,
        -0.21846154651830516,
        0.12538460194381196,
        0.4338461615722733,
        0.5023076924013751,
        0.3369230734071961,
        -0.024615382366984517,
        -0.3654700907000786,
        0.7620512838469605,
        0.10837606865476673,
        0.3422222188384441,
        0.2929914590614811,
        -0.16376067887588766,
        0.3408546837577107,
        0.3682051212575697,
        0.32444443544370116,
        0.44410256549782184,
        0.2806837685708646,
        0.5220512819608049,
        0.10495725777502392,
        0.4967521337041143,
        0.2786324683339503,
        0.36683760803187304,
        0.5535042782774674,
        0.64854700721723,
        0.029059827641204513,
        0.24376067696588974,
        0.24376068901927364,
        0.02632478781187976,
        0.4078632494467272,
        0.4659829001594468,
        0.4230979688953911
      ]
    },
    "sector_neutral_rank_20d": {
      "mae": 0.2429836094379425,
      "rmse": 0.2802511155605316,
      "bias": -0.011075827293097973,
      "mean_prediction": 0.5775600075721741,
      "mean_target": 0.5886358618736267
    },
    "sector_neutral_rank_20d_ic": {
      "mean_ic": 0.20487424566840173,
      "std_ic": 0.20674075612476756,
      "t_stat": 27.94118569091119,
      "num_dates": 795,
      "ic_values": [
        0.21911053593979535,
        0.12839598736389218,
        0.17654448601772987,
        0.2707480563165919,
        0.02860997893931369,
        0.22259957107629522,
        0.32796800577276336,
        -0.0006978035959290304,
        0.30494046121585233,
        0.22539077984504063,
        0.24562710284355088,
        0.2142259054652645,
        0.3356438546862669,
        0.1744510674313725,
        0.12769818501573454,
        0.17305546117534296,
        0.1304894031427643,
        0.1723576563316427,
        0.009769264692375601,
        0.11304429078465643,
        0.020934131897466984,
        0.06489579961744617,
        0.1346762228466814,
        0.3237811829494179,
        0.17584666464106044,
        0.4333364414050597,
        0.21771492438073803,
        0.40612207839200304,
        0.2219017472040833,
        0.34890212706417456,
        0.4445013185923211,
        0.41030890870197584,
        0.4619464203443734,
        0.4214737737234675,
        0.2770282893038387,
        0.4828805403880136,
        0.5770841166137891,
        0.4542705701830988,
        0.18770934386453686,
        0.4975344386743484,
        0.2505117264553398,
        0.38728135197929514,
        0.1995720343179546,
        0.22329736125868319,
        0.17305547178139852,
        0.23027541125539996,
        0.06419800226037342,
        0.37820989556199075,
        0.4179847604229646,
        0.02023633422845147,
        0.013956093754577195,
        0.06838482633149003,
        0.041170453960148755,
        0.020236324246281405,
        0.17654448289830166,
        0.2819129172828269,
        0.244231498459178,
        0.26028098709245884,
        0.07396725946612154,
        0.023725345969240266,
        -0.08582991311028723,
        -0.05931335057373124,
        0.0307034031406417,
        0.11164868296891269,
        -0.011862668305477938,
        0.10397284123009384,
        0.23516003330747498,
        0.36564943052332566,
        0.3621604094242525,
        0.37332528162042905,
        0.21003907515529163,
        0.2672590317861477,
        0.1849181198105936,
        0.5003256493147505,
        0.36774283164088556,
        0.3328526225218104,
        0.18003349588686185,
        0.14304986755754368,
        0.13188500315993756,
        0.3237811760866762,
        0.06908261838553498,
        -0.0006978113944993631,
        0.25609416302134225,
        0.10955526282284127,
        0.1228135626517167,
        0.0006978060914715175,
        0.2979624127788497,
        0.04256606364754932,
        -0.04117044709740688,
        -0.04326386537182151,
        0.036285823173675034,
        0.018840713311109616,
        0.06559359323120519,
        0.0921101698051878,
        -0.03000557708483013,
        -0.0802474877742261,
        0.0997860046812647,
        -0.07047823680733425,
        0.08931894294375924,
        -0.024423143638255877,
        0.06838482477177595,
        0.0997860180948057,
        -0.06978042166952117,
        -0.09559917842654844,
        0.0069780509325451726,
        0.11583550454448681,
        0.04117045645569128,
        0.1388630481655693,
        0.03489022440427299,
        0.005582431574917407,
        0.011862681095133271,
        0.0830387186909113,
        -0.012560470965578508,
        -0.03907702726327823,
        0.2798195043114403,
        0.32936360360633693,
        -0.05163750758714111,
        -0.04465946351733787,
        0.05582433883294241,
        0.06978043227557683,
        -0.06210457930681672,
        -0.02791216130595812,
        -0.07606066307922389,
        0.060011178501199684,
        0.16677522974781017,
        0.2533029423987699,
        -0.28400632900644246,
        0.16258840006172295,
        0.4263584098129692,
        0.36774284723802614,
        0.2058522626260591,
        -0.03209898194570374,
        0.1172311176632582,
        0.11304429608768417,
        -0.011862664562164199,
        0.26865464864823296,
        0.14165427315534102,
        0.04745069412208019,
        0.18142910869369044,
        0.12072013470707489,
        0.13328061971007996,
        0.14235207643932715,
        0.14514329550218547,
        0.09978600561709314,
        0.3161053334120289,
        0.508699308686925,
        0.20585226231411632,
        0.036983625833775596,
        0.1283959895474919,
        -0.07047822620127864,
        0.22050614281971057,
        0.4340342521756737,
        0.29028656979225953,
        0.3077316805906535,
        0.24981392441912487,
        0.23585783877506084,
        0.08513211544127167,
        0.17026424211248467,
        0.11932453562573002,
        0.06978042790837741,
        0.007675860455387616,
        0.05303313786276739,
        0.035588023633002626,
        0.01744511516559321,
        -0.055126534613127776,
        -0.20794565875253396,
        -0.10955526282284128,
        0.09071456510887234,
        -0.11792891502033108,
        -0.04117044148243625,
        0.25888537990060084,
        0.23934686299356212,
        0.23864906189317564,
        0.3502977298888333,
        0.35867138832517925,
        0.41728694403738037,
        0.4626442251880738,
        0.28819315838058696,
        0.3049404459306545,
        0.3844901297970088,
        0.3154075270086145,
        0.2602809877163445,
        0.2888909588570878,
        0.3126163048263281,
        0.24981392722661022,
        0.04047266065833259,
        -0.21143467953966436,
        -0.062104571196303575,
        -0.12072012878016147,
        -0.044659471939793804,
        0.06350019148975974,
        -0.2149237056298225,
        0.17724229242114423,
        0.11374209905972758,
        0.17305546179922854,
        0.23027541343899968,
        0.13188501033462233,
        0.09071456635664359,
        0.37751211161845905,
        0.1318850106465651,
        0.15142352443417562,
        0.3816989338179187,
        0.36495162879905374,
        0.34890212363280376,
        0.36564942927555466,
        0.32936360734965064,
        0.36076479911296633,
        0.4110067066829341,
        0.5973204361809283,
        0.4047264637135174,
        0.5708038764518577,
        0.5540565826629339,
        0.34541309504710294,
        0.32447896938849224,
        0.5128861202803291,
        0.3126163157443266,
        0.2386490625170612,
        0.4103088996556342,
        0.2805173054118268,
        0.5003256549297213,
        -0.08303870278182779,
        -0.030005575525116016,
        0.09908820701224919,
        0.19887422385928363,
        0.022329736905725383,
        0.10187941765265143,
        0.03907703693350548,
        0.10955526750198344,
        0.06629140275404773,
        0.1611927782085527,
        0.059313359308130024,
        0.2644678164666032,
        0.26097879505558724,
        -0.046752872121525235,
        0.2351600386105027,
        0.2993580283931637,
        0.15002791568260346,
        0.21631932062025092,
        0.27912170913796724,
        0.1081596690445242,
        0.08931895698118578,
        0.21631932529939307,
        0.16537961350961064,
        0.1556103578635766,
        0.011862682654847344,
        -0.025120946298356418,
        0.059313364923100714,
        0.17096203884567177,
        0.1758466783665443,
        0.15212132803010464,
        0.032099000662272476,
        -0.18910494762502394,
        -0.09490138013364724,
        0.2051544490479601,
        -0.24004466066257768,
        -0.04954410241432476,
        -0.32727019562603527,
        -0.09490137483061944,
        -0.2505117277031112,
        -0.014653897662449043,
        -0.06001116383988747,
        -0.17305545400065817,
        -0.35867138395797993,
        -0.19608299169482726,
        -0.025818759564512645,
        -0.006978040326489526,
        0.01674730002778009,
        -0.08792333419218717,
        -0.041170446161578444,
        -0.03907704317236172,
        -0.036983620530747836,
        0.04535727304018034,
        -0.1011816087536947,
        0.013258276433164339,
        -0.15840156912786452,
        -0.2602809824133167,
        -0.15002790913180447,
        -0.13537402425901077,
        -0.14304987223668592,
        -0.18770934261676564,
        -0.004884622052074951,
        -0.14095646051307043,
        -0.1444454691344311,
        -0.12002233828583064,
        0.001395614990428396,
        0.056522153034927115,
        -0.08443430404677238,
        -0.00976925658186244,
        -0.060708970243301796,
        0.12560478795343116,
        0.050939698688184334,
        0.0683848200926338,
        0.2895887677560447,
        0.27981950930252536,
        0.33983066908715626,
        0.36146260582832357,
        0.3775121088109737,
        0.4472925323521517,
        0.4026330572929297,
        0.4382210753109616,
        0.28819316274778634,
        0.3398306809409832,
        0.14165427097174135,
        0.272841473655178,
        0.2923799886905598,
        0.3133141187163699,
        0.4096111016746758,
        0.30494046215168086,
        0.4019352536970007,
        0.35727579017966293,
        0.35448456518989124,
        0.40681987699684685,
        0.26935243914256385,
        0.42147375812632687,
        0.48008932600429755,
        0.3412262747193001,
        0.13118720611480764,
        0.41658914262505103,
        0.4221715838701957,
        0.3391328801525394,
        0.14304987597999963,
        0.2958690110374042,
        0.45915520221734374,
        0.4326386418643874,
        0.29307779384620297,
        0.2986602291644341,
        0.42775401294957066,
        0.3649516319184817,
        0.44938594469965276,
        0.32238556920676087,
        0.3816989297626622,
        0.37192966663000054,
        0.14863231410571617,
        0.2812151202376971,
        0.23864906220511842,
        0.549171945325661,
        0.5721994914422861,
        0.23934685550693466,
        0.579177533016547,
        0.5233531910641761,
        0.5498697557843318,
        0.38030332974548875,
        0.3928637957199823,
        0.5394027043409394,
        0.6343040732446452,
        0.4026330491824167,
        0.34890213455080227,
        0.10397283873455136,
        0.055824344447913093,
        0.2205061474988528,
        0.3440175018926715,
        0.19050056011990982,
        0.1974786172913113,
        0.3181987548058715,
        0.28889095698543094,
        0.15212134487501652,
        0.1339784155074387,
        0.4403144864106915,
        0.4703200647432928,
        0.46683105549804665,
        0.3719296803554843,
        0.4514793576710397,
        0.2379512495628478,
        0.4389188854576899,
        0.2700502467937495,
        0.21911053781145232,
        0.15770376927524918,
        0.1381652436338118,
        0.2749348844429651,
        0.3984462407084407,
        0.30633606715993916,
        0.4626442239403026,
        0.3335504339163098,
        0.2644678183382601,
        0.2644678233293451,
        0.24562710502715043,
        0.2714458561692071,
        0.3237811810777611,
        0.5387048882672977,
        0.36844064677869864,
        0.3147097193574288,
        0.159797172264466,
        0.46543544456287483,
        0.38239673055110585,
        0.4807871286643982,
        0.39844623509347005,
        0.6036006769667455,
        0.3900725769690669,
        0.14514327959310197,
        0.2505117336300245,
        0.39077038742773773,
        0.3202921512442893,
        0.3230833762340608,
        0.5038146679182812,
        0.47241348676102124,
        0.22329736375422576,
        0.40891329870263254,
        0.30912728747056856,
        0.3335504320446529,
        0.289588775554615,
        0.4186825512292383,
        0.20655005655176098,
        0.39495721742576795,
        0.2672590367772328,
        0.394259410086525,
        0.2546985617563977,
        0.18910495979079373,
        0.5093971107231399,
        0.47869372130798193,
        0.45357276939465513,
        0.47869371506912584,
        0.39425940384766883,
        0.6608206226796031,
        0.32936361296462136,
        0.47101787270642137,
        0.34262188721418607,
        0.09071454919978882,
        0.19747861198828337,
        0.17933569728201781,
        0.39286380102301005,
        0.36076480004879474,
        0.4668310523786184,
        0.22678639171604087,
        0.2588853842678001,
        0.30912729308553927,
        0.21841273296775193,
        -0.004884635465615939,
        0.16677521914175458,
        -0.2463248973931383,
        -0.05233530837558485,
        -0.21911053250842444,
        -0.11374209500447102,
        -0.10327501985342451,
        0.05652215709018366,
        0.2512095341065254,
        0.28470413416208556,
        0.23585784439003146,
        0.036285826293103125,
        -0.21841272236169637,
        0.08164308560779975,
        0.023027540501654405,
        0.04465948036224977,
        0.10536844873389474,
        -0.15421473476263511,
        -0.0537309227421276,
        -0.08862113529257362,
        0.32866579938652235,
        0.27005024804152067,
        0.3837923414862776,
        0.4005396483767997,
        0.3879791671171083,
        0.23376442424396002,
        0.24004467376417588,
        0.31331411715665586,
        0.26656123661267467,
        0.14723670285860146,
        0.1702642374333424,
        0.18003349869434712,
        0.14933010615976108,
        0.10746186420082397,
        0.15212133926004595,
        -0.15421473257903545,
        -0.08443430279900109,
        0.08862114465085803,
        0.060708978977700556,
        -0.04814848555223953,
        -0.13956084021961424,
        -0.03558801333888975,
        -0.11443989516902904,
        -0.052335316174155176,
        -0.07815406856398312,
        -0.06280237385640412,
        -0.1584015588337517,
        -0.008373645334747862,
        -0.095599175931006,
        -0.22329735564371261,
        -0.1311871883340673,
        -0.08652771764204471,
        -0.016049496119908316,
        -0.026516561288784747,
        0.07606066807030892,
        0.06629141523176021,
        0.0662914086809611,
        -0.11025306329934219,
        -0.02581874771068569,
        -0.267259024611463,
        -0.011862664250221392,
        0.0027912215584007267,
        -0.02581875519731328,
        0.38169893912094655,
        0.3942594060312686,
        0.2623743991280171,
        0.3084294816910399,
        0.4389188807785477,
        0.545682935456529,
        0.49125419601687437,
        0.48218274334288364,
        0.5198641637262467,
        0.43263863718524526,
        0.42356717983211234,
        0.5073036858979263,
        0.31959435170361666,
        0.38867697102498006,
        0.5491719546839454,
        0.4200781615405245,
        0.526842211227421,
        0.47590250193318107,
        0.44310570703326385,
        0.44240790312539224,
        0.4451991215643648,
        0.30494046152779514,
        0.4137979285532778,
        0.369836258337756,
        0.3489021289358316,
        0.3363416507955683,
        0.27563268304780897,
        0.2951712136803315,
        0.21003908139414784,
        0.2002698223167429,
        0.11653331157178674,
        0.13746744128565405,
        0.1793356950984181,
        0.07187384462307789,
        0.294473395735033,
        0.34471531235134234,
        0.0495441042859816,
        0.17445107055080064,
        -0.04256606052812116,
        -0.05931335930813004,
        0.03279680269848745,
        0.14793449959178873,
        0.2100390788986054,
        -0.0823409076083547,
        -0.062104573379903244,
        0.07257164478763603,
        -0.04745069069070923,
        0.2477205111357953,
        0.4361276585962611,
        0.1953851893466695,
        0.323781176086676,
        0.3279680082683058,
        0.41310012994843376,
        0.427754010454028,
        0.41798475511993677,
        0.33843506220724096,
        0.36216041784670844,
        0.46334202722428874,
        0.5010234550942794,
        0.2156215207676356,
        0.07745627432633845,
        0.14304986974114334,
        0.07326945212687877,
        0.03837923801671863,
        -0.09141235622708876,
        0.11234649217981238,
        0.11443990140788536,
        0.15491254740490576,
        0.05721995039199986,
        0.17305545867980038,
        0.3614626036447239,
        0.3300614084500371,
        0.10257722280829458,
        0.1514235247461185,
        0.0725716469712357,
        0.09699479840806187,
        0.28330853196131256,
        0.08722553527540039,
        0.15630815678036344,
        0.11583551421471398,
        0.2623744169087575,
        0.35029773519186125,
        0.41240231886587736,
        0.4144957296536642,
        0.2749348819474226,
        0.3796055192868179,
        0.44310570640937835,
        0.35657798315236294,
        0.41030891182140394,
        0.380303316020005,
        0.4207759663842247,
        0.4689244569275493,
        0.5617324325122658,
        0.41310012495734877,
        0.5994138666211126,
        0.6761723357918081,
        0.3663472366147972,
        0.4905563977239732,
        0.41100670730681993,
        0.6056940930575601,
        0.6029028839768722,
        0.512886128702785,
        0.334946052650052,
        0.3803033185155475,
        0.29377558964356154,
        0.3244789859214614,
        0.4291496145264579,
        0.33843506345501223,
        0.18142910058317732,
        0.33424824281526666,
        0.480787137086854,
        0.545682932337101,
        0.35867138988489344,
        0.4347320588910308,
        0.3028470554191503,
        0.45287497266146787,
        0.25609416988408407,
        0.3105228980937976,
        0.2819129238336261,
        0.3216877634272321,
        0.4305452310766003,
        0.473111297843578,
        0.38588575227406463,
        0.5345180641961812,
        0.3851879549169918,
        0.3286658162314342,
        0.31610533465980006,
        0.40263306228401474,
        0.29586900729409055,
        0.34471530642442905,
        0.3251767867099051,
        0.46334203283925957,
        0.39914404430436967,
        0.41379792886522065,
        0.358671390508779,
        0.32168776779443153,
        0.19189617791782348,
        0.22608857377074243,
        0.3879791668051654,
        0.22259955579109733,
        -0.006978029408491085,
        0.1863137323054795,
        0.21073688374230562,
        0.07606067212556546,
        0.08582992434022856,
        0.06629141180038926,
        0.2540007609679541,
        0.03000558831477143,
        0.2644678130352323,
        0.2874953522891153,
        0.29586900698214763,
        0.21213249935661957,
        0.40193525151340104,
        0.2819129197783695,
        0.41379792356219275,
        0.3782099089755317,
        0.26656123318130376,
        0.23167101408005866,
        0.36146260083723847,
        0.23934685238750653,
        0.2212039476634108,
        0.3656494280277832,
        0.5184685609015882,
        0.2540007572246402,
        0.4361276660828888,
        0.2142259104563495,
        0.12490696220956247,
        0.31470972372462824,
        0.22678639639518305,
        0.24562710908240698,
        0.3900725791526665,
        0.09908821200333422,
        0.3775121007004606,
        0.09280796279506114,
        0.32727019406632124,
        0.22469297843271135,
        0.05512654397141221,
        0.27981951803692406,
        0.17933569541036085,
        0.20724785983574717,
        0.26795683507013385,
        0.06350019273753099,
        0.08303871650731157,
        0.10606624765068154,
        0.24004467095669046,
        0.1123464943634121,
        0.28400632744672843,
        0.2847041379053994,
        0.3844901550643766,
        0.272841463673008,
        0.2874953541607723,
        0.36355601474445365,
        0.3698362683199261,
        0.4556661779988425,
        0.2519073339591407,
        0.2728414611774655,
        0.36076479911296644,
        0.3607648031682229,
        0.42845180905887204,
        0.4012374451099867,
        0.5659192540878398,
        0.3314570262479509,
        0.2770282868082961,
        0.2225995523597264,
        0.1430498778516564,
        0.4999999776482577,
        0.16119278819072275,
        0.32308337623406086,
        0.3572757842527495,
        0.17933569634618937,
        0.2526051431700403,
        0.08722553527540032,
        0.05024191536853817,
        0.1535169358458483,
        0.28749535759214334,
        0.34331969361760034,
        0.332852636559237,
        0.15700595756880711,
        0.20166543387580027,
        0.2184127286005526,
        0.15142352225057595,
        0.1758466833576293,
        0.2909843715165318,
        -0.05093970867035432,
        0.18561592964537887,
        0.29447340384554627,
        0.09559919090426104,
        0.2979624140266209,
        0.10676405842129522,
        0.22050615748102276,
        0.20166543949077098,
        0.10536845029360878,
        0.14514328832750076,
        0.015351705937520188,
        -0.06768700214733533,
        -0.06001115791297399,
        -0.10397282625683885,
        0.04186826254716276,
        -0.07257163979655103,
        0.19119837120246636,
        0.16747302710488302,
        0.10397284154203666,
        0.23236882703427197,
        0.21283030887946205,
        0.17096205225921277,
        0.21841274544546452,
        0.11653332217784242,
        0.06908262524827688,
        0.12490696376927647,
        0.3251767792232776,
        0.17933569073121874,
        0.38449015163300565,
        0.4954410263268471,
        0.32438932807051307,
        0.3453632393107041,
        0.30000002682209004,
        0.7999999999999999,
        0.5232954040186688,
        0.5145814616968278,
        0.20212310278218962,
        0.23135578223193712,
        0.19168286432200252,
        0.30000002682209004,
        -0.8000000044703481,
        0.3887946444104459,
        0.307778363118852,
        0.45895307998101537,
        -0.1000000089406967,
        0.6379525897932423,
        -0.39999999999999997,
        0.39999999999999997,
        0.13988176963831608,
        0.23929036741942444,
        0.19721036273062595,
        0.3073607547378984,
        0.12945901841938648,
        -0.5999999940395352,
        -0.1999999955296516,
        -0.038837695640787505,
        0.15451559595104594,
        0.21693139920871152,
        0.10365009366855943,
        0.028893609371830414,
        -0.39999999999999997,
        0.9999999999999997,
        0.163710504933247,
        0.257692468602963,
        0.10257170784583987,
        0.017122008492518957,
        0.23894558116548684,
        -0.9000000059604643,
        -0.9000000059604643,
        0.021715715244524956,
        0.012110692799501012,
        -0.06974081384156042,
        0.044266633342843725,
        0.031738349430852304,
        0.19999999552965145,
        0.09999998658895481,
        -0.20000001788139335,
        0.12361247924376177,
        0.20212310670259756,
        -0.011693058282494746,
        0.12361248559108888,
        0.299999989569187,
        0.09999997913837429
      ]
    },
    "sector_neutral_rank_20d_ic_non_overlapping": {
      "mean_ic": 0.17500407578184105,
      "std_ic": 0.2507378447128966,
      "t_stat": 4.414263669826189,
      "num_dates": 40,
      "ic_values": [
        0.21911053593979535,
        0.020934131897466984,
        0.2505117264553398,
        -0.08582991311028723,
        0.06908261838553498,
        0.06838482477177595,
        -0.06210457930681672,
        0.13328061971007996,
        0.007675860455387616,
        0.3154075270086145,
        0.15142352443417562,
        -0.08303870278182779,
        0.08931895698118578,
        -0.06001116383988747,
        -0.004884622052074951,
        0.28819316274778634,
        0.14304987597999963,
        0.5498697557843318,
        0.3719296803554843,
        0.3147097193574288,
        0.4186825512292383,
        0.36076480004879474,
        0.023027540501654405,
        0.15212133926004595,
        0.07606066807030892,
        0.5073036858979263,
        0.13746744128565405,
        0.3279680082683058,
        0.3300614084500371,
        0.4689244569275493,
        0.545682932337101,
        0.46334203283925957,
        0.21213249935661957,
        0.09908821200333422,
        0.36355601474445365,
        0.08722553527540032,
        0.10536845029360878,
        0.38449015163300565,
        0.13988176963831608,
        -0.9000000059604643
      ]
    }
  },
  "validation": {
    "direction": {
      "loss": 0.659020185470581,
      "accuracy": 0.511020512167155,
      "balanced_accuracy": 0.5083305088597568,
      "precision": 0.5571955719557196,
      "recall": 0.07743589743589743,
      "specificity": 0.9392251202836162,
      "f1": 0.13597478613237282,
      "mcc": 0.03285550900068992,
      "threshold": 0.52,
      "positive_rate": 0.06905338168144226,
      "average_probability": 0.4878903329372406,
      "confusion_matrix": {
        "tp": 302,
        "tn": 3709,
        "fp": 240,
        "fn": 3598
      }
    },
    "magnitude": {
      "mae": 0.018305623903870583,
      "rmse": 0.03232550248503685,
      "bias": 0.004083982668817043,
      "mean_prediction": 0.003080395981669426,
      "mean_target": -0.0010035868035629392
    },
    "volatility": {
      "mae": 0.02582782879471779,
      "rmse": 0.04233993589878082,
      "bias": -0.001352708088234067,
      "mean_prediction": 0.026318350806832314,
      "mean_target": 0.02767105959355831
    },
    "direction_5d": {
      "loss": 0.6757926344871521,
      "accuracy": 0.49624155943432285,
      "balanced_accuracy": 0.5063314474034459,
      "precision": 0.4928266770065917,
      "recall": 0.9921935987509758,
      "specificity": 0.020469296055916127,
      "f1": 0.6585492227979275,
      "mcc": 0.053373828284000314,
      "threshold": 0.47,
      "positive_rate": 0.9857306480407715,
      "average_probability": 0.55245441198349,
      "confusion_matrix": {
        "tp": 3813,
        "tn": 82,
        "fp": 3924,
        "fn": 30
      }
    },
    "direction_20d": {
      "loss": 0.7223906517028809,
      "accuracy": 0.4571282965982928,
      "balanced_accuracy": 0.5001173158141717,
      "precision": 0.457059123343527,
      "recall": 1.0,
      "specificity": 0.0002346316283435007,
      "f1": 0.6273721031919545,
      "mcc": 0.010355700186821975,
      "threshold": 0.47,
      "positive_rate": 0.999872624874115,
      "average_probability": 0.6034525632858276,
      "confusion_matrix": {
        "tp": 3587,
        "tn": 1,
        "fp": 4261,
        "fn": 0
      }
    },
    "rank_5d": {
      "mae": 0.25165218114852905,
      "rmse": 0.29322701692581177,
      "bias": -0.0012149146059527993,
      "mean_prediction": 0.516026496887207,
      "mean_target": 0.517241358757019
    },
    "rank_5d_ic": {
      "mean_ic": -0.037776898067222654,
      "std_ic": 0.4250516472923885,
      "t_stat": -1.4080609406781592,
      "num_dates": 251,
      "ic_values": [
        0.8310344802107413,
        0.21428571404242985,
        0.17586207404806092,
        -0.18374384550856146,
        -0.03300493027099961,
        -0.03546798210950234,
        -0.10443349053130266,
        -0.32857142384867233,
        -0.27487684469127355,
        0.35024630409287205,
        -0.3054187122139917,
        -0.13300492881281434,
        -0.23054187189727307,
        0.43103448987520926,
        0.3866995040959112,
        0.10837439653777584,
        -0.13793104148373497,
        -0.2187192246051507,
        -0.764532017613761,
        -0.7684729024925162,
        -0.6610837414635782,
        -0.50197044031064,
        -0.5280788127572008,
        0.5817733960124191,
        0.3669950806068479,
        0.5300492605716405,
        0.7891625701650229,
        0.4216748813298552,
        0.6295566506722617,
        0.5364532074004009,
        0.2523410885472754,
        0.13645320886922988,
        -0.11625615804642954,
        -0.2349753659622796,
        -0.13546798182212272,
        0.11034482077644954,
        -0.42857143154405786,
        -0.4610837415061535,
        -0.3192118210509092,
        0.28472905449333247,
        0.1280788234860374,
        -0.03152708722568156,
        0.09310345513957174,
        -0.1118226649393546,
        -0.13448276584444946,
        -0.09507389795147846,
        -0.7443349675360187,
        -0.8955664975477674,
        -0.8408866919818825,
        -0.3709359407390317,
        -0.33399014373676256,
        -0.19359605754579454,
        -0.720197046629187,
        -0.7990147791688047,
        -0.8492610830062287,
        -0.7330049185735873,
        -0.4921182203438603,
        -0.8270935984186552,
        0.1064039398890766,
        -0.04827586368643882,
        0.10394089198873789,
        -0.004926109211722512,
        -0.14656977491354167,
        -0.2911330003109427,
        0.05172413384422567,
        0.6103448303557667,
        0.6448275839812645,
        0.6842364536304437,
        0.74187192676695,
        0.47980296029985137,
        0.6960591114598156,
        0.48719210000948526,
        -0.02167488066994707,
        -0.09359605293707837,
        0.17783252308652422,
        -0.30640395634421586,
        -0.06847290338658676,
        0.1901477871219154,
        0.5541871921753769,
        -0.21477831125453375,
        0.3783251254714597,
        0.600985222821563,
        0.4532019611581747,
        0.24581280941053157,
        0.07733990668385356,
        0.19605912263568706,
        -0.06403940458513951,
        -0.11182265786130305,
        -0.3167487693188432,
        -0.6054187268384169,
        -0.19802955719873677,
        -0.6443349645238554,
        -0.14433497069719417,
        -0.18226602747590692,
        -0.41625615276716055,
        -0.17192117996251663,
        -0.439408866690234,
        -0.40541871932397416,
        -0.4738916312787288,
        0.03201971269677339,
        0.3039408842827085,
        0.8955665021245525,
        0.6635468033071467,
        0.4290640407835275,
        0.3891625593403936,
        -0.2137930925095021,
        -0.4226601032147746,
        -0.5926108413233161,
        -0.20394088462330665,
        -0.1379310352571784,
        -0.24482757709479952,
        -0.06502461593280905,
        0.5556650335709232,
        0.046798029156069995,
        0.15172414899019163,
        -0.8014778316991473,
        -0.7178223881420097,
        -0.7561576334013741,
        -0.7950738804000383,
        -0.6261083671034297,
        -0.19310344527287415,
        -0.0009852201287110127,
        0.693103436598269,
        0.7753694622328184,
        0.8256157626110439,
        0.4891625627783042,
        0.4024630608004862,
        -0.06108372983002979,
        -0.048768471435792465,
        -0.06600984127692645,
        0.6310344805726269,
        0.7556650163920132,
        0.5256157612912272,
        0.530541879975831,
        0.31871921835730654,
        0.014778324548498537,
        0.010837441692043544,
        0.13152708858807335,
        0.3270935949594576,
        -8.4085123896647e-09,
        -0.22512315387182819,
        -0.29310344392112575,
        -0.42364532211946143,
        -0.06453201057828489,
        0.07586206747026267,
        -0.16600985115426747,
        0.1423645363470183,
        -0.12660097783301627,
        -0.24778324237702826,
        -0.4862068963784885,
        -0.48226600319765756,
        -0.5714285724473235,
        -0.5162561501381703,
        -0.31330049016714095,
        0.16009852463441096,
        0.40246306005542837,
        -0.2349753642592899,
        -0.03251231347451229,
        -0.3566502399054167,
        0.5364531922863658,
        0.220197050833444,
        0.7970443342281608,
        0.6581280802791691,
        0.4123152611828828,
        0.07832513660475618,
        -0.4635468015402949,
        -0.14581281533906512,
        0.07733990854649868,
        -0.6147783131384656,
        -0.6270935937247896,
        -0.7182265907255462,
        -0.3197044254475015,
        -0.38472906516894995,
        -0.0014778196824259814,
        0.024137925164306087,
        0.1413792984965691,
        -0.07192117588598476,
        -0.1600985155340589,
        0.7167487585367884,
        0.6399014675850533,
        0.4758620621164878,
        0.02906404523258888,
        -0.38768471677404154,
        0.19507389244869236,
        0.19999999112316516,
        0.26798028665396145,
        -0.4300492661808634,
        -0.34876846881744517,
        -0.22463053994913632,
        -0.03497538127854493,
        -0.2669950798298587,
        -0.3763546752621907,
        -0.5448275831510568,
        -0.5576354624396007,
        -0.5019704417475375,
        0.26354679163102296,
        0.7261083736812279,
        0.18620690681994528,
        0.4290640477019237,
        -0.2482758665176591,
        -0.34334976819442803,
        0.20492610757259455,
        -0.13152708198898772,
        -0.2596058989291578,
        -0.05714285814944571,
        0.4088670036910827,
        0.13054186978982313,
        -0.028078825582843844,
        0.48275861296931144,
        0.4369458116054069,
        0.35812807629843074,
        0.3187192104277601,
        0.26798030027788017,
        -0.2014778244827284,
        -0.19359606547534103,
        -0.3665024717931255,
        -0.18522166593604555,
        -0.22167487732782923,
        -0.17783250951582397,
        -0.5310344665442481,
        -0.46305417926230896,
        -0.566502459403874,
        -0.4640394103007987,
        -0.18374384045281042,
        0.004433498109607589,
        0.23645320906081627,
        0.3753694635419921,
        0.7270935998768407,
        -0.024630525143768563,
        -0.6980295510253979,
        -0.7975369382522242,
        -0.6965517282030845,
        -0.792610843462697,
        -0.38325122318800087,
        -0.6029556496147219,
        0.021674881681097286,
        -0.7261083653259344,
        -0.45320196153070363,
        0.007881782210623963,
        -0.055172413208801736,
        0.0004926125922309926,
        -0.3640394046809323,
        0.06896551470157541,
        0.27684727936076,
        0.21921183299312555,
        0.5571428479847245,
        0.2827586104041834,
        -0.49655172829887795,
        0.5261083752139193,
        0.27093595869493114,
        0.570935962249922
      ]
    },
    "rank_5d_ic_non_overlapping": {
      "mean_ic": 0.0141722445807159,
      "std_ic": 0.41914430455325685,
      "t_stat": 0.24146831829878063,
      "num_dates": 51,
      "ic_values": [
        0.8310344802107413,
        -0.03546798210950234,
        -0.3054187122139917,
        0.10837439653777584,
        -0.6610837414635782,
        0.5300492605716405,
        0.2523410885472754,
        0.11034482077644954,
        0.1280788234860374,
        -0.09507389795147846,
        -0.33399014373676256,
        -0.7330049185735873,
        0.10394089198873789,
        0.6103448303557667,
        0.6960591114598156,
        -0.30640395634421586,
        0.3783251254714597,
        0.19605912263568706,
        -0.19802955719873677,
        -0.17192117996251663,
        0.3039408842827085,
        -0.2137930925095021,
        -0.24482757709479952,
        -0.8014778316991473,
        -0.19310344527287415,
        0.4891625627783042,
        0.6310344805726269,
        0.014778324548498537,
        -0.22512315387182819,
        -0.16600985115426747,
        -0.48226600319765756,
        0.40246306005542837,
        0.220197050833444,
        -0.4635468015402949,
        -0.7182265907255462,
        0.1413792984965691,
        0.4758620621164878,
        0.26798028665396145,
        -0.2669950798298587,
        0.26354679163102296,
        -0.34334976819442803,
        0.4088670036910827,
        0.35812807629843074,
        -0.3665024717931255,
        -0.46305417926230896,
        0.23645320906081627,
        -0.7975369382522242,
        0.021674881681097286,
        0.0004926125922309926,
        0.5571428479847245,
        0.570935962249922
      ]
    },
    "rank_20d": {
      "mae": 0.2614835500717163,
      "rmse": 0.3098355531692505,
      "bias": 0.032100558280944824,
      "mean_prediction": 0.5493419170379639,
      "mean_target": 0.517241358757019
    },
    "rank_20d_ic": {
      "mean_ic": -0.135691713179169,
      "std_ic": 0.42568623478932976,
      "t_stat": -5.050106996507766,
      "num_dates": 251,
      "ic_values": [
        0.04778325221179482,
        -0.05073891169321442,
        -0.10098522468420869,
        -0.5167487527253355,
        -0.3251231447501887,
        -0.6256157547240727,
        -0.7541872050116626,
        -0.5123152743597665,
        -0.4758620636598225,
        -0.4827586299459917,
        -0.5344827624065381,
        -0.476354675826306,
        -0.5300492568995686,
        -0.4694581292841755,
        -0.5679803005865469,
        -0.6729064089787052,
        -0.29359605587473564,
        -0.3389162537999798,
        -0.39162560936946966,
        -0.19605912449833227,
        -0.3950738960781892,
        -0.19113300331246239,
        -0.09408867111724488,
        0.685221664499147,
        0.48669950513899235,
        0.6320196991580034,
        0.656157631400361,
        0.21034483475160984,
        0.1251231625145018,
        0.2512315319595433,
        0.04285714390478568,
        -0.17684729465573773,
        -0.4305418625414725,
        -0.5975369374433044,
        -0.6482758505201979,
        -0.8078817733657194,
        -0.9216748699943285,
        -0.924137926941801,
        -0.9330049181052646,
        -0.8625615692990684,
        -0.7719211731292693,
        -0.8152709334047945,
        -0.7709359516700973,
        -0.8236453149030415,
        -0.6669950617568785,
        -0.8236453051108501,
        -0.8876847281627854,
        -0.8665024547632263,
        -0.8428571361242501,
        -0.7655172382214378,
        -0.8266009714574474,
        -0.7921182172997654,
        -0.7177339891495301,
        -0.6118226632895825,
        -0.6517241321199478,
        -0.2862068919507151,
        0.000492612964760096,
        -0.01921182079546092,
        0.4251231523923555,
        0.5088669913763373,
        0.3753694517807186,
        0.6029556559477149,
        0.6137931079641344,
        0.48472906238030405,
        0.4064039467968289,
        0.6221674822246747,
        0.6128078863985258,
        0.6512315367172706,
        0.7009852327521224,
        0.5650246405197246,
        0.6261083772149321,
        0.6147783290507772,
        0.5748768459578717,
        0.6413793064261151,
        0.4556650377432486,
        -0.12315270043752244,
        0.06009852705052787,
        -0.009852221244021998,
        0.142857153090287,
        0.0014778331466894438,
        -0.09408866771126521,
        -0.09950737642348435,
        0.02906403948499807,
        -0.14630540547311754,
        -0.009359602159142175,
        0.1339901545294609,
        0.003940885251284394,
        0.011330063012097632,
        -0.09211822245131059,
        -0.12118225799814465,
        0.15615763831875787,
        -0.08029555834216338,
        0.06650246547077589,
        0.06650246632227078,
        0.18768473475122838,
        0.05270936802260302,
        -0.1926108364591519,
        -0.10689654487107172,
        -0.08817734438451466,
        -0.380788163632825,
        -0.4251231441434984,
        -0.33645320180182176,
        -0.5733990009434721,
        -0.4591132967783833,
        -0.8073891639665947,
        -0.7285714205704166,
        -0.7852216754408571,
        -0.5842364462543691,
        -0.39655171597348904,
        -0.38325123622651686,
        -0.3615763565145016,
        -0.24039408020921585,
        -0.24926107717348914,
        -0.39852217267540657,
        -0.10837438073190128,
        -0.16453200821538638,
        -0.23793103534232787,
        -0.21921182123185187,
        -0.1591133007804096,
        0.20049261430586432,
        0.21674876614702476,
        0.7497536959390577,
        0.7487684689983874,
        0.6349753627372423,
        0.6679802849722587,
        0.23546797706439468,
        0.2719211876046834,
        0.4591132994925234,
        0.3837438513732326,
        0.4320197048949508,
        0.6857142839033379,
        0.38078818071594206,
        0.3837438461046078,
        -0.030541884978364096,
        -0.1970443157826526,
        -0.21822659354612348,
        -0.2413793052872411,
        -0.4098522120053015,
        -0.26108373090504183,
        -0.2975369338350947,
        -0.43054185902905573,
        -0.5571428548499024,
        -0.5591132986729591,
        -0.3561576247587011,
        0.08768473445320521,
        0.0014778309115152828,
        -0.045812806632529623,
        -0.2645320027126003,
        -0.41280787675534586,
        -0.43891625207570245,
        -0.2448275815119294,
        -0.14729063720344682,
        -0.353201960806933,
        -0.1724137925015292,
        0.2699507268581649,
        0.21231527442362902,
        0.40738916687232124,
        -0.06403940990698279,
        -0.37635467233517705,
        -0.2118226551258755,
        -0.34729064572903956,
        -0.23990147150193034,
        -0.35812807028474763,
        -0.3842364400703873,
        -0.507881765180725,
        -0.5344827604374562,
        -0.5044334966727091,
        -0.5049261084666636,
        -0.35960591221247856,
        -0.23152710282932595,
        -0.024137929953965034,
        -0.0334975353062131,
        0.20738915265235644,
        0.25172412917164727,
        0.10492611264963322,
        0.09261083594825495,
        -0.001970437490063434,
        0.0448275952848601,
        -0.013793098885070475,
        0.09950739159073771,
        0.1270935996852546,
        0.043842374251435764,
        -0.7581280844621378,
        -0.6886699624901748,
        -0.3926108330105971,
        -0.5458128090805769,
        -0.7581280816415605,
        -0.7911330106885365,
        -0.6748768552498102,
        -0.5211822656296675,
        -0.46650245122952266,
        -0.5147783281141329,
        -0.46798030539749325,
        -0.4000000127404925,
        -0.5093596181778899,
        -0.19507388105994775,
        0.21428570206828235,
        -0.09655171119447403,
        -0.10049261491255462,
        -0.3054187174293981,
        0.03596058682540533,
        0.1980295587952898,
        0.15960592236655585,
        0.13645321115762254,
        0.010344834368437377,
        0.06896552869802326,
        -0.15123152947956436,
        -0.08669948915217553,
        0.18719212205256044,
        0.18029557290272658,
        0.11231527327411099,
        0.07832512287440048,
        0.1862069083100614,
        -0.2472906461760746,
        -0.26502463627289397,
        -0.4827586219100084,
        -0.44581280990014105,
        -0.42561575753400593,
        -0.12955665407824218,
        -0.1650246228299179,
        -0.34236453151478424,
        -0.6753694515572007,
        -0.44778326388791856,
        -0.19014780079905264,
        -0.2970443355054038,
        -0.7039408791950261,
        -0.6556650195531879,
        -0.5152709340540599,
        -0.48029557204058754,
        -0.6965517162821555,
        -0.7300492513222769,
        -0.08522167239676331,
        -0.07536945599561876,
        0.11576356844456151,
        -0.2256157516693349,
        0.36945813452086923,
        0.39408866903108186,
        0.29950740543817367,
        0.17339903593991385,
        0.07192118562495807,
        0.5635467885337097,
        0.6881773469709297,
        0.6546798044270098,
        0.7458128065899542,
        0.40985220891863244,
        0.463054192886228,
        -0.013300496244686369,
        0.31970444572372436,
        0.368965512668631,
        0.06108375223498997,
        0.19753694120052598
      ]
    },
    "rank_20d_ic_non_overlapping": {
      "mean_ic": -0.11076165170393797,
      "std_ic": 0.3797399504865821,
      "t_stat": -1.0516586786876476,
      "num_dates": 13,
      "ic_values": [
        0.04778325221179482,
        -0.3950738960781892,
        -0.7719211731292693,
        0.3753694517807186,
        -0.09408866771126521,
        -0.4251231441434984,
        0.21674876614702476,
        -0.43054185902905573,
        -0.34729064572903956,
        0.1270935996852546,
        0.03596058682540533,
        -0.34236453151478424,
        0.5635467885337097
      ]
    },
    "sector_neutral_rank_20d": {
      "mae": 0.24611322581768036,
      "rmse": 0.2847134470939636,
      "bias": 0.003058716654777527,
      "mean_prediction": 0.5948184132575989,
