{
  "version_id": "gating-only-05c572c8-9566-4152-805c-fa57142a3f8c",
  "trained_at": "2026-07-12T17:28:44.684944+00:00",
  "export": {
    "architecture": [
      {
        "type": "linear",
        "weight_key": "network.0.weight",
        "bias_key": "network.0.bias",
        "in_features": 26,
        "out_features": 16
      },
      {
        "type": "layernorm",
        "weight_key": "network.1.weight",
        "bias_key": "network.1.bias",
        "normalized_shape": [
          16
        ],
        "eps": 1e-05
      },
      {
        "type": "relu"
      },
      {
        "type": "dropout",
        "p": 0.2
      },
      {
        "type": "linear",
        "weight_key": "network.4.weight",
        "bias_key": "network.4.bias",
        "in_features": 16,
        "out_features": 1
      },
      {
        "type": "sigmoid"
      }
    ],
    "state_dict": {
      "network.0.weight": [
        [
          0.16213062405586243,
          0.1722746342420578,
          -0.022338837385177612,
          0.16734880208969116,
          -0.020705904811620712,
          0.05863712355494499,
          -0.07019519805908203,
          0.11998863518238068,
          0.17711816728115082,
          -0.11455490440130234,
          0.17297989130020142,
          0.059672094881534576,
          0.13978786766529083,
          0.04488733410835266,
          0.10483088344335556,
          0.012699859216809273,
          0.15611596405506134,
          0.021478205919265747,
          -0.0792129710316658,
          0.07234087586402893,
          -0.09034108370542526,
          -0.08010908961296082,
          -0.0014341439818963408,
          0.1204792708158493,
          -0.14152891933918,
          -0.02925851382315159
        ],
        [
          -0.06355467438697815,
          -0.12036164104938507,
          0.01163479220122099,
          -0.18432755768299103,
          0.16124935448169708,
          -0.16990993916988373,
          0.14132392406463623,
          0.04392966255545616,
          -0.06422373652458191,
          0.11121867597103119,
          0.022996602579951286,
          0.13490794599056244,
          0.029703645035624504,
          -0.06605840474367142,
          0.04408358037471771,
          -0.0759715735912323,
          0.07663743942975998,
          0.1712353676557541,
          0.12663224339485168,
          -0.10999512672424316,
          0.10939566045999527,
          0.0963764563202858,
          0.019858449697494507,
          -0.11808185279369354,
          -0.16884222626686096,
          -0.1072777509689331
        ],
        [
          -0.15132632851600647,
          0.14234253764152527,
          0.042803239077329636,
          0.0657329112291336,
          0.04942983016371727,
          -0.013485323637723923,
          0.13667838275432587,
          -0.13605795800685883,
          0.0007671896019019186,
          -0.13650394976139069,
          0.04589152708649635,
          -0.07560287415981293,
          0.04394369199872017,
          -0.048542726784944534,
          0.13980220258235931,
          -0.10518988221883774,
          -0.12034481763839722,
          -0.10575705766677856,
          0.15378282964229584,
          0.05517740547657013,
          0.1721532791852951,
          -0.14741933345794678,
          -0.09069360792636871,
          -0.15507520735263824,
          -0.0842379480600357,
          0.06473824381828308
        ],
        [
          0.06927759200334549,
          0.16020068526268005,
          -0.09380178153514862,
          -0.12338960915803909,
          0.10405001789331436,
          -0.074778251349926,
          0.1185721755027771,
          -0.03762746974825859,
          0.11396314948797226,
          -0.1441735178232193,
          -0.09080712497234344,
          0.057126786559820175,
          0.05480174720287323,
          -0.045355286449193954,
          0.11354831606149673,
          0.11274759471416473,
          -0.12918879091739655,
          -0.09522181004285812,
          0.18330614268779755,
          -0.06724551320075989,
          -0.07059793919324875,
          -0.08623581379652023,
          -0.19032704830169678,
          0.03967359662055969,
          -0.016771893948316574,
          -0.11444813758134842
        ],
        [
          -0.013501834124326706,
          -0.12529686093330383,
          -0.13942526280879974,
          -0.07031427323818207,
          -0.15320424735546112,
          -0.13175195455551147,
          0.14019279181957245,
          0.010474594309926033,
          0.023650694638490677,
          -0.16356252133846283,
          -0.10570938140153885,
          -0.07716056704521179,
          -0.006636530626565218,
          -0.1554742455482483,
          -0.07608338445425034,
          -0.08504361659288406,
          -0.021667972207069397,
          -0.035184096544981,
          -0.028868041932582855,
          -0.129344180226326,
          -0.13539934158325195,
          -0.14903181791305542,
          0.014917583204805851,
          -0.14254353940486908,
          0.11429474502801895,
          -0.028743796050548553
        ],
        [
          0.17975063621997833,
          0.09963538497686386,
          -0.07563251256942749,
          0.1304960548877716,
          0.013581540435552597,
          -0.011587350629270077,
          -0.08223466575145721,
          -0.12741905450820923,
          0.09616025537252426,
          0.016473541036248207,
          0.09944581985473633,
          -0.0741908997297287,
          0.178288534283638,
          -0.06347289681434631,
          0.022137731313705444,
          0.0443715862929821,
          0.13353827595710754,
          0.12935587763786316,
          0.1860203593969345,
          -0.07636706531047821,
          0.08576574921607971,
          0.04270537570118904,
          -0.09438349306583405,
          -0.06279049068689346,
          0.18534761667251587,
          -0.08921166509389877
        ],
        [
          0.1143292561173439,
          0.08119820058345795,
          0.07441016286611557,
          -0.06591107696294785,
          0.18385079503059387,
          0.05971139669418335,
          0.04173930734395981,
          -0.16432492434978485,
          0.08871706575155258,
          -0.009043957106769085,
          -0.061405789107084274,
          0.17962799966335297,
          0.042053982615470886,
          -0.08164118230342865,
          -0.06980499625205994,
          0.032240524888038635,
          0.11109080165624619,
          -0.016064565628767014,
          -0.11316007375717163,
          -0.041784267872571945,
          -0.1301148682832718,
          -0.016571583226323128,
          0.23980966210365295,
          -0.15685518085956573,
          0.03080359287559986,
          0.12204745411872864
        ],
        [
          0.05956355482339859,
          -0.03202233090996742,
          0.11835821717977524,
          0.10600705444812775,
          0.09530741721391678,
          -0.0006471874658018351,
          -0.016417449340224266,
          0.04580655321478844,
          -0.0006742232944816351,
          -0.02179729752242565,
          0.13468895852565765,
          0.17782200872898102,
          0.022341331467032433,
          -0.008762672543525696,
          0.031655699014663696,
          -0.010025682859122753,
          0.07381746917963028,
          0.054441824555397034,
          -0.13675281405448914,
          -0.05077635869383812,
          0.17842622101306915,
          0.13806581497192383,
          -0.08558923006057739,
          -0.08111108094453812,
          -0.08101668953895569,
          -0.15464848279953003
        ],
        [
          -0.05416186898946762,
          0.06271286308765411,
          0.11388606578111649,
          0.06786971539258957,
          -0.15993118286132812,
          -0.1109832301735878,
          -0.027323903515934944,
          0.17808447778224945,
          0.025329699739813805,
          -0.04540659487247467,
          0.07269412279129028,
          -0.0611560232937336,
          -0.1286294013261795,
          0.1337626576423645,
          -0.07794021815061569,
          -0.00047476895269937813,
          -0.18103273212909698,
          0.09900760650634766,
          0.14008566737174988,
          0.08447343856096268,
          -0.13670969009399414,
          -0.26921722292900085,
          -0.056000322103500366,
          0.1307213455438614,
          0.09085747599601746,
          0.1588415652513504
        ],
        [
          0.04639829322695732,
          0.002445717342197895,
          -0.035752300173044205,
          -0.11348042637109756,
          -0.16215090453624725,
          -0.19960255920886993,
          0.02814602479338646,
          -0.11978752166032791,
          -0.0667538046836853,
          -0.12436133623123169,
          -0.05704227462410927,
          -0.13536842167377472,
          -0.1448306292295456,
          0.014550481922924519,
          -0.07267346233129501,
          0.08280771225690842,
          -0.0835842713713646,
          -0.08817295730113983,
          -0.06715060025453568,
          -0.0837385281920433,
          -0.06566668301820755,
          -0.21944093704223633,
          0.10943248122930527,
          -0.1225225031375885,
          0.046512167900800705,
          0.0625213012099266
        ],
        [
          0.17012549936771393,
          -0.0678887888789177,
          0.16639569401741028,
          -0.022786419838666916,
          0.12484105676412582,
          0.22923940420150757,
          0.036144427955150604,
          0.03591573238372803,
          0.02304256334900856,
          -0.07913344353437424,
          0.12432577461004257,
          -0.09906154870986938,
          0.17152659595012665,
          0.18067048490047455,
          0.19309641420841217,
          -0.023687029257416725,
          -0.07053449004888535,
          0.05143706873059273,
          0.12532664835453033,
          -0.10557040572166443,
          0.03619462624192238,
          -0.00025150456349365413,
          -0.08110654354095459,
          -0.003466412890702486,
          -0.03721402958035469,
          -0.03884827345609665
        ],
        [
          -0.12212000787258148,
          0.13834919035434723,
          0.12971055507659912,
          0.009955605491995811,
          -0.0017076018266379833,
          -0.0500512532889843,
          -0.12269054353237152,
          -0.16410112380981445,
          0.06820039451122284,
          -0.0634891614317894,
          -0.06445121020078659,
          0.02534438669681549,
          -0.035773832350969315,
          -0.03017517179250717,
          0.020570216700434685,
          -0.016343889757990837,
          -0.03465085104107857,
          -0.024860024452209473,
          -0.14181041717529297,
          0.15315017104148865,
          -0.01920895464718342,
          0.006083162501454353,
          2.753562876023352e-05,
          0.06420784443616867,
          0.14801593124866486,
          0.06067546084523201
        ],
        [
          -0.1700507253408432,
          0.06053004786372185,
          0.15783143043518066,
          0.037372488528490067,
          0.11064231395721436,
          0.17355649173259735,
          -0.040435828268527985,
          0.023158209398388863,
          -0.13641215860843658,
          -0.04954294487833977,
          0.1184687614440918,
          0.08690748363733292,
          -0.12437886744737625,
          -0.1582641750574112,
          -0.131404310464859,
          -0.2029065042734146,
          -0.15079332888126373,
          -0.0009875105461105704,
          0.10962046682834625,
          0.027235744521021843,
          -0.1085924580693245,
          -0.13874061405658722,
          0.07478109747171402,
          -0.04082776978611946,
          -0.03812625631690025,
          0.07728418707847595
        ],
        [
          -0.07198972254991531,
          -0.01703944429755211,
          -0.012788171879947186,
          -0.03647653013467789,
          -0.0819927453994751,
          -0.1588279902935028,
          -0.13803082704544067,
          -0.07361331582069397,
          0.15927790105342865,
          -0.079634889960289,
          -0.10187319666147232,
          0.0446506105363369,
          0.04753441736102104,
          0.09288609772920609,
          0.1177489385008812,
          0.0904233306646347,
          -0.15986816585063934,
          0.005214180797338486,
          0.09949921816587448,
          -0.0151083804666996,
          -0.03494800254702568,
          0.16069556772708893,
          -0.0458252988755703,
          -0.05762946605682373,
          -0.12125314027070999,
          0.0005005319835618138
        ],
        [
          0.08049008250236511,
          0.03527525067329407,
          0.030467400327324867,
          -0.15117932856082916,
          -0.18303760886192322,
          -0.003376593114808202,
          0.16713504493236542,
          0.10079827904701233,
          -0.11929785460233688,
          -0.031246498227119446,
          -0.14345696568489075,
          -0.0905100628733635,
          0.01612820476293564,
          0.09649481624364853,
          0.14749236404895782,
          -0.1624642163515091,
          0.11602684110403061,
          -0.1351577788591385,
          0.06212928146123886,
          0.16442710161209106,
          -0.0006007718620821834,
          0.08645499497652054,
          -0.09259577840566635,
          -0.08882533758878708,
          0.09730313718318939,
          -0.01830367185175419
        ],
        [
          -0.0369628369808197,
          -0.07567783445119858,
          0.12584984302520752,
          0.08737955242395401,
          0.060885459184646606,
          -0.10533879697322845,
          -0.1502123922109604,
          0.0018138728337362409,
          0.05597170069813728,
          -0.08396202325820923,
          -0.04867873340845108,
          0.13273213803768158,
          0.020369844511151314,
          0.00950824748724699,
          -0.042745720595121384,
          -0.17349141836166382,
          -0.16991280019283295,
          -0.08743231743574142,
          -0.09692000597715378,
          0.06201695278286934,
          -0.050243739038705826,
          -0.06856992095708847,
          0.16362743079662323,
          0.07084498554468155,
          0.07125366479158401,
          -0.074475958943367
        ]
      ],
      "network.0.bias": [
        -0.056730013340711594,
        0.06460277736186981,
        -0.13690869510173798,
        -0.12276684492826462,
        -0.030795449391007423,
        -0.008531500585377216,
        -0.12165307253599167,
        0.1413450539112091,
        0.15293990075588226,
        -0.011759058572351933,
        0.03150974586606026,
        -0.1370229721069336,
        -0.08100627362728119,
        0.04718541353940964,
        0.0839628204703331,
        -0.02275972068309784
      ],
      "network.1.weight": [
        0.93006432056427,
        0.9100296497344971,
        0.8303778767585754,
        0.8358416557312012,
        0.6218827366828918,
        0.6313510537147522,
        0.8972143530845642,
        0.7958967089653015,
        0.884463369846344,
        0.622915506362915,
        0.7198521494865417,
        0.621920645236969,
        0.7469764947891235,
        0.651257336139679,
        0.9148023128509521,
        0.7498753070831299
      ],
      "network.1.bias": [
        -0.015493280254304409,
        -0.01424568984657526,
        -0.019671306014060974,
        -0.0012687472626566887,
        0.0,
        -0.02437785640358925,
        -0.008815028704702854,
        -0.027111055329442024,
        -0.02928967773914337,
        -0.001592576620168984,
        -0.017863599583506584,
        0.00041809241520240903,
        -0.01482313871383667,
        -0.029584020376205444,
        -0.029866080731153488,
        -0.003804618027061224
      ],
      "network.4.weight": [
        [
          -0.07732326537370682,
          0.12089146673679352,
          -0.17837519943714142,
          0.13796737790107727,
          3.892808297933925e-09,
          0.0029912982136011124,
          -0.08597911149263382,
          0.004873684141784906,
          -0.07727964222431183,
          0.01501400489360094,
          -0.010039431042969227,
          0.007490806747227907,
          0.20298022031784058,
          -0.08153656870126724,
          -0.12515343725681305,
          0.17692913115024567
        ]
      ],
      "network.4.bias": [
        0.19055815041065216
      ]
    }
  }
}