{
  "project": "aether_quant",
  "phase": "sequence_multitask_horizons_phase2",
  "version_id": "sequence-only-d649549b-9527-4e55-b61e-cd1e26cf8ca6",
  "trained_at": "2026-07-13T13:07:57.792435+00:00",
  "window_size": 30,
  "channels": [
    32,
    32
  ],
  "kernel_size": 3,
  "row_counts": {
    "train": 20604,
    "validation": 7849,
    "backtest": 17650
  },
  "best_epoch": 1,
  "epochs_ran": 11,
  "loss_weights": {
    "magnitude_loss_weight": 1.0,
    "volatility_loss_weight": 1.0
  },
  "horizon_heads": {
    "direction_5d": {
      "enabled": true,
      "loss_weight": 1.0
    },
    "direction_20d": {
      "enabled": true,
      "loss_weight": 0.5
    },
    "rank_5d": {
      "enabled": true,
      "loss_weight": 1.0
    },
    "rank_20d": {
      "enabled": true,
      "loss_weight": 0.5
    },
    "sector_neutral_rank_20d": {
      "enabled": true,
      "loss_weight": 0.3
    }
  },
  "threshold_optimization": {
    "metric": "mcc",
    "default_threshold": 0.5,
    "selected_threshold": 0.545,
    "selected_validation_metrics": {
      "loss": 0.6590381860733032,
      "accuracy": 0.5035036310358008,
      "balanced_accuracy": 0.5003846153846154,
      "precision": 1.0,
      "recall": 0.0007692307692307692,
      "specificity": 1.0,
      "f1": 0.0015372790161414295,
      "mcc": 0.01967649496747285,
      "threshold": 0.545,
      "positive_rate": 0.0003822142898570746,
      "average_probability": 0.4794800281524658,
      "confusion_matrix": {
        "tp": 3,
        "tn": 3949,
        "fp": 0,
        "fn": 3897
      }
    },
    "head_thresholds": {
      "direction": 0.545,
      "direction_5d": 0.615,
      "direction_20d": 0.64
    }
  },
  "train": {
    "direction": {
      "loss": 0.6574715375900269,
      "accuracy": 0.4748107163657542,
      "balanced_accuracy": 0.5,
      "precision": 0.0,
      "recall": 0.0,
      "specificity": 1.0,
      "f1": 0.0,
      "mcc": 0.0,
      "threshold": 0.545,
      "positive_rate": 0.0,
      "average_probability": 0.4891207814216614,
      "confusion_matrix": {
        "tp": 0,
        "tn": 9783,
        "fp": 0,
        "fn": 10821
      }
    },
    "magnitude": {
      "mae": 0.01833672821521759,
      "rmse": 0.03131479769945145,
      "bias": -0.0035661417059600353,
      "mean_prediction": -0.002334569813683629,
      "mean_target": 0.00123157212510705
    },
    "volatility": {
      "mae": 0.0713767558336258,
      "rmse": 0.07896946370601654,
      "bias": 0.06819279491901398,
      "mean_prediction": 0.08357727527618408,
      "mean_target": 0.015384482219815254
    },
    "direction_5d": {
      "loss": 0.6506561040878296,
      "accuracy": 0.44514030488396933,
      "balanced_accuracy": 0.5049225582178837,
      "precision": 0.8131313131313131,
      "recall": 0.013935774257768546,
      "specificity": 0.9959093421779989,
      "f1": 0.027401923240575273,
      "mcc": 0.05007544878696275,
      "threshold": 0.615,
      "positive_rate": 0.009612583555281162,
      "average_probability": 0.5623898506164551,
      "confusion_matrix": {
        "tp": 161,
        "tn": 9008,
        "fp": 37,
        "fn": 11392
      }
    },
    "direction_20d": {
      "loss": 0.6287940144538879,
      "accuracy": 0.453383860467376,
      "balanced_accuracy": 0.5428604269635638,
      "precision": 0.8038674033149171,
      "recall": 0.1388910985601782,
      "specificity": 0.9468297553669496,
      "f1": 0.23685816997897308,
      "mcc": 0.13604208292854222,
      "threshold": 0.64,
      "positive_rate": 0.1055239737033844,
      "average_probability": 0.6073338389396667,
      "confusion_matrix": {
        "tp": 1746,
        "tn": 7586,
        "fp": 426,
        "fn": 10825
      }
    },
    "rank_5d": {
      "mae": 0.2436980903148651,
      "rmse": 0.28432443737983704,
      "bias": -0.02234465256333351,
      "mean_prediction": 0.49707090854644775,
      "mean_target": 0.519415557384491
    },
    "rank_5d_ic": {
      "mean_ic": 0.18247441072225756,
      "std_ic": 0.31836048993728816,
      "t_stat": 15.96664487914704,
      "num_dates": 776,
      "ic_values": [
        0.05076922409015994,
        0.4053846208568239,
        0.33999998366603446,
        0.6078260875489735,
        0.4507692238035987,
        0.6095652048227125,
        0.21769230559269862,
        0.438260876627928,
        -0.08076921843058428,
        0.07913042724615903,
        0.2417391239800388,
        0.21304348426026273,
        -0.24923076631005314,
        -0.08956521531986825,
        -0.08260869460210675,
        0.49478260831493687,
        0.3121738967915899,
        0.6417391290023776,
        0.6956521677525817,
        0.6486956539961245,
        0.6104347744993986,
        0.5652173963645449,
        0.20347824510527454,
        0.4843478191527949,
        0.04521739970914356,
        -0.27615385526317254,
        0.03999999237786164,
        -0.06608694911221692,
        0.057692301007726,
        0.6823076868134398,
        0.7393729671447249,
        0.6238461490352382,
        0.34076922129619186,
        -0.20384614029513454,
        -0.23769231032095162,
        -0.13076922552296377,
        -0.2115384647292055,
        0.35846153949756554,
        0.4561538496752371,
        0.5353846086063498,
        0.610000006375977,
        0.379230778560527,
        0.5238461488919582,
        0.6146153814356614,
        0.6630769254465597,
        0.3084615312589429,
        0.24307691713629714,
        -0.15153847060370185,
        -0.34769230852994654,
        -0.0677053216355577,
        0.1992307742621153,
        0.28846152767693295,
        0.346153840290371,
        0.18846155031523565,
        0.3438461626468763,
        -0.04538462014042232,
        0.2538461589932264,
        0.48769232027893905,
        0.014615365244977195,
        0.033076927524126075,
        -0.15923078128285467,
        0.17153847389915097,
        0.21615386500623965,
        0.3299999898987317,
        0.40230769684306755,
        0.29153846773809383,
        0.09461536954338902,
        0.1815384725379871,
        0.15692307240423348,
        0.14615383914412816,
        -0.24153847268126752,
        0.07307691935714349,
        0.2869230668879383,
        -0.004615372480637231,
        0.10538462730444209,
        0.2007692452240181,
        -0.036153849531957,
        -0.12230768265830853,
        0.30615384946031654,
        -0.3399999881077267,
        -0.15846153233354598,
        -0.28615384702454977,
        -0.3030769109752402,
        0.005384611973439807,
        0.17692307269079427,
        0.263076920001905,
        -0.28384615118444456,
        -0.3069230677476204,
        -0.6330769239421157,
        -0.4269230769175657,
        0.11461538988920518,
        0.30538460151397057,
        0.19153845942783093,
        0.40153845219217066,
        0.42692308880983876,
        0.2115384582815877,
        -0.20923076631005327,
        -0.5823076888193652,
        -0.49461538143566164,
        -0.3684615291097368,
        -0.3615384577801061,
        -0.46538462100010425,
        -0.06384615662909994,
        -0.15538461333460332,
        -0.10461538336994725,
        -0.03769229656603381,
        0.219999999713439,
        0.07000000107460286,
        -0.35615384824243307,
        -0.3138461595663478,
        0.4761538409351328,
        0.4261538487439145,
        0.27846153634539694,
        0.5053846116868785,
        0.4407692337615862,
        0.2784615392110047,
        0.4246153888146021,
        0.09923077798740568,
        -0.022307686526879384,
        0.20538462443883404,
        -0.06538461870761834,
        -0.15923076294296398,
        0.2123076818702663,
        0.17461539318465427,
        -0.0869230651685736,
        -0.506153834559155,
        -0.7684615318320638,
        -0.4115384549861383,
        -0.4200000020059252,
        -0.0038461447368271177,
        0.5992307712532264,
        0.22153844975640413,
        0.37615384136497404,
        -0.04538463045661084,
        -0.17384615756042246,
        -0.1465666729748236,
        0.13307692938677115,
        -0.3815384605024337,
        0.6938461503964021,
        0.6669230847979871,
        0.6376923171984102,
        0.6761538476693112,
        0.7015384627949196,
        0.3453846182777768,
        0.40538462300602973,
        0.592307694908782,
        0.37769231189703595,
        0.0061538414366146465,
        -0.2892307766262417,
        -0.030769238704760345,
        -0.13846154852423076,
        -0.28846154358105697,
        -0.11307691692137668,
        0.07538461849269773,
        0.15230769519534326,
        0.465384632462536,
        0.6984615417900516,
        0.7376923157656063,
        0.47076922881841266,
        0.18230768795968316,
        0.3492307678861375,
        0.06615385031999915,
        0.41307693540454754,
        0.3700000042267713,
        0.663076927309205,
        0.6300000019342846,
        0.5761538452335444,
        -0.2623076866701595,
        0.41076923512275,
        0.3392307735457132,
        0.32230771991121143,
        -0.09692306982518639,
        0.3969230863024318,
        0.16230769397745984,
        0.25461538473111084,
        0.4730769342583043,
        0.5469230790667715,
        0.42999999333746125,
        0.5300000058028556,
        0.41307693368518267,
        0.23769231275671843,
        0.5084615480227489,
        0.48153846609036893,
        0.4192307721129091,
        0.14461539554878092,
        0.16461539168021014,
        0.5684615389960839,
        0.6423076929744965,
        0.18230769913555406,
        0.03384615225904789,
        0.023076917566138628,
        -0.30846154286465505,
        -0.38999998774952566,
        -0.5615384609322747,
        -0.29615384165153497,
        0.2976923094612692,
        0.012307680150901765,
        0.5607692184305838,
        0.6723077016429605,
        0.48076922129619176,
        -0.33307692508835907,
        0.026923072046032576,
        -0.4015384692425378,
        -0.2315384559891013,
        -0.20076923275862377,
        0.2576923075986241,
        0.24076922029322928,
        -0.24307692358391503,
        -0.04769230738370374,
        -0.21307691606169424,
        0.0869230933948116,
        -0.06230769569682469,
        0.044615398987510456,
        0.3715384651590465,
        0.42692308408158536,
        0.3569230775623275,
        0.19846153433947145,
        0.13384614566814954,
        0.38999999520010625,
        0.3669230721893127,
        0.5192307622265617,
        0.4846153743432819,
        0.5038461410115365,
        0.4292307499760877,
        0.4761538566959764,
        -0.001538464514285154,
        0.0076923225714257745,
        -0.14999999319418097,
        0.016923079138412223,
        0.3792307683876189,
        0.37846154680486566,
        0.5138461458114295,
        0.39461539662338363,
        0.3346153971965052,
        0.4315384628665602,
        0.4846153849460311,
        0.28615384616486744,
        0.30307692143470893,
        0.2953846093227522,
        -0.10384615118444489,
        0.4169230732639157,
        0.3269230938246525,
        -0.22999999505682603,
        -0.2592307557789441,
        -0.10692307992645435,
        0.1261538637883563,
        0.07153847203650589,
        0.18384614860539764,
        0.22615386421819744,
        -0.11230769863407278,
        0.28461538695195693,
        0.588461543724337,
        0.5338461479606353,
        0.6469230787802106,
        0.7492307710383057,
        0.6430769374821133,
        0.4584615460884636,
        0.09846154522878171,
        0.4015384699589398,
        0.2584615470914266,
        0.276923071544551,
        0.1876923099627507,
        -0.10000000874010408,
        -0.46846153541407415,
        -0.17692306767598046,
        -0.3299999848839179,
        -0.33307693325534166,
        0.23230768058074272,
        0.5046153999904729,
        0.08923077247111041,
        0.7123076946222209,
        0.4015384709619027,
        0.5253846138360845,
        0.2868376159685627,
        0.2588034274851833,
        -0.008547002893906927,
        0.15145299335232476,
        0.04615385177400381,
        0.13846152439382314,
        0.37914529832380756,
        0.39965812022332764,
        0.2615384732087452,
        0.5370940225459905,
        -0.015384617699517177,
        0.40923077015611825,
        0.07076924169593393,
        -0.19794870727327102,
        0.08786325304684814,
        0.207521367603761,
        0.3969230811225042,
        0.08444443786232543,
        -0.3032478606400663,
        -0.6348717905203495,
        -0.34837606272609106,
        -0.6006837535796336,
        -0.5958974304676049,
        -0.480341874926178,
        0.49743589468797017,
        0.8639316301089742,
        0.7360683790436491,
        0.6738461523612336,
        0.6273504294333632,
        0.24170940057083384,
        -0.22119658860542143,
        0.21914529863375184,
        0.3627350311349935,
        -0.4242734933897297,
        0.5158974354902898,
        0.5500854773980595,
        0.47145299319602785,
        0.4270085402391572,
        0.4386324819317568,
        -0.27042736858173666,
        -0.2977777807165074,
        -0.055726497004650224,
        0.6082051206933125,
        0.4352136684029187,
        0.6772649496643623,
        0.5008547019914341,
        0.7511111143306445,
        0.44820512709617577,
        0.47145299399075646,
        0.476239301075758,
        -0.17743589855300038,
        -0.15418802748609448,
        0.04136751839673068,
        0.16444445184689982,
        0.4570939902164312,
        0.43452991172384275,
        0.41743588884936395,
        0.0584615361054738,
        0.027692303355534797,
        0.13162392535033024,
        -0.008547006735095253,
        -0.14598291760109092,
        -0.22529914583276806,
        0.279999997255537,
        0.040683766618481436,
        0.3203418889451909,
        0.3237606824071316,
        0.644444446612287,
        0.5692307732237706,
        0.49128204854859187,
        0.6382905928567597,
        0.3155555506008638,
        0.3839316115017285,
        -0.14940172172564053,
        -0.10085471644224954,
        0.008546999913674726,
        -0.2622222271062709,
        -0.3470085449969323,
        -0.32649573965425827,
        -0.04341880532194065,
        -0.0030769262154897808,
        -0.044786328283062726,
        0.17196581107951958,
        0.46529915699075747,
        0.45162393678382556,
        0.4994871843947301,
        -0.4044444286991044,
        0.1541880321220114,
        -0.2123076879342395,
        -0.23829060445979786,
        -0.4406837625653652,
        0.0037606930273551805,
        -0.4160683893327358,
        0.5015384611209229,
        0.09743590642346289,
        0.7805128146489454,
        0.6882051287836494,
        0.5391452934441738,
        0.3490598325844162,
        0.32239316865161594,
        -0.08307691761652616,
        -0.2519658143352578,
        -0.2560683869273574,
        -0.09948718308342826,
        -0.0858119806254353,
        -0.40649571529317724,
        -0.15897436503569284,
        0.003760691172988373,
        0.027692311302820877,
        -0.11179487132231379,
        -0.5685470107166851,
        -0.21025641312864082,
        0.005128206915325592,
        0.041367505879755156,
        0.3880341964121216,
        -0.2875213556934282,
        -0.2594871699915989,
        -0.3702564070569141,
        -0.14803419644656005,
        -0.08307691629197843,
        0.2191452980377054,
        0.4441025643057291,
        0.51179487150775,
        0.12547009106565404,
        0.3107692351049845,
        0.5678632469512793,
        0.6895726551885952,
        0.6054700824534446,
        0.7121367536818531,
        0.6417094077763728,
        0.7825640986601502,
        0.6950427316021032,
        0.8837606858589022,
        0.6512820414834547,
        0.427692303011152,
        0.1562393028215123,
        0.05094015965373408,
        -0.06940170966166034,
        0.24717947671943197,
        0.11384613784948952,
        0.15760683485578586,
        0.007863234161447357,
        -0.12205128833187948,
        0.1582905798126146,
        0.34495725740944855,
        0.1952136669803546,
        0.5774359013213046,
        0.43384615497853984,
        0.291623935040721,
        0.08034187871438477,
        0.1309401566840981,
        0.027008530516977387,
        0.13025639212396378,
        0.05162391613412763,
        0.01811964580659494,
        0.14393162299350432,
        0.028376072419131294,
        -0.10564103452099696,
        0.12205128303368874,
        0.1576068288290939,
        -0.07898787714226577,
        -0.2745299384585134,
        -0.285470090292118,
        -0.2711111213533965,
        0.011965810462280534,
        0.540512810444831,
        0.597948706200387,
        0.6936752244030984,
        0.20683761138827697,
        0.3333333292934626,
        -0.14119657402480065,
        -0.033162375795399365,
        0.1411965754155757,
        0.43863246530868333,
        0.27179487531714946,
        0.6786324807714529,
        0.0960683849193432,
        0.0803418710982356,
        0.06393162079740441,
        -0.27521367884565257,
        0.005128195060623856,
        -0.20341880295894746,
        -0.3271794987837472,
        0.14188033315428955,
        0.32923077670203293,
        0.23282049817773978,
        0.09401709421917237,
        0.3764102718061869,
        0.128205129040612,
        0.39145299603320904,
        -0.020170948493922234,
        -0.10837608295988167,
        -0.3141880417461746,
        -0.2861538659122256,
        -0.27589744194878446,
        0.025641024046473976,
        0.3709401541330189,
        0.4270085363317414,
        0.38803418859729044,
        0.5849572677064819,
        0.8311111112285537,
        0.4605128120236921,
        0.3456410343541037,
        0.24307692512141313,
        -0.15350427365479632,
        -0.013333334019448993,
        -0.2758974367168212,
        -0.1623931622725944,
        -0.331282052103678,
        -0.03384615538915001,
        0.2998290601580229,
        0.40034186690206836,
        0.5911111135809506,
        0.5049572601459638,
        0.23076921972963502,
        0.14324785737373188,
        -0.0010256512112089534,
        0.38324785422660645,
        0.23145298965418762,
        0.60341880526366,
        0.6793162346027509,
        0.5015384724458055,
        0.5097435850461319,
        0.27316239629144995,
        0.20068376584494552,
        -0.3087179495043222,
        -0.40854700135743144,
        -0.3764102577659817,
        -0.16512820852597543,
        -0.14529915674969002,
        0.21641026059256643,
        0.5870085509229586,
        0.4256410199933576,
        0.5377777759799246,
        0.62393161577207,
        0.5302564150916204,
        0.46051282288498296,
        0.5165811856128546,
        0.42427350087342397,
        -0.05777776935983571,
        0.08786325000038851,
        0.0885470060171902,
        -0.035897428009245023,
        -0.34905984371061666,
        -0.11863248036614163,
        0.03179486899375911,
        -0.22666667700608567,
        0.40649572131986933,
        0.14871795676814184,
        0.38735043052743956,
        0.4181196458595765,
        0.7278632531978462,
        0.399658132872758,
        0.36820513496663815,
        0.16512819799582143,
        0.103589742761188,
        0.42222222633273476,
        0.015384634057681024,
        0.2027350603863047,
        -0.13094015926696614,
        0.2663247987711872,
        0.24034187893425954,
        0.15008546092068686,
        0.24649571951053742,
        0.37025641858047886,
        0.030427337886668814,
        0.32717949070400637,
        0.012649574095231523,
        0.04136752197300944,
        -0.23008547477280647,
        0.18358975138134423,
        0.624615379073884,
        0.6170940198412646,
        0.5316239428873413,
        0.6793162362584354,
        0.2581196631899585,
        -0.16444445754245476,
        0.05162392222704689,
        0.20478632618497894,
        0.5131623925482782,
        0.22119658238004752,
        0.5247863393403862,
        0.4796581257970242,
        0.6588034121071846,
        0.15487181039121423,
        0.2567521413547019,
        0.10017093916645745,
        0.36136751168392284,
        0.40786323666484214,
        0.32239315308818056,
        0.3757264949939867,
        0.2458119612420044,
        0.2348718029181161,
        0.26495726965091837,
        0.06119658686231685,
        -0.014017091360798532,
        0.19111110942187115,
        0.32854701916200124,
        0.40239315746978427,
        0.5788034041493021,
        0.4994871689637497,
        0.49675212675023916,
        0.43316238551757913,
        0.029743591803974602,
        0.23008545894446164,
        0.12273503116943188,
        0.11452992181424738,
        -0.014700849496876648,
        -0.14393162067554593,
        -0.04478631801781818,
        -0.04273503837762048,
        0.01948719360298597,
        0.08854701913021243,
        0.057094021091637776,
        0.0652991314402331,
        0.14529915105413505,
        0.15350427140306527,
        0.0317948832326466,
        -0.022222216014508713,
        -0.046153833892610116,
        0.024273489628014535,
        0.5261538374662392,
        0.7107692246940394,
        0.6540170878692902,
        0.5323076851288471,
        0.33743589440186783,
        0.37162392425625373,
        0.3764102568387982,
        0.3688888997254545,
        0.27863246727431235,
        0.5206837624435066,
        0.420854696483965,
        0.5117948749515742,
        0.3757264894308862,
        0.39350426203056565,
        0.44820512669881135,
        0.28615384875933314,
        0.0940170967358129,
        -0.06051282117631694,
        0.07213676194173325,
        -0.4755555539996531,
        -0.45504272925235556,
        -0.23965811808285867,
        -0.35452990654751065,
        -0.052307695264286476,
        0.6916239395971647,
        0.6567521325994414,
        0.6123076880534483,
        0.32649572859428533,
        0.3846153827508287,
        0.4591452986655408,
        0.24307691869735695,
        0.23555554714644364,
        0.18632477558100632,
        0.3716239257794835,
        0.35247862730467727,
        -0.10153847219414185,
        0.08649571763497792,
        0.24649571513952998,
        -0.04820513472557069,
        -0.07487180912229763,
        -0.40376068076204324,
        0.3067191009954303,
        -0.29504272611847593,
        0.07760682782508693,
        0.28547007360281723,
        0.4817093924566547,
        -0.3962393159663231,
        -0.2533333403428395,
        0.2328205004956983,
        -0.0735042801344837,
        0.10290598681061354,
        -0.148034195916741,
        0.20273503184230207,
        -0.3381196732671171,
        0.5001709293515587,
        0.43316238498776,
        0.38051280671490517,
        0.6595999342488482,
        0.6246153693384586,
        0.25606837686079503,
        0.3394871761613419,
        0.32991451351289325,
        0.45846153536372675,
        0.4331623786299311,
        0.3798290563274309,
        0.4796581182471023,
        0.32307691691981394,
        0.11247863515394695,
        0.1904273471134678,
        -0.03316238109359019,
        0.03179487084812583,
        -0.290256408304638,
        -0.1288889004221669,
        -0.27521368772012206,
        -0.29367521646905803,
        0.17675213915860202,
        0.07623932095721916,
        -0.06461539522541902,
        -0.4864957167607761,
        -0.42017093814920464,
        -0.21230768733819302,
        -0.08170940988770245,
        0.28752137264763844,
        0.244444449075946,
        -0.3039316363926285,
        -0.6724786429104977,
        -0.21914529426274446,
        -0.5569230852497943,
        0.5528205172936118,
        0.5760683696181681,
        0.5193162512708589,
        -0.05846155100663515,
        0.5637606817766466,
        0.5446153885338038,
        0.6820512846310928,
        0.09743588688638453,
        0.2841025585889813,
        -0.10905982804916513,
        -0.5063247952929246,
        -0.19589744491842045,
        0.42358974022070517,
        0.43521366489286717,
        0.4276923047330639,
        0.22666666654215892,
        0.06940169972755268,
        -0.1200000110758676,
        -0.08581197148605631,
        0.5295726530481262,
        0.18700854431346584,
        0.19042736870359492,
        -0.04547007032588654,
        0.11384614420731837,
        0.08786324437106086,
        0.5015384689357543,
        0.5425641104830631,
        0.7162393180617572,
        0.25675213049341095,
        0.40923075359927225,
        0.3996581128720879,
        0.21200204140102405,
        0.49401709248401443,
        0.534358981524573,
        0.27589744241237624,
        0.048888890411235675,
        0.41675212866023686,
        0.43247862705036394,
        0.49128204887972887,
        0.19247863125712764,
        0.12888887962676834,
        -0.09059829731340763,
        -0.20273505859816518,
        -0.30324787143512993,
        -0.46393162316834435,
        0.09948717659314461,
        0.2191452972429768,
        0.5979487257374654,
        0.5658119639334851,
        0.3887179581907058,
        0.22529914901168244,
        0.2170940164769135,
        0.18837606296980808,
        0.27794870966805313,
        0.14735042473386828,
        0.01880342877794206,
        0.13982905430882042,
        -0.15760683021986904,
        -0.40444445353437347,
        0.2197802126814295,
        -0.05911329579916443,
        -0.02266008893094745,
        0.48325122066544685,
        0.3970443264369826,
        0.38571427630374594,
        0.6522167416255101,
        0.5793103540725449,
        0.160591143133888,
        0.24482759572125104,
        0.17044334383559484,
        0.6650246339525699,
        0.0605911274025194,
        0.24679803166797984,
        0.05960591429864154,
        0.378325129090313,
        0.5243963178913659,
        0.6812807923395974,
        0.2741717062665704,
        0.07881773397651541,
        0.4266009821330654,
        0.6960591178992459,
        0.7569786669371004,
        0.5544608595062388,
        0.3665024559872508,
        0.21182266167174268,
        -0.01527093474590004,
        0.04975369443829879,
        0.02807882100605855,
        0.13349754193722985,
        0.31379311590432496,
        0.6330049304093667,
        0.7118226574674861,
        0.49556649241751094,
        0.40197043724525805
      ]
    },
    "rank_5d_ic_non_overlapping": {
      "mean_ic": 0.194067643343392,
      "std_ic": 0.3153648597787081,
      "t_stat": 7.686030999673238,
      "num_dates": 156,
      "ic_values": [
        0.05076922409015994,
        0.6095652048227125,
        0.2417391239800388,
        0.49478260831493687,
        0.6104347744993986,
        -0.27615385526317254,
        0.7393729671447249,
        -0.13076922552296377,
        0.610000006375977,
        0.3084615312589429,
        0.1992307742621153,
        -0.04538462014042232,
        -0.15923078128285467,
        0.29153846773809383,
        -0.24153847268126752,
        0.2007692452240181,
        -0.15846153233354598,
        0.263076920001905,
        0.11461538988920518,
        0.2115384582815877,
        -0.3615384577801061,
        -0.03769229656603381,
        0.4761538409351328,
        0.2784615392110047,
        -0.06538461870761834,
        -0.506153834559155,
        0.5992307712532264,
        -0.1465666729748236,
        0.6376923171984102,
        0.592307694908782,
        -0.13846154852423076,
        0.465384632462536,
        0.3492307678861375,
        0.6300000019342846,
        0.32230771991121143,
        0.4730769342583043,
        0.23769231275671843,
        0.16461539168021014,
        0.023076917566138628,
        0.2976923094612692,
        -0.33307692508835907,
        0.2576923075986241,
        0.0869230933948116,
        0.3569230775623275,
        0.5192307622265617,
        -0.001538464514285154,
        0.37846154680486566,
        0.4846153849460311,
        0.4169230732639157,
        0.1261538637883563,
        0.28461538695195693,
        0.6430769374821133,
        0.276923071544551,
        -0.3299999848839179,
        0.7123076946222209,
        -0.008547002893906927,
        0.39965812022332764,
        0.07076924169593393,
        0.08444443786232543,
        -0.5958974304676049,
        0.6738461523612336,
        0.3627350311349935,
        0.4270085402391572,
        0.6082051206933125,
        0.44820512709617577,
        0.04136751839673068,
        0.0584615361054738,
        -0.22529914583276806,
        0.644444446612287,
        0.3839316115017285,
        -0.3470085449969323,
        0.17196581107951958,
        0.1541880321220114,
        -0.4160683893327358,
        0.5391452934441738,
        -0.2560683869273574,
        0.003760691172988373,
        0.005128206915325592,
        -0.3702564070569141,
        0.51179487150775,
        0.6054700824534446,
        0.8837606858589022,
        -0.06940170966166034,
        -0.12205128833187948,
        0.43384615497853984,
        0.13025639212396378,
        -0.10564103452099696,
        -0.285470090292118,
        0.6936752244030984,
        0.1411965754155757,
        0.0803418710982356,
        -0.3271794987837472,
        0.3764102718061869,
        -0.3141880417461746,
        0.4270085363317414,
        0.3456410343541037,
        -0.1623931622725944,
        0.5911111135809506,
        0.38324785422660645,
        0.5097435850461319,
        -0.3764102577659817,
        0.4256410199933576,
        0.5165811856128546,
        -0.035897428009245023,
        0.40649572131986933,
        0.399658132872758,
        0.015384634057681024,
        0.15008546092068686,
        0.012649574095231523,
        0.6170940198412646,
        0.05162392222704689,
        0.4796581257970242,
        0.36136751168392284,
        0.2348718029181161,
        0.32854701916200124,
        0.43316238551757913,
        -0.014700849496876648,
        0.08854701913021243,
        0.0317948832326466,
        0.7107692246940394,
        0.3764102568387982,
        0.5117948749515742,
        0.0940170967358129,
        -0.23965811808285867,
        0.6123076880534483,
        0.23555554714644364,
        0.08649571763497792,
        0.3067191009954303,
        -0.3962393159663231,
        -0.148034195916741,
        0.38051280671490517,
        0.32991451351289325,
        0.32307691691981394,
        -0.290256408304638,
        0.07623932095721916,
        -0.08170940988770245,
        -0.21914529426274446,
        -0.05846155100663515,
        0.2841025585889813,
        0.43521366489286717,
        -0.08581197148605631,
        0.11384614420731837,
        0.25675213049341095,
        0.534358981524573,
        0.49128204887972887,
        -0.30324787143512993,
        0.5658119639334851,
        0.27794870966805313,
        -0.40444445353437347,
        0.3970443264369826,
        0.24482759572125104,
        0.05960591429864154,
        0.07881773397651541,
        0.3665024559872508,
        0.13349754193722985,
        0.40197043724525805
      ]
    },
    "rank_20d": {
      "mae": 0.23471486568450928,
      "rmse": 0.27514421939849854,
      "bias": -0.011793865822255611,
      "mean_prediction": 0.5076343417167664,
      "mean_target": 0.5194281935691833
    },
    "rank_20d_ic": {
      "mean_ic": 0.3258370893116335,
      "std_ic": 0.2794019765970178,
      "t_stat": 32.486423684723434,
      "num_dates": 776,
      "ic_values": [
        0.2276923138313214,
        0.04307693117777618,
        0.1761538549766119,
        0.39652173926016754,
        0.3307692417136484,
        0.6356521720526683,
        0.319230773115872,
        0.5147826200723418,
        0.4146153893160833,
        0.5252173775921917,
        0.2843478313354663,
        0.3973913076151856,
        0.333846151685926,
        0.6739130452520335,
        0.5913043455576169,
        0.7147826123211463,
        0.7243478119038335,
        0.593043459954784,
        0.6382608633568242,
        0.5495652168973177,
        0.6208695637392856,
        0.522608704946881,
        0.3608695548771117,
        0.4165217385783421,
        0.49565217993525285,
        0.32999999362402205,
        0.4573912974064647,
        0.5269565146909537,
        0.40384615104116417,
        0.8184615415034909,
        0.7292307657369312,
        0.6969230822905802,
        0.6930769270942841,
        0.4984615525360814,
        0.3230769243003169,
        0.1300000101012678,
        0.4823076991355538,
        0.72769230996275,
        0.7153846159136501,
        0.7446153817938624,
        0.7130769153452919,
        0.7376923104642314,
        0.6515384496847635,
        0.8284615335514285,
        0.5461538508931201,
        0.5007692274572488,
        0.47538461290476214,
        0.27846153820804215,
        0.1738461466711123,
        0.18307691914222282,
        0.2761538420813762,
        0.2746153838714284,
        0.30538460466613937,
        0.2561538399321702,
        0.38846154128857063,
        0.3361538307622249,
        0.2415384723947067,
        0.21076921620973796,
        0.08769229907344067,
        0.2015384552010591,
        -0.02000000902666494,
        0.2407692267408471,
        -0.014615375704446086,
        -0.025384609824233847,
        -0.0830769263062427,
        -0.1192307678144975,
        -0.027692315980527512,
        0.023076925159999588,
        -0.24076923146910006,
        -0.4799999941255032,
        -0.25153845828158766,
        -0.39846153390963,
        -0.5353846107555559,
        -0.19076922308719702,
        -0.16846151779058577,
        -0.18999999620306937,
        -0.008461521515876199,
        -0.013076911333441372,
        0.14923078264401843,
        -0.15153845040116593,
        -0.284615378641694,
        -0.3823076840911123,
        -0.06461539253989262,
        -0.08615384487534407,
        -0.011538451404128899,
        -0.026153847167830466,
        0.14538460509598067,
        -0.011538465302327288,
        0.00384613585344259,
        0.07000000422677163,
        0.05923076308624444,
        -0.018461536775238353,
        0.052307698347512026,
        0.14846154816602977,
        0.20153847497375385,
        0.22769231483428418,
        -0.13307691677809624,
        -0.16615385805714045,
        -0.2207692258811647,
        -0.16153846723661255,
        0.048461545013861164,
        0.047692312111956785,
        0.05461539103544844,
        0.25461537914317534,
        0.07307691577513356,
        0.4607692308959784,
        0.5992307738322739,
        0.3238461478889955,
        0.23230768559555656,
        0.32076921542169573,
        0.499230763802646,
        0.5369230799980941,
        0.3138461526888888,
        0.433846146671112,
        0.26153844775047846,
        0.18846151936667005,
        0.2638461498949211,
        0.3938461430891021,
        0.4153846120450794,
        0.41538461720317377,
        0.21153847404243123,
        0.16999997714677667,
        0.3553846203553427,
        0.20076922473492156,
        0.23692306953862552,
        0.16615385175280298,
        -0.21461538114910095,
        0.5730769275241255,
        0.5076922942019068,
        0.3738461462412708,
        0.5992307658085714,
        0.47307692910021,
        0.2399999938389427,
        0.18384614674275246,
        0.5007692301795763,
        0.5669230681774614,
        0.5023076830881494,
        0.39692308888147876,
        0.5492307763396808,
        0.6523077006399978,
        0.6100000090983045,
        0.6769230701117466,
        0.6446153787849738,
        0.6053846121167196,
        0.5415384706753418,
        0.4430769121214831,
        0.4153846020154518,
        0.23615383806952508,
        0.2207692442210554,
        0.08461538752507876,
        0.23692308458306713,
        0.37461539246825204,
        0.37846155382560515,
        0.4800000094565057,
        0.6015384594994707,
        0.7153846193523794,
        0.6576923051628569,
        0.6876923035151323,
        0.5115384557025402,
        0.5746153792864555,
        0.4092307708950257,
        0.21692306065524103,
        0.09923076480560915,
        0.223076920718307,
        0.4946153887429616,
        0.4776923114671946,
        0.36384614172793844,
        -0.1007692426449712,
        0.34846152982613876,
        0.31461536897026726,
        0.09615384652306856,
        0.262307696986348,
        0.3961538498185174,
        0.30846154186169206,
        0.4153846199255014,
        0.2900000142563991,
        0.5292307829305788,
        0.32538462243290844,
        0.041538455057779006,
        -0.06076923505111026,
        -0.20076922745724915,
        0.24538462228962807,
        0.577692313043279,
        0.626153845018624,
        0.11153847862740407,
        0.26153845606074144,
        0.7315384584248674,
        0.635384614480846,
        0.03461538401470908,
        0.07153845541597993,
        -0.1376923070255026,
        -0.3107692216543929,
        0.1869230681774618,
        -0.0015384599293124792,
        -0.054615383441587464,
        -0.11461537871333431,
        -0.0353846356863453,
        0.14230768495079493,
        0.31999999756423303,
        -0.06846154716306707,
        0.10153846207851829,
        0.022307682085187082,
        0.49846153548571437,
        0.3146153966233836,
        0.4930769306762943,
        0.31538460187217154,
        0.6930769136259269,
        0.3353846048810598,
        0.3407692308959785,
        0.12076923419142781,
        0.41615385053491943,
        0.44384615519629567,
        0.5238461503247621,
        0.3784615392110048,
        0.5876923048046561,
        0.31692306738941955,
        0.1469230741952385,
        0.11999999297926046,
        0.41000000408349097,
        0.5246153833699468,
        0.4615384543413765,
        0.5761538342009542,
        0.5907692336899459,
        0.7415384613621159,
        0.7253846119734392,
        0.764615386808676,
        0.6984615313305828,
        0.6015384715350238,
        0.4653845980752409,
        0.4492307708950258,
        0.4007692224424349,
        0.30692307677428543,
        0.3915384806333293,
        0.25615385397364915,
        0.3061538422962966,
        0.40923075427449973,
        0.32230770286084426,
        0.40461538766835875,
        0.3507692292482538,
        0.02230769712962868,
        0.3576923030136512,
        0.41461540264116015,
        0.3938461565574594,
        0.7169230658133346,
        0.8315384528369318,
        0.8561538531139662,
        0.7292307627280429,
        0.579999991546456,
        0.4884615374199997,
        0.6361538479558722,
        0.5723076847358739,
        0.6030769204317459,
        0.5507692313974598,
        0.705384602516933,
        0.7338461541216922,
        0.6323076950520624,
        0.6738461525456081,
        0.6338461585633849,
        0.4507692427166111,
        0.025384611973439795,
        0.4315384548428579,
        0.20230767721365348,
        0.6300000036536494,
        0.5961538438007405,
        0.44384615190084653,
        0.4453846158420101,
        0.6369230646670917,
        0.7169230719743916,
        0.7592307693905812,
        0.6615384617919571,
        0.6861538338427529,
        0.5469230674610592,
        0.6684615418616919,
        0.5295726637769627,
        0.21846153387493528,
        -0.06051282534864214,
        -0.0502564057562085,
        0.21846153705384974,
        0.3244444359735202,
        0.5145299106085737,
        0.34974358840253583,
        0.49538461941877965,
        0.3729914599992608,
        0.4605128146727873,
        0.25059828355930447,
        0.34358975312444895,
        -0.04068377343990202,
        -0.15213675294540538,
        0.129572640941761,
        0.5541880448906507,
        -0.353162379347836,
        -0.5842734915565555,
        -0.0960683665743578,
        0.25948717151482864,
        0.07487179031372056,
        0.4680341801307814,
        0.5480341958372679,
        0.6164102701160639,
        0.6041025762478508,
        0.6800000037988021,
        0.78119658199063,
        0.8283760658361286,
        0.714188042991249,
        0.5924786294557423,
        0.656068378039642,
        0.7449572643500778,
        0.5459829030840478,
        0.6348717940304007,
        0.7046153912703191,
        0.6102564118570747,
        0.5576068412665963,
        0.7059829092643873,
        0.5671794971598516,
        0.4516239271808548,
        0.38188033113302955,
        0.17264955802316992,
        0.040683752909412924,
        0.3736752054859086,
        0.07350425192161801,
        0.3743589668671285,
        0.084444446935477,
        0.40376066539729016,
        0.5924786303166983,
        0.6382906045127792,
        0.5234187967097312,
        0.48786324574859,
        0.1986324758732758,
        0.18153845902548876,
        0.4967521381413491,
        -0.0003418956579987423,
        0.04752136003264666,
        -0.11794873395231047,
        0.06529913110909615,
        0.07897434568670035,
        0.13504272828278696,
        0.33538460343678744,
        0.45435895999007686,
        0.16991453084327537,
        0.2704273507665702,
        0.32307690804534434,
        0.3353846052249269,
        0.3695726365363151,
        0.158290580739798,
        0.10222220032921502,
        -0.014700868901500198,
        0.04478631126262502,
        -0.04683761891700618,
        0.10495724969528307,
        -0.1938461550792057,
        -0.17264958544130676,
        -0.22461539100805905,
        -0.08991455043598479,
        0.5384615359703694,
        0.42769231705135724,
        0.4153846209314131,
        0.2519658149313041,
        0.37914529196597874,
        0.42427350703257066,
        0.48376069064051996,
        0.21572649589997728,
        0.37982906043352865,
        0.4591453060167804,
        0.5781196571394244,
        0.4475213660460928,
        0.5008546953024682,
        0.19863247481363766,
        0.45094017997229524,
        0.07282051153447887,
        -0.11384615354537954,
        -0.06324786637005982,
        -0.054358985235956066,
        -0.3230769273175133,
        -0.23076922939883318,
        -0.6519658110768702,
        -0.636239317190205,
        -0.5678632513222865,
        -0.4441025747696557,
        -0.4256410391992992,
        -0.3935042693155779,
        -0.3394871712605154,
        -0.23282050877412144,
        -0.36615384572346965,
        -0.20478631598596186,
        -0.0099145355242271,
        0.20478632380079317,
        0.10905983162544387,
        0.3935042767992723,
        0.40170940284375756,
        0.662905981785279,
        0.5623931516629671,
        0.4885469956062452,
        0.6307692327631841,
        0.3941880310941622,
        0.6335042636518118,
        0.6882051306380159,
        0.7292307686752737,
        0.748376067481217,
        0.6663247812076848,
        0.6786324724930297,
        0.6307692219018927,
        0.6499145157407823,
        0.7046153760380206,
        0.7080341808248444,
        0.6670085411981296,
        0.669059821500601,
        0.6656410188330539,
        0.6485469946340271,
        0.5076922903060906,
        0.5979487173928151,
        0.5904273402788015,
        0.5548717885229315,
        0.5603418791753269,
        0.6321367487704307,
        0.5719658112649559,
        0.503589743410216,
        0.5261538379960585,
        0.4823931480760921,
        0.6177777829443962,
        0.3531623880236233,
        0.554188034228042,
        0.5343589563581671,
        0.37777777032940435,
        0.4611965763189169,
        0.05367520683429844,
        0.12068375338360095,
        0.2656410133494267,
        0.15076922720273317,
        0.29846153123643626,
        -0.0707692463318509,
        -0.06529915303036028,
        0.2417093943454597,
        0.1316239239595552,
        0.03863246240792421,
        0.13641025852892125,
        0.10905982791671039,
        0.14666666076978027,
        0.24854701127034623,
        -0.04410256637202368,
        0.21162391423472612,
        0.34290596492113845,
        0.34632477507237985,
        0.4372649598978181,
        0.2704273468591546,
        0.07350427132624156,
        0.06803417060728395,
        0.06461537886725519,
        0.24034188363640382,
        0.5117948727660705,
        0.42905983564147215,
        0.41470086392120065,
        0.05914530172524627,
        0.20547009240079797,
        0.14598290581261666,
        0.25333332146803494,
        0.2034187999124878,
        0.286837613054558,
        0.4933333227581441,
        0.5788034118316785,
        0.4776068405274987,
        0.4399999984688225,
        0.40854700698675894,
        0.24444443761860848,
        0.1111111056363139,
        0.10769229621357355,
        -0.09401710633878362,
        -0.1753846216281254,
        -0.17196581511938996,
        -0.14188034375067102,
        0.2854700793645997,
        0.2779487141052878,
        0.23897435339026954,
        0.1466666670613818,
        0.13914530431871056,
        0.2177777664007961,
        0.23965810033391968,
        0.27521366639490435,
        0.16649571208247396,
        0.21367520003407053,
        0.2307692284054224,
        0.11589743192725693,
        0.25401710046573917,
        0.3442735060285636,
        0.40854701274854127,
        0.20957264770755032,
        0.27589744691583834,
        0.45299145888399156,
        0.5760683788900018,
        0.4488888929808577,
        0.33059828469576624,
        0.5767521330524367,
        0.6827350480653614,
        0.7305982887223909,
        0.6731624099872726,
        0.7347008637649037,
        0.68752136561429,
        0.6916239345638834,
        0.5658119662514435,
        0.6902564079602552,
        0.5247863269558655,
        0.47076923592090564,
        0.3880341856170579,
        0.4864957332513947,
        0.3736752197247961,
        0.4933333264668777,
        0.4912820550388757,
        0.599316233135152,
        0.7264957244087141,
        0.7558974363168073,
        0.7148717869546672,
        0.10564102114306534,
        0.24034188145090002,
        0.3668376045218216,
        0.3189743590301934,
        0.22735041851909052,
        0.11863248347882874,
        0.36888888840057216,
        0.5200000043736561,
        0.33880341054156926,
        0.5329914533314876,
        0.23623932316391544,
        0.2136752116900901,
        0.3052991520687386,
        0.1938461515691543,
        0.1514529996439263,
        0.16786325617013148,
        0.07897434548801818,
        0.15555555044721647,
        -0.06119659110086947,
        0.17948716912004656,
        0.2717948746548757,
        0.3470085449969323,
        -0.0003418928102212136,
        -0.08923078256448122,
        0.10017094128573376,
        0.22119659112206203,
        0.02632478416937369,
        0.3018803574809321,
        0.5165812168059524,
        0.35247863253664063,
        0.568547015551284,
        0.2553846011082328,
        0.4181196614230117,
        0.5671794862323333,
        0.7032478704284736,
        0.6430769249094852,
        0.647179492004712,
        0.6608546923434284,
        0.5876923094564008,
        0.5172649571930915,
        0.496752136419437,
        0.5425640980323151,
        0.6123076892455412,
        0.670427351548053,
        0.45162393188299904,
        0.6423931694887299,
        0.5808546928626513,
        0.6054700837779923,
        0.3894017055317205,
        0.42632478541444807,
        0.3483760804088024,
        0.30598290252244,
        -0.007179486091931596,
        0.08307691457006641,
        0.009230775467554778,
        0.20205127794477656,
        0.26837606331154124,
        0.27384615906344506,
        0.18837607416223587,
        0.2882051289293499,
        0.13435897279580422,
        0.09470086341522366,
        0.021538470395406174,
        0.22188034409240429,
        -0.169914526273586,
        -0.10905982712198181,
        -0.003760685080069115,
        -0.022222227670528363,
        -0.22871794280476013,
        -0.17059828732366894,
        0.09675214669792745,
        0.29846154282622844,
        0.3620512879663041,
        0.36410256581836253,
        0.42700855944509847,
        0.5117948858790924,
        0.6533333447668283,
        0.5979487138827638,
        0.7374358957131697,
        0.733333330141173,
        0.7394871731678637,
        0.6252991391967838,
        0.6882051306380159,
        0.5596581034227648,
        0.45641024221314264,
        0.5179487028121941,
        0.4447863113156067,
        0.4885469969307928,
        0.3716239251172096,
        0.08854699091734675,
        -0.004444462951907684,
        0.3832478613129366,
        0.36341879655608383,
        0.30598288947564534,
        0.31350426605983983,
        0.5432478559034836,
        0.6116239215727198,
        0.27179485525025215,
        0.2711110980413574,
        0.39076922107537543,
        0.5350427313160009,
        0.5309401697176469,
        0.12136750655262535,
        0.3442735106644805,
        0.39555555087636973,
        0.13094015535955042,
        0.16034188243371453,
        0.1719658084966517,
        -0.2232478529470935,
        0.4317948803716233,
        0.3429059908822728,
        0.4276923179785409,
        0.10290598323433478,
        0.22119658443309623,
        0.04410256756411659,
        0.041367519721278376,
        -0.17811967841166051,
        -0.04410255756378165,
        0.1254700617269229,
        -0.04957265596478073,
        -0.14188035441327976,
        -0.0317948727024926,
        0.10564102577898228,
        0.024273485257007156,
        0.057094004071200105,
        -0.03247863812358294,
        0.138461533864339,
        0.14324783962479298,
        0.5958974356995683,
        0.6588034204518348,
        0.7634188021059388,
        0.13025641007158478,
        0.48717947635385656,
        0.4687179538302948,
        0.6608547004893969,
        0.44273504763620847,
        0.45025640746487483,
        0.5801709419453581,
        0.41811965148890423,
        0.4817093953706595,
        0.46051281646092673,
        0.6485469973493497,
        0.3305982875435438,
        0.24307690445846925,
        0.27658119425685296,
        0.14461537814935024,
        0.30324786494484635,
        0.4037606781791752,
        -0.1131624067341841,
        -0.13025641868114474,
        0.18700853543899654,
        0.2006837427315884,
        0.027692295805613023,
        -0.03863248903133262,
        -0.15760685101526756,
        -0.09606838816448494,
        -0.17880341369929104,
        -0.09128207366201638,
        -0.27794872331089426,
        -0.22051282589965385,
        -0.2745299173319779,
        -0.20273503449139735,
        0.009914537511048585,
        0.29230768827597264,
        0.23076924350526593,
        -0.12957264345840158,
        -0.05846155027813393,
        0.24239316340905634,
        0.3470085485732111,
        0.6505982910297529,
        0.4256410397291181,
        0.4488888882787136,
        0.22256410169866325,
        0.5261538613743248,
        0.5815384594758348,
        0.5487179599338106,
        0.3914529898740623,
        0.5651282034132208,
        0.4304273446286161,
        0.11589743451012494,
        0.381880341729411,
        0.21846153970294516,
        0.3046153783029977,
        0.23418803007955874,
        0.22051282854874923,
        0.3052991395517628,
        0.4263247843548101,
        0.4981196630892926,
        0.39623931609877794,
        0.5747008534784666,
        0.36547007579891727,
        0.47350427687609586,
        0.6218803436155668,
        0.6314529961312255,
        0.6820512842999559,
        0.67726495681692,
        0.732649578230469,
        0.5268376124903003,
        0.7750427269105549,
        0.4947008570441488,
        0.7668376063629426,
        0.7511111073105415,
        0.8071794855356209,
        0.8905982839089845,
        0.8092307753748357,
        0.7394871812476046,
        0.725811969054186,
        0.6902564143180842,
        0.4010256343099801,
        0.5117948721037966,
        0.4468376181752591,
        0.3894017072536323,
        0.33196580686215965,
        0.36136752466449,
        0.2054700872350621,
        0.18427349892104092,
        0.332649562084233,
        0.4673504257034368,
        0.40307691222826586,
        0.2348717839770844,
        0.346324789576177,
        0.38256409642166517,
        0.14461538477208868,
        0.35179486420154527,
        0.15965811780735278,
        0.45367520543027745,
        0.3319657965306876,
        0.21299144434840567,
        -0.034529925181247714,
        -0.1035897492514717,
        0.024273492144655184,
        0.09333332548671278,
        0.23931623003082972,
        0.09605910775581344,
        0.28680898479992983,
        0.3470169695525375,
        0.5876847172636507,
        0.4891625642684205,
        0.6305418787837381,
        0.6862068959633844,
        0.6004926152318646,
        0.4876847405946119,
        0.5911330010689841,
        0.35960590020065364,
        0.4315271102905499,
        0.6830870326436878,
        0.3709359656452583,
        0.5916256247602403,
        0.35320195729451653,
        0.513793097288517,
        0.5528188280402072,
        0.40558292164016996,
        0.41981389534410946,
        0.4389499329799971,
        0.4761904732137525,
        0.42918193400742666,
        0.4236453202035978,
        0.39354133690745874,
        0.3256157687311644,
        0.634975374125987,
        0.39901479191994177,
        0.6921182234411732,
        0.7517241362496986,
        0.7172413792714395,
        0.6719211827830932,
        0.417733999537769,
        0.3802955610456595
      ]
    },
    "rank_20d_ic_non_overlapping": {
      "mean_ic": 0.30750929936787547,
      "std_ic": 0.24036645116000915,
      "t_stat": 7.989446737568596,
      "num_dates": 39,
      "ic_values": [
        0.2276923138313214,
        0.6208695637392856,
        0.7130769153452919,
        -0.02000000902666494,
        -0.284615378641694,
        0.048461545013861164,
        0.21153847404243123,
        0.6100000090983045,
        0.4092307708950257,
        -0.20076922745724915,
        0.10153846207851829,
        0.4615384543413765,
        0.3576923030136512,
        0.4315384548428579,
        0.34974358840253583,
        0.78119658199063,
        0.084444446935477,
        0.3353846052249269,
        0.37982906043352865,
        -0.23282050877412144,
        0.6499145157407823,
        0.5343589563581671,
        0.34632477507237985,
        0.40854700698675894,
        0.25401710046573917,
        0.3880341856170579,
        0.2136752116900901,
        0.2553846011082328,
        0.30598290252244,
        0.29846154282622844,
        0.3832478613129366,
        0.4276923179785409,
        0.13025641007158478,
        0.2006837427315884,
        0.4488888882787136,
        0.47350427687609586,
        0.3894017072536323,
        0.09333332548671278,
        0.40558292164016996
      ]
    },
    "sector_neutral_rank_20d": {
      "mae": 0.24135233461856842,
      "rmse": 0.27906665205955505,
      "bias": -0.02399159036576748,
      "mean_prediction": 0.5646442770957947,
      "mean_target": 0.5886358618736267
    },
    "sector_neutral_rank_20d_ic": {
      "mean_ic": 0.2727441782577775,
      "std_ic": 0.21147651109226945,
      "t_stat": 36.36444107217772,
      "num_dates": 795,
      "ic_values": [
        0.3516933367687485,
        0.2526051344356416,
        0.02791217191201372,
        -0.14165427814642617,
        0.016049488633280724,
        0.15002790663626195,
        0.07954969291269588,
        0.04535728614177848,
        0.03698363020097503,
        0.13188500253605193,
        0.35936919192110833,
        0.4989300489856344,
        0.12002234951577188,
        0.3963528180668267,
        0.5701060847097557,
        0.5833643661340051,
        0.6580294176541714,
        0.4137979241860785,
        0.5401005048174402,
        0.3705340666128274,
        0.6629140553033871,
        0.6091831175880046,
        0.3942594091506966,
        0.3482043365698438,
        0.35378675753870553,
        0.43403424780847405,
        0.28400633462141317,
        0.4403144870345772,
        0.4410122862633068,
        0.489160783981316,
        0.31750094653080035,
        0.48916078834851545,
        0.4933476167868314,
        0.570803896104255,
        0.5080015022835107,
        0.5491719540600599,
        0.5303312382534077,
        0.5303312395011789,
        0.5345180626364671,
        0.4633420325273166,
        0.42356718107988356,
        0.5017212624335221,
        0.5708038923609411,
        0.4235671963650815,
        0.31470972684405646,
        0.3049404615277952,
        0.2560941695721413,
        0.4012374466697008,
        -0.10955526781392633,
        0.1716598399460583,
        0.45496837783428434,
        0.5875511805348944,
        0.41868254623815326,
        0.24562709504498045,
        0.1018794341856206,
        0.0935057823000737,
        0.07815409195969406,
        0.007675853280702896,
        0.14723669973917336,
        0.08303869092800088,
        0.2658634280256607,
        0.09908820046145016,
        0.1388630581477394,
        0.41658914730419316,
        -0.0027912162553729203,
        0.10955527592443942,
        0.036285810695962484,
        0.17096205257115552,
        0.19050055450493925,
        0.27772608416536887,
        0.10048380515776566,
        -0.022329735034068446,
        -0.05721996349359799,
        0.07536285386832423,
        0.06908260590782231,
        0.20724785016551991,
        0.3796055008821919,
        0.2456270791358969,
        0.2672590168128927,
        0.10187941234962364,
        -0.27284146804020737,
        -0.04605508131525156,
        0.2595831878637292,
        0.06978043165169122,
        0.3475065385888855,
        0.33145702936737903,
        0.39356160586671035,
        0.2198083588761788,
        0.33703946718115263,
        0.31191850996479786,
        0.3642538217717536,
        0.3977484380483401,
        0.23725345376548912,
        0.3133141165327702,
        0.338435079052153,
        0.17584668148597246,
        0.1367696414330388,
        0.011862685774275395,
        0.16398400382221007,
        -0.01953851253983928,
        0.16189060520019272,
        0.0704782461656187,
        0.3007536461910773,
        0.23167103092497054,
        0.2609788081571853,
        0.3754186930321016,
        0.25260514472975437,
        0.20166543106831503,
        0.31261631012935587,
        0.1939895940086384,
        0.3775121094348593,
        -0.05233532272495426,
        -0.07815407168341126,
        0.3398306834365256,
        0.147934515812815,
        0.1409564545861569,
        0.33983067657378374,
        0.45008374611198226,
        0.3865835602371931,
        0.256094160213857,
        0.2958689994955202,
        -0.003489015484102547,
        -0.003489008621360616,
        0.057917766465641445,
        -0.01325826676293715,
        -0.01395608252463592,
        -0.5254465909339648,
        0.1360718428281948,
        0.15840158066974866,
        0.24841832409000877,
        0.37192966569417224,
        -0.12560477079657648,
        -0.12141794298214607,
        -0.18212691884041854,
        0.09908819578230793,
        0.2707480572524203,
        0.4019352396595742,
        -0.011164857222921421,
        0.665705258145219,
        0.6224413962047687,
        0.6510513673455118,
        0.5568477957988787,
        0.47101786958699315,
        0.43054523076465767,
        0.30912728903028264,
        0.5547543856349773,
        0.37611650536242947,
        0.14025864911857105,
        0.0935057698223611,
        0.11792890878147476,
        0.3147097118708013,
        0.21492370562982244,
        0.2693524375828497,
        0.32238555516933426,
        0.3119184981109708,
        0.4200781543658398,
        0.3098250845156985,
        0.5638258367492539,
        0.5875511902051217,
        0.6154633524469083,
        0.4710178811288774,
        0.46264422986721604,
        0.13676963145086882,
        -0.12211574096310447,
        0.2644678111635754,
        0.2093412877803889,
        -0.0579177493087867,
        -0.026516564408212925,
        0.0118626536441657,
        0.28958876120524557,
        0.2672590189964924,
        0.22120394392009715,
        0.10815964845629857,
        -0.15770377769770527,
        0.06978041012763711,
        -0.027912170976185275,
        0.17445105932085936,
        0.29168217698411764,
        0.08164308935111349,
        0.2435336724033665,
        0.37123186521767126,
        0.3098250951217542,
        0.3188965468599164,
        0.39146818634452457,
        0.1974785892164581,
        0.44450131516095037,
        0.15421473133126415,
        0.2686546355466347,
        0.4556661745674714,
        0.07466504933656679,
        0.14095645209061441,
        -0.05721995070394272,
        -0.15212134456307375,
        -0.16537961475738192,
        0.03698361460383435,
        0.22957759424593,
        0.2560941583422,
        -0.19398959120115297,
        0.16817082664555538,
        -0.022329727547440906,
        0.16956643446129907,
        0.1723576488450152,
        0.38169892882683365,
        0.43473204703720386,
        0.5093971129067396,
        0.10746184860368327,
        0.3328526334398089,
        0.7089691272603542,
        0.5903423952305532,
        0.4507815444048833,
        0.2309732086124727,
        0.2895887671321591,
        0.35657797098659316,
        0.18770934947950757,
        0.13676963737778225,
        -0.044659476930878864,
        0.131885004095766,
        -0.1193245378093297,
        0.2609787825778747,
        0.23934686080996248,
        0.1290937925195353,
        0.13886305190888304,
        0.043961677702149204,
        0.35657797816127784,
        0.10955526594226941,
        0.36704503896295493,
        -0.01256047283723543,
        -0.048148483056697035,
        -0.07745625997696906,
        -0.034890203504104475,
        0.19678080620875466,
        0.47311129659580653,
        0.5554521951578197,
        0.22748420810162528,
        0.43752327577028943,
        0.5673148550408417,
        0.43473204329389004,
        0.3796055049374486,
        0.4137979220024787,
        0.163984010684952,
        0.11792892469055817,
        0.4465947187740527,
        0.29656678843013695,
        0.4263584010785705,
        0.29377558714801894,
        0.2902865626175749,
        0.19119834874258382,
        0.15979717663166537,
        0.2553963594254132,
        0.2407424552121651,
        0.1688686411594829,
        -0.03070337381801726,
        0.12211575219304578,
        0.4563639794111717,
        0.16607741429805428,
        0.3495999275406756,
        -0.00628023080364703,
        0.29866022323752056,
        -0.07047824522979022,
        0.14584109223537256,
        -0.016747301899436975,
        0.1283959914191488,
        0.17933570508058821,
        0.45217715814754056,
        0.3440175006449004,
        0.33634166389716647,
        0.30773167840705373,
        0.48288054912241235,
        0.5603368184576658,
        0.6447711315507798,
        0.49264979728181896,
        0.5526609583142211,
        0.4759024997495813,
        0.42426498529969825,
        0.09141235185988943,
        0.11932452439578868,
        0.20445665075505887,
        0.0020934126594439393,
        -0.1716598464968573,
        -0.2267863826696991,
        -0.009071447059019935,
        -0.007675847665732238,
        -0.06280237884748913,
        -0.054428739439654775,
        0.27493488225936535,
        0.12700038235563396,
        0.0383792386406043,
        0.09350578167618806,
        0.23655564112321859,
        0.1625883894556674,
        -0.06978042229340681,
        0.028609979563199342,
        0.11025307546511186,
        0.3635560150563965,
        0.3691384553657127,
        0.4465947209576524,
        0.5163751522974007,
        0.45496837721039873,
        0.5366114749839681,
        0.4605508078494879,
        0.49264979852959007,
        0.48497395897437107,
        0.39425940790292535,
        0.2895887696277015,
        0.3384350653266691,
        0.27284146928797853,
        0.37820991147107424,
        0.36495162879905363,
        0.3565779762896211,
        0.24841832409000872,
        0.20864347264257577,
        0.23097321578715738,
        0.03837923801671865,
        0.2121324931177634,
        0.31680312889744466,
        0.27912171132156693,
        0.05373094676172416,
        0.41589134058883603,
        0.1688686467744536,
        0.2595831978458993,
        0.16398400600580976,
        0.24772050864025283,
        0.4654354464345317,
        0.3733252850517999,
        0.33424824749440873,
        0.3837923477251339,
        0.5031168683776088,
        0.29517120525787555,
        0.42496279825391164,
        0.20585225513943153,
        0.287495351353287,
        0.371929666006115,
        0.34401750376432855,
        0.27284146367300804,
        0.3300614128172366,
        0.4047264668329455,
        0.5442873189063867,
        0.4431056979869223,
        0.4633420212973752,
        0.4703200638074645,
        0.4347320613865732,
        0.5296334424560489,
        0.34680871034947414,
        0.3049404640233377,
        0.2909843721404174,
        0.4486881314334966,
        0.20585226480965876,
        0.12700039077808983,
        -0.03907704005293359,
        0.10955526594226941,
        0.2560941673885416,
        0.22678638360552775,
        0.33564385250266715,
        0.2477205164388232,
        0.36704503802712657,
        0.11792892936970042,
        0.3440175003329575,
        0.35518237627244775,
        0.3844901419627786,
        0.4675288640850606,
        0.43752327046726136,
        0.4263584076293695,
        0.3300614109455797,
        0.36634724098199667,
        0.32029215529954563,
        0.076060666198652,
        0.24772052236573652,
        0.19887422261151239,
        0.1995720243357845,
        0.31122070449721195,
        0.436825465935504,
        0.2812151180540974,
        0.23097320986024397,
        0.026516568463469437,
        0.028609980810970548,
        0.02372534378564059,
        -0.006280243905245177,
        0.15770376241250744,
        0.20236323092093023,
        0.15212132834204745,
        0.08513212323984203,
        0.08513212573538449,
        0.19398959588029532,
        0.2728414621132939,
        0.3454131028456734,
        0.2826107280534408,
        0.2979624109071927,
        0.35727578425274953,
        0.27772609633113854,
        0.30842948418658245,
        0.26935245536359015,
        0.21283030232866298,
        0.18701153995666508,
        0.3523911450438196,
        0.32517678546213374,
        0.26446781771437444,
        0.2253907839002972,
        0.23236881923570163,
        0.459853007061044,
        0.47799591989565277,
        0.5352158646726819,
        0.4347320557716026,
        0.45706179018178544,
        0.4842761566262133,
        0.38797916555739426,
        0.459155201593458,
        0.4612486173723302,
        0.09141237026451542,
        0.18073130478581864,
        0.3865835621088499,
        0.24841831816309531,
        0.22329736313034015,
        0.3154075207697582,
        0.23725345314160354,
        0.32378117577473314,
        0.499627855077106,
        0.5163751551048861,
        0.5338202543613958,
        0.5742929047256157,
        0.517072959012758,
        0.4807871380226826,
        0.46543544237927514,
        0.43612766202763215,
        0.4535727609721991,
        0.48008931602212757,
        0.5135839263718005,
        0.39007257946460944,
        0.43473204703720386,
        0.2065500602950747,
        0.1877093494795076,
        0.3140119244958986,
        0.254698549590628,
        0.29098438212258737,
        0.3154075329355279,
        0.353088943336721,
        0.4179847407705675,
        0.42147377559512444,
        0.08164310775573946,
        0.08513212479955612,
        0.23934685675470593,
        0.151423518819205,
        0.3342482443749807,
        0.3251767863979622,
        0.40193525868808583,
        0.37402308116110156,
        0.44171009734586336,
        0.5052102807251099,
        0.47032007285380617,
        0.4612486136290164,
        0.40263305666904414,
        0.33145702562406526,
        0.27633048851539505,
        0.29517120556981846,
        0.2895887686918731,
        0.2819129272649971,
        0.22957760578781408,
        0.31331411746859866,
        0.4291496163981147,
        0.347506522679802,
        0.36564943426663954,
        0.2923799918099879,
        0.27353927444362175,
        0.15212132896593306,
        -0.0223297312907547,
        -0.014653882377251185,
        -0.13258280051701032,
        -0.10955526750198344,
        -0.02372533349152769,
        0.016049508285678003,
        -0.049544099606839434,
        0.025818760812283896,
        -0.0097692578296337,
        0.0641979947737459,
        0.18212691322544797,
        0.11653331157178676,
        0.010467065168876445,
        0.10606625264176654,
        0.1786378977413454,
        0.2100390782747197,
        0.16677521415066962,
        0.11583550485642961,
        0.3440175071956994,
        0.33843507374912507,
        0.2784239120928373,
        0.34959994033033087,
        0.28191293007248236,
        0.3816989306984906,
        0.2379512558017041,
        0.2540007522335552,
        0.2728414705357499,
        0.45217716001919733,
        0.34750651768871693,
        0.35308895300694815,
        0.32098997106124444,
        0.3621604234616791,
        0.37751209914074646,
        0.32308337030714734,
        0.26237439694441744,
        0.1597971707047519,
        0.1618905849239099,
        0.1639839957116969,
        0.16258839132732422,
        0.2295776054758712,
        0.10536845341303691,
        0.47241348613713563,
        0.4089132933996047,
        0.36774284630219783,
        0.48916078554103015,
        0.5498697473618759,
        0.49125418634664714,
        0.6433755187439512,
        0.5177707579295449,
        0.5331224557565518,
        0.4779959192717672,
        0.5324246471695376,
        0.42635840388605584,
        0.5456829479342418,
        0.5491719509406319,
        0.517072955581387,
        0.48148493537975534,
        0.38588575913680645,
        0.5031168711850941,
        0.3816989350656899,
        0.5086993052555542,
        0.40751769275854577,
        0.09978601060817816,
        0.025120959399954585,
        -0.19678079217132813,
        -0.08094530447175324,
        0.14374767208930114,
        0.6601228150284174,
        0.26935243321565033,
        0.2651656131997904,
        0.31889655060323013,
        0.13537402987398142,
        0.24562709504498045,
        0.3928637994632961,
        0.4026330560451584,
        0.35936919223305114,
        0.5917380120926384,
        0.28191293787105265,
        0.551963161581034,
        0.46124861238124515,
        0.5059080911837809,
        0.48078713958239666,
        0.44450132015203536,
        0.4500837498552959,
        0.387979165869337,
        0.04465947817865007,
        0.03558801957774605,
        0.2860997394822868,
        0.16258839226315266,
        -0.21701711860120926,
        -0.18142910962951891,
        -0.10815965375932639,
        -0.16817083007692635,
        -0.1835225179217634,
        -0.16677521914175458,
        0.0774562774457666,
        0.17096204290092837,
        0.009071454857590337,
        -0.28121511243912684,
        0.004884634217844619,
        -0.09350576639099015,
        0.19817641121701304,
        0.17654448664161548,
        0.1388630587716249,
        0.11374209843584199,
        0.21213249280582056,
        0.2588853867633427,
        0.39914402745945776,
        0.41658913545036624,
        0.22957759892507223,
        0.15142351819531932,
        0.3768142924253893,
        0.3991440361938566,
        0.4821827364801419,
        0.5645236531348382,
        0.5310290462165359,
        0.514281744317099,
        0.6042984874254163,
        0.4514793589188108,
        0.39635282118625487,
        0.49264981974170147,
        0.43752327577028916,
        0.7717715057959006,
        0.4458969332708068,
        0.5212597843316457,
        0.6440733313862218,
        0.7285076532137343,
        0.5687104778298404,
        0.5226553971384745,
        0.43473205920297353,
        0.40542426855721764,
        0.43403425248761635,
        0.4431057017302361,
        0.4137979220024787,
        0.3656494295874973,
        0.4828805488104697,
        0.5268422174662772,
        0.5031168792956074,
        0.42217158324631004,
        0.5080015097701382,
        0.5394027030931678,
        0.5045124892949505,
        0.4996278560129344,
        0.37820991895770173,
        0.41868255434866647,
        0.40472647369568737,
        0.5631280415757808,
        0.5045124908546647,
        0.25958319160704296,
        0.3810011370847315,
        0.28121512054963993,
        0.4144957408836057,
        0.39774843274531224,
        0.4207759757425092,
        0.4605508218869144,
        0.46613324316771876,
        0.3384350678222117,
        0.5240509980914762,
        0.3803033231946897,
        0.23585783596757548,
        0.19608299294259854,
        0.28121511743021177,
        0.22748418876117077,
        0.2840063296303282,
        0.3056382595087535,
        0.05582434257625616,
        0.16607742490410993,
        0.21492370063873753,
        0.30214922842751035,
        0.2965668005959066,
        0.22957760266838592,
        0.1374674493961672,
        0.08862114964194301,
        -0.002791213759830453,
        0.30494046371139494,
        0.3342482446869235,
        0.32727020529626244,
        0.2937755971301891,
        0.6782657347257682,
        0.4682266558271628,
        0.4661332425438332,
        0.4472925258013526,
        0.3865835589894217,
        0.503116871497037,
        0.5456829257863018,
        0.5973204427317274,
        0.5791775342643182,
        0.5387048976255822,
        0.6168589583909948,
        0.44938595374599444,
        0.5387048938822685,
        0.3105228946624267,
        0.28330852884188445,
        0.04465947162785108,
        0.04884631067222272,
        0.0907145626133298,
        0.12420915424643407,
        0.2860997510241709,
        0.09141235872263129,
        -0.12979159174826488,
        0.013258279864535294,
        0.09280796279506116,
        0.09280796778614615,
        0.03209901345192783,
        0.17514886385261683,
        0.16886862899371322,
        0.12211574314670413,
        0.007675847665732278,
        0.0006978076511855609,
        -0.06419798853488971,
        -0.11862671924014566,
        0.025120955968583644,
        -0.051637517881254015,
        0.23236881268490256,
        0.29726461386206293,
        0.19608299263065576,
        0.13467622503028115,
        0.3098250935620402,
        0.2086434873038881,
        0.3251767764157923,
        0.32517678296659125,
        0.5031168671298376,
        0.3844901472658064,
        0.36844065176978363,
        0.5617324209703817,
        0.4012374444861011,
        0.5596390170453366,
        0.4431057067213211,
        0.4417100929786639,
        0.4333364426528313,
        0.4200781668435523,
        -0.9999999999999997,
        0.3928638003991245,
        0.4528749682942686,
        0.48218274521454063,
        0.5073036952562108,
        0.5317268485646938,
        0.33634165453888215,
        0.2665612297499328,
        0.3509955425311039,
        0.27981951148612505,
        0.48636956772594314,
        0.4682266573868769,
        0.524051006825875,
        0.4486881432873236,
        0.4277540067107143,
        0.3377372558038267,
        0.3705340747233404,
        0.493347605868833,
        0.20166543106831503,
        0.48916078866045815,
        0.4458969295274931,
        0.43263865527792855,
        0.3670450383390695,
        0.052335330211581745,
        0.005582449355657789,
        -0.15142351351617714,
        -0.016049488945223588,
        -0.09420357466606136,
        -0.010467059241963029,
        -0.03070338005687353,
        -0.10885745610748412,
        -0.1905005585601958,
        -0.034890205375761416,
        -0.03907703755739105,
        -0.05721995008005708,
        0.11025307952036842,
        0.15351694551607556,
        0.05024191380882411,
        0.27284146959992145,
        0.13956085987201142,
        -0.0006978004765008649,
        -0.1653795988482984,
        -0.16886863086537005,
        -0.1074618532828255,
        -0.0013956149904283761,
        0.24772050708053878,
        0.46822665801076246,
        0.5666170551882266,
        0.29862006764627524,
        0.177066512555876,
        0.40000002086162545,
        0.7999999999999999,
        0.3691961395472791,
        0.45312520042816745,
        0.39004746581958527,
        0.24806016974219133,
        0.31362489949418537,
        0.5999999940395352,
        0.5999999940395352,
        0.20212309960852615,
        0.2944148518038461,
        0.33199972500872066,
        0.299999989569187,
        0.25408032361084787,
        0.0,
        -0.39999999999999997,
        0.38891718074089454,
        0.35329781927098086,
        0.07108745386808829,
        0.12486530606679781,
        0.3140425041414173,
        -2.2351741846282626e-08,
        0.10000000894069676,
        0.3562210805512623,
        0.4117631671559967,
        0.28526708317689753,
        0.24261460544343655,
        0.2375696929351671,
        -0.7999999999999999,
        0.9999999999999997,
        0.4173607164218876,
        0.3774436540718709,
        0.33601074568515166,
        0.23219101150181257,
        0.41322450694622087,
        0.3000000119209289,
        0.500000014901161,
        0.15743887029935352,
        0.26351172930929306,
        0.45853546301250164,
        0.35246259746854897,
        0.5746309750640635,
        0.900000005960464,
        0.7000000178813931,
        0.500000014901161,
        0.2977557225851977,
        0.2856450362263667,
        0.19752939976390546,
        0.07182886937441364,
        -0.099999986588955,
        -0.099999986588955
      ]
    },
    "sector_neutral_rank_20d_ic_non_overlapping": {
      "mean_ic": 0.3000536976350192,
      "std_ic": 0.20794368436687724,
      "t_stat": 9.126058411161624,
      "num_dates": 40,
      "ic_values": [
        0.3516933367687485,
        0.6629140553033871,
        0.42356718107988356,
        0.2658634280256607,
        -0.27284146804020737,
        0.16189060520019272,
        0.2958689994955202,
        0.6510513673455118,
        0.4710178811288774,
        0.37123186521767126,
        0.16956643446129907,
        0.1290937925195353,
        0.11792892469055817,
        -0.016747301899436975,
        -0.009071447059019935,
        0.49264979852959007,
        0.16398400600580976,
        0.4347320613865732,
        0.43752327046726136,
        0.08513212323984203,
        0.5352158646726819,
        0.4807871380226826,
        0.151423518819205,
        0.2923799918099879,
        0.11583550485642961,
        0.1639839957116969,
        0.38588575913680645,
        0.28191293787105265,
        0.009071454857590337,
        0.6042984874254163,
        0.5031168792956074,
        0.5240509980914762,
        0.2937755971301891,
        0.2860997510241709,
        0.3098250935620402,
        0.33634165453888215,
        -0.016049488945223588,
        0.46822665801076246,
        0.38891718074089454,
        0.500000014901161
      ]
    }
  },
  "validation": {
    "direction": {
      "loss": 0.6590381860733032,
      "accuracy": 0.5035036310358008,
      "balanced_accuracy": 0.5003846153846154,
      "precision": 1.0,
      "recall": 0.0007692307692307692,
      "specificity": 1.0,
      "f1": 0.0015372790161414295,
      "mcc": 0.01967649496747285,
      "threshold": 0.545,
      "positive_rate": 0.0003822142898570746,
      "average_probability": 0.4794800281524658,
      "confusion_matrix": {
        "tp": 3,
        "tn": 3949,
        "fp": 0,
        "fn": 3897
      }
    },
    "magnitude": {
      "mae": 0.04634259641170502,
      "rmse": 0.06255276501178741,
      "bias": 0.04217662289738655,
      "mean_prediction": 0.04117303714156151,
      "mean_target": -0.0010035868035629392
    },
    "volatility": {
      "mae": 0.0349237360060215,
      "rmse": 0.04719109460711479,
      "bias": 0.009372087195515633,
      "mean_prediction": 0.037043146789073944,
      "mean_target": 0.02767105959355831
    },
    "direction_5d": {
      "loss": 0.695265531539917,
      "accuracy": 0.5269461077844312,
      "balanced_accuracy": 0.5229489229595627,
      "precision": 0.5269709543568465,
      "recall": 0.33047098620869114,
      "specificity": 0.7154268597104343,
      "f1": 0.40620502158963706,
      "mcc": 0.04974104644933106,
      "threshold": 0.615,
      "positive_rate": 0.30704548954963684,
      "average_probability": 0.6036249995231628,
      "confusion_matrix": {
        "tp": 1270,
        "tn": 2866,
        "fp": 1140,
        "fn": 2573
      }
    },
    "direction_20d": {
      "loss": 0.7831708192825317,
      "accuracy": 0.4731812969805071,
      "balanced_accuracy": 0.5130446878078028,
      "precision": 0.46372782631718296,
      "recall": 0.9765821020351269,
      "specificity": 0.04950727358047865,
      "f1": 0.6288483978098914,
      "mcc": 0.0683339614383313,
      "threshold": 0.64,
      "positive_rate": 0.9624155759811401,
      "average_probability": 0.6823704838752747,
      "confusion_matrix": {
        "tp": 3503,
        "tn": 211,
        "fp": 4051,
        "fn": 84
      }
    },
    "rank_5d": {
      "mae": 0.2581128776073456,
      "rmse": 0.31283560395240784,
      "bias": 0.08877566456794739,
      "mean_prediction": 0.6060170531272888,
      "mean_target": 0.517241358757019
    },
    "rank_5d_ic": {
      "mean_ic": -0.005219129671812962,
      "std_ic": 0.4036541045727127,
      "t_stat": -0.20484509770702594,
      "num_dates": 251,
      "ic_values": [
        -0.035467984770424,
        0.4541871943254017,
        0.4221674897710485,
        0.329556649831411,
        0.23743841859905893,
        -0.0911329963089167,
        -0.15615765172980292,
        -0.13990147993173035,
        -0.10197043672371783,
        0.2162561570139918,
        -0.033004931761115706,
        0.19113299852280335,
        0.4334975228211683,
        -0.09999999242169498,
        0.23596059141283407,
        0.01674877294834065,
        -0.1103448347196789,
        -0.4221675044061174,
        -0.5261083744688612,
        -0.5714285629744426,
        -0.5418719267030878,
        -0.3906403848236288,
        -0.39310344634788624,
        0.5886699441511027,
        0.2576354752226686,
        0.5054187250502772,
        0.661083739281623,
        0.5847290687452286,
        0.5463054151801592,
        0.29950738835505686,
        -0.09117793266405261,
        -0.16108374673220394,
        -0.5044334993868494,
        -0.4699507337339862,
        0.044827582991402104,
        0.5413793074053346,
        -0.011330048589902301,
        -0.3596059009301708,
        -0.20049261148528744,
        0.07192117365081063,
        0.32857142938338935,
        0.26059113869547057,
        0.43596059637279155,
        0.16009852335716854,
        -0.029064042039482985,
        -0.05862069225406699,
        -0.4866995090239379,
        -0.44630540524959994,
        -0.6453202070575268,
        -0.20935959887024277,
        -0.01724137808999111,
        -0.02118227435749115,
        -0.5926108296152609,
        -0.39556650255030035,
        -0.602955666165654,
        -0.553201961349761,
        -0.3581280706572768,
        -0.7881773314630784,
        -0.05517241033500634,
        -0.25073891282144495,
        0.14384237316577947,
        -0.2137930920837545,
        -0.14854046591809048,
        -0.11477831750237784,
        0.11182266206555923,
        0.4694581398746436,
        0.7571428607145735,
        0.5645320231910529,
        0.6394088784621516,
        0.3763546826063346,
        0.5645320233507082,
        0.4231526964887144,
        0.04975368608300486,
        0.020689663787560483,
        0.11083745087754494,
        -0.4068965616242342,
        0.05467980982335954,
        0.13251231861541282,
        0.5142857196197214,
        -0.17980295051830397,
        0.4315271017756006,
        0.133004921255797,
        0.20295565459596723,
        0.45517240737606113,
        0.586699511982883,
        0.5802955794166622,
        0.26256158156059584,
        -0.12906403222600385,
        -0.27832512261895165,
        -0.5285714316292071,
        -0.33891624911675783,
        -0.31822660406208564,
        -0.2719211882965232,
        0.2600985104038019,
        0.5783251240452054,
        0.7453201878776033,
        0.17339900571184397,
        0.34482758207604475,
        -0.24876847123356222,
        0.0665024724423905,
        0.1955664967920663,
        0.6748768490764719,
        0.6418719173685746,
        0.4733990174092552,
        0.41576355065896076,
        -0.1768472824154982,
        -0.5532019750801167,
        -0.6862069025092518,
        -0.38275862570980457,
        -0.20246305291351496,
        -0.2699507332975953,
        -0.13645319359553967,
        0.5128078884421139,
        0.042364535091063346,
        0.09605912877709445,
        -0.7522167474050314,
        -0.7018105620505521,
        -0.8133004899542665,
        -0.699999989473393,
        -0.6935960511595822,
        -0.3349753617367361,
        -0.03448275431733706,
        0.6339901382978385,
        0.7403940897353148,
        0.8088669983905263,
        0.1807881800666775,
        0.27536946217960034,
        -0.22610836729501654,
        -0.10886698747010476,
        -0.2812807916796892,
        0.5778325080469945,
        0.5714285745760609,
        0.35123152400870916,
        0.4812808003117189,
        0.1985221684072885,
        -0.11970443581445238,
        0.004433503112140272,
        0.28226600675264907,
        0.49950737814776125,
        0.008374384318823824,
        -0.5201970312916352,
        -0.38571426486178273,
        -0.44729064203568036,
        -0.36748767675458294,
        -0.13940887117122647,
        -0.05714285783013514,
        -0.2068965421888626,
        -0.1339901442050849,
        -0.4999999914850503,
        -0.48029556176943006,
        -0.5827586147574507,
        -0.5847290598577499,
        -0.586206887469723,
        -0.24285714508623463,
        0.21822660424302842,
        0.35615763886158563,
        -0.14285713872131017,
        -0.16453201827367014,
        -0.14137930296691748,
        0.4517241287033248,
        0.17783252095778687,
        0.5719211782275955,
        0.6714285702440804,
        0.47881773431711294,
        0.3674876916557442,
        -0.27684729915801704,
        -0.27093595922711544,
        0.12463054390858784,
        -0.6502463074882077,
        -0.6034482799286904,
        -0.5418719073315784,
        -0.28423644818087657,
        -0.28029555877855433,
        0.17684730263850268,
        0.266995071155254,
        0.2793103346052424,
        0.3512315303949212,
        0.0738916312574417,
        0.6517241272770707,
        0.601477824450797,
        0.570935953256007,
        0.04630541821361045,
        -0.3167487602717096,
        0.22463054548385333,
        0.24778324471863936,
        0.3576354666864319,
        -0.4610837538528299,
        -0.3975369485553133,
        -0.4068965486921549,
        -0.04187192601124893,
        -0.16945812929481946,
        -0.1349753662496594,
        -0.1566502537847842,
        -0.4330049298133207,
        -0.26551723848753056,
        0.4990147757202508,
        0.6517241338229379,
        0.18275862639100074,
        0.048768484421090025,
        -0.23152709479334255,
        -0.4172413908304834,
        -0.13054185866717077,
        -0.13103448184986996,
        -0.31280787890537076,
        -0.03596059087000622,
        0.28866995634876796,
        0.16059112035639866,
        0.31773398795743807,
        0.6103448335488726,
        0.5975369388269838,
        0.6000000037040023,
        0.5162561537570233,
        0.5108374420113535,
        -0.06650245759444777,
        -0.13596059563837778,
        -0.3600985292218397,
        -0.42906403365225754,
        -0.4423645371878691,
        -0.41330049610631797,
        -0.554679786939433,
        -0.5029556657611939,
        -0.5980295586569213,
        -0.5374384279548591,
        -0.2512315169519453,
        0.04679803160411797,
        0.0009852211398612167,
        0.2359605926368579,
        0.6807881802795508,
        -0.0004926031725684367,
        -0.5152709408660192,
        -0.6551724081317624,
        -0.6472906484325356,
        -0.6566502568714531,
        -0.4807881690398181,
        -0.5704433357144618,
        0.10935961118498826,
        -0.7177339876061962,
        -0.24630540656941713,
        -0.08177339537379849,
        -0.06945813011438344,
        -0.09113300141788622,
        -0.06699506976093138,
        0.18374384534890623,
        0.4477832475498597,
        0.05221675543037202,
        0.4852216701296576,
        0.022660104683603622,
        -0.5822660132346539,
        0.6152709349907043,
        0.4004926226718019,
        0.4945812822406469
      ]
    },
    "rank_5d_ic_non_overlapping": {
      "mean_ic": 0.0295074754833487,
      "std_ic": 0.4058619648715861,
      "t_stat": 0.5192049083436304,
      "num_dates": 51,
      "ic_values": [
        -0.035467984770424,
        -0.0911329963089167,
        -0.033004931761115706,
        0.01674877294834065,
        -0.5418719267030878,
        0.5054187250502772,
        -0.09117793266405261,
        0.5413793074053346,
        0.32857142938338935,
        -0.05862069225406699,
        -0.01724137808999111,
        -0.553201961349761,
        0.14384237316577947,
        0.4694581398746436,
        0.5645320233507082,
        -0.4068965616242342,
        0.4315271017756006,
        0.5802955794166622,
        -0.33891624911675783,
        0.7453201878776033,
        0.1955664967920663,
        -0.1768472824154982,
        -0.2699507332975953,
        -0.7522167474050314,
        -0.3349753617367361,
        0.1807881800666775,
        0.5778325080469945,
        -0.11970443581445238,
        -0.5201970312916352,
        -0.05714285783013514,
        -0.5827586147574507,
        0.35615763886158563,
        0.17783252095778687,
        -0.27684729915801704,
        -0.5418719073315784,
        0.2793103346052424,
        0.570935953256007,
        0.3576354666864319,
        -0.16945812929481946,
        0.4990147757202508,
        -0.4172413908304834,
        0.28866995634876796,
        0.6000000037040023,
        -0.3600985292218397,
        -0.5029556657611939,
        0.0009852211398612167,
        -0.6551724081317624,
        0.10935961118498826,
        -0.09113300141788622,
        0.4852216701296576,
        0.4945812822406469
      ]
    },
    "rank_20d": {
      "mae": 0.26520296931266785,
      "rmse": 0.3216523230075836,
      "bias": 0.06860694289207458,
      "mean_prediction": 0.5858482718467712,
      "mean_target": 0.517241358757019
    },
    "rank_20d_ic": {
      "mean_ic": -0.11520813023012642,
      "std_ic": 0.42583432605918153,
      "t_stat": -4.286268005696327,
      "num_dates": 251,
      "ic_values": [
        0.4261083724678482,
        0.35517242016977235,
        0.20147783629722052,
        -0.46354679350431144,
        -0.18472905350346971,
        -0.6182265996875299,
        -0.7512315346736826,
        -0.32758621138341576,
        -0.5714285624954768,
        -0.4246305526257669,
        -0.08078818812394832,
        -0.28374383532255326,
        0.0847290658714336,
        -0.14482758573747312,
        -0.2857142889910203,
        -0.3334975402448834,
        -0.06305417945389587,
        -0.06354680907602543,
        -0.3605911265403805,
        -0.053201981306673744,
        -0.3778325132517576,
        -0.15467980027597245,
        0.0679802938278064,
        0.5926108237080149,
        0.47832512353430845,
        0.5827586155557274,
        0.568965515074104,
        0.4137931022059003,
        -0.0024630414076898823,
        -0.042364535889339854,
        -0.08571428919325061,
        -0.27142856165462576,
        -0.3270935955980788,
        -0.345812798053718,
        -0.513793092977824,
        -0.6576354681659041,
        -0.7995073825542469,
        -0.8502463011126393,
        -0.7408866931739752,
        -0.7088669839896186,
        -0.6886699393401566,
        -0.8054187167375577,
        -0.6310344811580297,
        -0.6177339925767975,
        -0.6034482662515536,
        -0.7256157463474912,
        -0.6546798088441397,
        -0.7147783105626936,
        -0.6325123070670127,
        -0.7679802900067222,
        -0.7512315193467739,
        -0.7896551629599965,
        -0.6788177321990189,
        -0.07783250719550033,
        -0.5817733934579343,
        -0.36896551485058676,
        0.12561577026385545,
        0.21871921981549164,
        0.5201970510356736,
        0.6620689709055153,
        0.6709359580775969,
        0.7433497494828263,
        0.6610837501914015,
        0.542857137997539,
        0.579802960278564,
        0.633990146280603,
        0.7251231625996508,
        0.5699507525520241,
        0.71477833275478,
        0.6359606001087257,
        0.709852217848685,
        0.6231527124648877,
        0.6285714286276872,
        0.6118226587660156,
        0.5049261182056372,
        -0.012315262492056644,
        0.023645327473236208,
        -0.030049267649692468,
        0.10837439020478233,
        -0.009852211292175044,
        -0.060591124848034576,
        0.1364532107850935,
        0.0645320260116304,
        -0.013300481077433039,
        0.3679802993518793,
        0.35911330627255167,
        -0.12216749100571651,
        0.03990148383796338,
        0.17241380186797345,
        0.10049262018117947,
        -0.002955658789579901,
        0.5266009908396008,
        0.4719211749493399,
        0.5399014791547407,
        0.480788183195921,
        0.5975369518654996,
        0.22857142088972768,
        0.19408867679032968,
        -0.16305418502054383,
        -0.20591131950566688,
        -0.03054186699053376,
        -0.14729063911931042,
        -0.51724136350814,
        -0.4344827530613815,
        -0.7546798151026274,
        -0.7990147703877634,
        -0.8054187173229609,
        -0.7098522145491428,
        -0.4517241349830998,
        -0.42216748460886044,
        -0.4182266004751631,
        -0.3408866856488894,
        -0.14433496457707434,
        -0.4275861956626906,
        -0.06059112484803454,
        -0.18522166859696715,
        -0.15369457722024782,
        -0.3507389214215436,
        -0.2093595949320788,
        -0.05320196241413002,
        0.19655172932067216,
        0.7881773415213622,
        0.7157635406432515,
        0.5940886641988481,
        0.6290640355255464,
        -0.11330048392994088,
        -0.024137916862230525,
        0.008374393153083701,
        0.10985223181320261,
        0.03743842843382565,
        0.3763546724416139,
        0.17832513158093594,
        0.3059113358756568,
        -0.090640402077045,
        -0.12857141000123637,
        -0.2640393991675029,
        -0.32857142097487707,
        -0.2738916262123339,
        -0.2536945676196424,
        -0.4842364527683052,
        -0.5433497445760873,
        -0.6049261117449194,
        -0.6684729114545003,
        -0.47339900644625815,
        -0.3295566462657762,
        -0.22758620629573365,
        -0.4290640369518003,
        -0.38965515841514253,
        -0.44630541243408833,
        -0.4344827581703511,
        -0.3669950692181031,
        -0.11527092727403195,
        -0.31477830804014023,
        -0.028078816748583948,
        0.32413791866101327,
        0.12019704148828717,
        0.41231527427461717,
        -0.11625616932873718,
        -0.4418719155485047,
        -0.25911329804498207,
        -0.3532019679914215,
        -0.25467980089330633,
        -0.34433496522633905,
        -0.39507389219324357,
        -0.4408866888739264,
        -0.5039408807277169,
        -0.5546797901857573,
        -0.38128078915713537,
        -0.25172413119394754,
        -0.12807882737098297,
        -0.09014778708998443,
        -0.010837439882616835,
        0.38078817342501686,
        0.4689655137117122,
        0.09950739957350258,
        0.1418719288637568,
        0.043349759849778007,
        -0.019211817815228748,
        0.17536946252019844,
        0.18669951126975615,
        0.09655172960805175,
        0.08472907385419857,
        -0.6029556735630159,
        -0.638916266455323,
        -0.4817733987478466,
        -0.3950738968764657,
        -0.5985221698122547,
        -0.6768472945493005,
        -0.6068965552486655,
        -0.5827586158218194,
        -0.5029556559157841,
        -0.5453202025552474,
        -0.4881773495679896,
        -0.6635468065002527,
        -0.6201970525045022,
        -0.13940885238511955,
        0.09852215858316593,
        -0.04285712948259037,
        -0.2211822728248,
        -0.07339900578634986,
        -0.16403941254661694,
        0.24679803071004816,
        0.05615764387476241,
        0.061083752873611154,
        0.0630541849886129,
        0.027586218206019232,
        -0.20591133563085204,
        -0.12463052964604769,
        0.04236453168508367,
        -0.03497536041691924,
        -0.28768473355913543,
        -0.28423645493961763,
        -0.21527093236171396,
        -0.5172413846890763,
        -0.6133004896775313,
        -0.6758620603709232,
        -0.7507389136729393,
        -0.6044334855819877,
        -0.3389162613037789,
        -0.5423645251392161,
        -0.715270938694707,
        -0.661083745561398,
        -0.5463054279525832,
        -0.5581280939243753,
        -0.5497536994940493,
        -0.664039410630753,
        -0.5369458097746925,
        -0.523645327420017,
        -0.39261084136589114,
        -0.7339901463657529,
        -0.5403940875959341,
        -0.2123152698468438,
        0.017733987914863632,
        0.1536945910570403,
        0.034975374892332996,
        0.39950739573113137,
        0.376847292058678,
        0.38866996063817355,
        0.1502463231344276,
        0.10935960724682427,
        0.5655172301215924,
        0.7004926185101199,
        0.6364532037070414,
        0.6665024651833956,
        0.4133004886557374,
        0.38423645486511154,
        0.002463058065059398,
        0.09211823682028747,
        0.24482757448709624,
        0.013793110433470422,
        0.16354679346173706
      ]
    },
    "rank_20d_ic_non_overlapping": {
      "mean_ic": -0.07521788374181183,
      "std_ic": 0.45698899275920624,
      "t_stat": -0.5934539802053651,
      "num_dates": 13,
      "ic_values": [
        0.4261083724678482,
        -0.3778325132517576,
        -0.6886699393401566,
        0.6709359580775969,
        -0.060591124848034576,
        -0.03054186699053376,
        0.19655172932067216,
        -0.5433497445760873,
        -0.3532019679914215,
        0.09655172960805175,
        -0.16403941254661694,
        -0.715270938694707,
        0.5655172301215924
      ]
    },
    "sector_neutral_rank_20d": {
      "mae": 0.2781648635864258,
      "rmse": 0.3358905017375946,
      "bias": 0.14459073543548584,
      "mean_prediction": 0.736350417137146,
      "mean_target": 0.5917597413063049
    },
    "sector_neutral_rank_20d_ic": {
      "mean_ic": 0.10945802460901298,
      "std_ic": 0.3161327596662236,
      "t_stat": 6.614919080520293,
      "num_dates": 365,
      "ic_values": [
        0.8000000044703481,
        0.015451566567830014,
        0.2906563616270614,
        0.25307149831654957,
        0.07057605412591517,
        0.49999999999999967,
