{
  "project": "Aether Quant",
  "phase": "v2_sequence_multitask_horizons_model",
  "version_id": "sequence-only-d649549b-9527-4e55-b61e-cd1e26cf8ca6",
  "status": "trained",
  "trained_at": "2026-07-13T13:07:57.792435+00:00",
  "model": {
    "type": "sequence_multitask_direction_magnitude_volatility_horizons",
    "model_input_features": [
      "close_to_close_return_1d_scaled",
      "close_to_close_return_5d_scaled",
      "close_to_close_return_20d_scaled",
      "rolling_volatility_5d_scaled",
      "rolling_volatility_20d_scaled",
      "momentum_5d_scaled",
      "momentum_20d_scaled",
      "high_low_range_pct_scaled",
      "open_close_range_pct_scaled",
      "volume_change_1d_scaled",
      "rsi_14_scaled",
      "atr_pct_14_scaled",
      "bollinger_pctb_20_scaled",
      "volume_zscore_20_scaled",
      "macd_histogram_norm_scaled",
      "dist_52w_high_scaled",
      "regime_signal_confidence_scaled",
      "regime_signal_trend_score_scaled",
      "regime_signal_risk_score_scaled",
      "liquidity_log_dollar_volume_scaled",
      "liquidity_spread_proxy_scaled",
      "topology_correlation_strength_scaled",
      "peer_rank1_return_1d_scaled",
      "peer_rank2_return_1d_scaled",
      "peer_rank3_return_1d_scaled",
      "peer_mean_return_1d_scaled",
      "cs_momentum_rank_20_scaled",
      "macro_yield_curve_slope_proxy_scaled",
      "macro_credit_spread_proxy_scaled",
      "macro_crypto_risk_appetite_proxy_scaled",
      "bond_yield_curve_level_scaled",
      "bond_yield_curve_slope_scaled",
      "bond_yield_curve_curvature_scaled",
      "bond_credit_spread_level_scaled",
      "bond_empirical_duration_beta_scaled",
      "futures_term_structure_slope_scaled",
      "options_put_call_ratio_scaled",
      "options_implied_vol_skew_scaled",
      "regime_trend_bullish",
      "regime_trend_bearish",
      "regime_trend_sideways",
      "regime_volatility_low",
      "regime_volatility_normal",
      "regime_volatility_high",
      "regime_risk_on",
      "regime_risk_off",
      "regime_risk_neutral",
      "topology_risk_normal",
      "topology_risk_elevated",
      "topology_risk_isolated",
      "asset_AAPL",
      "asset_SPY",
      "asset_QQQ",
      "asset_IWM",
      "asset_EEM",
      "asset_BAC",
      "asset_IBM",
      "asset_AIG",
      "asset_BNO",
      "asset_FB",
      "asset_GOOG",
      "asset_GOOGL",
      "asset_USO",
      "asset_WM",
      "asset_AAA",
      "asset_BTCUSD",
      "asset_ETHUSD",
      "asset_LTCUSD",
      "asset_XRPUSD",
      "asset_ADAUSD",
      "asset_SHY",
      "asset_IEF",
      "asset_TLT",
      "asset_AGG",
      "asset_LQD",
      "asset_HYG",
      "asset_TIP",
      "asset_MBB",
      "asset_EMB",
      "asset_MUB",
      "asset_class_equity",
      "asset_class_crypto",
      "asset_class_bond",
      "asset_class_future",
      "asset_class_option"
    ],
    "window_size": 30,
    "channels": [
      32,
      32
    ],
    "kernel_size": 3,
    "dropout": 0.15,
    "decision_threshold": 0.545
  },
  "export": {
    "trunk": [
      {
        "type": "conv1d_causal",
        "weight_key": "conv_layers.0.weight",
        "bias_key": "conv_layers.0.bias",
        "dilation": 1,
        "in_channels": 85,
        "out_channels": 32,
        "kernel_size": 3
      },
      {
        "type": "relu"
      },
      {
        "type": "dropout",
        "p": 0.15
      },
      {
        "type": "conv1d_causal",
        "weight_key": "conv_layers.1.weight",
        "bias_key": "conv_layers.1.bias",
        "dilation": 2,
        "in_channels": 32,
        "out_channels": 32,
        "kernel_size": 3
      },
      {
        "type": "relu"
      },
      {
        "type": "dropout",
        "p": 0.15
      }
    ],
    "heads": {
      "direction": [
        {
          "type": "linear",
          "weight_key": "head_direction.weight",
          "bias_key": "head_direction.bias",
          "in_features": 32,
          "out_features": 1
        },
        {
          "type": "sigmoid"
        }
      ],
      "magnitude": [
        {
          "type": "linear",
          "weight_key": "head_magnitude.weight",
          "bias_key": "head_magnitude.bias",
          "in_features": 32,
          "out_features": 1
        }
      ],
      "volatility": [
        {
          "type": "linear",
          "weight_key": "head_volatility.weight",
          "bias_key": "head_volatility.bias",
          "in_features": 32,
          "out_features": 1
        },
        {
          "type": "softplus"
        }
      ],
      "direction_5d": [
        {
          "type": "linear",
          "weight_key": "head_direction_5d.weight",
          "bias_key": "head_direction_5d.bias",
          "in_features": 32,
          "out_features": 1
        },
        {
          "type": "sigmoid"
        }
      ],
      "direction_20d": [
        {
          "type": "linear",
          "weight_key": "head_direction_20d.weight",
          "bias_key": "head_direction_20d.bias",
          "in_features": 32,
          "out_features": 1
        },
        {
          "type": "sigmoid"
        }
      ],
      "rank_5d": [
        {
          "type": "linear",
          "weight_key": "head_rank_5d.weight",
          "bias_key": "head_rank_5d.bias",
          "in_features": 32,
          "out_features": 1
        },
        {
          "type": "sigmoid"
        }
      ],
      "rank_20d": [
        {
          "type": "linear",
          "weight_key": "head_rank_20d.weight",
          "bias_key": "head_rank_20d.bias",
          "in_features": 32,
          "out_features": 1
        },
        {
          "type": "sigmoid"
        }
      ],
      "sector_neutral_rank_20d": [
        {
          "type": "linear",
          "weight_key": "head_sector_neutral_rank_20d.weight",
          "bias_key": "head_sector_neutral_rank_20d.bias",
          "in_features": 32,
          "out_features": 1
        },
        {
          "type": "sigmoid"
        }
      ]
    },
    "state_dict": {
      "conv_layers.0.weight": [
        [
          [
            0.04524657502770424,
            0.04141109436750412,
            -0.018630174919962883
          ],
          [
            0.04365699738264084,
            -0.025131095200777054,
            0.0057118539698421955
          ],
          [
            -0.041985440999269485,
            0.025230804458260536,
            0.04340716451406479
          ],
          [
            -0.053714387118816376,
            0.04649830609560013,
            0.006052848882973194
          ],
          [
            0.044515375047922134,
            0.006321841385215521,
            0.02735035866498947
          ],
          [
            -0.022519046440720558,
            0.03668903559446335,
            0.0023401016369462013
          ],
          [
            -0.040735140442848206,
            0.004467371851205826,
            -0.04044276848435402
          ],
          [
            -0.005427354481071234,
            -0.028574304655194283,
            0.034008245915174484
          ],
          [
            -0.060203906148672104,
            -0.031342096626758575,
            -0.014253371395170689
          ],
          [
            -0.0461958646774292,
            -0.0037186958361417055,
            -0.059478312730789185
          ],
          [
            0.06891687959432602,
            -0.03905170038342476,
            0.058702338486909866
          ],
          [
            0.017659863457083702,
            -0.014508790336549282,
            0.04261155053973198
          ],
          [
            0.018765170127153397,
            0.05919395759701729,
            0.015789121389389038
          ],
          [
            -0.012743993662297726,
            0.007273117080330849,
            -0.020254632458090782
          ],
          [
            0.024503584951162338,
            0.05427318438887596,
            0.036390144377946854
          ],
          [
            -0.0580613799393177,
            0.007514844182878733,
            -0.01390280295163393
          ],
          [
            0.0501084066927433,
            -0.020398015156388283,
            -0.04437048360705376
          ],
          [
            -0.036353908479213715,
            -0.05954096093773842,
            0.04006388038396835
          ],
          [
            0.018081966787576675,
            0.030556827783584595,
            0.022709723562002182
          ],
          [
            0.0026300325989723206,
            0.05323377624154091,
            -0.038598909974098206
          ],
          [
            0.012583727017045021,
            -0.035359155386686325,
            0.023364247754216194
          ],
          [
            -0.04328174889087677,
            5.1435385103104636e-05,
            -0.03786550089716911
          ],
          [
            0.04427002742886543,
            -0.05301664397120476,
            -0.03126056492328644
          ],
          [
            -0.03117886558175087,
            0.06321851909160614,
            0.026744669303297997
          ],
          [
            0.04527060687541962,
            -0.056899793446063995,
            -0.04811149463057518
          ],
          [
            -0.061227910220623016,
            -0.05164472013711929,
            0.038298800587654114
          ],
          [
            0.03648393601179123,
            0.06167927756905556,
            -0.021640891209244728
          ],
          [
            -0.040185391902923584,
            0.030656760558485985,
            -0.023948898538947105
          ],
          [
            0.05277550220489502,
            0.003470799420028925,
            0.0528247095644474
          ],
          [
            -0.0504627600312233,
            -0.03375121206045151,
            0.017599470913410187
          ],
          [
            0.05378388985991478,
            0.025930002331733704,
            0.07694219797849655
          ],
          [
            0.03188357874751091,
            -0.05557376891374588,
            -0.045941952615976334
          ],
          [
            0.026578398421406746,
            -0.049656227231025696,
            -0.05280701071023941
          ],
          [
            -0.06659069657325745,
            -0.042911216616630554,
            0.007851092144846916
          ],
          [
            0.0014663690235465765,
            -0.03669281676411629,
            0.0101822130382061
          ],
          [
            -8.936693163263953e-09,
            -5.1956607904912744e-08,
            -1.2128027471192127e-09
          ],
          [
            -7.659195233600258e-08,
            -1.9888477531537774e-09,
            -4.908731625619112e-07
          ],
          [
            3.442392482178036e-10,
            -1.0210279288713764e-09,
            3.9789487260577516e-08
          ],
          [
            -0.026613526046276093,
            -0.003993227146565914,
            0.02784852497279644
          ],
          [
            -0.012666639871895313,
            0.010363335721194744,
            -0.0006817708490416408
          ],
          [
            0.018308186903595924,
            -0.004234554711729288,
            0.013219554908573627
          ],
          [
            -0.030078258365392685,
            -0.03027728945016861,
            -0.02549777179956436
          ],
          [
            0.002601244021207094,
            -0.024556508287787437,
            0.07641530781984329
          ],
          [
            0.004114743787795305,
            0.07052803039550781,
            0.03982715681195259
          ],
          [
            -0.035864997655153275,
            0.06349014490842819,
            0.003142331261187792
          ],
          [
            0.005890010390430689,
            -0.02246277779340744,
            -0.03817477822303772
          ],
          [
            0.0343337282538414,
            -0.0036779791116714478,
            0.03666059672832489
          ],
          [
            -0.027956301346421242,
            0.0702148824930191,
            -0.023860519751906395
          ],
          [
            0.008312889374792576,
            0.033476781100034714,
            0.059403322637081146
          ],
          [
            0.057057399302721024,
            0.06375880539417267,
            -0.04137248173356056
          ],
          [
            0.03593229129910469,
            -0.006138762924820185,
            0.013753097504377365
          ],
          [
            -0.04250149801373482,
            0.057654254138469696,
            -0.04161195084452629
          ],
          [
            0.04338344931602478,
            0.03214702382683754,
            0.03052099421620369
          ],
          [
            -0.026349207386374474,
            0.06137816607952118,
            0.019013304263353348
          ],
          [
            0.026213284581899643,
            -0.03610582649707794,
            0.04412773624062538
          ],
          [
            0.016736654564738274,
            -0.0024065072648227215,
            0.07894892990589142
          ],
          [
            0.024676276370882988,
            -0.023093676194548607,
            -0.02019273117184639
          ],
          [
            0.006495225243270397,
            0.04381852224469185,
            -0.006346766836941242
          ],
          [
            -0.012220799922943115,
            0.0018206484382972121,
            -0.02277708612382412
          ],
          [
            0.05274133011698723,
            0.07988128066062927,
            -0.026151269674301147
          ],
          [
            0.014673479832708836,
            0.03239547833800316,
            0.01173441018909216
          ],
          [
            -0.0024568946100771427,
            0.051553141325712204,
            0.05177256092429161
          ],
          [
            0.018382640555500984,
            -0.014095504768192768,
            -0.019850267097353935
          ],
          [
            0.010604394599795341,
            -0.005433029495179653,
            -0.0128715755417943
          ],
          [
            2.690654810066917e-09,
            6.515303851983845e-08,
            2.4424906541753444e-10
          ],
          [
            0.023376410827040672,
            0.037547994405031204,
            0.03295384719967842
          ],
          [
            0.016033073887228966,
            0.01771601475775242,
            -0.02006552740931511
          ],
          [
            -0.016075797379016876,
            0.05855587497353554,
            0.030746567994356155
          ],
          [
            -0.004838360473513603,
            -0.03562239184975624,
            -0.03469357267022133
          ],
          [
            -0.04844029247760773,
            -0.014452214352786541,
            0.02463487721979618
          ],
          [
            0.021444177255034447,
            0.010898653417825699,
            -0.06977509707212448
          ],
          [
            -0.036910783499479294,
            -0.008954109624028206,
            0.05896267294883728
          ],
          [
            0.02524825930595398,
            0.0013495831517502666,
            0.04287225753068924
          ],
          [
            -0.03197465091943741,
            -0.04771995544433594,
            0.015914013609290123
          ],
          [
            -0.02108481153845787,
            -0.005807305220514536,
            -0.05371594801545143
          ],
          [
            0.03299541026353836,
            0.03832921385765076,
            0.014254465699195862
          ],
          [
            -0.03694618120789528,
            -0.05435330048203468,
            -0.04385000094771385
          ],
          [
            0.02109389752149582,
            0.004954078700393438,
            0.02774483524262905
          ],
          [
            0.05257927253842354,
            0.035963356494903564,
            0.019914310425519943
          ],
          [
            -0.056858129799366,
            -0.06257762759923935,
            -0.06724604964256287
          ],
          [
            0.05008506029844284,
            -0.005822161212563515,
            0.012293048202991486
          ],
          [
            -0.004111196380108595,
            0.01997096836566925,
            -0.01171113271266222
          ],
          [
            -0.04705854132771492,
            0.014962175861001015,
            -0.023934265598654747
          ],
          [
            -2.922818431727592e-09,
            -1.718329922795192e-10,
            1.0588466103911287e-08
          ],
          [
            4.873478287592548e-10,
            1.4028391781550908e-09,
            1.0956561213859572e-09
          ]
        ],
        [
          [
            -0.038794856518507004,
            0.015362225472927094,
            -0.032474253326654434
          ],
          [
            0.030978837981820107,
            0.022245772182941437,
            0.05069010704755783
          ],
          [
            -0.0650472342967987,
            0.02439117431640625,
            -0.04598746821284294
          ],
          [
            -1.3081282304483466e-05,
            0.0394740104675293,
            -0.024498680606484413
          ],
          [
            -0.015118137001991272,
            -0.02883399836719036,
            -0.06518179178237915
          ],
          [
            0.02956247329711914,
            -0.06793422996997833,
            0.04485367238521576
          ],
          [
            0.029322152957320213,
            0.03849663957953453,
            -0.031242016702890396
          ],
          [
            -0.0735427513718605,
            0.010110195726156235,
            0.028066499158740044
          ],
          [
            -0.04206807166337967,
            -0.03623843565583229,
            -0.023424630984663963
          ],
          [
            -0.003411523997783661,
            -0.02028323896229267,
            -0.054702408611774445
          ],
          [
            -0.024789908900856972,
            -0.0733310654759407,
            0.032384563237428665
          ],
          [
            0.036682888865470886,
            -0.025447789579629898,
            -0.02387022040784359
          ],
          [
            -0.03421252220869064,
            -0.06514665484428406,
            -0.06838082522153854
          ],
          [
            0.0133736627176404,
            -0.03696791082620621,
            -0.05314747244119644
          ],
          [
            0.013635899871587753,
            -0.0016638280358165503,
            0.0004073642776347697
          ],
          [
            -0.008263512514531612,
            -0.023580826818943024,
            -0.027934249490499496
          ],
          [
            -0.05517125874757767,
            -0.07654543966054916,
            0.02474314533174038
          ],
          [
            -0.04043619707226753,
            -0.003238343633711338,
            -0.03573907911777496
          ],
          [
            -0.02145635522902012,
            0.033344630151987076,
            0.011381431482732296
          ],
          [
            -0.06104491651058197,
            0.019681492820382118,
            0.052101559937000275
          ],
          [
            0.002584231086075306,
            0.025748349726200104,
            0.04676413908600807
          ],
          [
            -0.01517748087644577,
            -0.0005524734733626246,
            -0.04711113125085831
          ],
          [
            -0.0068559725768864155,
            0.028304316103458405,
            0.053373124450445175
          ],
          [
            -0.02321930043399334,
            -0.049068570137023926,
            -0.023380951955914497
          ],
          [
            -0.03749352693557739,
            -0.03467327356338501,
            -0.004966955631971359
          ],
          [
            0.06131783127784729,
            0.007623974233865738,
            -0.02687721513211727
          ],
          [
            -0.06558562815189362,
            0.011217787861824036,
            -0.06632068008184433
          ],
          [
            0.002213503234088421,
            0.036232560873031616,
            -0.02282859943807125
          ],
          [
            0.003180376486852765,
            0.006112248171120882,
            0.008298746310174465
          ],
          [
            -0.030063018202781677,
            -0.05909142643213272,
            -0.06262033432722092
          ],
          [
            -0.03570232167840004,
            0.059511128813028336,
            -0.027998344972729683
          ],
          [
            -0.06853937357664108,
            -0.008692057803273201,
            -0.002175601664930582
          ],
          [
            0.0008828416466712952,
            0.015937166288495064,
            0.00737046729773283
          ],
          [
            -0.05245460197329521,
            0.013503658585250378,
            0.04424088075757027
          ],
          [
            -0.013241504319012165,
            -0.045801788568496704,
            0.04892309755086899
          ],
          [
            1.5514243223435642e-09,
            2.297539491991074e-09,
            -6.093324600442429e-08
          ],
          [
            8.615419488933185e-11,
            -3.195302356040486e-10,
            1.876231531250383e-10
          ],
          [
            4.3634768021050263e-10,
            2.063028148313606e-08,
            4.568971689877799e-08
          ],
          [
            0.008598766289651394,
            0.07107657194137573,
            0.05482979118824005
          ],
          [
            -0.0130496546626091,
            0.013965493999421597,
            -0.027551965788006783
          ],
          [
            -0.00339848967269063,
            0.03834070265293121,
            0.0651530846953392
          ],
          [
            0.06739353388547897,
            -0.03703512251377106,
            0.06699153780937195
          ],
          [
            -0.011339135468006134,
            0.05237453430891037,
            0.07960575819015503
          ],
          [
            0.011713056825101376,
            0.06958325207233429,
            -0.037997130304574966
          ],
          [
            -0.004119322169572115,
            0.06357114017009735,
            0.022006627172231674
          ],
          [
            0.010408648289740086,
            -0.0034693144261837006,
            0.0601290799677372
          ],
          [
            0.05402426794171333,
            0.03425443172454834,
            -0.021735284477472305
          ],
          [
            -0.01952844113111496,
            0.03564383462071419,
            0.048356011509895325
          ],
          [
            -0.02173379249870777,
            -0.004984709899872541,
            0.06009708344936371
          ],
          [
            0.004484327509999275,
            0.01049054879695177,
            -0.004313053097575903
          ],
          [
            -0.05450097844004631,
            -0.0570029653608799,
            -0.028340179473161697
          ],
          [
            -0.03390636667609215,
            0.016854627057909966,
            -0.01950092986226082
          ],
          [
            -0.00950136873871088,
            0.07321025431156158,
            0.03649279102683067
          ],
          [
            0.06066453084349632,
            -0.012384786270558834,
            -0.006658097263425589
          ],
          [
            0.03049403987824917,
            -0.03352135792374611,
            -0.03282636031508446
          ],
          [
            0.013758932240307331,
            -0.004884915892034769,
            -0.027337564155459404
          ],
          [
            0.042870230972766876,
            0.05592630058526993,
            0.016723258420825005
          ],
          [
            -0.0029613866936415434,
            -0.048471495509147644,
            -0.01326013170182705
          ],
          [
            0.03541885316371918,
            0.04871964454650879,
            0.012536104768514633
          ],
          [
            0.01806313917040825,
            0.07895441353321075,
            -0.004030132666230202
          ],
          [
            0.053369682282209396,
            -0.009279351681470871,
            0.015875564888119698
          ],
          [
            0.0019433967536315322,
            0.021554436534643173,
            -0.004322346765547991
          ],
          [
            0.030081268399953842,
            -0.015549225732684135,
            0.032737478613853455
          ],
          [
            0.07747192680835724,
            -0.01115393452346325,
            -0.024751633405685425
          ],
          [
            -7.003056357035575e-09,
            -1.914044922557423e-08,
            2.155078426824275e-08
          ],
          [
            0.013635830953717232,
            -0.0423864983022213,
            -0.03205959126353264
          ],
          [
            0.03484417870640755,
            0.03734936937689781,
            0.04640083387494087
          ],
          [
            -0.01790199987590313,
            0.05573274940252304,
            0.0078412014991045
          ],
          [
            -0.01719854213297367,
            0.00858587771654129,
            0.01357308030128479
          ],
          [
            0.03301107883453369,
            -0.01742362044751644,
            0.03779906406998634
          ],
          [
            -0.04101914167404175,
            -0.06033117324113846,
            -0.04206552356481552
          ],
          [
            0.06106233224272728,
            0.05470157042145729,
            0.05811166390776634
          ],
          [
            0.05597315728664398,
            0.06811758130788803,
            0.017809106037020683
          ],
          [
            -0.00408059312030673,
            0.06147845461964607,
            0.0005002437974326313
          ],
          [
            -0.03759664297103882,
            -0.015441764146089554,
            0.018440961837768555
          ],
          [
            0.03131617605686188,
            -0.020616471767425537,
            -0.03291121870279312
          ],
          [
            0.03253747150301933,
            -0.009621301665902138,
            -0.012473328039050102
          ],
          [
            0.05174581706523895,
            0.010209910571575165,
            0.07769183069467545
          ],
          [
            0.07264605164527893,
            0.03126602992415428,
            0.034611497074365616
          ],
          [
            0.013379900716245174,
            0.0008779789204709232,
            -0.0043775239028036594
          ],
          [
            0.02373916655778885,
            0.046959687024354935,
            0.08306512981653214
          ],
          [
            0.0030456846579909325,
            -0.00651928735896945,
            0.005060575436800718
          ],
          [
            -0.005742713809013367,
            0.03690185025334358,
            0.07543521374464035
          ],
          [
            -1.9735544753984868e-08,
            -2.113255126445779e-09,
            1.1795394883051813e-08
          ],
          [
            -2.99390734426197e-09,
            6.21176721171679e-12,
            1.8290798042830403e-10
          ]
        ],
        [
          [
            0.0273175910115242,
            -0.057687364518642426,
            0.021727658808231354
          ],
          [
            -0.029587557539343834,
            -0.026141444221138954,
            -0.04062215983867645
          ],
          [
            0.050113823264837265,
            -0.061551958322525024,
            0.044311776757240295
          ],
          [
            -0.012272994965314865,
            -0.019545936957001686,
            0.027838055044412613
          ],
          [
            -0.008281979709863663,
            0.03591568395495415,
            0.04226437583565712
          ],
          [
            -0.03616182506084442,
            0.03736276179552078,
            0.023063236847519875
          ],
          [
            0.00914633646607399,
            0.006661298684775829,
            0.014301959425210953
          ],
          [
            -0.038389284163713455,
            -0.012779896147549152,
            0.052576694637537
          ],
          [
            0.06014217063784599,
            0.0019317584810778499,
            -0.056390952318906784
          ],
          [
            -0.02395952120423317,
            -0.06017064303159714,
            0.047999683767557144
          ],
          [
            -0.02891473099589348,
            0.006113147363066673,
            -0.006544050760567188
          ],
          [
            0.00872709695249796,
            0.05695834383368492,
            0.003178134560585022
          ],
          [
            0.04014931991696358,
            0.06202804297208786,
            0.06149756535887718
          ],
          [
            -0.0386226661503315,
            -0.024379365146160126,
            0.01911192387342453
          ],
          [
            0.0014498457312583923,
            0.049710892140865326,
            0.008125009015202522
          ],
          [
            -0.05274626612663269,
            0.016788294538855553,
            0.0018015167443081737
          ],
          [
            0.022945493459701538,
            0.05917230248451233,
            0.04308399185538292
          ],
          [
            0.057326968759298325,
            0.0021898404229432344,
            -0.0550122894346714
          ],
          [
            -0.05639895424246788,
            -0.04688730835914612,
            -0.06048291549086571
          ],
          [
            -0.048856575042009354,
            -0.07634817808866501,
            -0.07525516301393509
          ],
          [
            -0.030582042410969734,
            -0.05749081075191498,
            -0.036339595913887024
          ],
          [
            0.0201015155762434,
            0.04259449988603592,
            -0.028227923437952995
          ],
          [
            -0.006652506068348885,
            0.02637629769742489,
            -0.039290327578783035
          ],
          [
            -0.007284343708306551,
            0.05301797762513161,
            -0.05471738427877426
          ],
          [
            0.018679538741707802,
            0.07084712386131287,
            -0.0015328801237046719
          ],
          [
            0.03433194011449814,
            -0.029503358528017998,
            -0.008579709567129612
          ],
          [
            0.01988488994538784,
            0.030245939269661903,
            0.04203587397933006
          ],
          [
            0.060300156474113464,
            -0.04171064496040344,
            0.006952840834856033
          ],
          [
            -0.037383001297712326,
            -0.053935322910547256,
            -0.00010511421714909375
          ],
          [
            -0.05661127343773842,
            0.03991615027189255,
            -0.0011093617649748921
          ],
          [
            -0.04349999129772186,
            0.024405455216765404,
            -0.06469269841909409
          ],
          [
            -0.041112326085567474,
            -0.027864519506692886,
            -0.06682520359754562
          ],
          [
            -0.07464239746332169,
            -0.042615022510290146,
            0.016380293294787407
          ],
          [
            0.07578691095113754,
            0.05365334451198578,
            -0.025163879618048668
          ],
          [
            -0.02275310456752777,
            0.07259991019964218,
            0.04043164476752281
          ],
          [
            -1.4809937998183642e-11,
            -1.7353871117897768e-10,
            5.713452821964893e-09
          ],
          [
            -1.2603603716243583e-09,
            -2.2525635756664997e-07,
            6.74993227978149e-10
          ],
          [
            -1.0186990140326202e-10,
            -2.6715696321844007e-08,
            3.879259691252912e-10
          ],
          [
            0.02422627992928028,
            -0.008157579228281975,
            0.02894311025738716
          ],
          [
            0.04757410287857056,
            -0.03744816780090332,
            0.04387625679373741
          ],
          [
            -0.006063871085643768,
            0.001823946600779891,
            0.05190447345376015
          ],
          [
            0.07102885842323303,
            0.0032930097077041864,
            -0.006012499798089266
          ],
          [
            -0.020159723237156868,
            0.0068898070603609085,
            -0.01525627076625824
          ],
          [
            0.02626882493495941,
            0.050480540841817856,
            -0.016545547172427177
          ],
          [
            0.08549466729164124,
            0.07060020416975021,
            -0.026911424472928047
          ],
          [
            -0.012809495441615582,
            0.03879367560148239,
            0.008246848359704018
          ],
          [
            0.030140221118927002,
            0.008327323012053967,
            0.07391101121902466
          ],
          [
            -0.005745656788349152,
            0.07968068867921829,
            0.03149614855647087
          ],
          [
            0.048044316470623016,
            0.0845702663064003,
            0.03219824656844139
          ],
          [
            -0.012004983611404896,
            0.020485537126660347,
            0.08150580525398254
          ],
          [
            -0.022230150178074837,
            0.03770466521382332,
            -0.037125226110219955
          ],
          [
            0.030277952551841736,
            0.020862232893705368,
            0.0008924439316615462
          ],
          [
            0.0373913012444973,
            0.010898751206696033,
            0.04507531598210335
          ],
          [
            -0.04049132391810417,
            -0.0006694793119095266,
            0.03443275764584541
          ],
          [
            0.0891571119427681,
            0.059022147208452225,
            -0.016208261251449585
          ],
          [
            0.0642578974366188,
            0.004140544682741165,
            0.005398555193096399
          ],
          [
            -0.03248843550682068,
            0.013826913200318813,
            0.06793034076690674
          ],
          [
            0.028165025636553764,
            -0.015228870324790478,
            0.03929169476032257
          ],
          [
            0.0023112234193831682,
            0.07889724522829056,
            -0.03164945915341377
          ],
          [
            -0.0003158661420457065,
            -0.04044221341609955,
            -0.0051299952901899815
          ],
          [
            0.0567023903131485,
            0.09650637209415436,
            0.04754755273461342
          ],
          [
            0.09935260564088821,
            0.050685297697782516,
            0.07476365566253662
          ],
          [
            0.04601604491472244,
            0.04814336448907852,
            -0.037266552448272705
          ],
          [
            0.0848364382982254,
            0.06587053090333939,
            0.00012504089681897312
          ],
          [
            2.1299570995836348e-09,
            -3.865021724891449e-08,
            -8.522441086178389e-10
          ],
          [
            -0.012001223862171173,
            0.06430400907993317,
            0.057337451726198196
          ],
          [
            0.0011977641843259335,
            0.02074665017426014,
            0.01633082889020443
          ],
          [
            0.05367932841181755,
            0.06116136908531189,
            -0.03584671393036842
          ],
          [
            0.05547593533992767,
            0.052245382219552994,
            0.026726076379418373
          ],
          [
            -0.023193981498479843,
            0.008798956871032715,
            0.01187403779476881
          ],
          [
            -0.028673283755779266,
            0.02239127829670906,
            0.010021396912634373
          ],
          [
            0.056232914328575134,
            -0.015857746824622154,
            0.02807900309562683
          ],
          [
            0.04075825586915016,
            -0.03257906064391136,
            -0.041060179471969604
          ],
          [
            -0.01650308445096016,
            0.05765930190682411,
            -0.04254459962248802
          ],
          [
            -0.03646891191601753,
            0.05076714977622032,
            0.04948887974023819
          ],
          [
            0.0716564729809761,
            -0.02584713138639927,
            -0.024422964081168175
          ],
          [
            0.04100050404667854,
            0.06303378194570541,
            0.046273499727249146
          ],
          [
            0.008676134981215,
            0.02050226368010044,
            0.05993464216589928
          ],
          [
            -0.007652681320905685,
            0.004167672712355852,
            0.07540679723024368
          ],
          [
            -0.025502583011984825,
            -0.01625036634504795,
            0.06389117240905762
          ],
          [
            0.050011277198791504,
            0.05047314986586571,
            0.004393695387989283
          ],
          [
            0.04613560810685158,
            0.10457304120063782,
            0.010339288972318172
          ],
          [
            0.018262557685375214,
            0.048085685819387436,
            -0.024300506338477135
          ],
          [
            -2.8890764269817737e-07,
            -7.410876357027973e-10,
            1.405696392620115e-11
          ],
          [
            -7.671570600997768e-10,
            -6.046658285185913e-09,
            3.651356053069321e-07
          ]
        ],
        [
          [
            0.03644050657749176,
            0.02159181796014309,
            -0.06371165812015533
          ],
          [
            -0.04095400869846344,
            0.05977178364992142,
            0.018119841814041138
          ],
          [
            0.025560127571225166,
            -0.035165935754776,
            -0.027157902717590332
          ],
          [
            -0.03174242004752159,
            -0.03421075642108917,
            -0.07039292901754379
          ],
          [
            -0.014549385756254196,
            -0.01565469056367874,
            -0.03326787054538727
          ],
          [
            0.007824636064469814,
            -0.02655855007469654,
            0.010512610897421837
          ],
          [
            0.024058641865849495,
            -0.030708879232406616,
            -0.06161816045641899
          ],
          [
            0.01446097157895565,
            -0.0033992782700806856,
            -0.06461386382579803
          ],
          [
            0.07054414600133896,
            -0.027609938755631447,
            0.026432638987898827
          ],
          [
            0.004915315192192793,
            -0.06384266912937164,
            0.01431505661457777
          ],
          [
            -0.03473854064941406,
            -0.009040476754307747,
            0.003960779402405024
          ],
          [
            -0.05734846368432045,
            0.043611079454422,
            -0.035102199763059616
          ],
          [
            0.017470290884375572,
            -0.05685282126069069,
            0.02307397499680519
          ],
          [
            -0.02529769018292427,
            -0.04717707261443138,
            -0.006849511060863733
          ],
          [
            0.04784431308507919,
            0.07168884575366974,
            -0.024562371894717216
          ],
          [
            -0.011826764792203903,
            0.033408068120479584,
            0.0397469699382782
          ],
          [
            0.009453198872506618,
            0.021997809410095215,
            -0.022465839982032776
          ],
          [
            0.03508520871400833,
            0.04765654355287552,
            -0.017347540706396103
          ],
          [
            0.058940473943948746,
            0.05251754820346832,
            0.06893996149301529
          ],
          [
            -0.034747328609228134,
            -0.02917649783194065,
            -0.019489489495754242
          ],
          [
            0.0019637406803667545,
            0.03440682217478752,
            -0.040979769080877304
          ],
          [
            0.020829129964113235,
            -0.04051591455936432,
            0.01254507526755333
          ],
          [
            -0.019179724156856537,
            -0.060850854963064194,
            -0.04021060839295387
          ],
          [
            -0.06453581899404526,
            0.030329911038279533,
            -0.0594349279999733
          ],
          [
            -0.02816953882575035,
            0.022467393428087234,
            -0.06289760768413544
          ],
          [
            -0.0068643707782030106,
            -0.06146680563688278,
            -0.06183334439992905
          ],
          [
            -0.03219671547412872,
            0.0029332314152270555,
            -0.0037398540880531073
          ],
          [
            0.0038562368135899305,
            -0.014622699469327927,
            0.028113415464758873
          ],
          [
            0.06292644888162613,
            0.028408901765942574,
            -0.021138321608304977
          ],
          [
            -0.05896080285310745,
            0.01752985641360283,
            -0.038995660841464996
          ],
          [
            0.05518152937293053,
            0.06544844061136246,
            0.04958184435963631
          ],
          [
            0.07160282135009766,
            0.07346657663583755,
            0.030275840312242508
          ],
          [
            -0.03429962694644928,
            0.06808431446552277,
            -0.015442293137311935
          ],
          [
            -0.018946347758173943,
            0.06251809746026993,
            0.05738681182265282
          ],
          [
            -0.00453929603099823,
            -0.020940693095326424,
            -0.0779169425368309
          ],
          [
            -4.8756908233027474e-11,
            -2.0016172186387848e-07,
            -7.714751615317539e-10
          ],
          [
            -8.178320520801918e-11,
            5.818625581355263e-10,
            -5.964942983993637e-10
          ],
          [
            -5.1523407762488205e-09,
            -9.578301346513385e-11,
            5.779021705620835e-09
          ],
          [
            -0.00024626243975944817,
            0.04257446154952049,
            0.04019910469651222
          ],
          [
            0.0055570416152477264,
            0.028886953368782997,
            0.03992991894483566
          ],
          [
            0.08619768172502518,
            0.07730381935834885,
            0.01237935945391655
          ],
          [
            -0.02893010340631008,
            0.035021595656871796,
            0.02581104449927807
          ],
          [
            -0.007849550805985928,
            -0.0006147741805762053,
            0.012556289322674274
          ],
          [
            0.056893348693847656,
            0.032123368233442307,
            -0.00853055901825428
          ],
          [
            0.0004427383828442544,
            0.012796686962246895,
            0.0034340093843638897
          ],
          [
            0.044565580785274506,
            0.01863911934196949,
            0.04758055880665779
          ],
          [
            0.015858210623264313,
            0.025917358696460724,
            0.03906765952706337
          ],
          [
            -0.03938040882349014,
            0.023447053506970406,
            0.013334968127310276
          ],
          [
            -0.02171824313700199,
            -0.03153057396411896,
            0.06867588311433792
          ],
          [
            0.06105763092637062,
            0.04496123641729355,
            0.08353383094072342
          ],
          [
            -0.00498083233833313,
            0.009016377851366997,
            0.04319203272461891
          ],
          [
            -0.0022894288413226604,
            -0.0042420970275998116,
            -0.04265869781374931
          ],
          [
            0.026406675577163696,
            -0.027623774483799934,
            0.012497481890022755
          ],
          [
            0.05162043869495392,
            -0.026931894943118095,
            -0.02708256058394909
          ],
          [
            0.035147521644830704,
            -0.025272032245993614,
            -0.008117279037833214
          ],
          [
            0.04518608748912811,
            -0.03626805916428566,
            -0.05475405603647232
          ],
          [
            -0.02930619940161705,
            -0.012053939513862133,
            -0.023905688896775246
          ],
          [
            -0.031547270715236664,
            0.025379803031682968,
            0.01104673370718956
          ],
          [
            -0.0416780486702919,
            -0.070273257791996,
            -0.04174173250794411
          ],
          [
            0.009242652915418148,
            0.01570647954940796,
            -0.019307557493448257
          ],
          [
            0.04163307324051857,
            -0.017534933984279633,
            -0.019764762371778488
          ],
          [
            -0.0020710041280835867,
            0.07438331097364426,
            0.01130560040473938
          ],
          [
            -0.05853768810629845,
            0.014191589318215847,
            -0.0016772745875641704
          ],
          [
            0.058510106056928635,
            -0.03539663553237915,
            -0.020376116037368774
          ],
          [
            1.498051349635432e-09,
            2.083236871897043e-08,
            -1.4224102451443343e-10
          ],
          [
            -0.00989338755607605,
            0.036229558289051056,
            -0.012661715969443321
          ],
          [
            0.015661589801311493,
            0.015647871419787407,
            0.027500344440340996
          ],
          [
            0.021992230787873268,
            -0.004113982431590557,
            0.013835107907652855
          ],
          [
            0.013153400272130966,
            0.012262191623449326,
            0.024043552577495575
          ],
          [
            -0.012993794865906239,
            -0.012990358285605907,
            -0.010855229571461678
          ],
          [
            -0.026143062859773636,
            -0.04047539830207825,
            0.023256151005625725
          ],
          [
            0.06920015066862106,
            0.0812402218580246,
            0.038465581834316254
          ],
          [
            0.004530834499746561,
            0.05533976852893829,
            0.07755325734615326
          ],
          [
            -0.04129933565855026,
            0.01288344245404005,
            -0.020457163453102112
          ],
          [
            0.021811211481690407,
            0.03669505566358566,
            -0.0010793046094477177
          ],
          [
            -0.004088232759386301,
            0.026159025728702545,
            -0.00932406634092331
          ],
          [
            -0.04272238910198212,
            0.059614673256874084,
            -0.020576266571879387
          ],
          [
            -0.004118843004107475,
            0.00955296028405428,
            0.0013809637166559696
          ],
          [
            -0.029474876821041107,
            0.05707775801420212,
            0.00018083499162457883
          ],
          [
            -0.015192759223282337,
            0.03226374462246895,
            -0.013803350739181042
          ],
          [
            -0.022925404831767082,
            -0.015087675303220749,
            -0.0166159700602293
          ],
          [
            0.006044513545930386,
            0.01476309634745121,
            0.048937372863292694
          ],
          [
            -0.029374035075306892,
            -0.015088917687535286,
            0.02517908439040184
          ],
          [
            2.7156549231577287e-10,
            9.32899535399656e-10,
            -4.339894665861266e-09
          ],
          [
            -1.6469492436499422e-11,
            -2.120007058792339e-09,
            3.9802622309181857e-10
          ]
        ],
        [
          [
            -0.057170771062374115,
            -0.03500381112098694,
            -0.052001114934682846
          ],
          [
            -0.0435556061565876,
            0.020375123247504234,
            -0.01761161908507347
          ],
          [
            0.018444862216711044,
            -0.04513932019472122,
            0.0009388751350343227
          ],
          [
            -0.049885571002960205,
            0.018091963604092598,
            -0.0316254086792469
          ],
          [
            -0.018818585202097893,
            -0.05883343145251274,
            -0.003978932276368141
          ],
          [
            0.05524455010890961,
            0.01590420864522457,
            -0.041597310453653336
          ],
          [
            -0.007234180346131325,
            -0.015336133539676666,
            -0.05880787596106529
          ],
          [
            0.045012760907411575,
            -0.001377581269480288,
            0.014890567399561405
          ],
          [
            -0.02542511560022831,
            -0.036683790385723114,
            0.021031083539128304
          ],
          [
            0.008063619956374168,
            0.008106794208288193,
            -0.03590550273656845
          ],
          [
            0.0620102621614933,
            -0.006373581942170858,
            -0.037587422877550125
          ],
          [
            -0.02733282372355461,
            0.06151467561721802,
            -0.0012016833061352372
          ],
          [
            -0.004658381920307875,
            -0.01938069425523281,
            -0.021976040676236153
          ],
          [
            -0.058369752019643784,
            -0.054427895694971085,
            0.027993706986308098
          ],
          [
            0.054319173097610474,
            0.061971645802259445,
            -0.043282732367515564
          ],
          [
            0.014156579039990902,
            -0.0578225813806057,
            0.0174774918705225
          ],
          [
            0.025666162371635437,
            0.03168960288167,
            0.028993777930736542
          ],
          [
            0.030916061252355576,
            -0.00775502622127533,
            0.0206434465944767
          ],
          [
            -0.033710137009620667,
            0.02144051156938076,
            -0.027620434761047363
          ],
          [
            0.0006476343842223287,
            -0.05297587811946869,
            -0.01545457448810339
          ],
          [
            -0.0316319577395916,
            -0.019532889127731323,
            -0.0397772453725338
          ],
          [
            -0.05767905339598656,
            -0.004338358994573355,
            0.04119313508272171
          ],
          [
            0.057670969516038895,
            0.025966038927435875,
            -0.033602334558963776
          ],
          [
            -0.0597921684384346,
            0.019666582345962524,
            0.025334421545267105
          ],
          [
            -0.057605791836977005,
            0.02253538742661476,
            0.03919888660311699
          ],
          [
            0.00258329464122653,
            -0.045156292617321014,
            0.04104829952120781
          ],
          [
            0.02944974973797798,
            0.03712944686412811,
            -0.0428071990609169
          ],
          [
            0.044375184923410416,
            -0.0364413857460022,
            0.06428594887256622
          ],
          [
            -0.018624667078256607,
            0.043828222900629044,
            0.021418346092104912
          ],
          [
            0.0034428660292178392,
            -0.026613397523760796,
            0.008736234158277512
          ],
          [
            -0.0005033944034948945,
            -0.03138134256005287,
            0.006045048590749502
          ],
          [
            0.04706278070807457,
            -0.01605427823960781,
            0.02444775402545929
          ],
          [
            -0.030739614740014076,
            0.04413045197725296,
            0.038481079041957855
          ],
          [
            0.02281750738620758,
            -0.03216853737831116,
            -0.05274753272533417
          ],
          [
            0.0016900624614208937,
            -0.037641603499650955,
            0.04999670386314392
          ],
          [
            2.133716918706341e-07,
            -8.168901111105242e-10,
            -4.745490400637209e-07
          ],
          [
            9.278799950607208e-10,
            1.202019261903331e-09,
            2.2183462533575948e-07
          ],
          [
            -2.1999717603193858e-07,
            -6.684366948839227e-11,
            4.829260547012382e-08
          ],
          [
            0.07354503870010376,
            -0.006782874930649996,
            0.01819603331387043
          ],
          [
            0.08142919093370438,
            -0.022068023681640625,
            -0.019383076578378677
          ],
          [
            0.05325164273381233,
            0.03412532061338425,
            0.053980935364961624
          ],
          [
            -0.029544664546847343,
            0.02659147046506405,
            -0.005130081903189421
          ],
          [
            0.0074918074533343315,
            -0.01782413385808468,
            0.07702194899320602
          ],
          [
            0.0371929295361042,
            -0.026276275515556335,
            0.07950722426176071
          ],
          [
            0.05228636413812637,
            0.049302324652671814,
            0.0014610977377742529
          ],
          [
            0.035196635872125626,
            0.08731942623853683,
            0.07205724716186523
          ],
          [
            -0.02353435382246971,
            0.06860589236021042,
            0.01826971210539341
          ],
          [
            0.06342875212430954,
            0.08098409324884415,
            0.0857648029923439
          ],
          [
            -0.02256697788834572,
            0.08305468410253525,
            -0.00794993620365858
          ],
          [
            0.023529257625341415,
            -0.017656752839684486,
            0.013154747895896435
          ],
          [
            0.006687925197184086,
            0.0020761836785823107,
            -0.00033319267095066607
          ],
          [
            0.011263946071267128,
            0.06738985329866409,
            0.04287174716591835
          ],
          [
            0.046119265258312225,
            0.03638051077723503,
            0.059195250272750854
          ],
          [
            0.010853241197764874,
            0.01889399252831936,
            0.02685142494738102
          ],
          [
            -0.0383487343788147,
            -0.034062135964632034,
            0.023733465000987053
          ],
          [
            -0.008034114725887775,
            0.015825575217604637,
            0.003762156004086137
          ],
          [
            0.004896556492894888,
            0.03562087565660477,
            -0.02456405572593212
          ],
          [
            0.05958196520805359,
            0.05929286777973175,
            -0.03736172989010811
          ],
          [
            -0.03933088853955269,
            -0.04131018742918968,
            -0.02489032968878746
          ],
          [
            0.00503134960308671,
            0.024493340402841568,
            0.013999844901263714
          ],
          [
            -0.00545343616977334,
            0.007031307555735111,
            0.0047732568345963955
          ],
          [
            0.08365970849990845,
            0.00010539159848121926,
            -0.021104058250784874
          ],
          [
            0.013130046427249908,
            -0.014708624221384525,
            0.03520617261528969
          ],
          [
            0.04614247381687164,
            0.06478866934776306,
            -0.037170182913541794
          ],
          [
            3.7224991977780064e-09,
            3.934727033083618e-08,
            1.4846382456745744e-10
          ],
          [
            0.08452340215444565,
            0.07385382801294327,
            0.028027180582284927
          ],
          [
            0.028262585401535034,
            0.01461676973849535,
            -0.034450992941856384
          ],
          [
            0.038322631269693375,
            0.041170667856931686,
            -0.017667531967163086
          ],
          [
            0.03124549426138401,
            -0.0361592136323452,
            0.05808596685528755
          ],
          [
            0.05013688653707504,
            0.01110704056918621,
            -0.019812148064374924
          ],
          [
            0.022031953558325768,
            0.002975994721055031,
            0.010188024491071701
          ],
          [
            0.032149385660886765,
            0.05972069874405861,
            -0.013212200254201889
          ],
          [
            -0.004582946188747883,
            0.026211893185973167,
            0.016173500567674637
          ],
          [
            0.07331399619579315,
            -0.0077882311306893826,
            0.023572370409965515
          ],
          [
            0.026301132515072823,
            -0.00015023484593257308,
            0.05944075435400009
          ],
          [
            0.015461431816220284,
            -0.04769298434257507,
            0.002809821395203471
          ],
          [
            -0.01908128149807453,
            0.016032326966524124,
            0.0035750516690313816
          ],
          [
            -0.05266740918159485,
            -0.0015704373363405466,
            0.004336669109761715
          ],
          [
            -0.014917412772774696,
            0.06027417629957199,
            -0.009775676764547825
          ],
          [
            0.045716557651758194,
            0.02070733532309532,
            -0.04581240192055702
          ],
          [
            0.04135206341743469,
            0.07926271855831146,
            -0.012622750364243984
          ],
          [
            -0.005732749123126268,
            0.0959780365228653,
            0.08525159955024719
          ],
          [
            -0.009227418340742588,
            0.06487856060266495,
            0.021005084738135338
          ],
          [
            3.9958987940735824e-07,
            -2.5877369691507113e-11,
            4.332827152619956e-10
          ],
          [
            1.0055134502806595e-09,
            6.880654934704467e-10,
            -6.036113830987233e-08
          ]
        ],
        [
          [
            0.036461204290390015,
            0.03757218271493912,
            0.04157354310154915
          ],
          [
            -0.001211398048326373,
            0.0062322053126990795,
            -0.05256611108779907
          ],
          [
            -0.0128082986921072,
            -0.00743517093360424,
            -0.03302844613790512
          ],
          [
            -0.05355755612254143,
            0.02951671928167343,
            0.025352930650115013
          ],
          [
            -0.06751040369272232,
            0.00790817104279995,
            0.012105943635106087
          ],
          [
            0.04746519774198532,
            0.02177644707262516,
            0.04989917576313019
          ],
          [
            -0.01763533055782318,
            0.04212762787938118,
            0.05231581628322601
          ],
          [
            -0.07096405327320099,
            -0.05771644413471222,
            -0.0020486051216721535
          ],
          [
            0.022679271176457405,
            -0.040860410779714584,
            0.0055031199008226395
          ],
          [
            -0.01660062186419964,
            0.016760824248194695,
            -0.045349929481744766
          ],
          [
            0.03793534263968468,
            0.043023329228162766,
            -0.039265990257263184
          ],
          [
            -0.007753319572657347,
            -0.009640506468713284,
            0.005277268588542938
          ],
          [
            0.043346092104911804,
            0.006200173404067755,
            -0.01483107265084982
          ],
          [
            0.04808031767606735,
            -0.0207839235663414,
            -0.00644560344517231
          ],
          [
            0.03120267018675804,
            -0.026563094928860664,
            0.023614421486854553
          ],
          [
            -0.047683920711278915,
            0.001442952430807054,
            0.0038108662702143192
          ],
          [
            -0.00999735202640295,
            -0.07110519707202911,
            -0.0636526346206665
          ],
          [
            0.028771447017788887,
            0.04957301914691925,
            -0.05480886623263359
          ],
          [
            0.025241980329155922,
            -0.04988402500748634,
            0.007495667319744825
          ],
          [
            0.06507138162851334,
            0.056900329887866974,
            -0.037311188876628876
          ],
          [
            0.030892180278897285,
            0.0221256073564291,
            -0.014784137718379498
          ],
          [
            0.04651035740971565,
            -0.04136715456843376,
            -0.03511561080813408
          ],
          [
            -0.04323752596974373,
            -0.001544344355352223,
            0.019944587722420692
          ],
          [
            -0.008165031671524048,
            -0.042982641607522964,
            -0.01233915239572525
          ],
          [
            0.010245711542665958,
            -0.04313085600733757,
            0.0037066005170345306
          ],
          [
            -0.018250063061714172,
            -0.030822258442640305,
            0.03247777372598648
          ],
          [
            0.019429152831435204,
            0.05594636872410774,
            0.014235074631869793
          ],
          [
            -0.03283354640007019,
            0.055650535970926285,
            0.0214223712682724
          ],
          [
            -0.01544959470629692,
            -0.04052681475877762,
            0.022319382056593895
          ],
          [
            -0.07852853089570999,
            -0.005832749418914318,
            0.005859631113708019
          ],
          [
            -0.0633280947804451,
            -0.05061586946249008,
            -0.053111765533685684
          ],
          [
            0.06492222845554352,
            0.06623620539903641,
            0.020261578261852264
          ],
          [
            0.05032509192824364,
            -0.027264093980193138,
            -0.06486403942108154
          ],
          [
            0.04147278144955635,
            0.04114754498004913,
            0.07958459109067917
          ],
          [
            0.0037569249980151653,
            0.051320262253284454,
            0.040854375809431076
          ],
          [
            -5.459261487317235e-09,
            4.4467864768193976e-07,
            1.7253279693818513e-08
          ],
          [
            -5.7158857202921354e-08,
            6.824000564620292e-08,
            -1.322938980585775e-11
          ],
          [
            -7.643505028909203e-08,
            9.396591282850864e-10,
            2.028979623203142e-10
          ],
          [
            -0.03539113700389862,
            0.00039066001772880554,
            0.03823687136173248
          ],
          [
            0.053214214742183685,
            -0.002308869268745184,
            0.05731293931603432
          ],
          [
            0.04856542870402336,
            0.038147229701280594,
            0.042636439204216
          ],
          [
            -0.006832942366600037,
            -0.019159525632858276,
            0.015054242685437202
          ],
          [
            -0.03738817200064659,
            -0.005139163229614496,
            0.027290349826216698
          ],
          [
            -0.01906546950340271,
            -0.004785057157278061,
            0.011377358809113503
          ],
          [
            0.028937259688973427,
            0.004527915734797716,
            0.047572121024131775
          ],
          [
            -0.009940886870026588,
            0.028848566114902496,
            0.015494425781071186
          ],
          [
            -0.004843463189899921,
            -0.008119448088109493,
            0.0012189701665192842
          ],
          [
            -0.01203001569956541,
            0.03132718801498413,
            0.021248118951916695
          ],
          [
            0.035104382783174515,
            0.03195734694600105,
            0.06568718701601028
          ],
          [
            0.03195512667298317,
            -0.007707982324063778,
            0.07245348393917084
          ],
          [
            -0.04054175317287445,
            -0.007250485476106405,
            -0.018733767792582512
          ],
          [
            -0.037026602774858475,
            -0.03605107218027115,
            0.043647147715091705
          ],
          [
            0.05100829526782036,
            0.0330563560128212,
            0.07412431389093399
          ],
          [
            -0.03476531058549881,
            0.030153097584843636,
            0.060211312025785446
          ],
          [
            0.051993854343891144,
            -0.03870217874646187,
            0.032826017588377
          ],
          [
            -0.03284040465950966,
            3.138488682452589e-05,
            -0.00969734601676464
          ],
          [
            -0.030662206932902336,
            -0.0380060076713562,
            -0.019333044067025185
          ],
          [
            0.05237114056944847,
            0.05338641256093979,
            -0.02809716761112213
          ],
          [
            -0.03972337767481804,
            -0.016987251117825508,
            -0.06979075074195862
          ],
          [
            0.07241923362016678,
            0.09440839290618896,
            0.04962106794118881
          ],
          [
            -0.01707468368113041,
            0.04339540749788284,
            0.05186176672577858
          ],
          [
            0.09263753890991211,
            0.010770481079816818,
            -0.011772154830396175
          ],
          [
            -0.001787362853065133,
            -0.025212448090314865,
            -0.048045702278614044
          ],
          [
            -0.006895901169627905,
            -0.012707178480923176,
            0.07017944008111954
          ],
          [
            1.1518605513849423e-10,
            -4.130990216566488e-09,
            7.23254913737037e-08
          ],
          [
            0.03708844631910324,
            0.042117051780223846,
            0.024733083322644234
          ],
          [
            -0.004942522384226322,
            -0.01779392547905445,
            -0.008441383950412273
          ],
          [
            0.004140813834965229,
            0.042666323482990265,
            0.014482982456684113
          ],
          [
            -0.021460287272930145,
            -0.007980027236044407,
            0.01703271083533764
          ],
          [
            -0.0220986045897007,
            -0.01965729333460331,
            -0.0041365427896380424
          ],
          [
            -0.03307407349348068,
            0.013709992170333862,
            0.03182070329785347
          ],
          [
            0.021467678248882294,
            0.08698544651269913,
            0.004757544491440058
          ],
          [
            -0.003285607323050499,
            0.0035058334469795227,
            -0.01032619271427393
          ],
          [
            -0.008656244724988937,
            -0.01952357031404972,
            -0.019100412726402283
          ],
          [
            0.028650524094700813,
            0.05074619501829147,
            0.07188960909843445
          ],
          [
            0.06111590936779976,
            0.005201142281293869,
            0.020736584439873695
          ],
          [
            -0.034736622124910355,
            0.025868965312838554,
            -0.054576072841882706
          ],
          [
            0.037384260445833206,
            0.020222429186105728,
            0.028794988989830017
          ],
          [
            0.052785251289606094,
            0.0017239894950762391,
            0.08293803781270981
          ],
          [
            0.04074840247631073,
            0.052231837064027786,
            0.020897362381219864
          ],
          [
            0.06126254051923752,
            0.0645657479763031,
            0.05174011364579201
          ],
          [
            0.07594260573387146,
            0.01733011193573475,
            0.06961537897586823
          ],
          [
            0.04676287993788719,
            0.0713074803352356,
            0.09634901583194733
          ],
          [
            6.558054099770061e-10,
            1.509769420593443e-09,
            2.698915535503943e-10
          ],
          [
            7.685126424128441e-10,
            3.3368025009750113e-10,
            -9.121778332676911e-10
          ]
        ],
        [
          [
            0.033953990787267685,
            0.027672311291098595,
            -0.03607594966888428
          ],
          [
            -0.01957358419895172,
            -0.01978369429707527,
            -0.03798774629831314
          ],
          [
            0.007656767964363098,
            -0.02203657105565071,
            -0.03427399322390556
          ],
          [
            -0.04318760707974434,
            -0.04726209491491318,
            0.03894142806529999
          ],
          [
            0.00359259732067585,
            0.04046173766255379,
            -0.0038425300735980272
          ],
          [
            -0.00042961793951690197,
            0.011740834452211857,
            0.011662449687719345
          ],
          [
            -0.04991054907441139,
            -0.03962043300271034,
            -0.017340004444122314
          ],
          [
            -0.020448140799999237,
            0.002843027003109455,
            0.00936442706733942
          ],
          [
            0.028403528034687042,
            -0.00205341842956841,
            -0.016021445393562317
          ],
          [
            -0.03743583709001541,
            -0.04477370157837868,
            -0.04059687629342079
          ],
          [
            0.006442982237786055,
            0.015868501737713814,
            0.033871013671159744
          ],
          [
            -0.04324936494231224,
            -0.03104972653090954,
            -0.043848201632499695
          ],
          [
            -0.01926160417497158,
            0.003096153726801276,
            -0.02157336287200451
          ],
          [
            -0.006934724748134613,
            -0.013458038680255413,
            -0.00452486053109169
          ],
          [
            -0.018638499081134796,
            -0.03891218081116676,
            0.011031467467546463
          ],
          [
            0.0014368355041369796,
            -0.01906164549291134,
            0.03663694113492966
          ],
          [
            0.0014829247957095504,
            -0.015851257368922234,
            -0.03555275499820709
          ],
          [
            -0.01254267431795597,
            -0.05845485255122185,
            0.011338301934301853
          ],
          [
            0.0005075833760201931,
            0.034444671124219894,
            -0.0004324248293414712
          ],
          [
            -0.025079699233174324,
            -0.013258888386189938,
            0.012463302351534367
          ],
          [
            -0.04583622142672539,
            0.02049744687974453,
            -0.0037358140107244253
          ],
          [
            -0.02537454292178154,
            0.036417972296476364,
            -0.027719194069504738
          ],
          [
            -0.03909601271152496,
            -0.030560532584786415,
            -0.043577734380960464
          ],
          [
            0.05178580805659294,
            -0.0546497143805027,
            0.043136268854141235
          ],
          [
            -0.037287186831235886,
            -0.014783760532736778,
            0.006104025058448315
          ],
          [
            0.03881916403770447,
            -0.025926213711500168,
            0.022552769631147385
          ],
          [
            0.008151683956384659,
            0.028921041637659073,
            -0.0015910982619971037
          ],
          [
            0.034965235739946365,
            -0.02339339628815651,
            -0.03185204416513443
          ],
          [
            0.03775123879313469,
            -0.06655588001012802,
            -0.0328277051448822
          ],
          [
            0.012185750529170036,
            0.07225224375724792,
            -0.0076718637719750404
          ],
          [
            0.004355463199317455,
            0.03452014550566673,
            0.08158960193395615
          ],
          [
            0.03614816442131996,
            0.064146988093853,
            0.001189492759294808
          ],
          [
            0.05291387811303139,
            -0.03399086743593216,
            0.0466918870806694
          ],
          [
            0.024830404669046402,
            0.036826666444540024,
            -0.03949544578790665
          ],
          [
            -0.032584886997938156,
            -0.0023774541914463043,
            -0.06256891041994095
          ],
          [
            1.2562367146529141e-08,
            2.2107990105268982e-07,
            5.3563167790038335e-11
          ],
          [
            -2.1473494093982026e-09,
            -6.305284627750041e-10,
            -1.5126336294635223e-10
          ],
          [
            6.333127355873103e-10,
            3.17888937395594e-10,
            2.318165243098136e-10
          ],
          [
            -0.038287367671728134,
            -0.0524725504219532,
            0.031056683510541916
          ],
          [
            -0.06283070147037506,
            -0.00600056815892458,
            -0.06489886343479156
          ],
          [
            -0.004876045044511557,
            -0.028365662321448326,
            0.02055133879184723
          ],
          [
            -0.032459650188684464,
            0.043976783752441406,
            -0.04424990713596344
          ],
          [
            0.011730917729437351,
            -0.07288460433483124,
            0.008120852522552013
          ],
          [
            -0.041014693677425385,
            -0.014586701057851315,
            -0.025369465351104736
          ],
          [
            0.03247399628162384,
            0.014942075125873089,
            -0.06137697771191597
          ],
          [
            -0.012038417160511017,
            -0.05677478387951851,
            0.02722364105284214
          ],
          [
            -0.007022605277597904,
            -0.040467649698257446,
            -0.04379481077194214
          ],
          [
            0.010736347176134586,
            -0.04705321043729782,
            0.01934991404414177
          ],
          [
            0.014083788730204105,
            0.025155995041131973,
            0.007734129671007395
          ],
          [
            -0.06193471699953079,
            0.03379392623901367,
            -0.02527105249464512
          ],
          [
            -0.0355716198682785,
            -0.02417488396167755,
            0.025739341974258423
          ],
          [
            0.032076645642519,
            -0.004933822900056839,
            0.01487820502370596
          ],
          [
            -0.06997726857662201,
            -0.016270192340016365,
            -0.06725813448429108
          ],
          [
            0.017286166548728943,
            -0.04264990612864494,
            -0.021942688152194023
          ],
          [
            0.030399911105632782,
            0.045853205025196075,
            -0.047827910631895065
          ],
          [
            -0.05150139331817627,
            -0.01021609641611576,
            0.0061599756591022015
          ],
          [
            -0.008085365407168865,
            -0.017047427594661713,
            -0.0377134270966053
          ],
          [
            0.014434351585805416,
            0.04802790284156799,
            -0.040912628173828125
          ],
          [
            0.004171072971075773,
            0.005180398467928171,
            0.024208154529333115
          ],
          [
            -0.008112485520541668,
            0.0007069458370096982,
            0.043375395238399506
          ],
          [
            0.03263836354017258,
            0.054381273686885834,
            -0.023534171283245087
          ],
          [
            0.007852130569517612,
            0.026049088686704636,
            -0.056757666170597076
          ],
          [
            -0.00384960463270545,
            -0.027444500476121902,
            0.0234519112855196
          ],
          [
            -0.026624135673046112,
            0.003672269871458411,
            0.03449123725295067
          ],
          [
            -2.6197442437592144e-08,
            -4.651072060823935e-08,
            -2.4750621552271923e-09
          ],
          [
            0.028682487085461617,
            0.03045808896422386,
            -0.05209431052207947
          ],
          [
            -0.007594065275043249,
            -0.020277991890907288,
            -0.02538423240184784
          ],
          [
            0.03856781870126724,
            0.016449861228466034,
            -0.02972814440727234
          ],
          [
            0.003539318684488535,
            0.006033807527273893,
            0.010457671247422695
          ],
          [
            0.009954727254807949,
            -0.0015443237498402596,
            0.04084217548370361
          ],
          [
            -0.011006633751094341,
            -0.0058522336184978485,
            -0.013667242601513863
          ],
          [
            0.06519778072834015,
            0.08178190886974335,
            0.07540151476860046
          ],
          [
            0.0071537671610713005,
            0.05219627916812897,
            -0.008195367641746998
          ],
          [
            0.018516333773732185,
            0.06436558067798615,
            0.06601566821336746
          ],
          [
            -0.02621796727180481,
            0.05327560752630234,
            0.023553380742669106
          ],
          [
            -0.05745060741901398,
            -0.0127415144816041,
            -0.07952646911144257
          ],
          [
            0.02256869524717331,
            0.042381491512060165,
            -0.05297832936048508
          ],
          [
            0.009550442919135094,
            -0.0029130326583981514,
            0.010006576776504517
          ],
          [
            -0.04575244337320328,
            -0.024910205975174904,
            -0.026870111003518105
          ],
          [
            0.0688498392701149,
            0.05978962406516075,
            0.05993959307670593
          ],
          [
            0.0026229945942759514,
            -0.06172052025794983,
            -0.0726332813501358
          ],
          [
            -0.01090632751584053,
            0.04596586525440216,
            -0.008147845044732094
          ],
          [
            -0.0012762121623381972,
            -0.03632306307554245,
            -0.0234339851886034
          ],
          [
            2.1853258758142147e-08,
            -8.448937549587754e-09,
            -4.310010681685128e-10
          ],
          [
            -7.724903383632409e-08,
            3.0162686237567016e-10,
            1.9453237631861242e-10
          ]
        ],
        [
          [
            -0.0013538904022425413,
            0.007023747079074383,
            0.033407002687454224
          ],
          [
            -0.03980705514550209,
            -0.04086943715810776,
            0.0018261013319715858
          ],
          [
            -0.06038295850157738,
            -0.06211391091346741,
            0.04758503660559654
          ],
          [
            -0.025041544809937477,
            -0.0511004701256752,
            -0.03901064395904541
          ],
          [
            -0.06632944941520691,
            0.02889462374150753,
            -0.029663022607564926
          ],
          [
            -0.016350379213690758,
            -0.040392275899648666,
            0.04116508364677429
          ],
          [
            -0.011613648384809494,
            -0.012429351918399334,
            -0.02320450358092785
          ],
          [
            -0.05850815773010254,
            -0.005824218969792128,
            0.042771100997924805
          ],
          [
            -0.0267651304602623,
            0.002378321485593915,
            -0.04298584908246994
          ],
          [
            -0.02193538099527359,
            0.036102231591939926,
            0.008303188718855381
          ],
          [
            0.05165435001254082,
            -0.01168858539313078,
            -0.028078220784664154
          ],
          [
            -0.04560406878590584,
            0.04321696609258652,
            -0.061942148953676224
          ],
          [
            0.04464263841509819,
            0.02593359909951687,
            0.033604901283979416
          ],
          [
            0.05044112354516983,
            -0.01424362976104021,
            0.06028282642364502
          ],
          [
            -0.04053676500916481,
            -0.016748111695051193,
            0.04901120066642761
          ],
          [
            0.008840769529342651,
            -0.017393851652741432,
            -0.02195732668042183
          ],
          [
            -0.05757398158311844,
            0.023014727979898453,
            -0.011922193691134453
          ],
          [
            -0.001920728012919426,
            0.01139458455145359,
            0.0410061739385128
          ],
          [
            -0.03109011985361576,
            -0.014292166568338871,
            0.04646601527929306
          ],
          [
            0.04691225662827492,
            -0.022086890414357185,
            -0.05028152838349342
          ],
          [
            -0.002594770397990942,
            0.01772725209593773,
            0.0006955169956199825
          ],
          [
            0.04424469918012619,
            -0.0480220653116703,
            0.030472727492451668
          ],
          [
            -0.03981075808405876,
            0.02366250567138195,
            0.04313178360462189
          ],
          [
            0.030145928263664246,
            0.03715433552861214,
            -0.04336283728480339
          ],
          [
            -0.04858066886663437,
            -0.06176628917455673,
            0.03542162850499153
          ],
          [
            0.02339685894548893,
            -0.05806842818856239,
            0.025020673871040344
          ],
          [
            0.03881263732910156,
            -0.07698320597410202,
            0.028724174946546555
          ],
          [
            0.01134664099663496,
            0.009154378436505795,
            0.06324174255132675
          ],
          [
            0.08634777367115021,
            0.05379379540681839,
            0.0710916668176651
          ],
          [
            0.01827891729772091,
            0.007667095400393009,
            -0.059307415038347244
          ],
          [
            0.03063754178583622,
            -0.02547002024948597,
            0.03551226854324341
          ],
          [
            0.010807253420352936,
            0.001686276402324438,
            -0.04391974210739136
          ],
          [
            -0.052075378596782684,
            0.03409958630800247,
            0.016723794862627983
          ],
          [
            0.035527631640434265,
            -0.017391489818692207,
            -0.010133462958037853
          ],
          [
            -0.017661364749073982,
            0.04079177603125572,
            -0.028870558366179466
          ],
          [
            7.293432524591026e-11,
            7.982305483267282e-09,
            -3.093941103315956e-08
          ],
          [
            1.4818604676669622e-11,
            -4.834038169754251e-10,
            -8.396288664336282e-10
          ],
          [
            1.1126466414879133e-09,
            -3.105715129514408e-10,
            7.668793244874905e-08
          ],
          [
            -0.05702894926071167,
            0.023999053984880447,
            -0.057789675891399384
          ],
          [
            -0.03503050655126572,
            -0.00031496561132371426,
            0.051704902201890945
          ],
          [
            0.04728889837861061,
            -0.03624633699655533,
            0.01753402315080166
          ],
          [
            -0.02337484247982502,
            0.017380287870764732,
            -0.03469868004322052
          ],
          [
            -0.021552013233304024,
            0.03794403001666069,
            -0.06426704674959183
          ],
          [
            -0.06980198621749878,
            0.00298136449418962,
            0.0013720137067139149
          ],
          [
            -0.003913104999810457,
            0.06579631567001343,
            -0.02609049156308174
          ],
          [
            -0.03695707768201828,
            -0.046320319175720215,
            -0.009156687185168266
          ],
          [
            -0.015893250703811646,
            0.0334627591073513,
            -0.008727787993848324
          ],
          [
            0.02443799562752247,
            -0.02060149982571602,
            0.05616273730993271
          ],
          [
            0.041882116347551346,
            -0.06435634195804596,
            -0.022919654846191406
          ],
          [
            -0.03678600862622261,
            0.0468013696372509,
            -0.03132278844714165
          ],
          [
            -0.009708458557724953,
            0.08029559999704361,
            -0.038915812969207764
          ],
          [
            0.03881707414984703,
            -0.0004887454560957849,
            0.04339905455708504
          ],
          [
            -0.008725639432668686,
            0.061444517225027084,
            0.02882070280611515
          ],
          [
            0.010819493792951107,
            0.04821440577507019,
            -0.05030706897377968
          ],
          [
            -0.039931781589984894,
            0.06873725354671478,
            -0.027250053361058235
          ],
          [
            -0.05372809246182442,
            -0.012488465756177902,
            -0.028982946649193764
          ],
          [
            -0.0032331165857613087,
            -0.03516799956560135,
            0.027845339849591255
          ],
          [
            -0.06607528030872345,
            -0.011498598381876945,
            0.019216490909457207
          ],
          [
            -0.004660898819565773,
            -0.008426116779446602,
            -0.007159676868468523
          ],
          [
            -0.014839490875601768,
            -0.007256345357745886,
            -0.02130274660885334
          ],
          [
            -0.032815638929605484,
            -0.023115428164601326,
            0.07018233090639114
          ],
          [
            -0.0028058176394551992,
            0.029049823060631752,
            0.049833811819553375
          ],
          [
            -0.007790502160787582,
            -0.035383190959692,
            -0.043912988156080246
          ],
          [
            -0.034527331590652466,
            0.009184257127344608,
            -0.0615413673222065
          ],
          [
            -3.40831252110263e-10,
            -1.370793145660798e-09,
            7.500553067529836e-09
          ],
          [
            0.016972608864307404,
            0.01084879506379366,
            0.040589068084955215
          ],
          [
            0.010983982123434544,
            0.007203279994428158,
            -0.005092690698802471
          ],
          [
            -0.03829464688897133,
            -0.0018660317873582244,
            -0.000242941765463911
          ],
          [
            0.001487997709773481,
            0.0023486909922212362,
            0.016959477216005325
          ],
          [
            0.03533683344721794,
            -0.023361841216683388,
            -0.05486977472901344
          ],
          [
            -0.03796898573637009,
            -0.03609312325716019,
            0.028572378680109978
          ],
          [
            -0.02716570720076561,
            0.006443976424634457,
            -0.00026775902369990945
          ],
          [
            -0.04019032418727875,
            0.026243513450026512,
            -0.02755804918706417
          ],
          [
            -0.0050058187916874886,
            -0.04505009576678276,
            -0.008029311895370483
          ],
          [
            0.015269299037754536,
            0.004315153229981661,
            -0.015988297760486603
          ],
          [
            0.018835270777344704,
            -0.014866279438138008,
            -0.03277513384819031
          ],
          [
            -0.041391827166080475,
            -0.008971519768238068,
            -0.053999073803424835
          ],
          [
            0.06756936758756638,
            -0.01176460925489664,
            -0.00802518054842949
          ],
          [
            0.005726386792957783,
            0.016117438673973083,
            -0.005356807727366686
          ],
          [
            0.05475370213389397,
            -0.02284090779721737,
            0.03587311506271362
          ],
          [
            0.0025513768196105957,
            -0.04652124270796776,
            -0.019549258053302765
          ],
          [
            0.019961904734373093,
            0.017281824722886086,
            0.050344012677669525
          ],
          [
            0.0500636026263237,
            -0.024812491610646248,
            -0.016954200342297554
          ],
          [
            6.607122071677907e-10,
            1.7202628210810644e-09,
            -7.23834436833215e-10
          ],
          [
            -1.0549503492995882e-08,
            -1.3733086889899937e-09,
            2.3355390954549193e-09
          ]
        ],
        [
          [
            -0.0047228396870195866,
            -0.060082342475652695,
            -0.061304301023483276
          ],
          [
            -0.019652027636766434,
            0.011306002736091614,
            -0.004217452369630337
          ],
          [
            0.0012547968653962016,
            0.049298495054244995,
            0.01701468788087368
          ],
          [
            0.004260041750967503,
            -0.02310570329427719,
            0.021157169714570045
          ],
          [
            0.023821186274290085,
            -0.056681759655475616,
            -0.03955990448594093
          ],
          [
            0.006763470824807882,
            0.016838714480400085,
            0.024643734097480774
          ],
          [
            -0.047299824655056,
            -0.07157541066408157,
            -0.015258092433214188
          ],
          [
            -0.017809081822633743,
            0.011811376549303532,
            -0.02454633079469204
          ],
          [
            0.044882941991090775,
            -0.011062529869377613,
            0.029955362901091576
          ],
          [
            -0.044926661998033524,
            0.011758142150938511,
            0.00406876252964139
          ],
          [
            -0.030155107378959656,
            0.033488716930150986,
            -0.061159636825323105
          ],
          [
            0.05229970067739487,
            0.004212522879242897,
            0.0024823409039527178
          ],
          [
            0.03194986283779144,
            0.008099641650915146,
            0.022185958921909332
          ],
          [
            0.04146686568856239,
            -0.033711813390254974,
            0.06656798720359802
          ],
          [
            0.003537875832989812,
            -0.0022564218379557133,
            0.02290133573114872
          ],
          [
            0.022843647748231888,
            -0.059545692056417465,
            -0.06665048003196716
          ],
          [
            0.03213691711425781,
            -0.025835396721959114,
            0.01887459121644497
          ],
          [
            -0.017455926164984703,
            0.007346888072788715,
            0.03594166412949562
          ],
          [
            -0.03969160094857216,
            -0.03448783606290817,
            0.013896568678319454
          ],
          [
            0.015016119927167892,
            0.006668138783425093,
            -0.04037351533770561
          ],
          [
            0.05451502650976181,
            -0.0032946912106126547,
            -0.0158542450517416
          ],
          [
            -0.04435687139630318,
            -0.02533687837421894,
            0.014655719511210918
          ],
          [
            -0.010369825176894665,
            0.042143501341342926,
            -0.013159879483282566
          ],
          [
            0.008930549025535583,
            0.035299740731716156,
            0.0024645894300192595
          ],
          [
            -0.01037073414772749,
            0.024864356964826584,
            0.04386747628450394
          ],
          [
            0.014380183070898056,
            0.037380367517471313,
            0.03486494719982147
          ],
          [
            0.019231727346777916,
            0.03669818863272667,
            0.0313308946788311
          ],
          [
            0.007608260028064251,
            0.049395494163036346,
            0.054215628653764725
          ],
          [
            0.02915741316974163,
            0.01804942451417446,
            0.07471686601638794
          ],
          [
            -0.05408550798892975,
            0.03161492571234703,
            0.024227626621723175
          ],
          [
            0.016018664464354515,
            -0.02806776948273182,
            -0.06843201816082001
          ],
          [
            0.01835840940475464,
            -0.05180421471595764,
            -0.005085502751171589
          ],
          [
            -0.017376938834786415,
            -0.1080736368894577,
            -0.04246503487229347
          ],
          [
            -0.034195806831121445,
            0.031043484807014465,
            -0.05426328629255295
          ],
          [
            0.08522114157676697,
            0.08670301735401154,
            0.08347652852535248
          ],
          [
            -2.064678170654588e-07,
            -4.2148703971456314e-10,
            -5.173389894252978e-08
          ],
          [
            -4.870506220555626e-10,
            1.1606368643946041e-10,
            -4.015999338635723e-12
          ],
          [
            1.5516069140630862e-07,
            -5.344300002541047e-10,
            1.3278644850345245e-09
          ],
          [
            0.08186289668083191,
            0.07500597089529037,
            0.06568392366170883
          ],
          [
            0.057353273034095764,
            -0.021038144826889038,
            -0.0037379383575171232
          ],
          [
            0.0006919989245943725,
            -0.011814221739768982,
            0.07047725468873978
          ],
          [
            0.02425304614007473,
            0.04856349155306816,
            -0.005563104525208473
          ],
          [
            -0.016271162778139114,
            0.024488087743520737,
            0.08996221423149109
          ],
          [
            0.052998024970293045,
            0.035548798739910126,
            0.0012190737761557102
          ],
          [
            -0.03479158878326416,
            -0.0059906598180532455,
            0.054951827973127365
          ],
          [
            -0.01360165886580944,
            0.04320528730750084,
            0.03308720886707306
          ],
          [
            0.0013386586215347052,
            0.051142480224370956,
            0.008494328707456589
          ],
          [
            0.021601757034659386,
            -0.003168343333527446,
            -0.03715744614601135
          ],
          [
            0.03762342408299446,
            0.04932909458875656,
            0.002570976736024022
          ],
          [
            0.04771246761083603,
            -0.043985120952129364,
            -0.043126169592142105
          ],
          [
            -0.009530523791909218,
            0.007214952260255814,
            0.021652167662978172
          ],
          [
            -0.033701036125421524,
            0.000487746496219188,
            -0.07538282871246338
          ],
          [
            0.04747198894619942,
            0.03947272151708603,
            0.05523183196783066
          ],
          [
            0.07045566290616989,
            0.04774349182844162,
            -0.024403635412454605
          ],
          [
            -0.02344350889325142,
            0.012134273536503315,
            -0.0034212684258818626
          ],
          [
            0.04071592912077904,
            0.020401185378432274,
            0.07091932743787766
          ],
          [
            0.023925306275486946,
            -0.011538762599229813,
            0.0024071696680039167
          ],
          [
            0.00227282103151083,
            -0.01877216435968876,
            0.038346532732248306
          ],
          [
            -0.025239085778594017,
            0.05305423587560654,
            -0.01632855087518692
          ],
          [
            -0.027371691539883614,
            0.014045006595551968,
            0.05456480756402016
          ],
          [
            0.08867225795984268,
            0.06050194054841995,
            0.040171507745981216
          ],
          [
            0.024793874472379684,
            0.0032752391416579485,
            0.02265193685889244
          ],
          [
