{
  "version_id": "gating-only-0cb50d98-39c9-4cde-bcdd-c174bf126426",
  "trained_at": "2026-07-13T12:39:46.999701+00:00",
  "export": {
    "architecture": [
      {
        "type": "linear",
        "weight_key": "network.0.weight",
        "bias_key": "network.0.bias",
        "in_features": 26,
        "out_features": 16
      },
      {
        "type": "layernorm",
        "weight_key": "network.1.weight",
        "bias_key": "network.1.bias",
        "normalized_shape": [
          16
        ],
        "eps": 1e-05
      },
      {
        "type": "relu"
      },
      {
        "type": "dropout",
        "p": 0.2
      },
      {
        "type": "linear",
        "weight_key": "network.4.weight",
        "bias_key": "network.4.bias",
        "in_features": 16,
        "out_features": 1
      },
      {
        "type": "sigmoid"
      }
    ],
    "state_dict": {
      "network.0.weight": [
        [
          0.15025778114795685,
          0.17209261655807495,
          -0.020642925053834915,
          0.1656498908996582,
          -0.029775720089673996,
          0.059929925948381424,
          -0.0687716156244278,
          0.12047655135393143,
          0.1753424108028412,
          -0.11588294804096222,
          0.17698608338832855,
          0.059405382722616196,
          0.148122176527977,
          0.04745850712060928,
          0.10978936403989792,
          0.01581927016377449,
          0.15079472959041595,
          0.021069800481200218,
          -0.07754049450159073,
          0.0725361555814743,
          -0.0909823477268219,
          -0.07675451040267944,
          0.0031909907702356577,
          0.11950051784515381,
          -0.13921503722667694,
          -0.024673443287611008
        ],
        [
          -0.056668318808078766,
          -0.12598024308681488,
          0.005931839346885681,
          -0.18685303628444672,
          0.16899847984313965,
          -0.17561005055904388,
          0.13606473803520203,
          0.036000438034534454,
          -0.06827389448881149,
          0.1069703921675682,
          0.017535695806145668,
          0.13215847313404083,
          0.015765763819217682,
          -0.07276033610105515,
          0.03920580446720123,
          -0.08318920433521271,
          0.07495864480733871,
          0.17029961943626404,
          0.11887244135141373,
          -0.11143485456705093,
          0.1131504699587822,
          0.09136539697647095,
          0.015361444093286991,
          -0.11848507076501846,
          -0.17684748768806458,
          -0.1113150417804718
        ],
        [
          -0.15208078920841217,
          0.14413192868232727,
          0.04450450837612152,
          0.07329055666923523,
          0.04668819531798363,
          -0.01220345962792635,
          0.13940691947937012,
          -0.1334824562072754,
          0.0017582775326445699,
          -0.1389993578195572,
          0.048302747309207916,
          -0.07566093653440475,
          0.048839062452316284,
          -0.04860356077551842,
          0.14654326438903809,
          -0.1084623858332634,
          -0.11935997009277344,
          -0.0991663783788681,
          0.14966906607151031,
          0.0539325475692749,
          0.17572151124477386,
          -0.14105305075645447,
          -0.09411047399044037,
          -0.15322338044643402,
          -0.06899464130401611,
          0.05901678279042244
        ],
        [
          0.0782385766506195,
          0.16266490519046783,
          -0.09114157408475876,
          -0.12115013599395752,
          0.11527575552463531,
          -0.07180316001176834,
          0.12185253202915192,
          -0.034665707498788834,
          0.12062708288431168,
          -0.14340710639953613,
          -0.08899831026792526,
          0.059410419315099716,
          0.05386422574520111,
          -0.04313458874821663,
          0.11876269429922104,
          0.11564336717128754,
          -0.12120643258094788,
          -0.0928862988948822,
          0.1855492740869522,
          -0.06488945335149765,
          -0.06838792562484741,
          -0.08626823127269745,
          -0.1857127845287323,
          0.044072236865758896,
          -0.013966435566544533,
          -0.11172351986169815
        ],
        [
          -0.029246093705296516,
          -0.1291169375181198,
          -0.1472674310207367,
          -0.074376180768013,
          -0.168308824300766,
          -0.13638091087341309,
          0.13942942023277283,
          0.00854075513780117,
          0.015574208460748196,
          -0.1869036704301834,
          -0.12007302790880203,
          -0.08037018030881882,
          -0.00930868275463581,
          -0.17789846658706665,
          -0.09298989921808243,
          -0.08367334306240082,
          -0.03448234871029854,
          -0.036597274243831635,
          -0.030618060380220413,
          -0.12776127457618713,
          -0.14230825006961823,
          -0.1614052802324295,
          0.028096167370676994,
          -0.14482849836349487,
          0.11590597033500671,
          -0.024984346702694893
        ],
        [
          0.17494402825832367,
          0.09492547810077667,
          -0.07050680369138718,
          0.11765455454587936,
          0.019773636013269424,
          -0.008728055283427238,
          -0.08021637052297592,
          -0.11619671434164047,
          0.09679170697927475,
          0.01879911869764328,
          0.10142558068037033,
          -0.07235463708639145,
          0.16408942639827728,
          -0.06741229444742203,
          0.025033611804246902,
          0.04407382756471634,
          0.13316917419433594,
          0.1189642921090126,
          0.17231601476669312,
          -0.073162741959095,
          0.08184617757797241,
          0.03923237696290016,
          -0.08794231712818146,
          -0.06799007952213287,
          0.1715826690196991,
          -0.08158162981271744
        ],
        [
          0.10682544857263565,
          0.08542188256978989,
          0.07928737252950668,
          -0.06143686920404434,
          0.17422710359096527,
          0.06480587273836136,
          0.047348178923130035,
          -0.16148687899112701,
          0.08983137458562851,
          -0.003812467446550727,
          -0.05715661123394966,
          0.18592312932014465,
          0.05257353559136391,
          -0.07865771651268005,
          -0.06739149242639542,
          0.035010382533073425,
          0.11008035391569138,
          -0.013649147003889084,
          -0.11153256148099899,
          -0.03117254562675953,
          -0.12323020398616791,
          -0.010897811502218246,
          0.241847962141037,
          -0.14392729103565216,
          0.03228277340531349,
          0.12000375241041183
        ],
        [
          0.06221817061305046,
          -0.03992289677262306,
          0.11187893897294998,
          0.10194683074951172,
          0.0956585556268692,
          -0.008847242221236229,
          -0.024893203750252724,
          0.03906084597110748,
          -0.0035363705828785896,
          -0.03141120448708534,
          0.13229678571224213,
          0.1730213314294815,
          0.012017662636935711,
          -0.017736749723553658,
          0.025397727265954018,
          -0.020005054771900177,
          0.07081390917301178,
          0.052159179002046585,
          -0.1409662514925003,
          -0.05455825477838516,
          0.17346687614917755,
          0.13241857290267944,
          -0.09119462221860886,
          -0.0851067453622818,
          -0.08641956001520157,
          -0.15943364799022675
        ],
        [
          -0.06601335853338242,
          0.06353302299976349,
          0.1149337887763977,
          0.06532377004623413,
          -0.1671057492494583,
          -0.10833803564310074,
          -0.025492502376437187,
          0.17654366791248322,
          0.02284715510904789,
          -0.04453437775373459,
          0.07578665018081665,
          -0.05452233552932739,
          -0.12196670472621918,
          0.1397070288658142,
          -0.07869938760995865,
          0.002160950331017375,
          -0.18350735306739807,
          0.09498566389083862,
          0.13839654624462128,
          0.08829491585493088,
          -0.1370718777179718,
          -0.26073917746543884,
          -0.05041610822081566,
          0.1248721182346344,
          0.08976864069700241,
          0.16754373908042908
        ],
        [
          0.03370107710361481,
          0.003894433844834566,
          -0.03152184188365936,
          -0.09291906654834747,
          -0.15224777162075043,
          -0.18706515431404114,
          0.030002767220139503,
          -0.11344364285469055,
          -0.06222793832421303,
          -0.12869994342327118,
          -0.05435740947723389,
          -0.11163894087076187,
          -0.12422876060009003,
          0.018999967724084854,
          -0.07519986480474472,
          0.07847264409065247,
          -0.0798841118812561,
          -0.06693114340305328,
          -0.06306905299425125,
          -0.06366634368896484,
          -0.05133374407887459,
          -0.20341411232948303,
          0.09918251633644104,
          -0.09348883479833603,
          0.04664475843310356,
          0.045748017728328705
        ],
        [
          0.1749841421842575,
          -0.07118526101112366,
          0.16579629480838776,
          -0.0274131391197443,
          0.12561418116092682,
          0.2247600108385086,
          0.03288498893380165,
          0.036182984709739685,
          0.023074962198734283,
          -0.08985220640897751,
          0.12881074845790863,
          -0.11364290863275528,
          0.16429634392261505,
          0.1909928321838379,
          0.21201194822788239,
          -0.02439575083553791,
          -0.06757853180170059,
          0.049051158130168915,
          0.12542127072811127,
          -0.12018290162086487,
          0.02586703933775425,
          -0.003688293509185314,
          -0.09355782717466354,
          -0.017213255167007446,
          -0.03641962632536888,
          -0.04735751822590828
        ],
        [
          -0.10806320607662201,
          0.12995809316635132,
          0.1246521919965744,
          0.010687407106161118,
          -0.001999469008296728,
          -0.04807601124048233,
          -0.12264779210090637,
          -0.15370716154575348,
          0.06495067477226257,
          -0.07091543078422546,
          -0.06799861043691635,
          0.017533449456095695,
          -0.03268894553184509,
          -0.034371696412563324,
          0.021525271236896515,
          -0.015561612322926521,
          -0.03587948530912399,
          -0.017107537016272545,
          -0.13243567943572998,
          0.1421348601579666,
          -0.021158231422305107,
          0.0013646804727613926,
          -0.006762404926121235,
          0.06029839441180229,
          0.14305582642555237,
          0.04389025643467903
        ],
        [
          -0.15393851697444916,
          0.06045959144830704,
          0.15279564261436462,
          0.036713242530822754,
          0.10848664492368698,
          0.17189425230026245,
          -0.03628966212272644,
          0.02473127469420433,
          -0.12697868049144745,
          -0.04652564227581024,
          0.11764712631702423,
          0.08536092191934586,
          -0.11505904048681259,
          -0.1556512415409088,
          -0.12824508547782898,
          -0.19366712868213654,
          -0.13778218626976013,
          -0.00012974929995834827,
          0.10799932479858398,
          0.027284640818834305,
          -0.0949191227555275,
          -0.13353762030601501,
          0.07583168148994446,
          -0.049596644937992096,
          -0.03535342961549759,
          0.07213441282510757
        ],
        [
          -0.06279360502958298,
          -0.0054466938599944115,
          -0.0014316554879769683,
          -0.03238537907600403,
          -0.06913037598133087,
          -0.1469068080186844,
          -0.12916822731494904,
          -0.08540163934230804,
          0.17196519672870636,
          -0.07367540150880814,
          -0.09624011069536209,
          0.05968204140663147,
          0.055912747979164124,
          0.1111132949590683,
          0.14139072597026825,
          0.09320039302110672,
          -0.15087737143039703,
          0.017768049612641335,
          0.10005943477153778,
          0.000826906063593924,
          -0.039850685745477676,
          0.17313183844089508,
          -0.04767657443881035,
          -0.07612234354019165,
          -0.14883756637573242,
          0.015248949639499187
        ],
        [
          0.06392627954483032,
          0.0295533649623394,
          0.02491854503750801,
          -0.1595875471830368,
          -0.19704249501228333,
          -0.009029976092278957,
          0.161829873919487,
          0.09825583547353745,
          -0.12809988856315613,
          -0.03732595220208168,
          -0.15023955702781677,
          -0.0943625271320343,
          0.012669560499489307,
          0.09211219847202301,
          0.14460501074790955,
          -0.1658969521522522,
          0.10416983813047409,
          -0.14356011152267456,
          0.06058923900127411,
          0.16135434806346893,
          -0.005937754642218351,
          0.08657143265008926,
          -0.09232570230960846,
          -0.09497059881687164,
          0.09565272927284241,
          -0.01834668219089508
        ],
        [
          -0.02644318901002407,
          -0.06362616270780563,
          0.106446772813797,
          0.06883140653371811,
          0.054975733160972595,
          -0.0956784188747406,
          -0.13537046313285828,
          -0.005852350499480963,
          0.04871878772974014,
          -0.07824018597602844,
          -0.04045984894037247,
          0.12384312599897385,
          0.014212721027433872,
          0.009911119006574154,
          -0.037586286664009094,
          -0.14005987346172333,
          -0.14409473538398743,
          -0.025496596470475197,
          -0.09616633504629135,
          0.06249957159161568,
          -0.038996580988168716,
          -0.07571211457252502,
          0.09465459734201431,
          0.07399743795394897,
          0.06703731417655945,
          -0.047243837267160416
        ]
      ],
      "network.0.bias": [
        -0.05476478487253189,
        0.05874859169125557,
        -0.1358988732099533,
        -0.11972936987876892,
        -0.035817861557006836,
        -0.005793697200715542,
        -0.11511190235614777,
        0.13300196826457977,
        0.15354442596435547,
        -0.008669662289321423,
        0.027559950947761536,
        -0.13213056325912476,
        -0.07549658417701721,
        0.05854116007685661,
        0.07809852808713913,
        -0.019922802224755287
      ],
      "network.1.weight": [
        0.9274279475212097,
        0.9229174852371216,
        0.8287728428840637,
        0.8209810853004456,
        0.6218827366828918,
        0.6341134309768677,
        0.8766732215881348,
        0.7993952631950378,
        0.8980565667152405,
        0.6233771443367004,
        0.7161498665809631,
        0.6218827366828918,
        0.6638373732566833,
        0.6747682690620422,
        0.919256329536438,
        0.6224799752235413
      ],
      "network.1.bias": [
        -0.013973208144307137,
        -0.020228445529937744,
        -0.016318637877702713,
        0.0029627785552293062,
        0.0,
        -0.0175698883831501,
        -0.005172435659915209,
        -0.029167665168642998,
        -0.028562666848301888,
        -0.0018202338833361864,
        -0.019430670887231827,
        0.0,
        -0.00984278041869402,
        -0.01149496529251337,
        -0.03363657370209694,
        -0.0042806933633983135
      ],
      "network.4.weight": [
        [
          -0.07811994105577469,
          0.12076710909605026,
          -0.16767628490924835,
          0.14054569602012634,
          3.892808297933925e-09,
          0.0002712153072934598,
          -0.08415377885103226,
          0.008476104587316513,
          -0.07693121582269669,
          0.029330166056752205,
          -0.00894676148891449,
          0.0031880352180451155,
          0.16765162348747253,
          -0.10825793445110321,
          -0.1303764134645462,
          0.009512273594737053
        ]
      ],
      "network.4.bias": [
        0.1904502958059311
      ]
    }
  }
}