{
  "version_id": "8b190a9d-d767-4806-87c2-c741173dd315",
  "trained_at": "2026-07-17T16:03:48.613917+00:00",
  "export": {
    "architecture": [
      {
        "type": "linear",
        "weight_key": "network.0.weight",
        "bias_key": "network.0.bias",
        "in_features": 26,
        "out_features": 16
      },
      {
        "type": "layernorm",
        "weight_key": "network.1.weight",
        "bias_key": "network.1.bias",
        "normalized_shape": [
          16
        ],
        "eps": 1e-05
      },
      {
        "type": "relu"
      },
      {
        "type": "dropout",
        "p": 0.2
      },
      {
        "type": "linear",
        "weight_key": "network.4.weight",
        "bias_key": "network.4.bias",
        "in_features": 16,
        "out_features": 1
      },
      {
        "type": "sigmoid"
      }
    ],
    "state_dict": {
      "network.0.weight": [
        [
          0.1520298421382904,
          0.17074516415596008,
          -0.023949427530169487,
          0.16568151116371155,
          -0.029142824932932854,
          0.055565278977155685,
          -0.07100194692611694,
          0.1196635514497757,
          0.17884698510169983,
          -0.11599365621805191,
          0.17382071912288666,
          0.058393578976392746,
          0.15811988711357117,
          0.043397027999162674,
          0.10706673562526703,
          0.011334000155329704,
          0.14882424473762512,
          0.01982823759317398,
          -0.07923292368650436,
          0.07195258885622025,
          -0.09047100692987442,
          -0.07903002202510834,
          -0.002260092878714204,
          0.11945022642612457,
          -0.14147412776947021,
          -0.02524813823401928
        ],
        [
          -0.05951741710305214,
          -0.12506742775440216,
          0.007209328934550285,
          -0.1836637258529663,
          0.16578832268714905,
          -0.17228515446186066,
          0.1364341527223587,
          0.03839545324444771,
          -0.06989511102437973,
          0.10689065605401993,
          0.018741393461823463,
          0.13174432516098022,
          0.004231691360473633,
          -0.07067601382732391,
          0.040457893162965775,
          -0.08066792786121368,
          0.08298303186893463,
          0.1724594533443451,
          0.12131566554307938,
          -0.11301792412996292,
          0.10787445306777954,
          0.09343025833368301,
          0.01951458305120468,
          -0.11829516291618347,
          -0.17583516240119934,
          -0.10795195400714874
        ],
        [
          -0.15175588428974152,
          0.14578305184841156,
          0.04530276730656624,
          0.07112518697977066,
          0.050941526889801025,
          -0.011585957370698452,
          0.13898837566375732,
          -0.13888715207576752,
          0.0019133674213662744,
          -0.1364951729774475,
          0.048815514892339706,
          -0.07411298155784607,
          0.049764178693294525,
          -0.047444749623537064,
          0.1475295126438141,
          -0.11098853498697281,
          -0.12248439341783524,
          -0.1033816710114479,
          0.14795857667922974,
          0.05690595507621765,
          0.17847536504268646,
          -0.15140394866466522,
          -0.09288516640663147,
          -0.15184272825717926,
          -0.0873640701174736,
          0.059190887957811356
        ],
        [
          0.07473427057266235,
          0.15827998518943787,
          -0.09628023207187653,
          -0.12255256623029709,
          0.1117805689573288,
          -0.07577961683273315,
          0.11604928225278854,
          -0.04113464429974556,
          0.1094389259815216,
          -0.14642000198364258,
          -0.09367607533931732,
          0.056504182517528534,
          0.036518000066280365,
          -0.04749701917171478,
          0.1138254776597023,
          0.1110733300447464,
          -0.12330064922571182,
          -0.0870346873998642,
          0.1798853874206543,
          -0.06947449594736099,
          -0.07246125489473343,
          -0.08886591345071793,
          -0.18985633552074432,
          0.04259740561246872,
          -0.02024342678487301,
          -0.1198187842965126
        ],
        [
          -0.02686290442943573,
          -0.13424471020698547,
          -0.15206961333751678,
          -0.08039861917495728,
          -0.17027054727077484,
          -0.1269887536764145,
          0.13241258263587952,
          0.003979369066655636,
          0.019112268462777138,
          -0.17330485582351685,
          -0.12035374343395233,
          -0.08089101314544678,
          0.0007358169532380998,
          -0.16505040228366852,
          -0.09500236064195633,
          -0.0906268060207367,
          -0.040466856211423874,
          -0.04274317994713783,
          -0.03538131341338158,
          -0.1294122189283371,
          -0.14435657858848572,
          -0.15956798195838928,
          0.021477000787854195,
          -0.1514759659767151,
          0.10988770425319672,
          -0.026031557470560074
        ],
        [
          0.1888720691204071,
          0.10066159814596176,
          -0.07894163578748703,
          0.13471339643001556,
          0.02073194645345211,
          -0.009298705495893955,
          -0.08160766959190369,
          -0.13708412647247314,
          0.09491267055273056,
          0.016888083890080452,
          0.10527485609054565,
          -0.07897064834833145,
          0.16137433052062988,
          -0.06522198021411896,
          0.024180082604289055,
          0.03834545612335205,
          0.14764098823070526,
          0.1355905681848526,
          0.18132969737052917,
          -0.083805151283741,
          0.0809648260474205,
          0.041689470410346985,
          -0.10434140264987946,
          -0.07386907190084457,
          0.18044449388980865,
          -0.08928044885396957
        ],
        [
          0.10777826607227325,
          0.08479718863964081,
          0.0784527137875557,
          -0.0627279207110405,
          0.17384257912635803,
          0.06119893491268158,
          0.04507444426417351,
          -0.1638338416814804,
          0.09568558633327484,
          -0.0050784628838300705,
          -0.05833243951201439,
          0.18653765320777893,
          0.06464344263076782,
          -0.07738779485225677,
          -0.0690174549818039,
          0.03256969153881073,
          0.1019156277179718,
          -0.013104384765028954,
          -0.11363184452056885,
          -0.03356599062681198,
          -0.1259983479976654,
          -0.01157907210290432,
          0.24077922105789185,
          -0.14528366923332214,
          0.030948754400014877,
          0.12031745165586472
        ],
        [
          0.06386082619428635,
          -0.03344548121094704,
          0.1194782629609108,
          0.10931003093719482,
          0.1011238694190979,
          -0.0014504414284601808,
          -0.01737736165523529,
          0.04571179673075676,
          6.38002238702029e-05,
          -0.023136010393500328,
          0.13809771835803986,
          0.17805758118629456,
          0.008075986057519913,
          -0.009993522427976131,
          0.032325755804777145,
          -0.013297703117132187,
          0.0854579359292984,
          0.05765808746218681,
          -0.13813507556915283,
          -0.052881598472595215,
          0.17795424163341522,
          0.1371258646249771,
          -0.09627115726470947,
          -0.08352820575237274,
          -0.08388734608888626,
          -0.15707895159721375
        ],
        [
          -0.06259515881538391,
          0.06422507762908936,
          0.11621548980474472,
          0.06554391980171204,
          -0.16514307260513306,
          -0.10592449456453323,
          -0.02562064491212368,
          0.17856572568416595,
          0.028575429692864418,
          -0.04387581720948219,
          0.07558266073465347,
          -0.057537954300642014,
          -0.1081133484840393,
          0.13526226580142975,
          -0.0794173926115036,
          -0.0002556818653829396,
          -0.1922590136528015,
          0.09610198438167572,
          0.13995587825775146,
          0.08900418877601624,
          -0.13744598627090454,
          -0.26192137598991394,
          -0.05562854930758476,
          0.12772980332374573,
          0.09063559770584106,
          0.16980594396591187
        ],
        [
          0.06273996829986572,
          0.018896913155913353,
          -0.02361883595585823,
          -0.11454861611127853,
          -0.15956327319145203,
          -0.17621156573295593,
          0.04512432962656021,
          -0.11010869592428207,
          -0.05660632252693176,
          -0.11722560226917267,
          -0.0498327873647213,
          -0.12289498746395111,
          -0.12685143947601318,
          0.03184451162815094,
          -0.07171367853879929,
          0.09330625087022781,
          -0.07583857327699661,
          -0.08782701194286346,
          -0.054395489394664764,
          -0.07312503457069397,
          -0.05549337714910507,
          -0.19648174941539764,
          0.09631552547216415,
          -0.11221905797719955,
          0.06610255688428879,
          0.05418114736676216
        ],
        [
          0.1708878129720688,
          -0.0646757185459137,
          0.16404132544994354,
          -0.024656793102622032,
          0.12694641947746277,
          0.2066621482372284,
          0.03591145575046539,
          0.036059752106666565,
          0.02295202761888504,
          -0.07562115043401718,
          0.12512977421283722,
          -0.0987633466720581,
          0.15090391039848328,
          0.17659783363342285,
          0.20825856924057007,
          -0.022750623524188995,
          -0.060518037527799606,
          0.051150813698768616,
          0.12218565493822098,
          -0.10417138040065765,
          0.03130098432302475,
          0.0003173973527736962,
          -0.08382116258144379,
          -0.0059784636832773685,
          -0.03770136833190918,
          -0.041031744331121445
        ],
        [
          -0.1300918608903885,
          0.1367403268814087,
          0.131355419754982,
          0.005519168451428413,
          -0.00869050808250904,
          -0.04662516713142395,
          -0.12268185615539551,
          -0.16340003907680511,
          0.07420472055673599,
          -0.06770136952400208,
          -0.07347448915243149,
          0.018266072496771812,
          -0.039027806371450424,
          -0.03398410975933075,
          0.01913166046142578,
          -0.01991969160735607,
          -0.0420093834400177,
          -0.028417570516467094,
          -0.14122715592384338,
          0.15487100183963776,
          -0.028187094256281853,
          0.005023823119699955,
          -0.006842904724180698,
          0.059015221893787384,
          0.14411461353302002,
          0.062441322952508926
        ],
        [
          -0.1297803819179535,
          0.0466000996530056,
          0.11773794889450073,
          0.031069574877619743,
          0.08396472781896591,
          0.13160787522792816,
          -0.03255012258887291,
          0.0009956321446225047,
          -0.10427381843328476,
          -0.039516616612672806,
          0.08615100383758545,
          0.08104288578033447,
          -0.09948740154504776,
          -0.12434375286102295,
          -0.10790736228227615,
          -0.1673070192337036,
          -0.11972697079181671,
          -0.012319597415626049,
          0.06684132665395737,
          0.032106224447488785,
          -0.09761480987071991,
          -0.14767086505889893,
          0.07028459757566452,
          -0.0705893337726593,
          -0.05529752001166344,
          0.06638343632221222
        ],
        [
          -0.0729641392827034,
          -0.016347283497452736,
          -0.011967066675424576,
          -0.04256536066532135,
          -0.0808926373720169,
          -0.14928068220615387,
          -0.13627281785011292,
          -0.08358379453420639,
          0.16578279435634613,
          -0.07987740635871887,
          -0.10599219053983688,
          0.044101741164922714,
          0.051255639642477036,
          0.0952664315700531,
          0.13156847655773163,
          0.09295118600130081,
          -0.1657482087612152,
          0.013515413738787174,
          0.105380117893219,
          -0.016031574457883835,
          -0.04599504545331001,
          0.16663315892219543,
          -0.047277431935071945,
          -0.08744323253631592,
          -0.1439501941204071,
          0.0005957165267318487
        ],
        [
          0.07038611173629761,
          0.034134745597839355,
          0.029430249705910683,
          -0.15557746589183807,
          -0.19397012889385223,
          -0.004473417531698942,
          0.16527912020683289,
          0.10109526664018631,
          -0.11846853792667389,
          -0.032406557351350784,
          -0.14568708837032318,
          -0.09136650711297989,
          0.03180612623691559,
          0.09537257254123688,
          0.14922228455543518,
          -0.16398394107818604,
          0.10383880138397217,
          -0.140376478433609,
          0.06276053190231323,
          0.16450054943561554,
          -2.748548286035657e-05,
          0.08647686243057251,
          -0.0932035893201828,
          -0.08947083353996277,
          0.09816434979438782,
          -0.021609975025057793
        ],
        [
          -0.03904842585325241,
          -0.07933131605386734,
          0.12320642173290253,
          0.08474428951740265,
          0.05721631273627281,
          -0.10613984614610672,
          -0.15276484191417694,
          -0.004857033956795931,
          0.05507307127118111,
          -0.08762669563293457,
          -0.052894476801157,
          0.12718547880649567,
          0.013272365555167198,
          0.005970533471554518,
          -0.04784701019525528,
          -0.17619454860687256,
          -0.17440137267112732,
          -0.08921194821596146,
          -0.1041238009929657,
          0.05678112432360649,
          -0.055468201637268066,
          -0.0714365541934967,
          0.16253887116909027,
          0.06862396001815796,
          0.05698343366384506,
          -0.07413699477910995
        ]
      ],
      "network.0.bias": [
        -0.05822053179144859,
        0.0601017065346241,
        -0.13605079054832458,
        -0.12496232241392136,
        -0.03791441395878792,
        -0.008361637592315674,
        -0.11737571656703949,
        0.1408226490020752,
        0.1544472724199295,
        0.004791247192770243,
        0.03219221904873848,
        -0.14143875241279602,
        -0.07165946811437607,
        0.04800313338637352,
        0.08279772847890854,
        -0.02640622667968273
      ],
      "network.1.weight": [
        0.9310574531555176,
        0.9199377298355103,
        0.8405136466026306,
        0.8360755443572998,
        0.6218827366828918,
        0.6323908567428589,
        0.8761546015739441,
        0.8041048049926758,
        0.8950269222259521,
        0.6333050727844238,
        0.7256420254707336,
        0.6218792796134949,
        0.6248502135276794,
        0.7017014026641846,
        0.9148333072662354,
        0.7521821856498718
      ],
      "network.1.bias": [
        -0.017702890560030937,
        -0.018142860382795334,
        -0.015214797109365463,
        -0.0011170647339895368,
        0.0,
        -0.023686720058321953,
        -0.00425352668389678,
        -0.0271109901368618,
        -0.028683951124548912,
        -0.0030885343439877033,
        -0.01184555608779192,
        -0.013327967375516891,
        -0.005117703694850206,
        -0.01874115690588951,
        -0.031779587268829346,
        -0.005895187146961689
      ],
      "network.4.weight": [
        [
          -0.07659577578306198,
          0.12203813344240189,
          -0.17337751388549805,
          0.13462908565998077,
          3.892808297933925e-09,
          0.0049311574548482895,
          -0.08371228724718094,
          0.00716914189979434,
          -0.07594608515501022,
          0.09330438822507858,
          -0.011900290846824646,
          0.010640493594110012,
          0.040580540895462036,
          -0.09890207648277283,
          -0.12514628469944,
          0.17482197284698486
        ]
      ],
      "network.4.bias": [
        0.1912533938884735
      ]
    }
  }
}