{
  "project": "Aether Quant",
  "phase": "v2_multitask_horizons_model",
  "version_id": "8b190a9d-d767-4806-87c2-c741173dd315",
  "status": "trained",
  "trained_at": "2026-07-17T17:08:49.313909+00:00",
  "model": {
    "type": "multitask_direction_magnitude_volatility_horizons",
    "model_input_features": [
      "close_to_close_return_1d_scaled",
      "close_to_close_return_5d_scaled",
      "close_to_close_return_20d_scaled",
      "rolling_volatility_5d_scaled",
      "rolling_volatility_20d_scaled",
      "momentum_5d_scaled",
      "momentum_20d_scaled",
      "high_low_range_pct_scaled",
      "open_close_range_pct_scaled",
      "volume_change_1d_scaled",
      "rsi_14_scaled",
      "atr_pct_14_scaled",
      "bollinger_pctb_20_scaled",
      "volume_zscore_20_scaled",
      "macd_histogram_norm_scaled",
      "dist_52w_high_scaled",
      "regime_signal_confidence_scaled",
      "regime_signal_trend_score_scaled",
      "regime_signal_risk_score_scaled",
      "liquidity_log_dollar_volume_scaled",
      "liquidity_spread_proxy_scaled",
      "topology_correlation_strength_scaled",
      "peer_rank1_return_1d_scaled",
      "peer_rank2_return_1d_scaled",
      "peer_rank3_return_1d_scaled",
      "peer_mean_return_1d_scaled",
      "cs_momentum_rank_20_scaled",
      "macro_yield_curve_slope_proxy_scaled",
      "macro_credit_spread_proxy_scaled",
      "macro_crypto_risk_appetite_proxy_scaled",
      "bond_yield_curve_level_scaled",
      "bond_yield_curve_slope_scaled",
      "bond_yield_curve_curvature_scaled",
      "bond_credit_spread_level_scaled",
      "bond_empirical_duration_beta_scaled",
      "regime_trend_bullish",
      "regime_trend_bearish",
      "regime_trend_sideways",
      "regime_volatility_low",
      "regime_volatility_normal",
      "regime_volatility_high",
      "regime_risk_on",
      "regime_risk_off",
      "regime_risk_neutral",
      "topology_risk_normal",
      "topology_risk_elevated",
      "topology_risk_isolated",
      "asset_class_equity",
      "asset_class_crypto",
      "asset_class_bond",
      "asset_class_future",
      "asset_class_option"
    ],
    "hidden_layers": [
      64,
      32
    ],
    "dropout": 0.15,
    "activation": "relu",
    "normalization": "layernorm",
    "decision_threshold": 0.535
  },
  "export": {
    "trunk": [
      {
        "type": "linear",
        "weight_key": "trunk.0.weight",
        "bias_key": "trunk.0.bias",
        "in_features": 52,
        "out_features": 64
      },
      {
        "type": "layernorm",
        "weight_key": "trunk.1.weight",
        "bias_key": "trunk.1.bias",
        "normalized_shape": [
          64
        ],
        "eps": 1e-05
      },
      {
        "type": "relu"
      },
      {
        "type": "dropout",
        "p": 0.15
      },
      {
        "type": "linear",
        "weight_key": "trunk.4.weight",
        "bias_key": "trunk.4.bias",
        "in_features": 64,
        "out_features": 32
      },
      {
        "type": "layernorm",
        "weight_key": "trunk.5.weight",
        "bias_key": "trunk.5.bias",
        "normalized_shape": [
          32
        ],
        "eps": 1e-05
      },
      {
        "type": "relu"
      },
      {
        "type": "dropout",
        "p": 0.15
      }
    ],
    "heads": {
      "direction": [
        {
          "type": "linear",
          "weight_key": "head_direction.weight",
          "bias_key": "head_direction.bias",
          "in_features": 32,
          "out_features": 1
        },
        {
          "type": "sigmoid"
        }
      ],
      "magnitude": [
        {
          "type": "linear",
          "weight_key": "head_magnitude.weight",
          "bias_key": "head_magnitude.bias",
          "in_features": 32,
          "out_features": 1
        }
      ],
      "volatility": [
        {
          "type": "linear",
          "weight_key": "head_volatility.weight",
          "bias_key": "head_volatility.bias",
          "in_features": 32,
          "out_features": 1
        },
        {
          "type": "softplus"
        }
      ],
      "direction_5d": [
        {
          "type": "linear",
          "weight_key": "head_direction_5d.weight",
          "bias_key": "head_direction_5d.bias",
          "in_features": 32,
          "out_features": 1
        },
        {
          "type": "sigmoid"
        }
      ],
      "direction_20d": [
        {
          "type": "linear",
          "weight_key": "head_direction_20d.weight",
          "bias_key": "head_direction_20d.bias",
          "in_features": 32,
          "out_features": 1
        },
        {
          "type": "sigmoid"
        }
      ],
      "rank_5d": [
        {
          "type": "linear",
          "weight_key": "head_rank_5d.weight",
          "bias_key": "head_rank_5d.bias",
          "in_features": 32,
          "out_features": 1
        },
        {
          "type": "sigmoid"
        }
      ],
      "rank_20d": [
        {
          "type": "linear",
          "weight_key": "head_rank_20d.weight",
          "bias_key": "head_rank_20d.bias",
          "in_features": 32,
          "out_features": 1
        },
        {
          "type": "sigmoid"
        }
      ],
      "sector_neutral_rank_20d": [
        {
          "type": "linear",
          "weight_key": "head_sector_neutral_rank_20d.weight",
          "bias_key": "head_sector_neutral_rank_20d.bias",
          "in_features": 32,
          "out_features": 1
        },
        {
          "type": "sigmoid"
        }
      ]
    },
    "state_dict": {
      "trunk.0.weight": [
        [
          0.08034030348062515,
          0.08814162760972977,
          -0.01773836277425289,
          0.1413552612066269,
          -0.018946349620819092,
          0.001912678824737668,
          -0.05226659029722214,
          0.09711165726184845,
          0.09955225139856339,
          -0.10474587231874466,
          0.134938046336174,
          0.025040045380592346,
          0.1061888113617897,
          -0.0037291706539690495,
          0.09972196817398071,
          -0.035087037831544876,
          0.13667327165603638,
          0.025950560346245766,
          -0.05531539022922516,
          0.026962993666529655,
          -0.06112876906991005,
          -0.02400415763258934,
          -0.06207285448908806,
          0.07562635093927383,
          -0.11851505935192108,
          -0.07652763277292252,
          -0.031182678416371346,
          -0.07072840631008148,
          0.00729587534442544,
          -0.11308813095092773,
          0.13067065179347992,
          -0.08804876357316971,
          0.11153148114681244,
          0.08235259354114532,
          -0.022885993123054504,
          0.09612542390823364,
          0.023441854864358902,
          0.1139274314045906,
          0.018484922125935555,
          -0.036511071026325226,
          0.047121163457632065,
          -0.025039715692400932,
          0.0582142174243927,
          0.11428768187761307,
          0.08120235800743103,
          -0.03841804340481758,
          0.1025451123714447,
          0.03501404821872711,
          0.09406716376543045,
          -0.09334607422351837,
          -1.2009415684133273e-08,
          -1.6144170953980084e-22
        ],
        [
          -0.11363956332206726,
          0.0908161848783493,
          0.038332488387823105,
          0.04889414459466934,
          0.03281556814908981,
          -0.023763591423630714,
          0.10586077719926834,
          -0.09730732440948486,
          0.009020295925438404,
          -0.10833945870399475,
          0.06384766846895218,
          -0.05241350084543228,
          0.04450488090515137,
          -0.0030160879250615835,
          0.09257384389638901,
          -0.09110464155673981,
          -0.07098159939050674,
          -0.08627121150493622,
          0.14611372351646423,
          0.04148060083389282,
          0.14207078516483307,
          -0.1505458503961563,
          -0.13972385227680206,
          -0.0961773619055748,
          -0.0879138708114624,
          0.06230391934514046,
          0.07383310794830322,
          0.11818565428256989,
          -0.08517227321863174,
          -0.05044513940811157,
          0.07914881408214569,
          -0.07874658703804016,
          0.07670233398675919,
          -0.03913016989827156,
          0.07646101713180542,
          -0.08777869492769241,
          -0.05093713477253914,
          0.04862280562520027,
          0.04586515575647354,
          -0.02821720391511917,
          0.07105232030153275,
          0.10072994232177734,
          -0.08585789799690247,
          -0.04826514422893524,
          0.13128098845481873,
          -0.057423003017902374,
          -0.005205417517572641,
          -0.11830994486808777,
          -0.08975440263748169,
          0.04699926823377609,
          3.506125326805193e-25,
          -9.97309297591422e-16
        ],
        [
          -0.014998816885054111,
          -0.10525323450565338,
          -0.1054513156414032,
          -0.03423556312918663,
          -0.0811840072274208,
          -0.09890726208686829,
          0.1475944072008133,
          0.06379526108503342,
          0.02557290904223919,
          -0.12300581485033035,
          -0.08312978595495224,
          -0.011911372654139996,
          0.01384931243956089,
          -0.12014280259609222,
          -0.047568123787641525,
          -0.0941847413778305,
          0.018766123801469803,
          -0.04340646415948868,
          -0.0013788295909762383,
          -0.11007300019264221,
          -0.06178198754787445,
          -0.04499703645706177,
          -0.049713749438524246,
          -0.10639140754938126,
          0.12349013239145279,
          -0.026510262861847878,
          0.12462335079908371,
          0.03177974745631218,
          -0.10284948348999023,
          0.09480813145637512,
          -0.04184478893876076,
          -0.009183335117995739,
          -0.10155678540468216,
          -0.09802614897489548,
          0.0449506901204586,
          -0.021756989881396294,
          0.04233860224485397,
          -0.11084578186273575,
          0.10095330327749252,
          -0.10586776584386826,
          0.00265498086810112,
          0.03279181197285652,
          0.060222845524549484,
          0.11006371676921844,
          0.1229814663529396,
          -0.06629857420921326,
          0.028539566323161125,
          -0.07254964113235474,
          0.022205540910363197,
          -0.1055355966091156,
          4.509841944333459e-10,
          -2.3744199101604366e-15
        ],
        [
          0.08202741295099258,
          0.06026915833353996,
          0.03320063278079033,
          -0.05104649439454079,
          0.1376817673444748,
          0.04229695722460747,
          0.006340412888675928,
          -0.1090085431933403,
          0.07098639011383057,
          -0.02638489007949829,
          -0.053153447806835175,
          0.12669478356838226,
          0.042131207883358,
          -0.06305664777755737,
          -0.07205599546432495,
          -0.02461015060544014,
          0.07487653195858002,
          -0.044130757451057434,
          -0.09264709800481796,
          -0.05478663742542267,
          -0.09110187739133835,
          0.08973672986030579,
          0.12470713257789612,
          -0.12280497699975967,
          0.04330161213874817,
          0.0851246789097786,
          0.0028299447149038315,
          -0.02593277022242546,
          0.07571473717689514,
          0.08396341651678085,
          0.04437774047255516,
          -0.011256489902734756,
          -0.030398700386285782,
          0.021391376852989197,
          -0.05583113804459572,
          -0.026421235874295235,
          0.10178924351930618,
          0.1242976263165474,
          -0.009978475980460644,
          -0.009883086197078228,
          0.0023845925461500883,
          -0.003136499086394906,
          0.03988919034600258,
          0.06148410588502884,
          -0.1106974333524704,
          -0.05383715406060219,
          0.11795804649591446,
          0.07336898148059845,
          -0.006959897466003895,
          -0.08020740002393723,
          1.5158154518398416e-19,
          -2.0246146426039502e-10
        ],
        [
          -0.07350470125675201,
          0.035827986896038055,
          0.07057377696037292,
          0.023258719593286514,
          -0.15654189884662628,
          -0.09203265607357025,
          -0.03752988576889038,
          0.1093415692448616,
          0.013986930251121521,
          -0.05040719360113144,
          0.07803147286176682,
          -0.08270837366580963,
          -0.08215375244617462,
          0.08236110210418701,
          -0.06013964116573334,
          -0.028331516310572624,
          -0.14994849264621735,
          0.07503592222929001,
          0.11706721782684326,
          0.011780166067183018,
          -0.10709793120622635,
          -0.08929501473903656,
          -0.13594263792037964,
          0.06759832799434662,
          0.03172741085290909,
          0.07995132356882095,
          0.05152258276939392,
          -0.003119318513199687,
          0.038312241435050964,
          -0.10989915579557419,
          -0.1284680813550949,
          -0.14926747977733612,
          0.03986776992678642,
          -0.09720255434513092,
          -0.06881076842546463,
          -0.09430810064077377,
          -0.04156317934393883,
          -0.08996903151273727,
          -0.07219944894313812,
          0.018615782260894775,
          -0.0584605373442173,
          0.08655960112810135,
          -0.05828864872455597,
          -0.11897830665111542,
          -0.023613352328538895,
          -0.08654964715242386,
          -0.05606325343251228,
          -0.14751243591308594,
          0.046040862798690796,
          -0.07646714150905609,
          5.483466714525684e-21,
          1.337445027592584e-21
        ],
        [
          0.061705030500888824,
          -0.17262816429138184,
          0.1266651451587677,
          -0.10896993428468704,
          0.018848758190870285,
          0.0590352937579155,
          0.010179036296904087,
          -0.03521670028567314,
          -0.05386190488934517,
          -0.08896652609109879,
          0.0953933373093605,
          -0.1654600352048874,
          0.11168154329061508,
          0.09885600209236145,
          0.08813609927892685,
          0.002997628878802061,
          -0.12748007476329803,
          0.041229862719774246,
          0.09699762612581253,
          -0.1674807220697403,
          -0.02185906283557415,
          -0.012195760384202003,
          0.024421384558081627,
          -0.04054686054587364,
          -0.02899213880300522,
          -0.00757963489741087,
          -0.15756215155124664,
          0.10542058199644089,
          0.13843029737472534,
          -0.007385869976133108,
          -0.0567140057682991,
          -0.07439637929201126,
          -0.15453055500984192,
          -0.204985573887825,
          -0.01659560389816761,
          -0.06157277524471283,
          -0.08040158450603485,
          0.0073647270910441875,
          -0.026858897879719734,
          -0.019736453890800476,
          -0.04336099699139595,
          -0.012445393949747086,
          -0.02480643428862095,
          -0.04612996429204941,
          -0.08381635695695877,
          0.07557792216539383,
          -0.04654041305184364,
          0.07007747888565063,
          -0.08338914811611176,
          0.027624554932117462,
          1.2519033587565787e-09,
          1.068254889601435e-21
        ],
        [
          -0.11704667657613754,
          0.031245410442352295,
          0.1064603328704834,
          0.05161401256918907,
          0.11244625598192215,
          0.11235329508781433,
          -0.04516321420669556,
          0.06819301843643188,
          -0.09186065942049026,
          -0.031593963503837585,
          0.052429091185331345,
          0.09693574905395508,
          -0.13769905269145966,
          -0.13484716415405273,
          -0.058963365852832794,
          -0.08668724447488785,
          -0.11095135658979416,
          -0.06027902662754059,
          0.025285758078098297,
          0.10976794362068176,
          -0.09285511076450348,
          -0.101316437125206,
          0.044846124947071075,
          -0.08674344420433044,
          -0.03382780775427818,
          0.056526731699705124,
          -0.08014827221632004,
          -0.033426254987716675,
          0.04648111015558243,
          -0.0671522244811058,
          -0.05933760479092598,
          -0.17854268848896027,
          -0.13196074962615967,
          -0.10436917096376419,
          0.18700474500656128,
          -0.08919234573841095,
          -0.03885486349463463,
          0.03466654196381569,
          0.02101549506187439,
          0.0962066501379013,
          0.1669231653213501,
          0.08062736690044403,
          -0.08519601076841354,
          -0.0074643041007220745,
          0.10089453309774399,
          0.03140978887677193,
          -0.1327647715806961,
          0.11718761175870895,
          0.015838898718357086,
          -0.06883912533521652,
          -2.7781343892030463e-10,
          -3.4109169645969705e-25
        ],
        [
          0.08504751324653625,
          0.04034508764743805,
          0.02802220545709133,
          -0.08828951418399811,
          -0.11530183255672455,
          0.01251146662980318,
          0.12514330446720123,
          0.07966667413711548,
          -0.0632203221321106,
          -0.01893162727355957,
          -0.11323995143175125,
          -0.057456597685813904,
          0.027216902002692223,
          0.05265677347779274,
          0.092159204185009,
          -0.12403944879770279,
          0.07070823758840561,
          -0.09301192313432693,
          0.013115365989506245,
          0.0903671458363533,
          0.007359263952821493,
          0.12388408184051514,
          -0.09013788402080536,
          -0.03988092765212059,
          0.0817805677652359,
          -0.011007609777152538,
          -0.007968534715473652,
          -0.05336969718337059,
          0.06245434284210205,
          0.060358501970767975,
          0.07453478872776031,
          -0.05552615597844124,
          -0.0797649547457695,
          0.02716905064880848,
          0.05748672038316727,
          -0.08757750689983368,
          -0.026439454406499863,
          0.06702195107936859,
          -0.016621209681034088,
          3.938713780371472e-05,
          -0.043094027787446976,
          -0.1561497151851654,
          -0.10828803479671478,
          -0.07167615741491318,
          -0.09253161400556564,
          0.015569961629807949,
          -0.05805400013923645,
          -0.07997067272663116,
          0.0985005646944046,
          0.030988400802016258,
          -1.212450107540298e-16,
          8.857504929180373e-22
        ],
        [
          -0.06152752786874771,
          0.06447147578001022,
          -0.09246989339590073,
          -0.09641075879335403,
          -0.010886331088840961,
          -0.03585147112607956,
          -0.10388731211423874,
          0.07126926630735397,
          0.08947126567363739,
          0.02495080605149269,
          -0.0002924267901107669,
          -0.1243554949760437,
          -0.012251646257936954,
          0.07929457724094391,
          0.06603948771953583,
          -0.029641639441251755,
          -0.07165893167257309,
          0.07698262482881546,
          -0.10580099374055862,
          0.016052918508648872,
          -0.05665057897567749,
          0.030526602640748024,
          -0.043574173003435135,
          0.020088080316781998,
          -0.05224623158574104,
          0.09292669594287872,
          0.005868973210453987,
          0.10840031504631042,
          0.1215914785861969,
          -0.060465436428785324,
          -0.12413438409566879,
          0.047477368265390396,
          0.05112585425376892,
          -0.12172628939151764,
          -0.02142971381545067,
          -0.17371702194213867,
          -0.12191669642925262,
          0.010807093232870102,
          0.02283574268221855,
          0.006678283680230379,
          -0.08680713176727295,
          0.10952621698379517,
          0.00986021850258112,
          -0.10201778262853622,
          -0.02504442073404789,
          0.02026190422475338,
          0.024441082030534744,
          -0.12910522520542145,
          0.027361823245882988,
          -0.07491989433765411,
          -1.1332274094805195e-12,
          -5.3796931908304984e-20
        ],
        [
          0.12296874821186066,
          0.10413967818021774,
          0.08648902177810669,
          0.028714852407574654,
          0.08711859583854675,
          -0.030700013041496277,
          -0.11082816123962402,
          0.05216982215642929,
          -0.05455337092280388,
          -0.05537019670009613,
          -0.06114766746759415,
          0.013344871811568737,
          0.06250181049108505,
          -0.04323671758174896,
          -0.07965022325515747,
          0.010103663429617882,
          -0.06243213638663292,
          -0.12270976603031158,
          0.06003214046359062,
          -0.029132910072803497,
          0.10592207312583923,
          0.09013813734054565,
          0.04490141570568085,
          0.0372222475707531,
          0.031457118690013885,
          -0.0019110841676592827,
          -0.02832494117319584,
          0.011945826932787895,
          0.005225327797234058,
          0.06694993376731873,
          -0.07627061009407043,
          -0.09608640521764755,
          -0.05922577902674675,
          -0.08006485551595688,
          0.051811717450618744,
          0.08440159261226654,
          0.1165052279829979,
          0.040329769253730774,
          -0.10309674590826035,
          -0.08987610042095184,
          -0.04553021490573883,
          -0.044276803731918335,
          0.021195461973547935,
          -0.14016474783420563,
          0.025086574256420135,
          -0.1274735927581787,
          -0.07713446766138077,
          -0.11999838054180145,
          0.11122939735651016,
          -0.15284575521945953,
          3.889505837090072e-15,
          5.507858394689313e-25
        ],
        [
          -0.010772942565381527,
          0.08309143781661987,
          -0.001008497318252921,
          0.09012654423713684,
          0.11724753677845001,
          -0.1220344752073288,
          0.06422015279531479,
          0.051915958523750305,
          0.007297529838979244,
          -0.01688033528625965,
          0.038729675114154816,
          -0.015615825541317463,
          -0.02768770605325699,
          0.12392039597034454,
          0.16661544144153595,
          0.01958894357085228,
          -0.12773683667182922,
          0.015894047915935516,
          -0.10023295134305954,
          0.1483026146888733,
          -0.04136095941066742,
          -0.03127081319689751,
          0.00489890156313777,
          0.050938889384269714,
          0.1481919288635254,
          0.04164353758096695,
          0.07147160172462463,
          0.09341244399547577,
          0.14313416182994843,
          -0.07820302248001099,
          -0.09479424357414246,
          0.004762859549373388,
          -0.08683053404092789,
          0.05800774693489075,
          0.032406486570835114,
          -0.05395784601569176,
          0.06339135020971298,
          0.033890776336193085,
          0.06080801412463188,
          0.16573794186115265,
          0.14359262585639954,
          0.14873291552066803,
          0.010555035434663296,
          -0.08701803535223007,
          -0.08102234452962875,
          -0.037409115582704544,
          -0.10687902569770813,
          -0.03742701932787895,
          -0.08011458069086075,
          -0.14276564121246338,
          -7.304034794140439e-19,
          -1.0422432694667805e-08
        ],
        [
          -0.08260372281074524,
          0.03665461763739586,
          0.11028430610895157,
          -0.022000599652528763,
          -0.02054675482213497,
          0.05759995058178902,
          -0.07110273092985153,
          -0.03226044774055481,
          0.09149318933486938,
          -0.11385133862495422,
          0.0007893177098594606,
          0.14421088993549347,
          -0.0017525248695164919,
          0.036339133977890015,
          -0.019575444981455803,
          -0.009318788535892963,
          0.017728745937347412,
          0.02700619027018547,
          0.04046016186475754,
          0.13001401722431183,
          -0.09513194859027863,
          0.031707849353551865,
          -0.04184594377875328,
          -0.07456762343645096,
          -0.006273182574659586,
          -0.09704938530921936,
          0.06742000579833984,
          0.007462930399924517,
          -0.046607621014118195,
          0.03241609409451485,
          -0.14285050332546234,
          -0.05049293860793114,
          -0.017958078533411026,
          -0.11785604059696198,
          -0.09386688470840454,
          -0.007363347802311182,
          0.11627732217311859,
          0.13290484249591827,
          0.08654438704252243,
          -0.07179020345211029,
          -0.057607341557741165,
          0.1272517889738083,
          0.05457152798771858,
          0.010803848505020142,
          0.029348526149988174,
          -0.07213748246431351,
          -0.07014644891023636,
          0.13221950829029083,
          -0.019688550382852554,
          0.00524209626019001,
          -1.0360259742117628e-12,
          4.933245073424876e-20
        ],
        [
          -0.00014137713878881186,
          -0.08433972299098969,
          -0.0022789333015680313,
          0.03534659370779991,
          -0.16305595636367798,
          0.04139723256230354,
          -0.07575954496860504,
          -0.08629190921783447,
          0.06412163376808167,
          0.08151143789291382,
          -0.01496799010783434,
          -0.079100102186203,
          -0.10534247010946274,
          -0.08140983432531357,
          -0.11342083662748337,
          -0.0007323857280425727,
          0.03443799167871475,
          -0.11474934220314026,
          0.1437198370695114,
          0.08732359856367111,
          -0.157251238822937,
          -0.10825596749782562,
          0.04080121964216232,
          -0.016762828454375267,
          -0.015442058444023132,
          -0.06061260402202606,
          0.14600281417369843,
          -0.06747396290302277,
          0.12390913814306259,
          -0.0005317456088960171,
          0.02889014407992363,
          0.09029372036457062,
          -0.044244054704904556,
          -0.0749267190694809,
          -0.01108991727232933,
          0.1267790049314499,
          -0.09404493868350983,
          0.04928288236260414,
          -0.11567575484514236,
          0.07526126503944397,
          0.03892514109611511,
          0.026507224887609482,
          0.05169634521007538,
          -0.0009069470688700676,
          0.09270866215229034,
          -0.11561708897352219,
          0.00021910195937380195,
          0.06702620536088943,
          0.1937134861946106,
          0.09290547668933868,
          -1.1847466773904844e-15,
          -1.2588916217250948e-14
        ],
        [
          -0.01073212269693613,
          -0.0212391447275877,
          -0.11505180597305298,
          -0.026620926335453987,
          0.10221274197101593,
          0.027153946459293365,
          -0.0702015608549118,
          0.048581670969724655,
          -0.030454417690634727,
          0.1071096882224083,
          -0.10819336026906967,
          -0.0322270393371582,
          -0.13040520250797272,
          -0.06255750358104706,
          0.0943693146109581,
          0.13067831099033356,
          -0.006091629154980183,
          0.1441674828529358,
          0.019668161869049072,
          0.10274136066436768,
          0.11279570311307907,
          0.10332800447940826,
          -0.0718371793627739,
          0.12862025201320648,
          0.079755499958992,
          -0.059028808027505875,
          -0.05761587247252464,
          -0.09777803719043732,
          0.04089080169796944,
          -0.1375403106212616,
          0.01935877650976181,
          -0.006425909232348204,
          -0.16740818321704865,
          0.027572238817811012,
          -0.017795931547880173,
          0.06512816250324249,
          0.08087430894374847,
          -0.13999983668327332,
          0.11341176182031631,
          0.13325989246368408,
          0.051792845129966736,
          -0.12936019897460938,
          -0.043449945747852325,
          -0.040638554841279984,
          -0.032307591289281845,
          0.07707061618566513,
          0.023674484342336655,
          0.10927161574363708,
          -0.048806242644786835,
          0.045669399201869965,
          7.67345828436376e-23,
          -1.426554946219738e-12
        ],
        [
          -0.12834931910037994,
          -0.041929807513952255,
          0.08580541610717773,
          -0.14030852913856506,
          -0.12517626583576202,
          0.10546206682920456,
          0.06604130566120148,
          0.09431057423353195,
          -0.0720074325799942,
          -0.10699133574962616,
          0.04461582750082016,
          0.12601763010025024,
          0.07163819670677185,
          -0.021003378555178642,
          0.0758332833647728,
          0.1238999143242836,
          -0.10455786436796188,
          -0.06183484196662903,
          0.09290589392185211,
          -0.12718349695205688,
          -0.07851345837116241,
          0.04585292935371399,
          0.04491853713989258,
          0.04582907259464264,
          -0.06508206576108932,
          -0.0009244381217285991,
          0.11400482803583145,
          -0.011564764194190502,
          -0.045700982213020325,
          0.07341840118169785,
          -0.07015761733055115,
          0.1264583021402359,
          -0.07181048393249512,
          -0.030873078852891922,
          -0.0759144276380539,
          -0.09032200276851654,
          -0.10183482617139816,
          0.07758541405200958,
          0.03257956728339195,
          -0.11962774395942688,
          -0.0995716005563736,
          0.138728067278862,
          0.05692601203918457,
          0.046794768422842026,
          -0.08225368708372116,
          -0.07020991295576096,
          -0.012752475216984749,
          -0.0582691989839077,
          -0.050771210342645645,
          0.0292222760617733,
          1.9965880184526556e-24,
          -2.647689354934017e-24
        ],
        [
          0.010273415595293045,
          -0.04763006418943405,
          0.020330505445599556,
          0.05489245057106018,
          -0.0721619576215744,
          -0.12913326919078827,
          0.056278906762599945,
          0.015679463744163513,
          -0.07514920830726624,
          0.1040441021323204,
          -0.08229263126850128,
          0.08999919891357422,
          0.06187092140316963,
          -0.12089356034994125,
          0.08189381659030914,
          -0.13752365112304688,
          -0.1142214834690094,
          -0.034602247178554535,
          -0.10922744125127792,
          0.13752199709415436,
          -0.031018314883112907,
          0.06663627922534943,
          -0.12020815163850784,
          0.08154819160699844,
          -0.03398105874657631,
          -0.09973491728305817,
          -0.0014799595810472965,
          0.10280706733465195,
          0.0930207297205925,
          -0.04863537847995758,
          -0.0643395185470581,
          0.033561769872903824,
          0.03339996561408043,
          0.09808055311441422,
          0.12892448902130127,
          -0.005213002674281597,
          0.10403889417648315,
          0.1367260366678238,
          -0.006448067259043455,
          0.1374533772468567,
          0.06743273138999939,
          0.15072479844093323,
          -0.055696792900562286,
          -0.031867753714323044,
          -0.003286691615357995,
          -0.0017752323765307665,
          0.12113703787326813,
          -0.03841932490468025,
          0.08276194334030151,
          -0.03323312848806381,
          6.861128172979281e-19,
          -8.284993907713309e-25
        ],
        [
          -0.12022699415683746,
          -0.07596845179796219,
          -0.11497290432453156,
          0.08757193386554718,
          -0.07809951156377792,
          -0.011842151172459126,
          0.013898294419050217,
          -0.06450025737285614,
          0.03911912813782692,
          -0.11189152300357819,
          -0.11721909046173096,
          -0.11260806024074554,
          -0.06600018590688705,
          -0.033692486584186554,
          0.006813519634306431,
          -0.042800888419151306,
          0.0415395088493824,
          0.1116790845990181,
          0.028972914442420006,
          -0.04758007451891899,
          -0.12106327712535858,
          0.04214204475283623,
          -0.07908904552459717,
          0.05757290497422218,
          0.07226867228746414,
          0.03737879917025566,
          0.09768088907003403,
          0.12162050604820251,
          0.016081105917692184,
          -0.07752896845340729,
          0.13774053752422333,
          -0.056405894458293915,
          -0.0418064221739769,
          0.10874063521623611,
          0.07884730398654938,
          0.01678198017179966,
          0.003058705711737275,
          -0.13325822353363037,
          -0.032000832259655,
          0.11069692671298981,
          0.00880904495716095,
          -0.0100940503180027,
          -0.03563878685235977,
          -0.038709044456481934,
          0.06310831010341644,
          -0.013447382487356663,
          0.07416471093893051,
          -0.044558048248291016,
          0.030046729370951653,
          0.040774110704660416,
          1.2597220201785053e-24,
          -3.7969988939960374e-18
        ],
        [
          0.08194056898355484,
          0.11383894830942154,
          0.10943625122308731,
          -0.06077023223042488,
          -0.1321033090353012,
          0.012141212821006775,
          0.00304245064035058,
          -0.057990822941064835,
          -0.002843477064743638,
          -0.019276870414614677,
          0.1182536780834198,
          0.010757870972156525,
          -0.0382736437022686,
          -0.07238356024026871,
          -0.025681955739855766,
          -0.0414302721619606,
          0.12931190431118011,
          0.07413908839225769,
          0.1333901584148407,
          -0.021374449133872986,
          9.142779890680686e-05,
          0.03151682764291763,
          -0.13807809352874756,
          0.005479768384248018,
          -0.020962918177247047,
          -0.08727248758077621,
          -0.08954761922359467,
          0.10578399896621704,
          0.14379790425300598,
          0.028979483991861343,
          0.10674532502889633,
          -0.0695650577545166,
          -0.09998747706413269,
          0.09720751643180847,
          -0.0022114142775535583,
          -0.016969870775938034,
          -0.08371421694755554,
          0.06569956988096237,
          -0.054540105164051056,
          -0.007558508776128292,
          0.15122979879379272,
          -0.016224050894379616,
          -0.024152422323822975,
          0.08224769681692123,
          -0.03300702944397926,
          0.010153909213840961,
          0.1525603085756302,
          -0.05606928467750549,
          -0.09678413718938828,
          -0.035788580775260925,
          -7.088958501957946e-25,
          2.8847812791171385e-21
        ],
        [
          -0.07578107714653015,
          0.03636398911476135,
          0.04135182872414589,
          -0.06936151534318924,
          -0.14397171139717102,
          -0.06197439879179001,
          -0.039324790239334106,
          -0.07351905107498169,
          -0.13359670341014862,
          0.0026256763376295567,
          -0.08045969158411026,
          -0.13427886366844177,
          -0.1172315701842308,
          0.04249071702361107,
          -0.08554056286811829,
          -0.01635693572461605,
          0.0996037945151329,
          0.0847405269742012,
          0.10158935934305191,
          -0.10729309916496277,
          -0.12449260801076889,
          -0.06448180973529816,
          0.12402398884296417,
          0.01793419010937214,
          -0.1186646968126297,
          0.001538979820907116,
          -0.06669110804796219,
          -0.039333637803792953,
          -0.04687171056866646,
          0.11896685510873795,
          0.09708153456449509,
          -0.08376236259937286,
          -0.007914685644209385,
          -0.09195695072412491,
          0.032042257487773895,
          0.048419032245874405,
          0.023693522438406944,
          -0.027521220967173576,
          0.1458045244216919,
          -0.05297987163066864,
          -0.029261380434036255,
          0.10966235399246216,
          0.0878966748714447,
          0.1166348084807396,
          0.058666080236434937,
          -0.01833256147801876,
          0.06590425968170166,
          0.1034902036190033,
          -0.01649676077067852,
          0.010480737313628197,
          3.927186203627798e-17,
          2.822068635754932e-24
        ],
        [
          0.04335258901119232,
          -0.012815697118639946,
          -0.007829979062080383,
          0.029921699315309525,
          -0.05257232114672661,
          -0.09921875596046448,
          0.11208980530500412,
          -0.10168302804231644,
          -0.024344129487872124,
          0.004982953891158104,
          0.015621524304151535,
          -0.1474110335111618,
          0.02249789796769619,
          -0.11249660700559616,
          -0.08212864398956299,
          0.06405062228441238,
          -0.07839855551719666,
          -0.05601544678211212,
          0.0027928720228374004,
          -0.02649328112602234,
          -0.08956378698348999,
          -0.029306281358003616,
          -0.002575651975348592,
          -0.13792672753334045,
          -0.09996134787797928,
          -0.03227182850241661,
          0.06730230897665024,
          0.012893306091427803,
          -0.13609851896762848,
          0.09147150814533234,
          0.19658537209033966,
          0.1149124801158905,
          -0.0597800686955452,
          -0.07132112979888916,
          -0.1186201274394989,
          -0.1432257890701294,
          0.027946114540100098,
          -3.6627257941290736e-05,
          0.07863243669271469,
          -0.13972584903240204,
          0.025734668597579002,
          -0.05870680510997772,
          0.03823428601026535,
          -0.13131524622440338,
          -0.024130944162607193,
          -0.08755073696374893,
          -0.06708349287509918,
          0.10179760307073593,
          0.0420963279902935,
          -0.05802731215953827,
          -1.4870820622106787e-25,
          -2.3876480628456047e-24
        ],
        [
          -0.0900498703122139,
          0.10668830573558807,
          -0.027581380680203438,
          0.07709156721830368,
          -0.010995512828230858,
          -0.06535476446151733,
          -0.007180608808994293,
          0.05949372798204422,
          0.06637418270111084,
          -0.026765920221805573,
          0.1269609034061432,
          0.00641966424882412,
          -0.07453694194555283,
          -0.07457398623228073,
          0.060057349503040314,
          -0.05172104015946388,
          -0.02529020980000496,
          -0.08297218382358551,
          -0.04377209022641182,
          -0.1106538474559784,
          -0.1111227348446846,
          0.0743706151843071,
          0.11552000045776367,
          0.07351122796535492,
          -0.1161540225148201,
          0.04256770759820938,
          -0.08544672280550003,
          0.115028515458107,
          0.09627147763967514,
          0.11197291314601898,
          0.16251824796199799,
          0.1586654782295227,
          0.06008590757846832,
          0.11605004221200943,
          0.06609445065259933,
          0.04068274050951004,
          -0.04214845597743988,
          -0.018392449244856834,
          -0.1501622051000595,
          -0.02136772871017456,
          -0.12637442350387573,
          -0.09031803905963898,
          -0.08404034376144409,
          -0.09056071937084198,
          -0.014476140961050987,
          0.039038658142089844,
          0.15063363313674927,
          0.14650963246822357,
          -0.13324794173240662,
          -0.2558137774467468,
          5.877916831860835e-23,
          -6.236026750097192e-20
        ],
        [
          -0.12436947226524353,
          0.05023714900016785,
          0.1421312540769577,
          0.03396908938884735,
          -0.06434010714292526,
          0.11354126036167145,
          0.08492609858512878,
          0.09713279455900192,
          -0.10645713657140732,
          0.04910408332943916,
          -0.08113730698823929,
          0.14214977622032166,
          -0.059621162712574005,
          0.06586500257253647,
          0.032578498125076294,
          0.022906314581632614,
          -0.021843092516064644,
          0.080086350440979,
          -0.058729905635118484,
          -0.1438380926847458,
          -0.035206738859415054,
          0.11782865971326828,
          -0.004392403643578291,
          0.07159224152565002,
          -0.04424956440925598,
          0.1298256814479828,
          0.08965017646551132,
          0.02272450178861618,
          -0.05927671864628792,
          -0.07881433516740799,
          0.013946735300123692,
          -0.03759966418147087,
          0.1514250934123993,
          -0.1185152605175972,
          0.06273377686738968,
          0.16829262673854828,
          0.07134649157524109,
          0.06161146238446236,
          -0.13340170681476593,
          0.1543366014957428,
          0.00961216352880001,
          -0.1101621761918068,
          0.13666346669197083,
          -0.022707859054207802,
          0.0030975257977843285,
          0.1393461972475052,
          -0.05105600878596306,
          -0.07342882454395294,
          0.05102786421775818,
          -0.02664259821176529,
          6.445330439262196e-24,
          -2.984198825550788e-12
        ],
        [
          -0.0011017416836693883,
          -0.06071215122938156,
          -0.08151154220104218,
          -0.11358621716499329,
          0.08177407830953598,
          0.02640867978334427,
          -0.1297626942396164,
          0.10802019387483597,
          0.04526982083916664,
          0.016718117520213127,
          -0.07698613405227661,
          0.02425829879939556,
          0.11170494556427002,
          0.07025563716888428,
          -0.08894845098257065,
          0.10734416544437408,
          -0.004196783993393183,
          0.052876926958560944,
          0.09562558680772781,
          0.10911647230386734,
          -0.10326633602380753,
          0.12355760484933853,
          -0.08776247501373291,
          -0.0033595706336200237,
          -0.08984050899744034,
          -0.030828136950731277,
          -0.03709090128540993,
          -0.012044410221278667,
          -0.012014633975923061,
          0.04256631061434746,
          0.1563093215227127,
          0.06417189538478851,
          0.07769117504358292,
          0.035792335867881775,
          0.06976838409900665,
          -0.029319055378437042,
          4.954377072863281e-05,
          0.02573544718325138,
          -0.12768365442752838,
          -0.12853099405765533,
          0.01797141507267952,
          -0.06479358673095703,
          -0.006467681378126144,
          -0.03742999956011772,
          0.01019949372857809,
          0.08068706095218658,
          -0.046659741550683975,
          0.10109344124794006,
          0.09604079276323318,
          -0.1169971376657486,
          2.0679292967677038e-14,
          1.9483412550414664e-13
        ],
        [
          -0.06508424133062363,
          -0.03945418447256088,
          -0.015769796445965767,
          -0.0125737264752388,
          -0.06633363664150238,
          -0.029666444286704063,
          -0.054724425077438354,
          0.14114229381084442,
          -0.05360237881541252,
          -0.08129720389842987,
          0.04078095406293869,
          -0.005010278429836035,
          0.09423434734344482,
          0.08805536478757858,
          0.11234095692634583,
          -0.12769201397895813,
          0.07542254775762558,
          0.11194071918725967,
          -0.072768934071064,
          0.10535202920436859,
          0.10231888294219971,
          0.01110798865556717,
          0.07198242843151093,
          -0.02241097390651703,
          -0.10275477916002274,
          0.05144733563065529,
          0.019550567492842674,
          -0.050068799406290054,
          0.034160129725933075,
          -0.09579300880432129,
          0.08704645931720734,
          0.12762635946273804,
          0.04476872831583023,
          -0.05183182284235954,
          0.04205626994371414,
          -0.005158381536602974,
          0.02704520896077156,
          0.01178815308958292,
          0.07466680556535721,
          -0.07880356907844543,
          -0.07854260504245758,
          0.0008060767431743443,
          0.0076543292962014675,
          0.08982736617326736,
          -0.0993499830365181,
          -0.041111983358860016,
          -0.001625285018235445,
          -0.058610543608665466,
          0.04870479553937912,
          -0.018008170649409294,
          -8.646351412622266e-10,
          -3.8442966848456653e-25
        ],
        [
          -0.0502212829887867,
          0.024584338068962097,
          -0.01853042095899582,
          -0.12100273370742798,
          -0.002893430646508932,
          -0.0017908865120261908,
          -0.04288850724697113,
          0.11788630485534668,
          -0.013704508543014526,
          0.05912487581372261,
          0.05351954326033592,
          -0.10180973261594772,
          0.045393671840429306,
          0.06747915595769882,
          -0.07702713459730148,
          -0.12907537817955017,
          0.15356621146202087,
          0.10947071015834808,
          -0.0652642622590065,
          0.03318379446864128,
          -0.0041837673634290695,
          -0.11896878480911255,
          0.010530216619372368,
          0.05192217230796814,
          -0.03499387577176094,
          0.053167134523391724,
          -0.1288873553276062,
          0.10654524713754654,
          0.15055283904075623,
          0.08066322654485703,
          0.03345540165901184,
          0.08517307043075562,
          -0.06891512870788574,
          0.025821110233664513,
          0.019883910194039345,
          -0.0239007156342268,
          -0.09176246076822281,
          0.07322228699922562,
          0.07955393195152283,
          -0.09162961691617966,
          0.006881156004965305,
          0.04999856650829315,
          0.13925966620445251,
          0.09185204654932022,
          0.12237662076950073,
          -0.06882811337709427,
          0.1298108547925949,
          0.13534854352474213,
          -0.1250656545162201,
          -0.1329430639743805,
          3.654035661850388e-24,
          5.386050203084939e-20
        ],
        [
          -0.04841948673129082,
          -0.004807316232472658,
          0.013894390314817429,
          0.02559623494744301,
          -0.09382264316082001,
          0.05698026716709137,
          0.10462068021297455,
          -0.09498963505029678,
          0.021868377923965454,
          0.019460977986454964,
          0.09622593969106674,
          0.10958355665206909,
          0.06965133547782898,
          0.003369079204276204,
          0.1401752233505249,
          -0.04312855377793312,
          -0.02903701923787594,
          0.019463568925857544,
          -0.07186421006917953,
          -0.02464924193918705,
          -0.0912853330373764,
          -0.013762634247541428,
          0.04541148990392685,
          0.03894100338220596,
          -0.08424310386180878,
          -0.09947139769792557,
          0.06479358673095703,
          0.0675952211022377,
          -0.07981123775243759,
          0.07492972165346146,
          -0.07806885242462158,
          -0.03707149252295494,
          0.11139164865016937,
          0.024421675130724907,
          -0.11757799237966537,
          0.06862679123878479,
          0.04787595570087433,
          -0.011539357714354992,
          0.13562405109405518,
          -0.09156692773103714,
          -0.03553637117147446,
          -0.07343606650829315,
          0.000902076717466116,
          -0.0073492988012731075,
          -0.0038983519189059734,
          -0.09679538756608963,
          -0.07195541262626648,
          0.019376104697585106,
          -0.14316733181476593,
          -0.018818892538547516,
          -3.2098133935860766e-25,
          2.045716129928158e-22
        ],
        [
          0.02273261919617653,
          -0.039604973047971725,
          0.054846394807100296,
          -0.0265425443649292,
          -0.08181975781917572,
          0.04803643375635147,
          -0.02195858024060726,
          -0.019285593181848526,
          -0.10393581539392471,
          0.030184896662831306,
          -0.13515332341194153,
          0.05165856331586838,
          0.04570833966135979,
          -0.1362122744321823,
          -0.0860508382320404,
          -0.11002849042415619,
          0.09188062697649002,
          0.07096384465694427,
          -0.015486846677958965,
          0.13426363468170166,
          -0.03047470934689045,
          -0.12814682722091675,
          0.0567798987030983,
          0.06278160959482193,
          0.14342522621154785,
          0.013597403652966022,
          0.0733126625418663,
          0.03472619503736496,
          0.17509427666664124,
          -0.16437551379203796,
          0.16846215724945068,
          -0.15699563920497894,
          0.1000186875462532,
          -0.08338167518377304,
          -0.09864465892314911,
          0.005275856703519821,
          -0.02781977504491806,
          -0.04395127296447754,
          -0.01616988517343998,
          0.0009031519293785095,
          0.12607750296592712,
          -0.026785895228385925,
          0.10996958613395691,
          0.012071036733686924,
          0.03729548677802086,
          0.03566485270857811,
          -0.11584953218698502,
          -0.12006498873233795,
          0.026019860059022903,
          -0.10244318097829819,
          4.795343321657846e-22,
          6.548243655235519e-25
        ],
        [
          -0.10473550856113434,
          -0.04361419007182121,
          -0.002608068287372589,
          -0.04732894524931908,
          -0.11102516949176788,
          0.019378777593374252,
          0.0027306012343615294,
          0.03618815541267395,
          -0.024534011259675026,
          -0.06879276037216187,
          -0.05493677407503128,
          0.00015770600293762982,
          -0.08758457750082016,
          -0.010715072974562645,
          -0.01643814705312252,
          0.0968572124838829,
          0.014459619298577309,
          0.12276537716388702,
          -0.0044684745371341705,
          -0.1013018935918808,
          0.02336043119430542,
          -0.08345973491668701,
          -0.033005379140377045,
          -0.07686592638492584,
          -0.08689714223146439,
          -0.08099384605884552,
          0.14086399972438812,
          0.075715571641922,
          0.013884722255170345,
          0.11992988735437393,
          -0.09147650748491287,
          0.044864166527986526,
          0.08885957300662994,
          0.10981260985136032,
          -0.1685694307088852,
          0.05694055184721947,
          -0.07368171215057373,
          0.04568324238061905,
          0.001082646893337369,
          -0.09184504300355911,
          -0.10487350821495056,
          -0.04967151954770088,
          0.07465903460979462,
          0.05279070511460304,
          -0.06934961676597595,
          -0.007280617021024227,
          -0.030495839193463326,
          -0.13064514100551605,
          0.09885786473751068,
          0.17981787025928497,
          4.905900726020505e-24,
          -4.0975574577264626e-15
        ],
        [
          0.03713062405586243,
          0.07920928299427032,
          0.088931605219841,
          -0.05280391499400139,
          -0.12109004706144333,
          0.08969014883041382,
          -0.010215834714472294,
          -0.055776309221982956,
          -0.06784094125032425,
          -0.07921632379293442,
          0.08398943394422531,
          -0.027393124997615814,
          0.09368506819009781,
          0.12579376995563507,
          0.0026406068354845047,
          0.013742276467382908,
          -0.024715585634112358,
          0.08850905299186707,
          -0.11834433674812317,
          0.05912291258573532,
          -0.03489191457629204,
          0.057856444269418716,
          0.01803073287010193,
          -0.04695221036672592,
          -0.01233383733779192,
          0.08196112513542175,
          -0.10441833734512329,
          -0.08200130611658096,
          -0.08068875223398209,
          -0.029298510402441025,
          0.07078398764133453,
          0.13609805703163147,
          0.00010015150473918766,
          0.2092863917350769,
          -0.028489569202065468,
          -0.0582067035138607,
          -0.04581410810351372,
          -0.069729283452034,
          -0.07613256573677063,
          -0.10211951285600662,
          -0.09195546060800552,
          0.05503593012690544,
          0.09791886806488037,
          0.1598210483789444,
          0.13790223002433777,
          -0.011138658039271832,
          0.06257890164852142,
          -0.05191551893949509,
          0.06304280459880829,
          -0.1203562393784523,
          -2.25969910595575e-21,
          -4.7353166550146085e-24
        ],
        [
          -0.017150036990642548,
          0.015942467376589775,
          -0.09107594937086105,
          0.11428887397050858,
          0.06641775369644165,
          0.05581105872988701,
          -0.010046441107988358,
          0.08367730677127838,
          0.04496234282851219,
          0.03025420941412449,
          0.08340345323085785,
          -0.019980832934379578,
          0.08032221347093582,
          0.010873843915760517,
          0.12729866802692413,
          0.12225306034088135,
          0.03498942032456398,
          -0.08280893415212631,
          -0.04490969330072403,
          0.04336289316415787,
          0.005627857055515051,
          -0.0586799792945385,
          0.07024659961462021,
          0.04314558953046799,
          -0.10561665147542953,
          -0.05233452841639519,
          -0.04722396656870842,
          -0.08048554509878159,
          0.059887129813432693,
          -0.08202779293060303,
          -0.07932545989751816,
          -0.1019894927740097,
          -0.08347739279270172,
          0.07813198864459991,
          0.11374133825302124,
          0.1408027559518814,
          0.10734877735376358,
          0.037395019084215164,
          0.05501549690961838,
          0.0660535991191864,
          -0.06388390064239502,
          -0.0749480277299881,
          0.03210591524839401,
          0.003698111977428198,
          0.07234834879636765,
          0.07708048075437546,
          0.10186673700809479,
          0.05056578293442726,
          -0.03332966938614845,
          -0.10043831169605255,
          -2.0789604185980333e-15,
          -7.244296844277625e-19
        ],
        [
          0.03662845119833946,
          0.05790242180228233,
          0.10538303107023239,
          -0.054906588047742844,
          -0.0294455848634243,
          -0.056954871863126755,
          -0.015118943527340889,
          0.032584890723228455,
          0.02565404772758484,
          -0.014781788922846317,
          0.02597096934914589,
          0.03592662140727043,
          -0.07599824666976929,
          -0.10149042308330536,
          0.040220074355602264,
          0.010493074543774128,
          -0.02817436493933201,
          0.04212326928973198,
          0.009020601399242878,
          0.025283776223659515,
          -0.09328910708427429,
          -0.03740681707859039,
          -0.13189543783664703,
          0.026813922449946404,
          -0.0027305465191602707,
          0.07263339310884476,
          0.019387586042284966,
          0.021464968100190163,
          0.0516948401927948,
          0.10250134766101837,
          -0.01774272322654724,
          0.04825286567211151,
          -0.006391678936779499,
          -0.07744258642196655,
          0.051267124712467194,
          -0.10201022773981094,
          -0.049690645188093185,
          -0.06633058190345764,
          -0.06942521780729294,
          0.07449114322662354,
          -0.10009653121232986,
          0.07541417330503464,
          -0.12912563979625702,
          -0.058310337364673615,
          0.0019939898047596216,
          0.0941946879029274,
          -0.07988521456718445,
          0.024908965453505516,
          0.028575923293828964,
          0.07974482327699661,
          3.5270326059838787e-25,
          -6.585959252886316e-23
        ],
        [
          -0.07312434166669846,
          -0.07511652261018753,
          0.16536590456962585,
          -0.08290054649114609,
          -0.005924252327531576,
          0.0030853026546537876,
          0.17715857923030853,
          -0.02802726998925209,
          -0.12162026762962341,
          -0.037878185510635376,
          0.08729292452335358,
          0.06176824867725372,
          0.1467965841293335,
          -0.027967775240540504,
          0.07026875764131546,
          -0.1292029321193695,
          0.0648186132311821,
          0.10520585626363754,
          0.1093037948012352,
          -0.07033618539571762,
          -0.0025061131455004215,
          0.06077644228935242,
          -0.06526569277048111,
          -0.08042687177658081,
          -0.10522878170013428,
          0.04531509056687355,
          0.11085202544927597,
          0.0681702271103859,
          0.0021759122610092163,
          0.04348744824528694,
          -0.08442002534866333,
          0.047858648002147675,
          0.02323881722986698,
          -0.08000960946083069,
          0.07043278962373734,
          -0.07908133417367935,
          0.010795798152685165,
          -0.13016371428966522,
          -0.007860662415623665,
          -0.044165123254060745,
          0.06357123702764511,
          -0.05735184624791145,
          0.08581504970788956,
          -0.13037429749965668,
          0.10064784437417984,
          -0.08064292371273041,
          0.0515022948384285,
          -0.02873171865940094,
          -0.03187662363052368,
          -0.03204908221960068,
          7.648558621196073e-18,
          4.14219785724444e-23
        ],
        [
          -0.08365253359079361,
          0.0423705093562603,
          -0.060430362820625305,
          0.09543696790933609,
          0.0012440683785825968,
          -0.005548488348722458,
          -0.03579191863536835,
          0.03173615783452988,
          -0.06167765334248543,
          0.09056612104177475,
          0.11482600122690201,
          0.057535652071237564,
          0.10263781994581223,
          -0.08190424740314484,
          0.0839722529053688,
          -0.038698796182870865,
          -0.04037690907716751,
          0.019743645563721657,
          0.14960412681102753,
          0.04901035875082016,
          0.03414004668593407,
          0.06523419171571732,
          -0.10886015743017197,
          0.021700214594602585,
          -0.08877398818731308,
          0.07603492587804794,
          -0.06130223721265793,
          -0.07071539014577866,
          0.07465323060750961,
          0.10648483037948608,
          -0.1642354130744934,
          -0.04354189708828926,
          0.036346159875392914,
          0.05905257537961006,
          -0.017184317111968994,
          -0.025252871215343475,
          -0.11422495543956757,
          0.0367777943611145,
          0.12298931181430817,
          -0.06630721688270569,
          -0.009378265589475632,
          0.053163375705480576,
          0.08663566410541534,
          -0.006109968759119511,
          -0.009339485317468643,
          0.05156901106238365,
          0.100813128054142,
          0.12618543207645416,
          -0.08176331967115402,
          0.04909304529428482,
          -2.385595504047832e-16,
          1.3725839692372141e-17
        ],
        [
          0.024839524179697037,
          -0.020866798236966133,
          0.04924711212515831,
          0.008012554608285427,
          0.06045621261000633,
          0.09095384925603867,
          -0.1613324135541916,
          -0.0748387798666954,
          -0.06883789598941803,
          0.08616730570793152,
          0.05262899026274681,
          -0.06985319405794144,
          -0.022854147478938103,
          -0.04715721681714058,
          -0.13094206154346466,
          0.07312753796577454,
          0.045631181448698044,
          -0.06752607971429825,
          -0.01615668274462223,
          0.004624584689736366,
          0.055046048015356064,
          -0.07410351186990738,
          -0.07231564074754715,
          0.06650889664888382,
          0.009526992216706276,
          0.04798067361116409,
          -0.07414445281028748,
          0.12027888000011444,
          0.027896106243133545,
          0.1060657799243927,
          0.06677339971065521,
          0.21724766492843628,
          0.08076240122318268,
          0.14335227012634277,
          0.18891747295856476,
          0.11211942881345749,
          -0.028285957872867584,
          0.11249420046806335,
          0.030896276235580444,
          0.004377084784209728,
          0.045674003660678864,
          -0.09750817716121674,
          0.1179480329155922,
          0.15485405921936035,
          -0.11980405449867249,
          -0.1251852810382843,
          -0.07062780857086182,
          0.011499453336000443,
          -0.14405392110347748,
          -0.1112310066819191,
          2.607299834358882e-23,
          -2.588661594635802e-16
        ],
        [
          0.06585726886987686,
          0.08903414011001587,
          0.0401446595788002,
          -0.10348603129386902,
          -0.11332990229129791,
          0.01921013928949833,
          0.11255013942718506,
          -0.013065209612250328,
          -0.01734934188425541,
          -0.10585429519414902,
          -0.11655506491661072,
          -0.1293642669916153,
          0.08290887624025345,
          -0.021042678505182266,
          -0.15908005833625793,
          0.031861159950494766,
          -0.016876064240932465,
          -0.028212349861860275,
          0.03859909623861313,
          -0.005544474348425865,
          -0.14491350948810577,
          -0.11925569176673889,
          -0.013635004870593548,
          -0.11832185834646225,
          -0.11302662640810013,
          0.12531697750091553,
          -0.04876243323087692,
          -0.01614731177687645,
          -0.09188641607761383,
          -0.0790569856762886,
          0.06875257194042206,
          0.015138757415115833,
          -0.0385311059653759,
          -0.027158834040164948,
          0.07294320315122604,
          -0.043889932334423065,
          -0.025497645139694214,
          -0.05828829109668732,
          -0.08463258296251297,
          -0.01130798738449812,
          0.08948887139558792,
          -0.10755232721567154,
          -0.009196537546813488,
          -0.1112934798002243,
          -0.10703424364328384,
          0.08458177000284195,
          0.03611812740564346,
          0.10036908835172653,
          -0.07923558354377747,
          -0.07161547243595123,
          -7.286130986769612e-19,
          1.174274011361831e-10
        ],
        [
          -0.042099084705114365,
          0.06429553031921387,
          -0.010645003989338875,
          0.07193413376808167,
          0.07976380735635757,
          -0.04388818144798279,
          0.040239330381155014,
          -0.0991041362285614,
          0.012369578704237938,
          0.0977528840303421,
          0.009277092292904854,
          -0.03279203921556473,
          -0.05335622280836105,
          -0.0876692607998848,
          0.030182385817170143,
          -0.051074787974357605,
          -0.0380692258477211,
          -0.00725519098341465,
          0.0547293983399868,
          -0.06729750335216522,
          -0.06991882622241974,
          0.12768840789794922,
          0.10747073590755463,
          -0.054176926612854004,
          -0.09524213522672653,
          0.060844264924526215,
          0.03047197312116623,
          0.042595621198415756,
          0.0456247441470623,
          -0.040838781744241714,
          0.12217004597187042,
          -0.0411214604973793,
          0.11159740388393402,
          0.10461854189634323,
          0.09580212831497192,
          0.0835452526807785,
          -0.05538672208786011,
          -0.13815894722938538,
          -0.1685197800397873,
          0.08318467438220978,
          -0.005445772781968117,
          -0.13847389817237854,
          0.09929071366786957,
          0.14289402961730957,
          -0.15073752403259277,
          0.06451217085123062,
          -0.0019287003669887781,
          0.018292875960469246,
          0.07311856746673584,
          0.07099156826734543,
          3.8834900398529953e-22,
          -1.1299117295016786e-13
        ],
        [
          0.04403148218989372,
          0.011934652924537659,
          -0.10664325207471848,
          0.03362433984875679,
          -0.09604154527187347,
          0.031686343252658844,
          0.03630293160676956,
          -0.0013319057179614902,
          -0.09660123288631439,
          -0.07088655978441238,
          0.11397411674261093,
          0.06076095625758171,
          0.08471765369176865,
          -0.03290362283587456,
          -0.006264300085604191,
          -0.032549988478422165,
          0.08569846302270889,
          -0.05012000352144241,
          0.08626822382211685,
          0.09111213684082031,
          -0.14415927231311798,
          -0.0004255601088516414,
          -0.0381610132753849,
          -0.08966836333274841,
          0.04350684583187103,
          -0.03312486410140991,
          0.11363466084003448,
          -0.062169741839170456,
          0.06969141215085983,
          -0.1735469400882721,
          -0.13496465981006622,
          -0.035917989909648895,
          0.07873860746622086,
          0.0659986361861229,
          -0.14191152155399323,
          0.028510183095932007,
          -0.052271779626607895,
          0.015995213761925697,
          -0.11308471113443375,
          -0.009894664399325848,
          0.08742806315422058,
          -0.10844546556472778,
          -0.07630053907632828,
          0.03282983601093292,
          0.05355663225054741,
          -0.01642351970076561,
          0.09477810561656952,
          -0.06803081184625626,
          -0.1395893394947052,
          -0.06527207791805267,
          -2.180255347571643e-24,
          9.777020574729816e-24
        ],
        [
          0.0946047380566597,
          -0.024271192029118538,
          0.08534596115350723,
          -0.11951513588428497,
          0.06238214671611786,
          0.09850664436817169,
          -0.08010797202587128,
          -0.06917040795087814,
          -0.10934299230575562,
          0.06459637731313705,
          -0.07203993946313858,
          -0.10379721224308014,
          0.1996452361345291,
          -0.07936012744903564,
          0.04100970923900604,
          0.042982444167137146,
          0.14754372835159302,
          -0.035232990980148315,
          0.1438325196504593,
          0.0008116526296362281,
          -0.01629968360066414,
          0.1346442848443985,
          -0.09798649698495865,
          -0.08999111503362656,
          0.17323757708072662,
          -0.039669930934906006,
          -0.060270797461271286,
          -0.07040246576070786,
          0.005874671041965485,
          -0.056814275681972504,
          -0.18324849009513855,
          0.04119742289185524,
          -0.12206806242465973,
          -0.031023846939206123,
          0.0325072817504406,
          0.08597281575202942,
          0.02882927469909191,
          0.05076941102743149,
          0.00745870266109705,
          -0.011369646526873112,
          -0.07019306719303131,
          -0.04768051207065582,
          -0.08287324011325836,
          0.15813684463500977,
          0.021441388875246048,
          0.035479120910167694,
          0.12043531239032745,
          0.022748442366719246,
          -0.09486772865056992,
          -0.03223181143403053,
          1.018069300616153e-22,
          7.339465305601495e-23
        ],
        [
          -0.0923534482717514,
          -0.016698511317372322,
          0.045024286955595016,
          0.09316819161176682,
          0.06450990587472916,
          0.02730148658156395,
          0.08686312288045883,
          0.09993771463632584,
          0.06623368710279465,
          -0.028985261917114258,
          -0.08792698383331299,
          -0.0032486936543136835,
          -0.00666662584990263,
          0.004617245867848396,
          0.0015780391404405236,
          0.05874042212963104,
          0.10621638596057892,
          -0.06211533769965172,
          -0.14159975945949554,
          -0.04199812188744545,
          -0.028301455080509186,
          0.05298009142279625,
          -0.07707466185092926,
          -0.0217338465154171,
          -0.030734041705727577,
          -0.08208367228507996,
          0.0643807128071785,
          -0.03995407372713089,
          -0.024618132039904594,
          -0.1646108776330948,
          -0.03950152546167374,
          -0.035414621233940125,
          -0.01970379427075386,
          -0.11286365240812302,
          0.10043701529502869,
          -0.022431140765547752,
          -0.06668642908334732,
          -0.09264151006937027,
          -0.027940385043621063,
          -0.1135324239730835,
          0.12687914073467255,
          -0.05864699184894562,
          -0.03879223391413689,
          0.013582659885287285,
          0.04898703470826149,
          -0.008320352993905544,
          0.10338328033685684,
          -0.07133456319570541,
          0.09342824667692184,
          -0.015531779266893864,
          1.4715572510537456e-13,
          -1.5379856875774653e-22
        ],
        [
          -0.01603209413588047,
          0.040316756814718246,
          0.08811826258897781,
          0.11640660464763641,
          -0.04239404574036598,
          -0.044498011469841,
          -0.04047927260398865,
          -0.06081400811672211,
          -0.1142321228981018,
          -0.09206222742795944,
          0.03459114953875542,
          0.12302454560995102,
          -0.0025113944429904222,
          -0.10057596862316132,
          -0.0395495779812336,
          -0.06261618435382843,
          0.04801664128899574,
          -0.00409380067139864,
          -0.0037456671707332134,
          0.17237530648708344,
          0.06857350468635559,
          0.06484038382768631,
          -0.08197060227394104,
          0.038541458547115326,
          0.00775586673989892,
          -0.1835450828075409,
          -0.09545223414897919,
          0.01902374066412449,
          0.08036109805107117,
          0.035691291093826294,
          -0.09101060777902603,
          -0.15291480720043182,
          -0.02885865792632103,
          -0.0036833216436207294,
          0.0709182396531105,
          -0.017795654013752937,
          0.13205893337726593,
          0.024920698255300522,
          0.09563516825437546,
          -0.049519676715135574,
          0.09331601858139038,
          0.04331306740641594,
          -0.03497232869267464,
          0.07406924664974213,
          -0.09818344563245773,
          0.14514365792274475,
          -0.01934780925512314,
          0.03777951002120972,
          0.09281172603368759,
          0.018454749137163162,
          -1.7293902275637327e-22,
          -3.280580938592444e-18
        ],
        [
          -0.10823226720094681,
          0.06034555658698082,
          -0.02355300448834896,
          -0.03594578057527542,
          0.03948293998837471,
          0.07691977918148041,
          -0.0775364562869072,
          -0.085402712225914,
          0.10170932114124298,
          -0.06326791644096375,
          0.0381467305123806,
          -0.007058329880237579,
          0.011868428438901901,
          0.11114303022623062,
          -0.07131192833185196,
          -0.07025253772735596,
          0.12117435038089752,
          -0.0004650222253985703,
          0.0013686951715499163,
          -0.0801825150847435,
          0.1415107548236847,
          -0.02839566208422184,
          -0.017998483031988144,
          -0.036566514521837234,
          0.0017163553275167942,
          0.08874011784791946,
          0.0004554058250505477,
          0.11302457004785538,
          0.013468118384480476,
          0.00662681320682168,
          0.054540470242500305,
          -0.0247787032276392,
          -0.02968379110097885,
          0.033816054463386536,
          0.08478883653879166,
          0.04693615064024925,
          0.11164366453886032,
          0.0928766205906868,
          0.05412289500236511,
          0.03231368586421013,
          0.07777705043554306,
          0.025325942784547806,
          0.11923366039991379,
          0.11798012256622314,
          0.05105900391936302,
          0.036758456379175186,
          0.14918252825737,
          -0.10054076462984085,
          0.13768629729747772,
          0.07571666687726974,
          -5.392364563839045e-21,
          -1.2232976497788961e-24
        ],
        [
          -0.12556321918964386,
          0.07997763156890869,
          -0.053365420550107956,
          0.017646605148911476,
          0.06575983762741089,
          -0.14613200724124908,
          0.015536284074187279,
          -0.06230809539556503,
          0.07669202238321304,
          -0.08191798627376556,
          0.07532517611980438,
          0.0645933598279953,
          0.07024332135915756,
          0.11589426547288895,
          -0.0048339576460421085,
          -0.11091235280036926,
          0.09744918346405029,
          0.014247252605855465,
          -0.0044071367010474205,
          -0.11076244711875916,
          -0.04891759157180786,
          -0.08155413717031479,
          0.10248236358165741,
          0.07966665923595428,
          0.07823330909013748,
          0.06626985222101212,
          -0.06708897650241852,
          -0.06905250996351242,
          -0.03722606599330902,
          -0.08699388056993484,
          0.05956554040312767,
          0.020568521693348885,
          0.08291890472173691,
          -0.01842714101076126,
          -0.07755090296268463,
          -0.06515759974718094,
          0.0904432162642479,
          0.060340408235788345,
          0.0223684161901474,
          -0.05779751017689705,
          -0.1482749730348587,
          -0.10092512518167496,
          0.06673989444971085,
          -0.0694054663181305,
          0.04706995189189911,
          0.015890829265117645,
          -0.07859883457422256,
          0.07263857126235962,
          -0.08322443068027496,
          -0.029096098616719246,
          -1.0021687677750286e-22,
          -2.5235618039687324e-09
        ],
        [
          0.008290757425129414,
          0.01479573454707861,
          -0.02074812352657318,
          0.0580269992351532,
          -0.14580652117729187,
          -0.156120166182518,
          -0.03634163364768028,
          -0.05739394202828407,
          -0.024060724303126335,
          -0.0008132123621180654,
          0.06685268878936768,
          -0.13941827416419983,
          0.03193134814500809,
          0.05014738813042641,
          0.027054445818066597,
          0.1740509271621704,
          0.06884661316871643,
          -0.03604714572429657,
          -0.07577663660049438,
          -0.045570384711027145,
          -0.08529235422611237,
          0.05262584239244461,
          -0.020087167620658875,
          0.0897977203130722,
          0.0347585566341877,
          -0.04720480367541313,
          0.05030772089958191,
          -0.0010521742515265942,
          0.0033614998683333397,
          0.055698759853839874,
          -0.13345767557621002,
          0.009504738263785839,
          -0.11054254323244095,
          -0.19756290316581726,
          -0.06412013620138168,
          0.05949576571583748,
          0.06648656725883484,
          0.022772811353206635,
          -0.02040335349738598,
          -0.03303615376353264,
          -0.06894323974847794,
          -0.025375565513968468,
          -0.03983944281935692,
          0.11101788282394409,
          0.06364975869655609,
          -0.1160152480006218,
          0.009479794651269913,
          -0.11770879477262497,
          -0.0973610132932663,
          -0.09080396592617035,
          8.639109229332042e-24,
          -4.244545096766751e-16
        ],
        [
          0.10420732200145721,
          0.0807768926024437,
          -0.10878276079893112,
          -0.11506824940443039,
          0.025102099403738976,
          -0.059934817254543304,
          0.024174764752388,
          -0.06671657413244247,
          0.01144578866660595,
          -0.07568293064832687,
          -0.07238713651895523,
          -0.04237106442451477,
          0.06078508868813515,
          0.006463649217039347,
          -0.12098527699708939,
          -0.09005364775657654,
          -0.09871028363704681,
          -0.1439347118139267,
          -0.002395043848082423,
          0.03818710520863533,
          -0.00956512987613678,
          -0.03991355746984482,
          -0.03745971620082855,
          -0.13715438544750214,
          -0.109312042593956,
          -0.03971247375011444,
          0.11685821413993835,
          -0.014817030169069767,
          0.06140017509460449,
          -0.1083311140537262,
          -0.06522037833929062,
          -0.20724789798259735,
          0.08336330950260162,
          0.11397065967321396,
          0.017271239310503006,
          0.05837669596076012,
          0.11208546161651611,
          0.0520889051258564,
          0.04029262438416481,
          -0.10983236879110336,
          -0.14679501950740814,
          -0.13925808668136597,
          0.05102614313364029,
          -0.09605342894792557,
          -0.1158323660492897,
          -0.09601503610610962,
          -0.12517377734184265,
          -0.010374810546636581,
          0.027008794248104095,
          -0.10087926685810089,
          1.6275610695677048e-17,
          -6.775397572843538e-23
        ],
        [
          -0.03381334990262985,
          0.12036944180727005,
          0.12089869379997253,
          -0.03046494349837303,
          -0.10768413543701172,
          -0.0520114041864872,
          0.02130752056837082,
          0.05041376128792763,
          0.086696095764637,
          0.00045350834261626005,
          -0.14947238564491272,
          -0.14726491272449493,
          -0.04365266487002373,
          0.02022905834019184,
          -0.07298444956541061,
          -0.13227298855781555,
          0.029167698696255684,
          -0.10062939673662186,
          -0.0949934646487236,
          -0.12484028190374374,
          -0.059883490204811096,
          0.14511537551879883,
          0.04424930363893509,
          -0.01682516373693943,
          0.025140568614006042,
          0.04506343603134155,
          0.01344957947731018,
          -0.1278640776872635,
          -0.03509269654750824,
          -0.0976366177201271,
          0.02103610523045063,
          -0.0811249315738678,
          0.016729475930333138,
          -0.04264973849058151,
          0.07241594046354294,
          0.11797287315130234,
          0.07212833315134048,
          -0.009278533980250359,
          -0.05492332577705383,
          0.03156230226159096,
          -0.10368571430444717,
          -0.06676506251096725,
          -0.03707435727119446,
          -0.034306276589632034,
          -0.14230091869831085,
          0.04475763440132141,
          0.11113019287586212,
          -0.07439732551574707,
          -0.01519604679197073,
          -0.0042772130109369755,
          -2.2111159806143415e-25,
          -3.2776497614973274e-25
        ],
        [
          0.11252901703119278,
          0.024511117488145828,
          -0.07733277231454849,
          -0.0785379707813263,
          0.07193028181791306,
          0.048877354711294174,
          0.01161253359168768,
          -0.03246181458234787,
          -0.0712597444653511,
          -0.039634473621845245,
          -0.0564403310418129,
          0.0066106910817325115,
          0.0699809119105339,
          0.10088952630758286,
          -0.03720691800117493,
          0.0007595742354169488,
          0.12224773317575455,
          0.0693962499499321,
          0.060917891561985016,
          0.058512404561042786,
          0.032261013984680176,
          -0.14770729839801788,
          0.00800055917352438,
          -0.038130924105644226,
          0.1036733016371727,
          0.11289375275373459,
          0.03416154161095619,
          0.18660850822925568,
          -0.11353004723787308,
          0.11604133993387222,
          0.10246149450540543,
          -0.029096636921167374,
          -0.11552319675683975,
          -0.06232977658510208,
          -0.040788453072309494,
          0.04928198456764221,
          -0.10857187211513519,
          0.02257993258535862,
          -0.03758128732442856,
          -0.018761202692985535,
          -0.04966579005122185,
          -0.006506450939923525,
          -0.12467951327562332,
          -0.05217674374580383,
          0.033099520951509476,
          0.08801615983247757,
          0.14543461799621582,
          -0.07304451614618301,
          0.029296770691871643,
          -0.05955009534955025,
          2.3504601856429858e-14,
          -7.364334559790562e-25
        ],
        [
          -0.05301455035805702,
          -0.1083914041519165,
          -0.10380207747220993,
          -0.09903404861688614,
          0.12372762709856033,
          0.08557898551225662,
          -0.03033270128071308,
          -0.09161215275526047,
          -0.06955897808074951,
          -0.06515670567750931,
          -0.05620698630809784,
          0.08811040222644806,
          0.06077907234430313,
          -0.07077454775571823,
          0.07897338271141052,
          -0.062138333916664124,
          -0.10245304554700851,
          0.052928175777196884,
          -0.04138767346739769,
          0.046218011528253555,
          0.12495526671409607,
          -0.03763863444328308,
          -0.06677677482366562,
          0.060833584517240524,
          -0.09575404226779938,
          0.14829008281230927,
          -0.044975053519010544,
          0.03707779198884964,
          -0.06874854862689972,
          -0.025210104882717133,
          0.08419231325387955,
          0.0645068883895874,
          0.12268976867198944,
          0.12785376608371735,
          -0.037440065294504166,
          -0.03000934235751629,
          -0.028437893837690353,
          -0.035825978964567184,
          -0.0018170929979532957,
          -0.16117319464683533,
          -0.12821237742900848,
          0.09075804054737091,
          -0.11100810021162033,
          0.08209218084812164,
          -0.006613200530409813,
          -0.000961396552156657,
          0.11568030714988708,
          -0.10073413699865341,
          -0.044610634446144104,
          0.013425471261143684,
          -5.606955101603177e-23,
          -6.6154792754957725e-09
        ],
        [
          0.07251592725515366,
          -0.0708535835146904,
          0.027547091245651245,
          0.08833127468824387,
          -0.03579670190811157,
          0.00556357204914093,
          -0.0005452535697259009,
          0.10977623611688614,
          0.0922498106956482,
          -0.014251533895730972,
          -0.10889427363872528,
          -0.10280143469572067,
          0.08995488286018372,
          0.0573774054646492,
          0.08669912070035934,
          -0.0524793416261673,
          0.055991094559431076,
          -0.0023160374257713556,
          0.06612179428339005,
          0.11310432851314545,
          -0.005828913766890764,
          -0.010286768898367882,
          0.1548992395401001,
          -0.032667744904756546,
          0.12281519174575806,
          -0.09203971922397614,
          -0.05125664919614792,
          -0.057089559733867645,
          -0.10812947899103165,
          0.027684276923537254,
          -0.12098037451505661,
          -0.12738440930843353,
          0.10572311282157898,
          0.10059294104576111,
          0.04312831163406372,
          -0.1316983997821808,
          -0.06080571934580803,
          -0.040039993822574615,
          0.05269249156117439,
          -0.04308055341243744,
          -0.04240366816520691,
          -0.12366164475679398,
          -0.0786992758512497,
          0.08153320103883743,
          0.07173437625169754,
          0.010142743587493896,
          -0.07088255137205124,
          0.10127539932727814,
          0.0541640929877758,
          -0.043758828192949295,
          2.1868292410392116e-23,
          -1.8045510723444997e-24
        ],
        [
          0.0459996834397316,
          0.04629286006093025,
          0.14358174800872803,
          -0.003534536110237241,
          0.11630641669034958,
          -0.05947433412075043,
          -0.018843920901417732,
          -0.03421153873205185,
          -0.14405667781829834,
          -0.10487959533929825,
          -0.11460154503583908,
          -0.00887131318449974,
          -0.0023546910379081964,
          -0.05481195077300072,
          -0.08117495477199554,
          0.13999809324741364,
          -0.03644891828298569,
          0.10423700511455536,
          0.0985187441110611,
          -0.06544642150402069,
          -0.020922500640153885,
          0.06254683434963226,
          0.09881614148616791,
          -0.02772383578121662,
          0.06158607080578804,
          -0.1443994790315628,
          -0.04830610752105713,
          0.11866500973701477,
          -0.04519721865653992,
          0.10045210272073746,
          -0.01737317629158497,
          -0.05243821442127228,
          0.09699279069900513,
          0.14591915905475616,
          -0.00825557392090559,
          -0.08970501273870468,
          -0.013690676540136337,
          -0.08383458107709885,
          0.08311912417411804,
          -0.0017052231123670936,
          0.025942495092749596,
          0.07325416058301926,
          0.04338858276605606,
          -0.11896799504756927,
          0.10336333513259888,
          0.0764334574341774,
          -0.12065993994474411,
          0.07009657472372055,
          0.031150158494710922,
          -0.020584654062986374,
          1.8291994133311836e-17,
          -3.443743093888834e-24
        ],
        [
          -0.16543979942798615,
          0.09272626042366028,
          0.11275096237659454,
          -0.0037630698643624783,
          0.13889828324317932,
          -0.036280520260334015,
          0.03715166822075844,
          -0.07324571162462234,
          -0.04468754306435585,
          0.05332595109939575,
          0.07327747344970703,
          0.019268523901700974,
          -0.06909552216529846,
          0.10984374582767487,
          0.11984486132860184,
          0.007480790838599205,
          -0.03196583315730095,
          0.044375937432050705,
          0.010736401192843914,
          0.11643894761800766,
          0.03218897059559822,
          -0.0008987952023744583,
          -0.024100085720419884,
          0.052466362714767456,
          -0.007885538041591644,
          0.09335093945264816,
          0.0777311623096466,
          -0.058650903403759,
          -0.033186450600624084,
          -0.07633572071790695,
          -0.08996497094631195,
          0.03845561295747757,
          0.038674309849739075,
          -0.007528675254434347,
          0.16776558756828308,
          -0.050515275448560715,
          -0.04259723424911499,
          -0.019796064123511314,
          0.010082951746881008,
          0.0013247895985841751,
          0.13334879279136658,
          -0.04555109888315201,
          -0.05815709009766579,
          0.016191402450203896,
          0.1111331433057785,
          0.041286300867795944,
          0.10592688620090485,
          0.036743082106113434,
          0.15913626551628113,
          0.08499395102262497,
          3.738740563453928e-18,
          -2.3700282628818145e-24
        ],
        [
          -0.09302700310945511,
          -0.03767871856689453,
          0.054916009306907654,
          0.07112787663936615,
          -0.08500995486974716,
          0.14075085520744324,
          0.027965616434812546,
          -0.016259215772151947,
          0.02033359184861183,
          0.003837357508018613,
          0.1425740122795105,
          -0.011334138922393322,
          0.10986030101776123,
          -0.0842314064502716,
          -0.03462827950716019,
          0.03484361991286278,
          0.09580682218074799,
          0.07731359452009201,
          0.050034552812576294,
          -0.11031676083803177,
          -0.027416180819272995,
          -0.08260000497102737,
          -0.11041136085987091,
          -0.004696918651461601,
          -0.12487861514091492,
          0.10533112287521362,
          -0.06999324262142181,
          0.05548345297574997,
          0.11663693934679031,
          -0.1208295226097107,
          0.12099973857402802,
          -0.05006138235330582,
          0.05489000678062439,
          0.11718598753213882,
          -0.08948653936386108,
          -0.04923981428146362,
          0.08399362117052078,
          -0.0014572173822671175,
          -0.032188523560762405,
          0.10963711142539978,
          -0.08679775893688202,
          -0.007070040795952082,
          0.07861936837434769,
          0.014325477182865143,
          -0.09444882720708847,
          0.019258474931120872,
          -0.12089350074529648,
          -0.0980851873755455,
          0.07424436509609222,
          -0.028741389513015747,
          3.0280788091836216e-21,
          6.690155294742187e-25
        ],
        [
          0.028644699603319168,
          -0.043502289801836014,
          -0.08380567282438278,
          -0.10077711939811707,
          0.06281343102455139,
          -0.046738989651203156,
          0.018699726089835167,
          -0.014181772246956825,
          -0.10979603230953217,
          -0.019847769290208817,
          -0.08745517581701279,
          -0.05454787239432335,
          0.03351318836212158,
          -0.10020234435796738,
          -0.15555375814437866,
          0.07716172933578491,
          0.013166692107915878,
          -0.0449267141520977,
          -0.007386247161775827,
          0.11611030250787735,
          -0.10546060651540756,
          -0.06404843926429749,
          -0.0970616564154625,
          0.0008790610590949655,
          0.003459138795733452,
          -0.09906473010778427,
          0.07654555141925812,
          -0.07908868789672852,
          0.0741676539182663,
          -0.06404808163642883,
          -0.024857964366674423,
          0.05524732917547226,
          -0.03551510348916054,
          0.14342555403709412,
          -0.11440009623765945,
          -0.00302626914344728,
          -0.11272979527711868,
          0.022051697596907616,
          0.08298049122095108,
          0.1533370167016983,
          -0.022591741755604744,
          -0.09387844800949097,
          0.12810969352722168,
          0.02865658514201641,
          0.07747792452573776,
          -0.08054470270872116,
          -0.0678982138633728,
          -0.08912491053342819,
          0.10442232340574265,
          -0.02654779888689518,
          -1.7443232709449545e-16,
          -5.839611383189681e-25
        ],
        [
          -0.05320651829242706,
          0.006238875444978476,
          0.03231235593557358,
          -0.08589416742324829,
          0.002744699129834771,
          -0.08665384352207184,
          0.013368161395192146,
          -0.16988612711429596,
          0.028163595125079155,
          0.11749109625816345,
          0.10799539089202881,
          0.031154051423072815,
          0.09483970701694489,
          0.10234427452087402,
          0.07730420678853989,
          0.038326818495988846,
          -0.0026849349960684776,
          0.10895400494337082,
          0.10599523782730103,
          -0.08516524732112885,
          -0.04381614923477173,
          -0.050680067390203476,
          0.03524107486009598,
          -0.12207864969968796,
          0.021885020658373833,
          -0.05045425891876221,
          0.04609381780028343,
          0.02968483790755272,
          -0.033020615577697754,
          0.03435789793729782,
          0.0736600011587143,
          -0.16464702785015106,
          0.09788620471954346,
          0.12031595408916473,
          0.08348771184682846,
          -0.022719725966453552,
          0.055850815027952194,
          -0.0691632479429245,
          -0.04040692374110222,
          0.05225455015897751,
          0.07570356130599976,
          0.060944195836782455,
          -0.1385662853717804,
          0.09920787066221237,
          -0.050324447453022,
          0.12156654894351959,
          0.09222925454378128,
          0.01858031190931797,
          0.15432734787464142,
          0.10434284061193466,
          1.9538068107048455e-19,
          4.905227669896171e-23
        ],
        [
          0.11924431473016739,
          0.011243276298046112,
          0.06400769203901291,
          -0.025188514962792397,
          0.09506947547197342,
          0.09711086004972458,
          -0.1222117468714714,
          0.11341020464897156,
          -0.09393630921840668,
          -0.10149578750133514,
          -0.12851084768772125,
          0.03872058168053627,
          -0.11644598096609116,
          -0.030693117529153824,
          -0.08108609914779663,
          0.051515642553567886,
          -0.13666541874408722,
          -0.08193624764680862,
          -0.003092753002420068,
          0.004787260200828314,
          -0.0455106645822525,
          0.05541912466287613,
          -0.09272187948226929,
          -0.1217237114906311,
          -0.014483347535133362,
          -0.07394098490476608,
          0.05967259034514427,
          -0.14589813351631165,
          0.0287550650537014,
          0.05539350211620331,
          -0.15486033260822296,
          0.09873697906732559,
          -0.08470659703016281,
          -0.044455599039793015,
          -0.12119758874177933,
          -0.04696974903345108,
          -0.04814229533076286,
          -0.08536050468683243,
          0.08864901214838028,
          -0.0011447779834270477,
          0.1612127721309662,
          0.12694256007671356,
          0.11574599146842957,
          0.06951882690191269,
          0.09640371799468994,
          0.16176429390907288,
          0.12726610898971558,
          -0.08970203250646591,
          0.008768834173679352,
          -0.10488832741975784,
          2.4704678082715905e-25,
          -6.62692132870646e-23
        ],
        [
          0.10474061965942383,
          0.035969752818346024,
          0.003397319233044982,
          -0.05875323340296745,
          -0.05899015814065933,
          0.03587627410888672,
          -0.06624452024698257,
          -0.032752394676208496,
          0.06842858344316483,
          -0.05181605741381645,
          -0.05447133257985115,
          0.13041307032108307,
          0.05229444056749344,
          -0.07732085138559341,
          -0.00470976484939456,
          0.032800886780023575,
          -0.0891280472278595,
          0.030545465648174286,
          0.053005702793598175,
          0.014018119312822819,
          0.17135773599147797,
          -0.06851019710302353,
          0.08256339281797409,
          -0.09026164561510086,
          -0.10488571226596832,
          0.09331042319536209,
          -0.07131346315145493,
          -0.017748942598700523,
          0.04747629910707474,
          -0.01905682496726513,
          -0.09238149970769882,
          0.11688359826803207,
          0.1602524071931839,
          0.029566016048192978,
          0.11891711503267288,
          0.06716980040073395,
          0.028417395427823067,
          -0.11313650012016296,
          0.11573891341686249,
          0.05830474942922592,
          -0.007051668595522642,
          0.08255594968795776,
          -0.1323830783367157,
          0.029411936178803444,
          -0.08555318415164948,
          -0.009484629146754742,
          0.05564454570412636,
          0.09780960530042648,
          -0.0248909629881382,
          -0.16961653530597687,
          3.3786984145164935e-18,
          -1.7116738434150118e-25
        ],
        [
          -0.02681550569832325,
          -0.10573555529117584,
          0.11620347201824188,
          0.02548055164515972,
          -0.08382564783096313,
          0.06948092579841614,
          0.040817808359861374,
          -0.0663769319653511,
          0.06235623359680176,
          -0.0816899910569191,
          0.03282465785741806,
          0.14495156705379486,
          0.07395163178443909,
          0.08085723966360092,
          -0.029687538743019104,
          -0.018740171566605568,
          0.05031275376677513,
          0.02023846097290516,
          -0.026794342324137688,
          0.017543582245707512,
          -0.03688601404428482,
          -0.07884977757930756,
          -0.11750945448875427,
          -0.08045920729637146,
          -0.07328090071678162,
          0.15065887570381165,
          0.00015694551984779537,
          -0.12956109642982483,
          -0.07886747270822525,
          0.08244379609823227,
          -0.02814824879169464,
          -0.024556031450629234,
          -0.02988217957317829,
          -0.03753746673464775,
          -0.004439659882336855,
          0.017387419939041138,
          0.09869580715894699,
          0.09680628776550293,
          0.12555108964443207,
          0.0038289364892989397,
          -0.05744384601712227,
          0.00911395251750946,
          -0.08512010425329208,
          0.07529987394809723,
          -0.007154230959713459,
          -0.03806433826684952,
          -0.10475754737854004,
          0.08326542377471924,
          0.09661830961704254,
          0.1253102570772171,
          -7.349081204491777e-23,
          1.8269231281735223e-23
        ],
        [
          0.004540636204183102,
          -0.05387681722640991,
          -0.09868209809064865,
          0.07253453135490417,
          -0.08785083889961243,
          0.13295714557170868,
          0.034601859748363495,
          0.0360310934484005,
          0.0638260692358017,
          0.08914973586797714,
          0.05830029398202896,
          0.0662105530500412,
          -0.045894548296928406,
          -0.045084621757268906,
          -0.065599724650383,
          0.07803644984960556,
          0.10642244666814804,
          0.09537195414304733,
          -0.01772899553179741,
          -0.009717206470668316,
          -0.09820904582738876,
          0.08089996129274368,
          -0.07293862104415894,
          -0.07373104244470596,
