{
  "project": "aether_quant",
  "phase": "multitask_direction_magnitude_volatility_horizons",
  "version_id": "multitask-only-8c59799d-c7f1-40be-9c76-8f5eefdac6d9",
  "trained_at": "2026-07-13T12:54:47.695642+00:00",
  "row_counts": {
    "train": 20604,
    "validation": 7849,
    "backtest": 17650
  },
  "best_epoch": 1,
  "epochs_ran": 19,
  "loss_weights": {
    "magnitude_loss_weight": 1.0,
    "volatility_loss_weight": 1.0
  },
  "horizon_heads": {
    "direction_5d": {
      "enabled": true,
      "loss_weight": 1.0
    },
    "direction_20d": {
      "enabled": true,
      "loss_weight": 0.5
    },
    "rank_5d": {
      "enabled": true,
      "loss_weight": 1.0
    },
    "rank_20d": {
      "enabled": true,
      "loss_weight": 0.5
    },
    "sector_neutral_rank_20d": {
      "enabled": true,
      "loss_weight": 0.3
    }
  },
  "threshold_optimization": {
    "metric": "mcc",
    "default_threshold": 0.5,
    "selected_threshold": 0.495,
    "selected_validation_metrics": {
      "loss": 0.6620553135871887,
      "accuracy": 0.5084724168683908,
      "balanced_accuracy": 0.5111114790501977,
      "precision": 0.5028997514498758,
      "recall": 0.9338461538461539,
      "specificity": 0.08837680425424158,
      "f1": 0.6537425955842757,
      "mcc": 0.04159624543347142,
      "threshold": 0.495,
      "positive_rate": 0.9226652979850769,
      "average_probability": 0.5192902088165283,
      "confusion_matrix": {
        "tp": 3642,
        "tn": 349,
        "fp": 3600,
        "fn": 258
      }
    },
    "head_thresholds": {
      "direction": 0.495,
      "direction_5d": 0.56,
      "direction_20d": 0.595
    }
  },
  "train": {
    "direction": {
      "loss": 0.6566275358200073,
      "accuracy": 0.533634245777519,
      "balanced_accuracy": 0.5249588513209618,
      "precision": 0.5436725281060825,
      "recall": 0.6971629239441826,
      "specificity": 0.35275477869774097,
      "f1": 0.6109244037737377,
      "mcc": 0.05315561876023341,
      "threshold": 0.495,
      "positive_rate": 0.6734614372253418,
      "average_probability": 0.5048938393592834,
      "confusion_matrix": {
        "tp": 7544,
        "tn": 3451,
        "fp": 6332,
        "fn": 3277
      }
    },
    "magnitude": {
      "mae": 0.02132597006857395,
      "rmse": 0.034739673137664795,
      "bias": 0.0030541964806616306,
      "mean_prediction": 0.004285768140107393,
      "mean_target": 0.00123157212510705
    },
    "volatility": {
      "mae": 0.05972220003604889,
      "rmse": 0.0627896711230278,
      "bias": 0.05629542097449303,
      "mean_prediction": 0.07167990505695343,
      "mean_target": 0.015384482219815254
    },
    "direction_5d": {
      "loss": 0.6517003178596497,
      "accuracy": 0.556121953587727,
      "balanced_accuracy": 0.5490642663654519,
      "precision": 0.6037362258953168,
      "recall": 0.6070284774517442,
      "specificity": 0.49110005527915973,
      "f1": 0.6053778756096508,
      "mcc": 0.09820467219683113,
      "threshold": 0.56,
      "positive_rate": 0.5639382600784302,
      "average_probability": 0.5619755387306213,
      "confusion_matrix": {
        "tp": 7013,
        "tn": 4442,
        "fp": 4603,
        "fn": 4540
      }
    },
    "direction_20d": {
      "loss": 0.6341959834098816,
      "accuracy": 0.6113783219161444,
      "balanced_accuracy": 0.5534313973316535,
      "precision": 0.6435929648241207,
      "recall": 0.8150505130856733,
      "specificity": 0.29181228157763356,
      "f1": 0.719244673756625,
      "mcc": 0.12447372077367533,
      "threshold": 0.595,
      "positive_rate": 0.7734538316726685,
      "average_probability": 0.6099888682365417,
      "confusion_matrix": {
        "tp": 10246,
        "tn": 2338,
        "fp": 5674,
        "fn": 2325
      }
    },
    "rank_5d": {
      "mae": 0.24767211079597473,
      "rmse": 0.28716444969177246,
      "bias": -0.019876044243574142,
      "mean_prediction": 0.49953946471214294,
      "mean_target": 0.519415557384491
    },
    "rank_5d_ic": {
      "mean_ic": 0.11404223187154074,
      "std_ic": 0.2771816197185955,
      "t_stat": 11.46125408399089,
      "num_dates": 776,
      "ic_values": [
        0.020769228890053296,
        -0.4269230784936501,
        -0.4784615359155557,
        -0.27565217258600044,
        -0.4753846164867717,
        -0.19391304855464975,
        -0.2069230875203152,
        0.16869566973797082,
        0.4400000084535429,
        0.5852173943610514,
        0.3678260795598779,
        0.5678260944325324,
        0.4630769258764012,
        0.1617391377471569,
        -0.17043479828476213,
        -0.01478261566030279,
        -0.11826085706101912,
        -0.16173911947703748,
        -0.0069565286088981325,
        -0.3243478263177918,
        -0.43043476850757706,
        0.00434781716873827,
        -0.1991304323291393,
        -0.09304347847757571,
        -0.1721739110492802,
        -0.5030769238704755,
        0.002608691809499675,
        -0.18086956738864532,
        0.1146153768506892,
        0.16538462214634772,
        0.4635506905275046,
        0.3123076903238095,
        0.07692308315026328,
        -0.18999999663291045,
        -0.2769230714012705,
        -0.13230769533862355,
        -0.03923076939058197,
        0.32230770099819916,
        0.72538462673132,
        0.547692302225609,
        0.26999999190465734,
        0.11000000909830501,
        0.21615385655269614,
        -0.16846154573026298,
        0.39615385039163903,
        -0.207692314404443,
        0.16769228732444805,
        0.1676923045180957,
        0.09692308028465534,
        0.3239084445042459,
        0.19076923454962874,
        -0.23384616085587145,
        -0.10692308852327814,
        -0.10461539211005137,
        -0.23923076781449737,
        0.26076922573788425,
        0.39692306796254095,
        0.47846153290666715,
        0.2738461551246556,
        0.13538460531090124,
        -0.23923078472158404,
        0.10692307878021116,
        0.25923075993407557,
        -0.058461532476826464,
        0.008461535987196237,
        0.08923076989206329,
        -0.15307692351227487,
        0.1676923178431725,
        -0.0600000171936475,
        -0.06692308580095065,
        0.10538461082719652,
        0.1392307681010583,
        0.4376922974257158,
        -0.06923077691280276,
        -0.05846154379597773,
        -0.17692307971153376,
        -0.49076924357629337,
        -0.11000000479989315,
        -0.2584615297544987,
        0.06153845405481619,
        -0.40615384645142816,
        0.255384613191323,
        0.21461537556116547,
        0.5084615268172504,
        0.27692307326391574,
        0.08538461741809476,
        -0.01461537914317562,
        -0.3138461531187298,
        -0.24923078479322427,
        -0.005384632032695247,
        0.43461538874296174,
        0.3153846225045487,
        0.4207692377734374,
        0.2069230708997893,
        0.2023076926879362,
        0.516923089024759,
        0.24923076888910026,
        0.20923075527746268,
        0.023846146886033048,
        0.0969230616582039,
        -0.061538474114071644,
        0.11384613606836301,
        0.20230768251502815,
        -0.13615384766931174,
        -0.0830769301748134,
        0.13615386142422975,
        -0.31769229713915503,
        0.33999998796444636,
        0.2376923086015869,
        -0.008461548309310346,
        -0.23153846243671913,
        -0.4869230764877244,
        -0.04999999634634983,
        0.08923078422010289,
        0.32307691484381085,
        0.39307692967333174,
        0.0846153729104783,
        -0.10846154658994547,
        -0.4023076819419063,
        0.21384616615724614,
        0.23384614280254146,
        0.07076923268698367,
        0.19538460588402268,
        0.41461537527460457,
        0.15230771425163595,
        -0.15538461935238002,
        0.0892307822141774,
        -0.20615383900084763,
        -0.42307693733883284,
        -0.05923076566529154,
        0.06538461598529084,
        0.3069230714729108,
        0.12230768638359883,
        0.3492307631578844,
        0.26615384888719507,
        0.29505673980979413,
        -0.037692313329840146,
        -0.15000001640560526,
        -0.16230768480751448,
        0.09538461605693101,
        0.012307700496718034,
        -0.05538463267745703,
        0.2900000025074066,
        0.33538460860635017,
        0.0069230787802112715,
        -0.10692308236222108,
        0.11615384996179809,
        0.5476923025121697,
        0.6092307654503706,
        0.5676923111089935,
        0.37461538043269865,
        0.01538460946603288,
        0.017692306452381207,
        0.09076924285989176,
        -0.04076924522401839,
        -0.22846152653068982,
        0.04769229649439358,
        -0.09307692838380843,
        0.054615373411959725,
        0.22230769727290883,
        0.14230770515333074,
        -0.0038461382892092757,
        -0.13000001139079131,
        -0.1576922995749221,
        -0.12000000816698246,
        0.10153845147576908,
        0.48538461942401984,
        0.37461539719650533,
        0.07153844667587574,
        -0.34230768208518664,
        0.17615383434423484,
        -0.24384614975164065,
        -0.029230765163810225,
        0.07999998739132508,
        -0.134615389459364,
        -0.3015384530518532,
        -0.1830769220078307,
        -0.17769232035057944,
        -0.43076924328973265,
        -0.22230769426402058,
        -0.42846153942592535,
        0.32384616307671754,
        0.4384615412169303,
        0.24615384186645553,
        -0.11538461261820152,
        -0.530000002364126,
        -0.510769243146452,
        -0.003846163076717811,
        0.7161538440873011,
        0.4799999984239152,
        0.34692306789090077,
        0.5915384638695228,
        0.5346153898892048,
        0.37230769104021144,
        0.011538469170898001,
        -0.2761538469529096,
        0.19230768230010747,
        -0.188461546446665,
        -0.24000000401185084,
        -0.16538460266021385,
        0.3946153788566145,
        -0.20230768824624398,
        -0.22692309669026062,
        0.06923076559365136,
        0.02769231110899406,
        0.12769230609418009,
        0.4215384496131235,
        0.15692307068486877,
        0.38999999921195744,
        0.3146154102350213,
        0.264615398557669,
        0.19615384007545072,
        -0.5030769427834879,
        -0.24999999147481616,
        -0.01538462078518414,
        0.09538460631386407,
        -0.040769227170688496,
        -0.0007692435046536716,
        0.18923076788613774,
        0.24153847540359502,
        0.21384615899322643,
        0.3892307711815865,
        0.4046153784984135,
        0.38923076602349227,
        0.4353846199255014,
        -0.030769230394497395,
        0.3284615322619055,
        0.36384615634253875,
        0.3853846126898415,
        0.49615383821280534,
        0.6007692416420078,
        0.4599999977075133,
        0.19153844925492278,
        0.019999993409101736,
        -0.1669230747683601,
        -0.11769230029132403,
        -0.06999999921195779,
        0.28384615147100545,
        0.15615384809915292,
        0.14692307663100523,
        0.476153853257247,
        0.05384616988253657,
        -0.1061538550482522,
        -0.2638461425876209,
        -0.2515384581383073,
        -0.18692308379502504,
        -0.21692307340719627,
        0.13692307541312182,
        -0.14000000716401967,
        0.36769230953290916,
        -0.08538461412264564,
        0.3123077003534373,
        0.010769249020948874,
        0.1261538473111108,
        0.39461538243862443,
        -0.09153844753555808,
        0.016153841364974435,
        0.3415384582099473,
        0.1023077120307898,
        0.07769230473301636,
        -0.06076923591079263,
        0.08153847239470689,
        -0.18461538852804138,
        0.036153839502329234,
        0.08461536803894483,
        0.10538462472539496,
        -0.011538477911002142,
        -0.05461537269555779,
        -0.3538461463845513,
        0.12538460939439253,
        -0.20076922688412743,
        0.13692308114433765,
        0.03461539103544847,
        -0.15829058670026253,
        0.11521369067916183,
        0.47829059813375785,
        -0.08239315954667539,
        -0.024273492740701563,
        -0.27589743711418563,
        0.1535042745819797,
        0.06461538237730653,
        -0.2594871828397113,
        0.32512820510334406,
        0.3415384605036838,
        -0.3832478789294205,
        -0.14598291144194425,
        0.25196580625551696,
        0.2670085521388936,
        0.0201709361756289,
        0.4358974233600823,
        0.12478631729991325,
        -0.1569230816867616,
        0.09128204816447351,
        -0.07418803641619502,
        -0.22393161770591002,
        0.2841025649468101,
        -0.2957264880295148,
        0.3230769275161953,
        0.16786324795793592,
        -0.10017092545738898,
        -0.06051281647417267,
        0.2752136812298384,
        0.16102562997341127,
        -0.24170940222651852,
        0.5678632452293673,
        0.24444442894282115,
        -0.07692308617962738,
        0.38871794766055173,
        0.42017094987145154,
        0.09264958702016768,
        0.10632478106728291,
        0.12547009649629953,
        0.10905981798260277,
        0.14735041579317135,
        0.19726496397212703,
        0.3565812010226424,
        0.10495725823861564,
        0.08649572525112705,
        0.3374358922825916,
        0.6034188077140733,
        0.414017080883626,
        0.7244444394040984,
        0.7271794850614327,
        0.0687179498036702,
        -0.1425641067875756,
        -0.3928205195903775,
        -0.2642735051570113,
        0.11384612877633793,
        0.1589743433131108,
        -0.006495736432958708,
        -0.1753846108992892,
        -0.0003418767831943187,
        0.1391452905434147,
        -0.27452992077580196,
        -0.08923077806101905,
        0.1008546981634916,
        0.2437606732571563,
        0.6806837570340539,
        0.03589743158552372,
        0.2738461466126969,
        0.12068376384752763,
        0.344273493511588,
        0.23623931779949728,
        0.41675214296535185,
        0.4311111146856234,
        0.04957264324912306,
        0.37299145304538567,
        0.1357264873460485,
        -0.0912820645888648,
        -0.0974359059598711,
        -0.20888890135994664,
        -0.40239316270174763,
        -0.5405128088553742,
        -0.4194871725956594,
        -0.2820512870947518,
        -0.05230769274764585,
        0.4105982898058711,
        0.5138461498896275,
        0.4304273419795208,
        -0.11794871845510262,
        -0.14393161961590784,
        -0.13025642656220346,
        0.06871793437268965,
        0.018119648389462888,
        0.5507692291100814,
        -0.4324786472497161,
        0.36888888071819537,
        0.47282051774660716,
        0.5842734997025236,
        0.5377777762448341,
        0.5876923198541004,
        0.26632479685059285,
        -0.14119659819779584,
        -0.49059830292948964,
        0.0071794639057579995,
        -0.04273504758322682,
        0.3073504134964055,
        0.3066666646321612,
        -0.32991452695705237,
        -0.29982906353561944,
        0.14598289654078278,
        -0.07282051789230774,
        -0.03863246995784603,
        0.14666663884851613,
        0.0338461567136976,
        0.18017094281955992,
        -0.45025640077590895,
        -0.36957264964933734,
        0.1076922990613511,
        -0.08444445607485604,
        0.2683760718548737,
        0.14529914628576335,
        -0.3340170865023574,
        0.24102563468615187,
        0.4680341943696692,
        0.5480341959697227,
        0.24717950082619983,
        0.46119658744511743,
        0.24581196230164243,
        0.1671794784307477,
        0.4160683725772076,
        0.5329914569077663,
        -0.02837606361088918,
        0.2998290628733456,
        0.06529914673875875,
        0.36752136603549646,
        0.23692307990921854,
        0.5261538398504251,
        0.4393162276833141,
        0.4215384635607398,
        0.5049572604108734,
        0.3887179409053586,
        0.4153846007982882,
        0.23076921164989436,
        0.07555554599938548,
        0.3114529905919672,
        -0.022905996402987912,
        0.31418805075309886,
        0.17811965509962135,
        0.35247862147666736,
        0.35931624098442194,
        0.09333333999050987,
        -0.1480342028706163,
        -0.09675213186299338,
        0.30324784593758725,
        0.39555554663781717,
        0.3073504207151904,
        0.14188033792266116,
        0.091282043594784,
        0.20957264883341592,
        -0.15760685439286426,
        -0.18905983958332623,
        -0.32034189636265786,
        -0.04034877279302941,
        -0.16717949730555218,
        -0.2218803529668737,
        0.050940171773345345,
        0.19863247521100197,
        -0.07418803634996769,
        -0.06461539118554867,
        0.30940169578569854,
        0.14803419167818832,
        -0.31145299271124355,
        -0.14529913469597114,
        -0.022222219988151812,
        -0.3046153898265624,
        -0.1329914669875746,
        0.009230767189131866,
        0.4393162356306,
        0.4188034253208722,
        0.2369230723592967,
        -0.0064957253067581665,
        -0.3825640988720784,
        0.209572642806724,
        -0.16307691365347946,
        0.011282034246126579,
        0.4591452974734479,
        0.21846154493490838,
        -0.07076922288735688,
        0.03316239553115985,
        0.5603418750692292,
        0.30188034529509344,
        0.613675210948343,
        0.31282050116856835,
        -0.0810256563213138,
        -0.3825641167534721,
        0.11931623333648385,
        -0.466666653990745,
        0.22461538021299543,
        0.4933333247449656,
        0.10222221039577747,
        -0.020854701331809646,
        0.3278632432107569,
        0.4509401605014442,
        -0.07487180415524389,
        0.13777776870815817,
        -0.08854701422938595,
        -0.20205128595828997,
        -0.12683761853023817,
        -0.12136752847388936,
        -0.39623931815182695,
        -0.011282058750258657,
        -0.07213675829922704,
        0.2177777795138181,
        0.2225640926255117,
        0.36136753545955363,
        0.25948716966046187,
        0.1111110948412503,
        0.027008537934444424,
        -0.02427350247612704,
        -0.14393163551048,
        0.1644444371444204,
        0.24854701868781326,
        0.1384615324735639,
        0.390085483271104,
        0.2970940060235831,
        0.23145298137576456,
        0.04273503566229772,
        -0.07760685199808208,
        -0.07213674730548135,
        0.0427350379140288,
        0.25948717297183105,
        0.19521368035828618,
        0.43726497042797213,
        -0.14529916045842353,
        -0.07829060225310143,
        0.10153847060468464,
        -0.15418802987028024,
        0.3572649608144051,
        0.40854701950373445,
        0.26564101884629954,
        0.048888881139401895,
        0.07829059059708182,
        0.39623931477423036,
        0.12547009099942663,
        -0.0017094024596390766,
        0.42905983146914706,
        -0.27384616197744993,
        -0.24649573613361064,
        -0.41264958216172654,
        -0.4598290698484137,
        -0.13641026687357166,
        -0.05094017581321581,
        0.41401707896303197,
        0.5917948752933074,
        0.30940170134879885,
        0.19452992195729854,
        0.5452991665380971,
        0.32649573058110676,
        -0.0071794892046187385,
        0.029059828833297423,
        0.2396581223876387,
        0.31350427440449025,
        0.301880347811734,
        0.18290597430423422,
        0.19247862867425966,
        0.23008546603079166,
        0.33196581010730136,
        0.28683759351747956,
        0.2991452908295169,
        -0.010598303528185384,
        -0.1405128246969647,
        -0.06666667539543585,
        0.4871794765525388,
        0.2923076708581706,
        0.29846152706411105,
        0.5473504277670819,
        0.48307691164281574,
        0.2888888815685551,
        0.32170940323052544,
        0.02905983042275467,
        0.3996581183689609,
        0.47213674649750703,
        0.2806837604248962,
        0.7094017047131496,
        0.47213673974231385,
        -0.028376071359493143,
        0.31145298787664455,
        0.055726482500853124,
        0.595213673589847,
        0.45230769240326313,
        0.41333333288033763,
        0.4899145316803893,
        0.5206837696622916,
        0.05094016892556784,
        0.12341880029925581,
        0.1145299039990811,
        0.20341879302483984,
        0.5466666709555515,
        0.5152136664266933,
        0.264273510786339,
        0.10700855132297236,
        -0.39623930987340394,
        -0.584273508510766,
        -0.44547008726685106,
        -0.6109401654234633,
        -0.5507692350043187,
        -0.521367533493925,
        0.2909401641889852,
        0.4126495695122962,
        0.5904273588886964,
        0.6000000014702471,
        0.7415384630070786,
        0.19726494171972586,
        -0.22666667866177015,
        -0.07008547647352571,
        -0.15008548131872107,
        -0.2109401782848216,
        -0.04273506341157157,
        -0.3538461684121024,
        -0.5063247945644236,
        0.055042721384542734,
        -0.21641026191711418,
        -0.1958974421368704,
        -0.058461556900872305,
        -0.041367513230994746,
        0.32170940283316124,
        -0.06393162748637024,
        0.3080341753412172,
        0.4167521376009337,
        0.48444443963721895,
        0.3757264919475269,
        0.37299144814455903,
        0.53846152861913,
        0.4229059736737493,
        0.4017094066849458,
        0.20205127085844637,
        0.40581195033567863,
        0.28341879661171493,
        0.24786324055106523,
        0.19863248428415362,
        -0.19452992963967505,
        0.19863247329040787,
        -0.3408547007119211,
        -0.543931622384212,
        -0.07145300307715387,
        -0.024957273658999756,
        -0.15555556223569092,
        0.40034189140620036,
        0.7565811983603012,
        0.2246153758419881,
        -0.21299146785912693,
        -0.08444445965113481,
        0.02837607592918262,
        -0.17880341727556992,
        0.3094017041965764,
        0.08102563267813773,
        0.3470085353277344,
        0.04478631914368367,
        -0.14119657071343145,
        0.26632478122093034,
        0.6041025577704106,
        0.16444441992530065,
        0.23008545324890656,
        -0.02427350989359404,
        -0.026671217653201948,
        -0.24239316228319072,
        0.26153845598962544,
        0.14598290269992947,
        0.1480341945259659,
        -0.36683761399233766,
        -0.23487178914282028,
        -0.05982907575589658,
        -0.05367522332491709,
        -0.01606837682900608,
        -0.0523076876481373,
        0.182905962714442,
        0.007179475164413268,
        0.4598290464039197,
        0.6929914469286239,
        0.44341878941412277,
        0.22636347148116198,
        0.210256405777401,
        0.5302564011838697,
        0.0728204948451781,
        0.2294016983579702,
        0.20820512388547233,
        0.09880340209890262,
        -0.10153846623367734,
        0.48854700905040405,
        0.5466666593657594,
        0.5521367414085947,
        0.19316237952532556,
        0.031111099069206567,
        0.09675213795591281,
        -0.02017094723560193,
        0.40170938588954724,
        0.15418802583040994,
        0.19999999810589666,
        0.5658119591651133,
        0.24102562574545502,
        0.23623930177247035,
        -0.07555556143036594,
        0.06803417464715444,
        0.12410255194505027,
        -0.4181196562572759,
        0.04410256299442708,
        -0.16854700026600425,
        -0.34085470216892355,
        -0.12273505017669109,
        -0.11521367140699315,
        -0.21982906988285206,
        0.41675213548165746,
        0.2950427326749869,
        0.44410255920622016,
        0.11794870580567228,
        0.5521367544553892,
        0.33948717450565735,
        0.43452991443916555,
        0.44273503578150664,
        0.2567521398314721,
        0.32923076696660747,
        -0.14393163670257292,
        -0.1295726636577537,
        0.16444443065413689,
        0.13094017185016898,
        0.014700852079744678,
        0.2711111104921056,
        -0.10495727638491889,
        -0.2177777859378743,
        0.22119658350591287,
        0.39418803599498853,
        0.524102560144,
        -0.026324784566737952,
        0.06393161695621616,
        0.10290596773712692,
        0.5008546998721577,
        0.6984615320841463,
        0.6827350295879215,
        0.46598289996076475,
        0.2287179512156379,
        0.13709400375065947,
        0.21299144322254007,
        0.19182765816101954,
        0.5384615356392325,
        0.8044444451102495,
        0.0482051276392406,
        0.2977777741599963,
        0.5131623822168062,
        0.29914529950530416,
        0.6006837623216481,
        0.10564102074570116,
        0.32444443120514854,
        0.12752135964587852,
        0.11726494442445234,
        0.0782905935110868,
        0.1678632451763858,
        0.09264956609231438,
        0.30461537677976774,
        0.23692306620014994,
        0.3264957121698939,
        -0.02017093968568023,
        0.48854701309027454,
        -0.13572650065775269,
        -0.13435897544489955,
        0.03794870513280212,
        0.22324785917246756,
        0.2950427253899746,
        -0.38188034623287315,
        -0.4276923151307634,
        -0.45025641726652754,
        0.07631256633573218,
        0.016748777578344275,
        0.3280788236031178,
        0.47783250945196143,
        0.4965517223384133,
        0.24926108355970097,
        0.4940886697016342,
        0.4472906413438406,
        0.5187192138976019,
        0.3660098455237569,
        0.30788177756997653,
        0.11133006841909035,
        -0.05369457585785603,
        -0.061576355992961185,
        0.25221675246078323,
        -0.06256158639282963,
        0.20896996963840506,
        0.48472906355110934,
        0.46483556801996195,
        0.10049262278888269,
        0.17684728321377471,
        0.2674876725183956,
        0.08319648628046197,
        -0.03721949589930476,
        0.1827586311274413,
        0.141379318027734,
        -0.06798029675482015,
        0.004433488370634368,
        0.07339899929370108,
        -0.3290640238813533,
        0.15418717076027985,
        0.4512315209007526,
        0.5532019618287266,
        0.6704433522973253,
        0.684729056324046
      ]
    },
    "rank_5d_ic_non_overlapping": {
      "mean_ic": 0.09565067674666468,
      "std_ic": 0.2908406466381981,
      "t_stat": 4.107667148543058,
      "num_dates": 156,
      "ic_values": [
        0.020769228890053296,
        -0.19391304855464975,
        0.3678260795598779,
        -0.01478261566030279,
        -0.43043476850757706,
        -0.5030769238704755,
        0.4635506905275046,
        -0.13230769533862355,
        0.26999999190465734,
        -0.207692314404443,
        0.19076923454962874,
        0.26076922573788425,
        -0.23923078472158404,
        0.08923076989206329,
        0.10538461082719652,
        -0.17692307971153376,
        -0.40615384645142816,
        0.08538461741809476,
        0.43461538874296174,
        0.516923089024759,
        -0.061538474114071644,
        0.13615386142422975,
        -0.23153846243671913,
        0.39307692967333174,
        0.23384614280254146,
        -0.15538461935238002,
        0.06538461598529084,
        0.29505673980979413,
        0.012307700496718034,
        -0.10692308236222108,
        0.37461538043269865,
        -0.22846152653068982,
        0.14230770515333074,
        0.10153845147576908,
        0.17615383434423484,
        -0.3015384530518532,
        -0.42846153942592535,
        -0.530000002364126,
        0.34692306789090077,
        -0.2761538469529096,
        0.3946153788566145,
        0.12769230609418009,
        0.264615398557669,
        0.09538460631386407,
        0.21384615899322643,
        -0.030769230394497395,
        0.6007692416420078,
        -0.11769230029132403,
        0.476153853257247,
        -0.18692308379502504,
        -0.08538461412264564,
        -0.09153844753555808,
        -0.06076923591079263,
        0.10538462472539496,
        -0.20076922688412743,
        0.47829059813375785,
        0.06461538237730653,
        -0.14598291144194425,
        0.12478631729991325,
        0.2841025649468101,
        -0.06051281647417267,
        0.24444442894282115,
        0.10632478106728291,
        0.3565812010226424,
        0.414017080883626,
        -0.3928205195903775,
        -0.1753846108992892,
        0.1008546981634916,
        0.12068376384752763,
        0.04957264324912306,
        -0.20888890135994664,
        -0.05230769274764585,
        -0.14393161961590784,
        -0.4324786472497161,
        0.5876923198541004,
        -0.04273504758322682,
        0.14598289654078278,
        0.18017094281955992,
        0.2683760718548737,
        0.5480341959697227,
        0.4160683725772076,
        0.36752136603549646,
        0.5049572604108734,
        0.3114529905919672,
        0.35931624098442194,
        0.39555554663781717,
        -0.15760685439286426,
        -0.2218803529668737,
        0.30940169578569854,
        -0.3046153898265624,
        0.2369230723592967,
        0.011282034246126579,
        0.5603418750692292,
        -0.3825641167534721,
        0.10222221039577747,
        0.13777776870815817,
        -0.39623931815182695,
        0.36136753545955363,
        -0.14393163551048,
        0.2970940060235831,
        0.0427350379140288,
        -0.07829060225310143,
        0.26564101884629954,
        -0.0017094024596390766,
        -0.4598290698484137,
        0.30940170134879885,
        0.029059828833297423,
        0.19247862867425966,
        -0.010598303528185384,
        0.29846152706411105,
        0.02905983042275467,
        0.47213673974231385,
        0.45230769240326313,
        0.12341880029925581,
        0.264273510786339,
        -0.6109401654234633,
        0.5904273588886964,
        -0.07008547647352571,
        -0.5063247945644236,
        -0.041367513230994746,
        0.48444443963721895,
        0.4017094066849458,
        0.19863248428415362,
        -0.07145300307715387,
        0.2246153758419881,
        0.3094017041965764,
        0.26632478122093034,
        -0.026671217653201948,
        -0.36683761399233766,
        -0.0523076876481373,
        0.44341878941412277,
        0.2294016983579702,
        0.5466666593657594,
        -0.02017094723560193,
        0.24102562574545502,
        -0.4181196562572759,
        -0.11521367140699315,
        0.11794870580567228,
        0.2567521398314721,
        0.13094017185016898,
        0.22119658350591287,
        0.10290596773712692,
        0.2287179512156379,
        0.8044444451102495,
        0.6006837623216481,
        0.0782905935110868,
        0.3264957121698939,
        0.03794870513280212,
        -0.45025641726652754,
        0.4965517223384133,
        0.3660098455237569,
        0.25221675246078323,
        0.10049262278888269,
        0.1827586311274413,
        -0.3290640238813533,
        0.684729056324046
      ]
    },
    "rank_20d": {
      "mae": 0.24329756200313568,
      "rmse": 0.28349655866622925,
      "bias": 0.0020058648660779,
      "mean_prediction": 0.5214340090751648,
      "mean_target": 0.5194281935691833
    },
    "rank_20d_ic": {
      "mean_ic": 0.17387788378640814,
      "std_ic": 0.33861628629138285,
      "t_stat": 14.304324843419803,
      "num_dates": 776,
      "ic_values": [
        -0.12923077476359676,
        -0.5046153898175646,
        -0.41461539246825196,
        -0.5530434812989482,
        0.03153847461555302,
        -0.3626086954744073,
        -0.27692306982518616,
        -0.3321739184226338,
        -0.17615384365746065,
        -0.16434784514456688,
        -0.3565217613817836,
        -0.43999999949932056,
        -0.008461543294496377,
        -0.5347826041524594,
        -0.5478260952698482,
        -0.7452173920940015,
        -0.38434782730437816,
        -0.3660869594873121,
        -0.520000002369673,
        -0.15565217418910643,
        -0.39652174003761936,
        -0.5582608559772508,
        -0.11304347958388976,
        0.37826086467926984,
        0.23391305030080659,
        0.16076921742762143,
        0.35043478033106545,
        0.5365217378304331,
        0.4661538338427531,
        0.4407692333317451,
        0.83076923168402,
        0.7815384702454998,
        0.6776923182013729,
        0.471538460287513,
        0.5207692304661372,
        0.3461538427261379,
        0.4761538396456093,
        0.5984615440825382,
        0.8107692268124869,
        0.6523077046518488,
        0.7676923062374599,
        0.573846166587087,
        0.5884615460168234,
        0.5738461556977769,
        0.5030769217212696,
        0.2700000122504736,
        0.0738461681631718,
        0.3407692356242317,
        0.4338461581335437,
        -0.10769232944888464,
        -0.07615383735312334,
        0.13692307054158842,
        0.22769230150920733,
        0.2884615405721687,
        -0.09153845885470935,
        0.26692306918042435,
        -0.07153845942783102,
        0.1484615354140745,
        0.15615384738275095,
        -0.13384615426497337,
        -0.447692305091217,
        -0.28076923175566093,
        -0.4261538382844456,
        -0.5461538354188376,
        -0.1699999954866673,
        -0.0030769423536471567,
        0.22692307935333264,
        0.13615383592031932,
        0.09230769232973535,
        0.2746153930413738,
        0.17538459341862842,
        -0.22153844975640413,
        0.13076923841819948,
        -0.37384616458116154,
        0.09923077225618977,
        -0.39461538559079323,
        0.18846154343777674,
        0.3415384663769301,
        0.39692307885185113,
        0.29384615053968294,
        0.3038461491785192,
        0.3476923078135445,
        0.4907692270990478,
        0.2553846067437051,
        0.33384615254560834,
        0.1276922986435995,
        0.38307691971534413,
        0.18307692286751315,
        0.5369230646670916,
        0.5546153769939692,
        0.40846153770656063,
        0.3100000036536498,
        0.6000000170503665,
        0.5515384601442324,
        0.3792307702502639,
        0.2569230771324864,
        0.36923077046518454,
        0.2615384603591534,
        0.01461537212243617,
        -0.30384616866465297,
        0.23538462809248423,
        0.2000000154742826,
        0.27307691907058246,
        0.5130769252316394,
        0.2615384440251882,
        0.20769231669692925,
        0.5884615474496274,
        0.5769230792816922,
        0.269999970842439,
        0.14461537520296458,
        0.17307692623460244,
        0.1607692339048669,
        -0.08461539726814568,
        -0.3861538468812692,
        -0.0007692409256065438,
        -0.06846155103163777,
        0.02230769211481486,
        -0.07538462866560587,
        0.039230769820423124,
        0.1753846217881467,
        0.4100000070923792,
        0.2323076861686782,
        0.19923076924730135,
        -0.07923078199925669,
        0.1053846099675141,
        -0.2084615308291017,
        -0.25769231089407324,
        -0.24615384946031657,
        -0.3415384488967216,
        -0.3984615536823248,
        -0.5115384638695227,
        -0.16538462114338495,
        0.30692307634444427,
        0.14384615791862346,
        0.38307692487343836,
        0.4646153898175647,
        0.3192307787038073,
        0.5030769158467733,
        0.13153845025788563,
        0.22538461311968278,
        0.32692307104306956,
        0.5092307637310058,
        0.2869230736221168,
        0.1669230633059283,
        0.03384614996656155,
        0.2784615324768263,
        0.08923076530709065,
        -0.04923076888910056,
        -0.030769245438938938,
        0.22846153125894292,
        0.23384615139936538,
        -0.04615384444550295,
        0.34153845204889033,
        0.1299999969194714,
        -0.09615385640941601,
        0.10307691513037179,
        -0.2723076910402116,
        -0.24461537377016054,
        -0.5776923014375667,
        -0.5769230741235979,
        -0.601538474400632,
        -0.7769230718311116,
        -0.6815384673798924,
        -0.30230769669978724,
        -0.3184615339096302,
        -0.38307693604930937,
        -0.5207692379167177,
        -0.23923077282931135,
        -0.5753846143375658,
        -0.0253845990782041,
        -0.3730769235122746,
        -0.5623077001385165,
        -0.45307691677809614,
        -0.5084615401423274,
        -0.3684615276769329,
        -0.3961538403620112,
        -0.15923075620878532,
        -0.23923078142613502,
        -0.033846161572273666,
        0.04076922874677285,
        -0.029999998208994988,
        0.3492307743337554,
        0.6876923103925915,
        0.7561538478125917,
        0.4669230731922754,
        0.3215384735409499,
        -0.5692307860827476,
        -0.38153846580380835,
        0.24538460824814928,
        -0.3253846294536479,
        0.08846154057216879,
        0.4753846144808462,
        0.09615385168116283,
        0.46692307046994785,
        0.2430769232973542,
        0.4115384577084659,
        0.5361538473827506,
        0.1107692338332268,
        -0.011538460574074299,
        0.20769231540740568,
        0.49615384523354455,
        0.4107692279587302,
        0.10307692243767194,
        0.28000000745058035,
        0.49461538702359686,
        0.2661538546184108,
        0.6084615421482527,
        0.5499999970627513,
        0.47923076709809526,
        0.692307689464127,
        0.5215384607889944,
        0.5199999964179896,
        0.620000005301374,
        0.5307692315407401,
        0.643076921577989,
        0.41076923383322644,
        0.5000000091699448,
        0.7138461578469829,
        0.5792307683876187,
        0.25692307827872957,
        0.415384606743705,
        0.331538454126456,
        0.10307692315407392,
        0.2192307666682543,
        0.18384616021110975,
        0.03923077870380773,
        0.43153845856814826,
        0.2861538610660287,
        0.2584615268888909,
        0.2307692334033855,
        0.11230769662814717,
        0.32230768151206524,
        0.16923076430412773,
        0.11615385297068646,
        0.1284615437243375,
        -0.2669230684640225,
        -0.18769231698349015,
        -0.22692307433851872,
        -0.08076924808962628,
        -0.17153845885470934,
        -0.2823076987057128,
        -0.0930769177810591,
        0.05692307054158842,
        5.158094261974958e-09,
        -0.08615384745439118,
        -0.16615384831407348,
        0.19384616930941487,
        0.0038461385757700976,
        -0.1361538482424333,
        0.12230768667015977,
        0.06153845491449848,
        -0.19076923297354437,
        -0.2561538386426466,
        -0.25846154236317365,
        -0.36769230509121703,
        -0.40538463547142434,
        -0.5546153765641278,
        -0.6369230817174588,
        -0.3907692313974598,
        -0.28076922172603314,
        -0.6146153913220088,
        -0.6723076888910052,
        -0.41076922523640264,
        -0.5992307642324871,
        -0.5869230797831734,
        -0.5369230797115333,
        -0.1699999967761909,
        -0.34769231913269577,
        0.4161538430843387,
        -0.6753846054541812,
        -0.33384615842010457,
        -0.16923078450666365,
        -0.19538460244529327,
        -0.2834187993932651,
        -0.19179487696223774,
        -0.5747008506969162,
        -0.4748717828167802,
        -0.48786324336440423,
        -0.6430769196775219,
        -0.5781196545565563,
        -0.5350427420448369,
        -0.4468376051284645,
        -0.10564102683862044,
        0.07897435767385685,
        0.0324786179904582,
        -0.1958974353154498,
        -0.25470085760840644,
        0.12205128720601396,
        -0.05846152835686982,
        0.16854701907458133,
        0.14871796272860638,
        -0.3757265020803168,
        0.23350427426143902,
        0.48786323700657547,
        0.20205127503077164,
        0.5138461488962168,
        0.7682051296552016,
        0.6157265064168854,
        0.6834188054729385,
        0.7367521290999863,
        0.6902564110729423,
        0.5856410265710613,
        0.6246153837098013,
        0.37572649684835324,
        0.6717948779529991,
        0.7087179481003013,
        0.5070085399186164,
        0.7545299191836948,
        0.5945299138643119,
        0.6991453028696549,
        0.40307692249351035,
        0.3381196458489801,
        0.47829060442535926,
        0.20683760072566815,
        -0.08512822162840118,
        0.2444444402014765,
        0.2034188061378619,
        0.21025641577773627,
        0.4338461325274566,
        0.06461537952952899,
        -0.30666665734714893,
        0.035213673780582565,
        -0.16923076767391607,
        0.16991452726699666,
        0.447521373662242,
        0.4058119494747227,
        0.3531623906727186,
        0.24102563799752094,
        0.5480341811347884,
        0.2547008372103722,
        0.500854695964742,
        0.16512820090982627,
        0.4687179361475834,
        0.4099145267689666,
        0.3852991447943226,
        0.6793162295694697,
        0.44136751136338226,
        0.2335042651882876,
        0.20341880209799146,
        0.07623930817533404,
        0.14256409758196925,
        0.11111110206003517,
        0.30735041025126375,
        0.0878632359601831,
        0.16444443197868455,
        0.16991451097506027,
        -0.19247864642319865,
        -0.18632478975366654,
        0.009914516649422616,
        0.007179466885990281,
        0.07965811925375899,
        0.21914528273917966,
        0.40581198000554664,
        0.6690598283882487,
        0.6649572700350368,
        0.8051282068888339,
        0.6362393165941584,
        0.5145299198804073,
        0.572649573374677,
        0.4981196554731435,
        0.6916239382726168,
        0.5712820624669388,
        0.35521368488294086,
        0.3087179426829017,
        0.21367520725285535,
        0.11999999941984803,
        0.23350427790394515,
        0.057777777969395656,
        0.11589743278821293,
        0.028376070763446674,
        0.0632478571644534,
        -0.06461538906627239,
        -0.17264958020934348,
        -0.4988034212915981,
        -0.48581197359208694,
        -0.31487179604106447,
        -0.4112820631742477,
        -0.20410257381068325,
        -0.49880341473508716,
        -0.5111111105238948,
        -0.8447863298460283,
        -0.5760683792211388,
        -0.6376068352505007,
        -0.34290598247139503,
        -0.19794871628019517,
        -0.4051282012727522,
        -0.19589743730227138,
        0.09401709243103305,
        0.3401709366153784,
        0.13435896617306586,
        0.035897426287332994,
        0.6068376101829385,
        0.2389743571652303,
        0.4536751964895806,
        0.5876923043568923,
        0.5630769231769771,
        0.535042735090962,
        0.3846153846714228,
        0.20752136548448463,
        0.380512814132372,
        0.3538461501995718,
        0.43247862287803895,
        0.3415384555366301,
        0.10769229926003321,
        0.24581195435435635,
        0.09880341673515446,
        0.24854700742915797,
        -0.03452991802869024,
        0.3470085452618421,
        0.42222221209384736,
        0.29299144250463516,
        0.6082051161236226,
        0.3333333329359687,
        0.432478623937677,
        0.2567521329438241,
        0.3278632321507836,
        0.35658117877024137,
        0.45777777265795916,
        0.13230767997635706,
        0.29572649220184016,
        0.39145297119794015,
        0.2567521245329465,
        0.12820511301358506,
        -0.1569230814218521,
        -0.21504274511513882,
        0.1993162318238502,
        -0.043418802143026215,
        0.1753846047401425,
        -0.08854702396481137,
        -0.07965812163794479,
        0.13914529478196724,
        0.08102563102245307,
        0.04547008396872767,
        0.21982905239882258,
        0.24034186674842087,
        0.273162383708247,
        0.3729914445682803,
        0.15076922005017573,
        0.07897434926297907,
        0.4680341716536764,
        0.5494016984003552,
        0.6252991401239671,
        0.3066666607247455,
        0.13846153333451997,
        0.24170938785517626,
        0.15282051863140528,
        0.5104273578846893,
        0.44478632475976554,
        0.5617094045206347,
        0.5316239328207789,
        0.4844444437433169,
        0.6594871750778615,
        0.5336752178253946,
        0.4837606811037765,
        0.3319658097761646,
        0.3292307545820867,
        0.6745299059938494,
        0.6266666687806441,
        0.6875213632963315,
        0.6328205014096357,
        0.6526495668949898,
        0.4960683731838503,
        0.22529914563408585,
        0.1767521288271301,
        0.3859829073676353,
        -0.033162401359169695,
        -0.3914530091462311,
        -0.16854701953817297,
        0.036581192039560256,
        0.10632478331901395,
        0.09811966528804215,
        0.31213674700613336,
        0.16034187958593704,
        0.14461537536780017,
        0.3483760493481595,
        0.2970940033744878,
        0.3080341773280388,
        0.18358972813553237,
        0.2854700702252206,
        0.42974357655843054,
        0.06256409856478364,
        0.21641024297608238,
        0.264273503037735,
        0.4851281987667078,
        0.5124786330876523,
        0.6034188144692664,
        0.6000000067684381,
        0.4030769356065324,
        0.6341880253641686,
        0.4844444402994928,
        0.45777778808893954,
        0.712820519897672,
        0.7353846144835148,
        0.5152136810629452,
        0.5076923125584915,
        0.6574358937819792,
        0.5439316335104125,
        0.46940172130443386,
        0.2882051164786017,
        0.5241025597466357,
        0.4270085368615604,
        -0.0803418930194997,
        0.006495713187146922,
        -0.037264959646154394,
        0.24239314969998768,
        0.29846152527597164,
        0.47623932048038153,
        0.6273504194992553,
        0.5740171046804498,
        0.0051281916830273186,
        0.12205125985410442,
        0.4550427283251721,
        0.016068379809238312,
        0.15145297772266209,
        -0.3702564162625204,
        0.1924786275483941,
        -0.1569230847332212,
        0.03931623266361365,
        -0.19931624712237594,
        -0.3996581359854449,
        0.0591453058975715,
        -0.31829061029840394,
        -0.36136752969777125,
        -0.3264957428994001,
        -0.08034189083399602,
        0.06803416928273628,
        0.2984615237527419,
        0.03726494183098804,
        0.018803408379907825,
        0.12888888724291747,
        0.23760682837609848,
        0.5480341864329794,
        0.5870085497308656,
        0.5391452935104011,
        0.6608547001582598,
        0.5794871764580403,
        0.5692307671308511,
        0.15692306764655614,
        0.4256410173442623,
        0.08786322543002903,
        0.24034188357017638,
        0.28273503940282013,
        0.15829057762711093,
        0.20820512885252612,
        0.188376076943786,
        0.07282051160070624,
        0.3340170819326679,
        0.43521366985992105,
        0.22666665958828364,
        0.450940170634234,
        0.6437606831780179,
        0.558974352108107,
        0.4256410278744163,
        0.6068375925002268,
        0.3791452884559272,
        0.3894017147373267,
        0.4728205164882869,
        0.39008547539004546,
        0.003760663887306285,
        0.010598287103794105,
        -0.08991453692559843,
        -0.02085470106690023,
        -0.20888889619421067,
        -0.23076924092239803,
        -0.18017093917705373,
        -0.5411965822899778,
        -0.17675214081428667,
        -0.19452992732171667,
        -0.10974358605278847,
        -0.13230769659943037,
        -0.059829069662977206,
        -0.07487180402278902,
        -0.38256411430305887,
        -0.029059836184537096,
        -0.29572648584401134,
        -0.21094016311875063,
        -0.10837607567486938,
        -0.27247864716229614,
        -0.3969230896658365,
        0.007863234823721222,
        0.07829058649098411,
        0.17059828414475453,
        0.4201709340431067,
        0.12136750085707028,
        0.1261538269493311,
        -0.36341882172248974,
        0.05367519709887297,
        0.09401707852328232,
        0.0003418678424975175,
        0.2499145160851651,
        0.2916239172917821,
        0.31760681712803945,
        0.4789743499120069,
        0.5979487160682672,
        0.5548717848141982,
        0.6102564046382898,
        0.35589741732279406,
        0.4899145244616043,
        0.18290597297968664,
        0.539145290397714,
        0.42153845720291094,
        0.42153846488528757,
        0.4181196404289309,
        0.3367521304377799,
        0.392820500384436,
        0.502905971829979,
        0.3422222030763266,
        0.5056410120566678,
        0.1199999830616841,
        0.02358973705503665,
        0.0844444485911616,
        0.11794870991177003,
        0.08786323894041533,
        -0.03931625504846943,
        -0.06940172813910042,
        0.0953846067163677,
        0.2109401560986479,
        0.17880341230851607,
        0.5747008461272268,
        0.5343589724514214,
        0.21435896982616823,
        -0.05162395010877564,
        -0.3818803376233132,
        -0.10564102836185024,
        0.046837609512717635,
        0.11863245639182857,
        0.12615384880436786,
        -0.007179510132471973,
        -0.10085471326333509,
        0.058461534317334383,
        -0.19247862794575846,
        0.1582905927931818,
        0.08923076130549089,
        0.15555554812925806,
        -0.01606838643197678,
        0.16649572340735663,
        0.076239303340735,
        0.8529914548971025,
        0.8174358936707169,
        0.671794873449537,
        0.5022222187271819,
        0.44820512219534914,
        0.4988034093044416,
        0.5076923136181296,
        0.3353846087349782,
        0.381196580480646,
        0.5938461501651334,
        0.4119658052170714,
        0.3627350464997465,
        0.5329914535963973,
        0.43658120229155895,
        -0.20136753378267644,
        -0.05435897040102209,
        -0.002393168741685478,
        0.14324784379711822,
        0.3641025525066582,
        0.2157264945092022,
        0.1432478502874018,
        -0.12683761270222843,
        0.17264958014311607,
        0.3832478491270977,
        0.396923066949844,
        -0.07213675611372343,
        0.2211965662205657,
        0.18153844803174296,
        0.13299144970222734,
        0.4933333251423302,
        -0.025641027092933623,
        0.11589743047025444,
        0.06666666162013996,
        0.10290598085014899,
        -0.15076924250125887,
        0.3196581018015186,
        0.22393162379882928,
        -0.07829059675622861,
        -0.10085471266728864,
        -0.010598292998031337,
        0.1295726460412695,
        0.5213675209107217,
        0.4461538461976577,
        0.042051283817821056,
        0.24170939182881918,
        0.5596581215028404,
        0.597264951508133,
        0.7223931647971816,
        0.5288888845805763,
        0.4324786276464106,
        0.3654700820905187,
        0.07008546249954772,
        0.018119645740367556,
        0.12136752059283072,
        0.06940169336972385,
        0.40854700698675894,
        0.24991453661565416,
        0.3504273497837558,
        0.5070085502500884,
        0.3552136801807965,
        0.3169230717076192,
        0.347008536321145,
        0.23145297978630738,
        0.5295726411934245,
        0.679316235993526,
        0.36683759842890223,
        0.5200000013934237,
        0.36683761445592944,
        0.444102561391724,
        0.6745299209612381,
        0.6259829096511553,
        0.5842735044708953,
        0.5897435799572195,
        0.71350426843078,
        0.5514529768484602,
        0.5719658052382639,
        0.29641025762293055,
        0.28341881104928457,
        0.288205146545834,
        0.5466666652599967,
        0.4153846185472273,
        0.5562393097621418,
        0.7148717858950288,
        0.6779487164100005,
        0.26427351091879375,
        0.6266666518926612,
        0.5336751957716759,
        0.5952136672982458,
        0.5275213504932538,
        0.3476923201534482,
        0.2273504155388581,
        -0.010598306243508158,
        0.09264957569528508,
        0.17538462454213036,
        0.2991452881804216,
        0.3176068252740078,
        0.49538461458418065,
        0.463931619856975,
        0.22051281232304012,
        0.2875213602631177,
        0.12957263908739422,
        -0.1849572797068844,
        -0.16102565851741374,
        -0.16923078442944423,
        0.05799755573536216,
        0.19162560861376796,
        0.4126984067793626,
        0.48494800806524413,
        0.5640394168253786,
        0.379310341449133,
        0.35073892195372786,
        0.38669950979028345,
        0.501970451646166,
        0.529064046296957,
        0.3705528212491931,
        0.31143952073408276,
        -0.017241392086438878,
        0.4050355895982602,
        -0.001970434669486542,
        0.32610837334063064,
        0.5418719177091728,
        0.7088669900033016,
        0.6081007065194656,
        0.40886698788360204,
        0.25725232215328653,
        0.16483515545828378,
        0.3534798622651682,
        0.3199023153827266,
        0.16995073741670205,
        0.5008210194012132,
        0.3945812832198661,
        0.29753694857660073,
        0.21477832801834013,
        -0.06354679215256377,
        0.2886699444278391,
        0.4467980289644832,
        0.07241379433224343,
        0.3935960473917174,
        0.2783251281536688
      ]
    },
    "rank_20d_ic_non_overlapping": {
      "mean_ic": 0.1545330653767177,
      "std_ic": 0.41648422668459567,
      "t_stat": 2.3171554218181996,
      "num_dates": 39,
      "ic_values": [
        -0.12923077476359676,
        -0.39652174003761936,
        0.7676923062374599,
        -0.447692305091217,
        0.3038461491785192,
        0.23538462809248423,
        0.4100000070923792,
        0.32692307104306956,
        -0.601538474400632,
        -0.029999998208994988,
        0.49615384523354455,
        0.415384606743705,
        -0.2823076987057128,
        -0.6146153913220088,
        -0.5350427420448369,
        0.6902564110729423,
        -0.30666665734714893,
        0.14256409758196925,
        0.6916239382726168,
        -0.8447863298460283,
        0.3538461501995718,
        0.39145297119794015,
        0.5494016984003552,
        0.6526495668949898,
        0.06256409856478364,
        0.4270085368615604,
        0.0591453058975715,
        0.24034188357017638,
        -0.08991453692559843,
        0.07829058649098411,
        0.42153845720291094,
        0.21435896982616823,
        0.5022222187271819,
        0.3832478491270977,
        0.042051283817821056,
        0.5295726411934245,
        0.6779487164100005,
        -0.16923078442944423,
        0.40886698788360204
      ]
    },
    "sector_neutral_rank_20d": {
      "mae": 0.24838896095752716,
      "rmse": 0.2856428325176239,
      "bias": 0.00030179088935256004,
      "mean_prediction": 0.5889376401901245,
      "mean_target": 0.5886358618736267
    },
    "sector_neutral_rank_20d_ic": {
      "mean_ic": 0.11102663414441272,
      "std_ic": 0.2602822740159719,
      "t_stat": 12.027244672322622,
      "num_dates": 795,
      "ic_values": [
        -0.16956643726878437,
        -0.34680871908387295,
        -0.13537401926792578,
        -0.1263025669058779,
        0.25748977707594217,
        0.2588853802125436,
        -0.032796788349118,
        -0.04954410054266786,
        -0.029307762570902646,
        0.029307778168043346,
        -0.17654447697138825,
        -0.07885188682122439,
        -0.11025306267545651,
        -0.08931895105427234,
        -0.021631921144026657,
        -0.3775120966452039,
        -0.18352251979342032,
        -0.038379229282319884,
        -0.3461109176715436,
        -0.2498139116294695,
        -0.08652772512867228,
        0.2302754081359719,
        0.05024190382665404,
        -0.06978043383529084,
        0.16677522288506835,
        -0.09211017042907346,
        -0.11583551078334306,
        0.057219945712857684,
        0.2993580165393368,
        0.01953852564143743,
        0.011164865333434536,
        0.32447896970043505,
        0.45008375359860964,
        0.6210457893248534,
        0.38658356585216375,
        0.15351693023087762,
        0.1849181282330496,
        -0.12909379532702064,
        -0.5003256424520087,
        0.29377558059722,
        0.4054242719885886,
        0.44659470785605426,
        0.09839038563557977,
        0.21911054311448003,
        0.3747208928675435,
        0.602902867443903,
        0.15979717569583696,
        0.1709620394695574,
        0.3447153173424275,
        0.15979718193469322,
        -0.286099750712228,
        -0.30494046495916616,
        -0.22190175781013893,
        -0.15421473538652075,
        -0.038379237392833054,
        0.08862113373285958,
        0.1325828145544369,
        -0.14723670254665874,
        -0.08443431621254209,
        -0.006280216142334817,
        -0.1981764052900996,
        -0.14514327709755953,
        0.09978602059034822,
        0.032796803322373114,
        -0.12211573721979072,
        -0.11862671612071748,
        0.06838481073434939,
        0.08722553777094284,
        0.17096204820395622,
        -0.034192419560572736,
        -0.013258278616764074,
        0.04396167957380612,
        0.18491813166442053,
        -0.14793448836184744,
        0.20864348512028835,
        0.32727019999323465,
        0.07675846542738167,
        0.23585784501391707,
        -0.030005574277344797,
        -0.1256047633099489,
        0.27074803947167997,
        0.26656121976776276,
        -0.007675868565900806,
        0.254000725718416,
        -0.0621045867934442,
        -0.15561035755163383,
        -0.11792893248912857,
        0.09211014703336239,
        -0.23585785031694498,
        -0.34680872001970137,
        -0.4277540135734562,
        0.02581873710463007,
        -0.07745629179513598,
        -0.27842390367038133,
        -0.41519352981822233,
        -0.2833085472465105,
        0.23655562552607792,
        0.1493300949298198,
        0.24213806739510813,
        0.19468739386125364,
        0.18980275808369487,
        0.30494045528893887,
        0.2909843596627048,
        0.35518235942753584,
        0.27493487227719526,
        0.5045124590364978,
        0.43473205826714506,
        0.42147375095164213,
        0.22887980843074135,
        0.33564384439215406,
        0.20096761312301656,
        0.4947432077576631,
        0.47939152677556784,
        -0.03070339191070036,
        0.19398958184286869,
        0.12909379501507773,
        0.10815965937429693,
        0.03349459288087551,
        -0.01953851503538173,
        -0.3370394528317834,
        0.03419240521120336,
        0.18980276089118023,
        -0.3670450358435268,
        0.16886861932348596,
        -0.03000559392974207,
        0.23516004017021677,
        0.13537402113958275,
        0.5191663676169453,
        0.6119743304120064,
        0.1402586537977133,
        0.4005396552395416,
        0.3858857532098932,
        0.34959992566901865,
        -0.18073130977690366,
        0.08164309558996971,
        0.17445105183423182,
        0.3244789856095185,
        0.01116484911240823,
        -0.3230833671877193,
        -0.08931893545713172,
        -0.19189615826542625,
        -0.39705061698361366,
        -0.3049404580964243,
        -0.4486881233229834,
        -0.19608299356648415,
        -0.7110625283779141,
        -0.10048380827719373,
        -0.049544104285981626,
        0.05442873975159755,
        0.016747296284466365,
        -0.2198083463984663,
        -0.4075176734180912,
        0.011164885297774669,
        0.21422591856686263,
        0.13258282110523598,
        0.394957225536281,
        0.27772610475359455,
        -0.10397282812849568,
        0.22887978472308745,
        0.1486323084907455,
        -0.3489021320552596,
        -0.21771493935399297,
        0.3209899557760466,
        0.3656494426890954,
        0.34052848796828306,
        0.4528749748450675,
        0.250511717720941,
        0.34262188659030046,
        0.336341654538882,
        0.35169334862257545,
        0.40961110198661865,
        0.33634166077773836,
        0.28749536102351414,
        0.5031168861583492,
        0.25051174548385136,
        0.1681708269574982,
        0.1604949702454243,
        0.1472366972436309,
        0.29517120213844744,
        0.32308336781160485,
        0.1290937741149093,
        0.09978599750658003,
        0.030703384424072923,
        0.3175009153365189,
        -0.013956068487209353,
        -0.3175009409158296,
        -0.4319408451312003,
        -0.34262189158138534,
        -0.4179847544960514,
        -0.11653330658070178,
        -0.47660031363962335,
        -0.395655014158955,
        -0.27842389587181104,
        -0.34122628064621363,
        -0.30145143138238034,
        -0.03279679833128804,
        -0.13607183596545297,
        -0.3084294586072717,
        -0.26167659802763066,
        -0.2526051338117558,
        -0.049544103662096,
        -0.03628581974230411,
        -0.0006978092108996536,
        -0.09350576919847549,
        -0.10118161405672249,
        -0.311918518075311,
        -0.20794567060636085,
        0.1891049435697674,
        -0.004884631098416547,
        0.4368254568891624,
        0.4256606027856692,
        0.38588575695320687,
        0.38588575414572146,
        0.333550440155166,
        0.2100390866971757,
        0.28400633805278414,
        0.10467063952299506,
        0.11583552138939873,
        0.2037588627562706,
        0.2560941630213422,
        0.5401004963949841,
        0.3286657990745795,
        0.3091272793600555,
        0.17165984337742923,
        0.32517679700401797,
        0.21562152544677785,
        0.19119835934863938,
        -0.30354485714342244,
        0.3761164947563738,
        0.42635839047251467,
        0.4277540039032291,
        -0.11025307328151215,
        0.4089133089967452,
        0.3384350631430694,
        0.1283959917310916,
        0.16119279817289275,
        1.154188411519023e-08,
        0.12281355922034574,
        0.11443991419754068,
        -0.12490694723630734,
        -0.00907145360981909,
        0.2937756058645878,
        0.09141236901674414,
        0.36564942865166883,
        0.22748418626562825,
        0.16607741086668334,
        0.403330864008287,
        0.35867138614157956,
        -0.05791776209844199,
        0.06001116383988749,
        0.32936360516605095,
        0.0990882148108195,
        0.13956084926595574,
        0.07466506087845089,
        0.0746650602545652,
        -0.06419798884683245,
        -0.10746186388888114,
        -0.34541311126812924,
        -0.224692958780314,
        0.21422590109806508,
        -0.34890212238503254,
        -0.032796789596889295,
        -0.04954409212021194,
        -0.176544472292246,
        -0.3398306650318996,
        -0.12211573815561919,
        0.28191292227391207,
        0.2505117361255671,
        -0.0907145523192169,
        0.059313378024698875,
        0.04047265722696163,
        -0.12281354424709066,
        -0.1158355123430571,
        -0.2979624137146781,
        -0.09350576202379081,
        0.0858299321387989,
        -0.27772610506553747,
        0.26725901650094985,
        -0.24074245365245106,
        -0.3502977205305489,
        -0.15770377364244867,
        -0.30494046339945213,
        -0.09629699325241876,
        0.14165425475071503,
        -0.21980833516852497,
        -0.15770376709164957,
        0.11025306985014122,
        -0.31401191607344275,
        0.05373092211824193,
        -0.21073690245887444,
        0.07536285293249578,
        0.27633048633179524,
        0.23446223938177313,
        -0.04256604805040863,
        0.06350017870010437,
        0.08234089450675654,
        -0.26586342584206096,
        -0.40263304575104564,
        0.08443430155122982,
        0.05931334776624594,
        -0.027912174095613456,
        -0.0027912327883420837,
        0.09769260793090433,
        0.10815965812652578,
        -0.03209899223981657,
        -0.1911983581008683,
        0.0013956075038008163,
        -0.08303869841462841,
        0.20375884528747304,
        -0.02581874521514318,
        0.024423149877112048,
        0.06698920603803389,
        0.13048938723368075,
        -0.04396166647220791,
        0.0865277404138701,
        0.5547543631750947,
        0.3789076988459769,
        0.17933569821784623,
        0.5177707688475431,
        0.5624302382917945,
        0.28400632526312874,
        0.46613324909463233,
        0.09490137826199042,
        0.09978601965451979,
        0.23585782660929103,
        0.17933569416258963,
        0.24423148473369427,
        0.3872813579062086,
        -0.02651655660964256,
        0.2644678071083188,
        0.3091272812317123,
        0.5282378327686484,
        0.6419799118640359,
        0.4500837551583238,
        0.6391887037191762,
        0.44310570391383586,
        0.16677521914175458,
        0.565919257207268,
        -0.03628581350344783,
        0.18701153434169446,
        0.4654354430031608,
        0.38239674427658965,
        0.41519352108382357,
        0.24772051082385244,
        0.20655006154284594,
        0.2581875753688433,
        0.21492370562982258,
        0.046752899572492804,
        -0.03489020849518949,
        -0.3419240898571131,
        0.004884634217844668,
        -0.12281356015617419,
        -0.07745628025325187,
        -0.27493487539662337,
        -0.09001676931151363,
        -0.3398306709588131,
        0.12630255723565073,
        0.43822106969599106,
        0.21283028330015133,
        0.21213248968639242,
        0.2316710037859458,
        0.09769259545319182,
        -0.093505781676188,
        -0.09280797433694526,
        -0.13048940563830674,
        -0.6266282258908559,
        -0.41170450559972094,
        0.04396166179306568,
        -0.06419799820511699,
        -0.07675846355572476,
        -0.16189060364047872,
        -0.22050612940616965,
        -0.3461109055057739,
        0.45287494614632895,
        -0.2428358800373788,
        0.6684964806394481,
        -0.28261071245630004,
        -0.05233531492638396,
        0.06001115167411782,
        0.08722552591711591,
        0.31261629796358614,
        0.21701713076697893,
        0.44171010327277693,
        0.03349460005556018,
        0.33424823938389575,
        0.4089132949593187,
        0.5205619666982904,
        0.37960551273601895,
        0.3258745834430922,
        0.17584667649488744,
        0.3293636160840494,
        0.18910495323999468,
        0.319594332675105,
        -0.6084853183592749,
        -0.18003348964800558,
        0.09001675153077333,
        0.2756326905344367,
        0.1088574648418829,
        0.5784797263011896,
        0.457759596273257,
        0.45287496361512636,
        0.3133140981281442,
        0.417286944661266,
        0.6133699441546635,
        0.4368254522100203,
        0.6615184315785598,
        0.5184685584060456,
        -0.054428727585827855,
        0.15630815054150712,
        0.15630814711013627,
        -0.011862686398161085,
        -0.17584668897259992,
        0.28540193651024337,
        -0.0006978120183850145,
        0.45985300300578746,
        0.342621890645557,
        0.2456271009718939,
        0.47380909114539405,
        0.2016654304444294,
        0.08024749182948264,
        0.2819129235216833,
        0.3202921531159461,
        0.1346762225347387,
        0.2588853814603149,
        0.26307219430149015,
        0.3733252744457442,
        0.30075363683279294,
        0.17654448414607296,
        0.002093415466929251,
        0.05373092461378445,
        0.2512095319229257,
        0.17305545119317292,
        0.15979717663166537,
        0.37053406037397096,
        0.39774842806617017,
        0.32796800265333514,
        0.38239673460636253,
        0.2958690085418617,
        -0.027214368939970354,
        0.15979717195252313,
        0.25469855364588456,
        0.2540007587843543,
        0.40053964619319987,
        0.36774284754996905,
        0.2895887668202162,
        0.3803033141483481,
        0.1060662513939953,
        0.37751209976463207,
        0.1039728162746688,
        0.06489579025916184,
        0.02442314020688487,
        0.1800335002540612,
        0.2714458408840093,
        0.2693524372709069,
        0.2456271019077223,
        0.2198083479581804,
        -0.0788518649852274,
        -0.14653888647301724,
        0.575688504742789,
        0.4333364392214602,
        0.5052102794773387,
        0.13467622690193803,
        -0.03209900783695719,
        0.15281912913049114,
        0.12072012878016146,
        -0.08862114246725841,
        -0.23097321391550052,
        0.06559360477308929,
        -0.11374208845367195,
        0.2777260888445111,
        0.18003349463909052,
        0.19817640341844267,
        -0.034192412385888,
        0.2595831947264711,
        0.30354485776730805,
        0.36285820553355397,
        0.14584109816228602,
        0.09978602433366203,
        0.5135839304270572,
        0.22748417160431594,
        0.45845739300644395,
        0.3712318742640129,
        -0.10606624421931062,
        0.44589691143480986,
        0.3537867597223052,
        0.1263025665939351,
        0.4431057001705221,
        0.34331969392954315,
        0.34052846769200024,
        0.0739672416853812,
        0.42147377528318164,
        0.18073130884107522,
        0.3565779772254495,
        0.14165426566871342,
        0.4465947356189646,
        0.39077038742773773,
        0.24353366959588119,
        -0.03279680113877339,
        0.25748976896542897,
        0.3628582030380115,
        0.254000735700586,
        0.5038146760287944,
        0.18770934823173624,
        0.16119279162209374,
        0.1584015635128939,
        0.20934125814582175,
        0.2072478610835184,
        0.14514328021698758,
        0.22539076331207153,
        0.3356438319144415,
        0.07396724823618026,
        0.2546985408562292,
        0.07606065216122543,
        0.5031168649462379,
        0.18282470839892098,
        0.4375232738986324,
        0.22539078109281185,
        -0.07606066089562416,
        -0.324478991536432,
        -0.2288798103023982,
        -0.10815966717286736,
        -0.16398399633558255,
        0.4040286669803303,
        -0.1465388895924453,
        0.045357288637321025,
        0.15979717444806568,
        0.04396166366472263,
        0.06629140805707551,
        0.18770935259893567,
        -0.17933568636401934,
        0.39286379260055415,
        0.21841273702300856,
        0.23027540408071526,
        0.25051172489562573,
        0.3970506076253292,
        0.3363416498597399,
        0.39984183323898653,
        0.32308336999520454,
        0.33006140595449474,
        0.09769259326959212,
        -0.08722552186185939,
        0.19398957685178367,
        0.17235765321221455,
        -0.041170452088491974,
        0.12700037268540662,
        0.03698361117246333,
        0.09071453890567595,
        0.2567919566351013,
        0.3237811592417641,
        0.2860997372986871,
        0.31750093498891613,
        0.09420356406000571,
        0.412402312627021,
        0.18491813447190586,
        0.21143469108154841,
        0.0013956165501424393,
        0.15909936960436538,
        0.2170171317028074,
        0.04535727210435187,
        0.051637517569311196,
        0.2923799718456479,
        0.39984184197338535,
        -0.08373650793747088,
        0.2225995548552689,
        -0.12490695721847742,
        0.04465946445316631,
        0.002791222182286363,
        -0.36704503272409866,
        -0.4068198726296475,
        -0.05163750602742706,
        0.05373093210041201,
        0.025818755821198917,
        0.08094530072843953,
        0.17026425583796848,
        0.25679197316807034,
        0.16119277789660993,
        0.147934515812815,
        -0.0411704508407206,
        0.1584015706875786,
        0.260280995202972,
        0.17654448664161548,
        0.39844624694729697,
        0.06419799383791754,
        0.37332528037265766,
        0.2163193199963653,
        0.27493486822193874,
        0.08862115931217025,
        0.2323688236029011,
        0.15212132834204753,
        0.046752888342551494,
        0.45496837159542797,
        0.3279679973503073,
        0.23097320611693017,
        0.41030890527060476,
        0.23725344846246135,
        0.16189058710750961,
        0.19887420670242895,
        -0.2505117423644233,
        0.18491811575533706,
        0.24562709722858006,
        -0.1542147344506923,
        0.10327502390868105,
        0.0027912184389726523,
        0.049544110524837884,
        0.06768701992807571,
        0.09280798244745841,
        -0.1521213149285065,
        0.08862113342091676,
        -0.27563268616723713,
        -0.46822665551522,
        -0.31331411122974245,
        -0.2860997444733717,
        -0.1430498822188559,
        -0.35099555625658757,
        -0.04256605553703613,
        0.24911612612622364,
        0.15979717881526506,
        0.09071456604470068,
        -0.06629141585564582,
        0.2937756021212741,
        0.2784239005509533,
        -0.11234647970209988,
        -0.09071455325504536,
        -0.27074803884779436,
        -0.006978042510089223,
        0.0041868212636313185,
        0.13048939752779362,
        0.3921659815179976,
        0.10746185920973887,
        0.3314570153299523,
        0.163984002262496,
        0.40681986639079126,
        0.37960551585544694,
        0.7424637238845435,
        0.1786378784008909,
        0.2100390764030629,
        0.08652771545844498,
        0.32378118045387544,
        0.35936920096744995,
        0.4214737774667813,
        0.4570617783279585,
        0.4493859353413684,
        0.44101229125439184,
        0.4738090886498515,
        0.17654448352218732,
        0.35518237159330557,
        0.15212132241513407,
        0.4738090814751667,
        0.09141234343743344,
        -0.021631944851680417,
        -0.10397284185397956,
        -0.15142353940743064,
        -0.41519353293765043,
        0.013956071918580254,
        0.346110902074403,
        0.1521213186718202,
        0.006280223317019513,
        -0.025120951289441387,
        0.03140119051554444,
        0.0327967839819187,
        0.002791219998686725,
        0.23725343629669157,
        -0.08513213166229792,
        -0.0006978179452984226,
        -0.19957202090441367,
        0.40263305885264383,
        0.1807313013544477,
        0.2100390976151742,
        -0.23795126547193135,
        -0.35308896642048915,
        -0.22120395483809557,
        -0.37332527288603023,
        -0.48427615257095674,
        -0.13467623501245118,
        0.35727577021532286,
        -0.10397284684506451,
        -0.03698364392645882,
        -0.20445665574614394,
        0.14304986319034432,
        0.2986602017134665,
        -0.17724228368674538,
        0.1709620478920134,
        0.2686546221330938,
        0.524748790145521,
        0.44171009516226356,
        0.7913100205193394,
        0.46403981834250524,
        0.6042984930403869,
        0.5973204402361849,
        0.3161053343478572,
        0.3084294919851528,
        0.3935616068025388,
        0.3509955450266464,
        0.4117045152699483,
        0.5000000223517419,
        0.22539077235841307,
        0.36425382707478143,
        0.3761164963160878,
        0.314011910458472,
        0.35308894208894964,
        0.39844622885461384,
        0.20375883748890267,
        0.18073130353804734,
        0.21283029484203553,
        0.33285262969649515,
        0.13746743161542688,
        0.3684406455309273,
        -0.09280794782180614,
        -0.02023633298068017,
        0.0997860034334935,
        -0.0851321088904726,
        0.09699478281092117,
        -0.07117603541217829,
        0.3844901316686656,
        0.04326385788519389,
        0.04396167146329294,
        0.1283959686473234,
        0.20306103701240172,
        0.24632489614536693,
        -0.2135281199620186,
        -0.4535727725140832,
        0.11653331219567237,
        -0.4431057089049208,
        -0.12769816973053655,
        -0.10257722623966548,
        -0.17584667711877303,
        -0.20934127686239043,
        -0.34122628064621363,
        -0.571501691277728,
        -0.30633607994959455,
        -0.22469297375356895,
        -0.21562151951986444,
        -0.11025307671288317,
        0.04745068850710956,
        0.13746744346925377,
        -0.03698361522771993,
        0.16328621020845108,
        0.008373661243831316,
        0.3572757855005207,
        -0.12072012566073329,
        0.0648958061682453,
        0.4103089077661473,
        0.056591264963051835,
        0.10649045814993176,
        -0.6999999880790708,
        0.39999999999999997,
        0.39717248962050944,
        0.13804723976484903,
        0.2029583118899675,
        -0.14240489577744445,
        -0.026727023470099406,
        -0.6999999880790708,
        -0.3999999836087225,
        0.09145654430100165,
        0.3570562984332863,
        0.2651821788881117,
        -0.8999999910593032,
        0.5324679844982656,
        0.7999999999999999,
        0.39999999999999997,
        0.2375696968306047,
        0.4042462133118519,
        0.1921654512474716,
        -0.007516970925921762,
        0.03883771878986261,
        0.3999999910593032,
        0.7000000178813931,
        0.21298095074344703,
        0.4506008735312342,
        0.06971158347477222,
        0.22839711860626102,
        0.19124818846347993,
        0.39999999999999997,
        -0.9999999999999997,
        0.42696103964333115,
        0.2546607864681661,
        0.31681013831906574,
        0.49570273194351644,
        0.1407990293469623,
        0.500000014901161,
        0.09999997913837429,
        0.3311644968589617,
        0.12653574444445095,
        0.08226911082157808,
        0.21673944036017334,
        0.0789282271588864,
        0.09999998658895488,
        0.29999997466802575,
        -0.29999998956918705,
        0.010022623078505044,
        -0.09939111548703229,
        -0.18374828585521452,
        -0.16913194118315938,
        -0.1000000089406967,
        0.8999999910593032
      ]
    },
    "sector_neutral_rank_20d_ic_non_overlapping": {
      "mean_ic": 0.11274353168787862,
      "std_ic": 0.2630972032208359,
      "t_stat": 2.710225325244578,
      "num_dates": 40,
      "ic_values": [
        -0.16956643726878437,
        -0.08652772512867228,
        0.4054242719885886,
        -0.1981764052900996,
        0.27074803947167997,
        0.18980275808369487,
        0.03419240521120336,
        -0.19189615826542625,
        -0.3489021320552596,
        0.1290937741149093,
        -0.049544103662096,
        0.5401004963949841,
        -0.00907145360981909,
        -0.34890212238503254,
        -0.15770377364244867,
        -0.027912174095613456,
        0.28400632526312874,
        0.4654354430031608,
        0.2316710037859458,
        0.31261629796358614,
        0.45287496361512636,
        0.2819129235216833,
        0.25469855364588456,
        0.5052102794773387,
        0.45845739300644395,
        0.254000735700586,
        -0.10815966717286736,
        -0.08722552186185939,
        0.2923799718456479,
        0.17654448664161548,
        -0.1542147344506923,
        0.2784239005509533,
        0.4570617783279585,
        0.002791219998686725,
        -0.17724228368674538,
        0.39844622885461384,
        -0.4535727725140832,
        0.0648958061682453,
        0.2375696968306047,
        0.09999997913837429
      ]
    }
  },
  "validation": {
    "direction": {
      "loss": 0.6620553135871887,
      "accuracy": 0.5084724168683908,
      "balanced_accuracy": 0.5111114790501977,
      "precision": 0.5028997514498758,
      "recall": 0.9338461538461539,
      "specificity": 0.08837680425424158,
      "f1": 0.6537425955842757,
      "mcc": 0.04159624543347142,
      "threshold": 0.495,
      "positive_rate": 0.9226652979850769,
      "average_probability": 0.5192902088165283,
      "confusion_matrix": {
        "tp": 3642,
        "tn": 349,
        "fp": 3600,
        "fn": 258
      }
    },
    "magnitude": {
      "mae": 0.02601117640733719,
      "rmse": 0.038932085037231445,
      "bias": -0.0026749770622700453,
      "mean_prediction": -0.0036785637494176626,
      "mean_target": -0.0010035868035629392
    },
    "volatility": {
      "mae": 0.05261268466711044,
      "rmse": 0.05787178501486778,
      "bias": 0.042896028608083725,
      "mean_prediction": 0.07056709378957748,
      "mean_target": 0.02767105959355831
    },
    "direction_5d": {
      "loss": 0.6844270825386047,
      "accuracy": 0.4986622499681488,
      "balanced_accuracy": 0.507765868761261,
      "precision": 0.4937533948940793,
      "recall": 0.9461358313817331,
      "specificity": 0.06939590614078882,
      "f1": 0.6488801641830999,
      "mcc": 0.032246527058497926,
      "threshold": 0.56,
      "positive_rate": 0.9382086992263794,
      "average_probability": 0.5797231793403625,
      "confusion_matrix": {
        "tp": 3636,
        "tn": 278,
        "fp": 3728,
        "fn": 207
      }
    },
    "direction_20d": {
      "loss": 0.7365936636924744,
      "accuracy": 0.45814753471779845,
      "balanced_accuracy": 0.5010337658919266,
      "precision": 0.4575146721102322,
      "recall": 0.9997212155004181,
      "specificity": 0.002346316283435007,
      "f1": 0.6277461706783369,
      "mcc": 0.02753123119788378,
      "threshold": 0.595,
      "positive_rate": 0.998598575592041,
      "average_probability": 0.6357647180557251,
      "confusion_matrix": {
        "tp": 3586,
        "tn": 10,
        "fp": 4252,
        "fn": 1
      }
    },
    "rank_5d": {
      "mae": 0.25308606028556824,
      "rmse": 0.29340070486068726,
      "bias": -0.019197657704353333,
      "mean_prediction": 0.4980437159538269,
      "mean_target": 0.517241358757019
    },
    "rank_5d_ic": {
      "mean_ic": -0.006899463838269663,
      "std_ic": 0.40244099833321,
      "t_stat": -0.2716126456447475,
      "num_dates": 251,
      "ic_values": [
        0.721182267609393,
        0.31083744391657364,
        0.16748768451383073,
        0.22118226851410688,
        0.28374384394393937,
        0.33251230537466653,
        0.30098522150174617,
        0.24778326611244922,
        0.03743842545359337,
        0.469458123323711,
        0.37783250111795513,
        0.2142857172355357,
        0.2665024640977402,
        0.5694581223444918,
        0.30788177932618466,
        0.13990148078322523,
        -0.09211823054051235,
        -0.27733990264989605,
        -0.8113300529963877,
        -0.8004926094416991,
        -0.717733990586428,
        -0.6862068913865994,
        -0.6226600963070218,
        0.006896552289721388,
        0.04285715039743452,
        0.42758621396983143,
        0.5862068979005357,
        0.6733990229546156,
        0.6650246265552077,
        0.814285720939538,
        0.5401676386324042,
        0.22068966582050434,
        0.21428572745347482,
        0.03940887582251754,
        -0.09999999864825167,
        0.01083744488514954,
        -0.4004926144761631,
        -0.49261084022701646,
        -0.4640394087574643,
        0.21330047810784425,
        0.10738915528134699,
        0.18423645410941003,
        -0.3330049289298947,
        -0.4182265989318286,
        -0.4615763484040122,
        -0.06502463477213428,
        -0.17339901135299782,
        -0.6285714239444654,
        -0.40394087963141756,
        0.03596059608541262,
        -0.14236453224919896,
        -0.07339900599922362,
        -0.46896551546792054,
        -0.35812807943831815,
        -0.6679803007781332,
        -0.4615763428160768,
        -0.3748768351971051,
        -0.845812813114534,
        0.45172415206621674,
        0.49162561403140415,
        0.016748775556043885,
        0.6467980324343248,
        0.1482941333813742,
        -0.25073890345500083,
        0.29852217216450977,
        0.5605911247948154,
        0.7246305381929278,
        0.48325122928683295,
        0.5034482787259542,
        0.6620689694686175,
        0.5812807859746727,
        0.6975369364108664,
        0.4073891652225499,
        -0.01625614667897238,
        0.18571429369552991,
        -0.12413793658498164,
        0.14926108629512874,
        0.24039410447682122,
        0.24778326020520322,
        -0.012315265206196704,
        0.48522167997506765,
        0.45714285609521366,
        0.17980295594658413,
        0.2014778345410122,
        0.08866996144709409,
        0.005911333331815994,
        -0.1152709327555305,
        -0.04433496337433793,
        0.09901478054184117,
        -0.22955666209293804,
        0.13004926560610455,
        0.053201992748636864,
        -0.07684728382046492,
        -0.14187192359513187,
        -0.5793103452915036,
        -0.26995073617139054,
        -0.6241379355206125,
        -0.5241379309118962,
        -0.517733987382679,
        -0.08965516364119312,
        -0.05714285623358213,
        0.5891625654179383,
        0.3502463079245991,
        0.2522167373999667,
        0.4669950768602698,
        0.04630542747361778,
        -0.012315273774364392,
        -0.27635468236152994,
        -0.16699506766412495,
        -0.22955663942188567,
        -0.3108374318359894,
        -0.4315270827766201,
        0.34137931388733983,
        -0.21921182069966746,
        0.1192118274264776,
        -0.6551724047257828,
        -0.2497844534311275,
        -0.5246305416947004,
        -0.47093596221799106,
        -0.5581280748189579,
        0.06453203527163774,
        0.2995074059171395,
        0.28078817387205185,
        0.5684729034398049,
        0.2832512331079166,
        0.3615763408150636,
        0.43251231104775123,
        0.14926108235696461,
        -0.03842362956355606,
        -0.4009852111560829,
        0.10246304415376092,
        0.06896552475985922,
        0.21970443132281658,
        0.18128079005120534,
        0.10541873322462914,
        0.11527093680013147,
        0.07635468091398867,
        0.33546798374862985,
        0.516256154448863,
        0.40886700358464595,
        0.17536944969455628,
        -0.1034482664644277,
        -0.33891625981366286,
        -0.14384235060116413,
        -0.33743842517685707,
        -0.10886699715585947,
        0.06009851379913806,
        -0.03842364036689792,
        -0.3320196986896815,
        -0.5630541756753866,
        -0.6881773433520763,
        -0.6103448311540433,
        -0.2625615756001313,
        -0.3044334919788438,
        0.22512314934826144,
        0.23891626334736693,
        0.11822660240167078,
        -0.21527092837033157,
        -0.20197043563806177,
        0.6522167382195302,
        0.33743842549616765,
        0.7270935980674138,
        0.6866995164319438,
        0.5783251111663446,
        0.09261084323918028,
        -0.07832512005382355,
        -0.34384236726917705,
        0.24187192846994035,
        -0.5852216794215959,
        -0.38916255540222955,
        -0.5059113281164089,
        0.11773398741461025,
        -0.015270930541643813,
        0.33448278272533616,
        0.14482758786621044,
        0.4192118157609968,
        0.21133004796192448,
        0.034482760490675224,
        0.7532019712590331,
        0.44679803253011824,
        0.28817733806216456,
        0.05467979369817441,
        -0.004433489115692402,
        0.43103449429233914,
        0.3660098537193958,
        0.476354679125849,
        -0.1172413848274446,
        -0.19802955405884928,
        -0.3492610808774918,
        0.04926108738078488,
        -0.07684728637494975,
        -0.5512315273188956,
        -0.5256157545324862,
        -0.6822660118296872,
        -0.6970443328125506,
        0.11527093413920979,
        0.3773399061942436,
        0.06108375436372729,
        0.29014779971339655,
        -0.39261083183979173,
        -0.6655172360075513,
        -0.3034482658896684,
        -0.5886699513355915,
        -0.6783251229063308,
        -0.31330050043829855,
        0.48866996184090994,
        0.03793104267582807,
        -0.06354679555854346,
        0.35960589651304103,
        0.193596060047061,
        0.2788177321245137,
        0.28325123944091013,
        0.08128080907147331,
        -0.23990146751054786,
        -0.6822660215686606,
        -0.5133004978944573,
        -0.38128078234517615,
        -0.35270936247724205,
        -0.3807881765649044,
        -0.50985220160642,
        -0.44433496610976475,
        -0.424137939448133,
        -0.3216748820962008,
        0.03054188588307741,
        0.29556650411492247,
        0.01822659566421733,
        0.28768473914707077,
        0.6044335037294738,
        0.45467980537429825,
        -0.5586206907639503,
        -0.5418719214344629,
        -0.723645327377442,
        -0.6694581362132153,
        -0.17783250477938337,
        -0.5147783107117054,
        0.02068964877996238,
        -0.7960591118110575,
        -0.538916241730039,
        -0.23891624775436604,
        -0.02266009302876682,
        -0.685221671364325,
        -0.6399014670528689,
        -0.16108373917518642,
        -0.13054187979488857,
        0.13497538620657173,
        0.5394088599634239,
        0.5615763451896186,
        -0.48620689914584686,
        0.779802959224839,
        0.5211822714304768,
        0.5768472918032296
      ]
    },
    "rank_5d_ic_non_overlapping": {
      "mean_ic": 0.038989088615098595,
      "std_ic": 0.3924180284110526,
      "t_stat": 0.7095438172559739,
      "num_dates": 51,
      "ic_values": [
        0.721182267609393,
        0.33251230537466653,
        0.37783250111795513,
        0.13990148078322523,
        -0.717733990586428,
        0.42758621396983143,
        0.5401676386324042,
        0.01083744488514954,
        0.10738915528134699,
        -0.06502463477213428,
        -0.14236453224919896,
        -0.4615763428160768,
        0.016748775556043885,
        0.5605911247948154,
        0.5812807859746727,
        -0.12413793658498164,
        0.48522167997506765,
        0.005911333331815994,
        0.13004926560610455,
        -0.26995073617139054,
        -0.05714285623358213,
        0.04630542747361778,
        -0.3108374318359894,
        -0.6551724047257828,
        0.06453203527163774,
        0.3615763408150636,
        0.10246304415376092,
        0.11527093680013147,
        0.17536944969455628,
        -0.10886699715585947,
        -0.6881773433520763,
        0.23891626334736693,
        0.33743842549616765,
        -0.07832512005382355,
        -0.5059113281164089,
        0.4192118157609968,
        0.28817733806216456,
        0.476354679125849,
        -0.07684728637494975,
        0.11527093413920979,
        -0.6655172360075513,
        0.48866996184090994,
        0.2788177321245137,
        -0.5133004978944573,
        -0.44433496610976475,
        0.01822659566421733,
        -0.5418719214344629,
        0.02068964877996238,
        -0.685221671364325,
        0.5394088599634239,
        0.5768472918032296
      ]
    },
    "rank_20d": {
      "mae": 0.2519351541996002,
      "rmse": 0.2938697934150696,
      "bias": 0.02721562422811985,
      "mean_prediction": 0.5444570183753967,
      "mean_target": 0.517241358757019
    },
    "rank_20d_ic": {
      "mean_ic": -0.04867819179905164,
      "std_ic": 0.39684270182682335,
      "t_stat": -1.9433583938511283,
      "num_dates": 251,
      "ic_values": [
        0.6714285693925856,
        0.6472906459312694,
        0.35467980821616263,
        -0.01674876858442916,
        -0.31674875622710874,
        -0.4487684778432914,
        -0.7009852273770607,
        -0.44334976535256354,
        -0.5857142866387651,
        -0.4418719197527608,
        -0.694581283528533,
        -0.4546797949434854,
        -0.6453201963606214,
        -0.6472906445475901,
        -0.7546798052572173,
        -0.7940886663382288,
        -0.4512315239342033,
        -0.6044335041552206,
        -0.3802955581718642,
        -0.10000001163354927,
        -0.5128078873777451,
        0.017241381974936715,
        0.15073891427963013,
        0.7458128002037421,
        0.591625621301042,
        0.4078817710560402,
        0.7049261040601775,
        0.060591130648843805,
        0.3399014840934115,
        0.16305419486595385,
        0.23201971190914045,
        -0.056650239277439535,
        -0.14236453017368003,
        -0.466009850079255,
        -0.6049261088179057,
        -0.3458128026305032,
        -0.475369455325066,
        -0.3093596068317202,
        -0.3561576312513498,
        -0.40886699735808935,
        -0.40295566067351196,
        -0.4285714292556651,
        -0.0600985067210865,
        -0.46305418942702964,
        -0.5463054216195896,
        -0.692610834702943,
        -0.47536944803414083,
        -0.493596055246758,
        -0.534482755967108,
        -0.5788177390854845,
        -0.7709359653472349,
        -0.5935960664545598,
        -0.20788177711229788,
        -0.42118226453336777,
        -0.5167487738530536,
        -0.13990148136862798,
        0.05221675968784663,
        0.36009853081839266,
        0.40837438029550993,
        0.543349764213689,
        0.3950738920868069,
        0.6039408820368904,
        0.6665024660348906,
        0.4955664933222238,
        0.4472906527325852,
        0.4999999941991903,
        0.5359605967772514,
        0.5980295561556551,
        0.7591132927763565,
        0.4201970384441926,
        0.2625615675641479,
        0.2812808114769462,
        0.44532020364090324,
        0.46502464485170497,
        0.29901478268122195,
        0.3029556745848104,
        -0.035960598852771156,
        0.3532019710248722,
        -0.4931034301481952,
        -0.3133004958615133,
        -0.24827585794949159,
        0.17093597340450611,
        0.11330049478650128,
        0.21133004727008506,
        0.30935960363861426,
        0.2758620898326481,
        -0.18916255454009126,
        -0.3689654945211454,
        -0.3359605937863761,
        -0.3384236349279737,
        -0.42118225937117987,
        -0.451231530533289,
        -0.3527093466713675,
        -0.35320196618199473,
        -0.2793103294962729,
        -0.13201969468765556,
        -0.5507389148863198,
        -0.47438422556381865,
        -0.47684730347935367,
        -0.22167486854678783,
        -0.42610837347899816,
        -0.01083744637526566,
        -0.620689653495115,
        -0.38226601056308873,
        -0.446305419671795,
        -0.4453201825131856,
        -0.584236462592428,
        -0.5142857111047721,
        -0.361576347360931,
        -0.44926109181920176,
        -0.38522167637750165,
        -0.3285714214006246,
        -0.29310344817860046,
        -0.11379309434021626,
        -0.2399014605389333,
        -0.21970442137096974,
        -0.14581280336491775,
        -0.22610837288295207,
        -0.02266010441751145,
        -0.24137929783666054,
        0.09753693989135268,
        0.6950738820178791,
        0.3926108276887539,
        0.3990147834049925,
        0.547290640311403,
        -0.04187192143446366,
        -0.11477831883283865,
        0.08669950650138464,
        0.12906404372118535,
        0.43645319927926796,
        0.43990146879843384,
        0.41921182571284377,
        0.37290640212417153,
        0.010837443235378117,
        0.1236453254828667,
        0.02364533646715143,
        0.10394090039725028,
        -0.3182265907574774,
        0.03793104065352759,
        -0.33399014879251354,
        -0.2103448224581519,
        -0.43251231424085745,
        -0.1916256167561883,
        -0.1285714263392953,
        -0.1719211806543563,
        -0.20591131854773514,
        -0.6724138017083174,
        -0.22610836037662027,
        -0.11871920429699681,
        -0.42315270452469766,
        -0.2034482675075088,
        -0.08916255562574722,
        -0.3842364410283191,
        0.0940886723944873,
        0.24187190531992198,
        0.1300492499598853,
        0.6014778384472445,
        0.22955664426476297,
        0.10197044444039072,
        -0.0064039369301318585,
        -0.2650246409561161,
        -0.034975370421984654,
        -0.16798029455157695,
        -0.24285712805633622,
        -0.4054187141617861,
        -0.007881778698207447,
        -0.09950739803016807,
        -0.08128079161582732,
        0.3334975368921221,
        0.18522166859696723,
        0.022660105269006442,
        0.16502462554405792,
        0.5078817698107289,
        0.43891626607215056,
        0.5561576475468339,
        0.31527094229227354,
        -0.12561576004591637,
        0.20689655581278152,
        0.21724138677523908,
        0.41182267285825735,
        0.10000000721641943,
        -0.14236451963643038,
        -0.4512315278191489,
        -0.6369458132658217,
        -0.3231527241303684,
        -0.4689655164258523,
        -0.46256156858594155,
        -0.3733990163129556,
        -0.16995073225451418,
        -0.5689655324233129,
        -0.5852216736207867,
        -0.5349753736683084,
        -0.4837438354396338,
        -0.4492610779291907,
        -0.3354679856112749,
        0.23349754963261501,
        0.46798028932552643,
        0.5522167552174978,
        -0.015270933575094542,
        0.27931035003858806,
        0.1635468021363417,
        0.13251232574668284,
        0.4029556643455841,
        0.41970444016772,
        0.2004926070681575,
        -0.01576354473042786,
        0.26453201830560114,
        0.058128086686669085,
        0.041379319060171726,
        0.3753694677994667,
        0.33054185825206683,
        -0.2527093578685259,
        0.3876847266194514,
        0.059605909934730035,
        -0.28325124556102993,
        -0.3004926167858432,
        -0.5236453228964504,
        -0.03793102692317194,
        0.0773398963062591,
        -0.250738903721093,
        -0.4443349827139159,
        -0.6054187081587468,
        -0.5837438526078998,
        -0.460591140675196,
        -0.6852216684373114,
        0.09852216885432348,
        -0.5778325253429855,
        -0.5743842367184021,
        -0.08472906741476825,
        0.00985221081320913,
        -0.2931034466884845,
        0.1719211777273424,
        0.310837438647949,
        0.16945814808092616,
        0.12561577633075674,
        0.5211822681841525,
        0.48325123987730106,
        0.6719211886371208,
        0.4344827711024304,
        0.33497537967134794,
        0.5280788117992691,
        0.6172413724275492,
        0.8280788211550694,
        0.30837438127472905,
        0.48817733732775004,
        0.4906403896984371,
        0.4876847238308057,
        0.18226601161681402,
        0.3704433446445149,
        0.5374384272098011,
        0.28423644956455574
      ]
    },
    "rank_20d_ic_non_overlapping": {
      "mean_ic": -0.042629784852704265,
      "std_ic": 0.39674446958379544,
      "t_stat": -0.3874127730366759,
      "num_dates": 13,
      "ic_values": [
        0.6714285693925856,
        -0.5128078873777451,
        -0.40295566067351196,
        0.3950738920868069,
        -0.24827585794949159,
        -0.42610837347899816,
        0.09753693989135268,
