{
  "version_id": "stage123-1783709428",
  "trained_at": "2026-07-10T18:51:21.618751+00:00",
  "export": {
    "architecture": [
      {
        "type": "linear",
        "weight_key": "network.0.weight",
        "bias_key": "network.0.bias",
        "in_features": 26,
        "out_features": 16
      },
      {
        "type": "layernorm",
        "weight_key": "network.1.weight",
        "bias_key": "network.1.bias",
        "normalized_shape": [
          16
        ],
        "eps": 1e-05
      },
      {
        "type": "relu"
      },
      {
        "type": "dropout",
        "p": 0.2
      },
      {
        "type": "linear",
        "weight_key": "network.4.weight",
        "bias_key": "network.4.bias",
        "in_features": 16,
        "out_features": 1
      },
      {
        "type": "sigmoid"
      }
    ],
    "state_dict": {
      "network.0.weight": [
        [
          0.15779419243335724,
          0.16079743206501007,
          -0.03966477885842323,
          0.1626874804496765,
          -0.03709261864423752,
          0.04203638434410095,
          -0.08773327618837357,
          0.11424973607063293,
          0.16467708349227905,
          -0.13702905178070068,
          0.16756176948547363,
          0.04304632917046547,
          0.14759746193885803,
          0.029491061344742775,
          0.09335581213235855,
          0.005349918268620968,
          0.1472577601671219,
          0.010281773284077644,
          -0.08721271902322769,
          0.07187797129154205,
          -0.13219745457172394,
          -0.09091800451278687,
          0.006083471700549126,
          0.10347770899534225,
          -0.14878197014331818,
          -0.04750197008252144
        ],
        [
          -0.07855401933193207,
          -0.12889790534973145,
          0.005069772247225046,
          -0.20023879408836365,
          0.1597592979669571,
          -0.17673419415950775,
          0.13546240329742432,
          0.02965744398534298,
          -0.07153624296188354,
          0.10698428750038147,
          0.016985813155770302,
          0.13965047895908356,
          0.0017115167574957013,
          -0.07379426807165146,
          0.03839528560638428,
          -0.09328192472457886,
          0.06972725689411163,
          0.16379781067371368,
          0.11440086364746094,
          -0.1077163815498352,
          0.14498920738697052,
          0.09838157892227173,
          -0.002766427816823125,
          -0.11263196170330048,
          -0.1879224330186844,
          -0.11476344615221024
        ],
        [
          -0.14793170988559723,
          0.14935925602912903,
          0.04828029125928879,
          0.07490278035402298,
          0.05366654321551323,
          -0.008008797653019428,
          0.1414259821176529,
          -0.11802119016647339,
          0.005543284118175507,
          -0.1355665773153305,
          0.05293276533484459,
          -0.0766822025179863,
          0.05236782506108284,
          -0.04386335611343384,
          0.14796516299247742,
          -0.08867225795984268,
          -0.11682312190532684,
          -0.11527285724878311,
          0.1716231405735016,
          0.04793345555663109,
          0.1734534353017807,
          -0.17374581098556519,
          -0.049343373626470566,
          -0.158918559551239,
          -0.07178519666194916,
          0.06872542202472687
        ],
        [
          0.061941225081682205,
          0.1679694503545761,
          -0.0894526019692421,
          -0.12153256684541702,
          0.10952774435281754,
          -0.06897882372140884,
          0.12463496625423431,
          -0.042347103357315063,
          0.12664514780044556,
          -0.14190973341464996,
          -0.08804427087306976,
          0.07936402410268784,
          0.041179195046424866,
          -0.04034673422574997,
          0.12164032459259033,
          0.10449626296758652,
          -0.1279354691505432,
          -0.09605228155851364,
          0.17971724271774292,
          -0.03367515653371811,
          -0.03747677803039551,
          -0.07185067236423492,
          -0.21216237545013428,
          0.07299192994832993,
          -0.02292250655591488,
          -0.12835510075092316
        ],
        [
          0.0014468542067334056,
          -0.1311904639005661,
          -0.1495051383972168,
          -0.10679347068071365,
          -0.16545423865318298,
          -0.12313712388277054,
          0.15849491953849792,
          0.02839934453368187,
          0.036434415727853775,
          -0.18660259246826172,
          -0.12495116889476776,
          -0.07263462990522385,
          0.0203423872590065,
          -0.16538402438163757,
          -0.08201006799936295,
          -0.08841215819120407,
          -0.01597321219742298,
          -0.07588356733322144,
          -0.01630009151995182,
          -0.12305916845798492,
          -0.13075806200504303,
          -0.18401707708835602,
          0.058575764298439026,
          -0.1492171436548233,
          0.14779503643512726,
          -0.03765059635043144
        ],
        [
          0.16092297434806824,
          0.07608981430530548,
          -0.11893508583307266,
          0.13902154564857483,
          -0.02797335386276245,
          -0.04512197896838188,
          -0.12141188234090805,
          -0.15872204303741455,
          0.07290050387382507,
          -0.017353491857647896,
          0.0885605439543724,
          -0.11427421867847443,
          0.14451497793197632,
          -0.10647325962781906,
          -0.007735897786915302,
          0.03863060101866722,
          0.11125706136226654,
          0.15389589965343475,
          0.1850985586643219,
          -0.11618223041296005,
          0.07490605860948563,
          0.0017987877363339067,
          -0.08841226249933243,
          -0.10458384454250336,
          0.18499407172203064,
          -0.11822251975536346
        ],
        [
          0.13557350635528564,
          0.08812571316957474,
          0.08123357594013214,
          -0.07443898171186447,
          0.1925174742937088,
          0.06362372636795044,
          0.04642045870423317,
          -0.1521397829055786,
          0.09616585075855255,
          -0.005573250353336334,
          -0.06214170902967453,
          0.18047252297401428,
          0.07088293880224228,
          -0.08025090396404266,
          -0.0694422647356987,
          0.034193944185972214,
          0.12351953983306885,
          -0.026595454663038254,
          -0.09562582522630692,
          -0.048490069806575775,
          -0.1368950456380844,
          -0.020769372582435608,
          0.250119686126709,
          -0.1664055585861206,
          0.05429687350988388,
          0.12792924046516418
        ],
        [
          0.03376912698149681,
          -0.05492003634572029,
          0.1069568619132042,
          0.10851969569921494,
          0.07919147610664368,
          -0.021116381511092186,
          -0.03758057951927185,
          0.04133741557598114,
          -0.018890714272856712,
          -0.044932473450899124,
          0.13091185688972473,
          0.1626986414194107,
          -0.013027632609009743,
          -0.030143067240715027,
          0.014214010909199715,
          -0.03236664831638336,
          0.0566047765314579,
          0.06161477789282799,
          -0.14860017597675323,
          -0.08091087639331818,
          0.20378364622592926,
          0.1457652896642685,
          -0.1191839799284935,
          -0.08932887762784958,
          -0.09283208101987839,
          -0.19545026123523712
        ],
        [
          -0.04072815179824829,
          0.07319215685129166,
          0.12629228830337524,
          0.09268233180046082,
          -0.1556895226240158,
          -0.10279098898172379,
          -0.01955089159309864,
          0.17585815489292145,
          0.03205248340964317,
          -0.03938763961195946,
          0.08701562136411667,
          -0.05333797261118889,
          -0.1069214940071106,
          0.14667129516601562,
          -0.07371242344379425,
          -0.004080059006810188,
          -0.17904621362686157,
          0.12894147634506226,
          0.13146518170833588,
          0.10005084425210953,
          -0.17732711136341095,
          -0.24523907899856567,
          -0.06296297907829285,
          0.12414462119340897,
          0.07885873317718506,
          0.21582461893558502
        ],
        [
          0.06915151327848434,
          0.014658101834356785,
          -0.02895786613225937,
          -0.14279665052890778,
          -0.17455875873565674,
          -0.1895657479763031,
          0.040898002684116364,
          -0.11539392918348312,
          -0.06723564863204956,
          -0.13551874458789825,
          -0.05961483344435692,
          -0.13619862496852875,
          -0.13394956290721893,
          0.028240513056516647,
          -0.07545462250709534,
          0.10150603950023651,
          -0.08595962822437286,
          -0.12282924354076385,
          -0.05731033906340599,
          -0.07228034734725952,
          -0.05518382415175438,
          -0.2682454586029053,
          0.1381918042898178,
          -0.11765685677528381,
          0.06689253449440002,
          0.05926087498664856
        ],
        [
          0.13568474352359772,
          -0.11566834151744843,
          0.12863272428512573,
          -0.07144910842180252,
          0.07807657867670059,
          0.1764727532863617,
          -0.008065145462751389,
          0.01814141869544983,
          -0.023411577567458153,
          -0.134665384888649,
          0.09663787484169006,
          -0.1544816792011261,
          0.11774910986423492,
          0.14392535388469696,
          0.16548989713191986,
          -0.02601146511733532,
          -0.12336252629756927,
          0.039178308099508286,
          0.11714375019073486,
          -0.15046042203903198,
          -0.047725096344947815,
          -0.062361329793930054,
          -0.014736765995621681,
          -0.08586343377828598,
          -0.052590955048799515,
          -0.03212269768118858
        ],
        [
          -0.13004978001117706,
          0.15200375020503998,
          0.1450059860944748,
          -0.017985355108976364,
          -0.007694455329328775,
          -0.055836740881204605,
          -0.13645410537719727,
          -0.16113421320915222,
          0.06854663789272308,
          -0.08647365123033524,
          -0.09378937631845474,
          -0.004935125354677439,
          -0.03595932200551033,
          -0.041535697877407074,
          0.01856476254761219,
          0.0027226486708968878,
          -0.04991753399372101,
          -0.07224288582801819,
          -0.13232438266277313,
          0.1242247223854065,
          -0.049426138401031494,
          -0.030084051191806793,
          0.05510656163096428,
          0.01942558027803898,
          0.18480630218982697,
          0.060231827199459076
        ],
        [
          -0.16775774955749512,
          0.06479907780885696,
          0.16346606612205505,
          0.03782612085342407,
          0.11414684355258942,
          0.17461511492729187,
          -0.0374646820127964,
          0.03293028473854065,
          -0.13945737481117249,
          -0.048709332942962646,
          0.12820574641227722,
          0.08932235091924667,
          -0.12683959305286407,
          -0.15857814252376556,
          -0.133137509226799,
          -0.19693270325660706,
          -0.15318149328231812,
          -0.03163578733801842,
          0.12146925926208496,
          0.023893503472208977,
          -0.11568771302700043,
          -0.1624852865934372,
          0.08631262928247452,
          -0.10327773541212082,
          -0.029232006520032883,
          0.08293493092060089
        ],
        [
          -0.07061892747879028,
          -0.008632089011371136,
          -0.00415530800819397,
          -0.026854369789361954,
          -0.07762249559164047,
          -0.15426038205623627,
          -0.13776230812072754,
          -0.12135137617588043,
          0.19231043756008148,
          -0.08033142238855362,
          -0.11266178637742996,
          0.0685088187456131,
          0.068627268075943,
          0.11362260580062866,
          0.14953486621379852,
          0.10006234049797058,
          -0.16908787190914154,
          0.03383945673704147,
          0.0687040388584137,
          0.006312975659966469,
          -0.06255946308374405,
          0.18085268139839172,
          4.982952668797225e-05,
          -0.08602079004049301,
          -0.2004806250333786,
          0.030061958357691765
        ],
        [
          0.09408362209796906,
          0.04316600784659386,
          0.038186680525541306,
          -0.14081108570098877,
          -0.17694444954395294,
          0.00402984069660306,
          0.17529281973838806,
          0.1114354208111763,
          -0.11468817293643951,
          -0.024491647258400917,
          -0.14065180718898773,
          -0.09790299087762833,
          0.04097999632358551,
          0.105240099132061,
          0.1581442952156067,
          -0.15084309875965118,
          0.12890958786010742,
          -0.13051089644432068,
          0.07265584915876389,
          0.15500614047050476,
          -0.023773377761244774,
          0.09642565995454788,
          -0.08864790201187134,
          -0.08389639109373093,
          0.11290303617715836,
          -0.02802344225347042
        ],
        [
          -0.038092367351055145,
          -0.08412177115678787,
          0.09879102557897568,
          0.08031711727380753,
          0.0422692708671093,
          -0.10892480611801147,
          -0.14871728420257568,
          -0.01174004003405571,
          0.03312188759446144,
          -0.09786242246627808,
          -0.059800926595926285,
          0.10918980091810226,
          0.006313123274594545,
          -0.005097994580864906,
          -0.0512150377035141,
          -0.15997695922851562,
          -0.17484094202518463,
          -0.08803083002567291,
          -0.1186179518699646,
          0.04795640707015991,
          -0.04258668050169945,
          -0.169642373919487,
          0.2159079611301422,
          0.059642013162374496,
          0.09008235484361649,
          -0.07311437278985977
        ]
      ],
      "network.0.bias": [
        -0.0745309516787529,
        0.05834139138460159,
        -0.13245223462581635,
        -0.11802656203508377,
        -0.0241044070571661,
        -0.04445556923747063,
        -0.11984281241893768,
        0.1254965215921402,
        0.16395506262779236,
        -0.0008125084568746388,
        -0.01419510506093502,
        -0.15466736257076263,
        -0.07886789739131927,
        0.06021812558174133,
        0.09209873527288437,
        -0.036845043301582336
      ],
      "network.1.weight": [
        0.9583674669265747,
        0.963172972202301,
        0.8364914059638977,
        0.9183383584022522,
        0.7620511054992676,
        0.7699890732765198,
        0.9797840118408203,
        0.9334211945533752,
        0.9511361718177795,
        0.7632313966751099,
        0.8414909243583679,
        0.7620511054992676,
        0.7916209101676941,
        0.8706360459327698,
        0.9214717745780945,
        0.7678920030593872
      ],
      "network.1.bias": [
        -0.017435140907764435,
        -0.014247802086174488,
        -0.012681670486927032,
        0.016955289989709854,
        0.0,
        -0.020725298672914505,
        0.0034167966805398464,
        -0.013575468212366104,
        -0.010205501690506935,
        -0.0029193824157118797,
        -0.012328499928116798,
        0.0,
        -0.009113107807934284,
        -0.007903092540800571,
        -0.020194843411445618,
        -0.00662359269335866
      ],
      "network.4.weight": [
        [
          -0.08499383926391602,
          0.13304829597473145,
          -0.17558245360851288,
          0.1662338227033615,
          -0.00012825104931835085,
          -0.008894161321222782,
          -0.09997500479221344,
          0.0550590418279171,
          -0.07806402444839478,
          0.0667504146695137,
          -0.028096511960029602,
          0.027425095438957214,
          0.19939249753952026,
          -0.13587221503257751,
          -0.11460269242525101,
          0.12329735606908798
        ]
      ],
      "network.4.bias": [
        0.20120024681091309
      ]
    }
  }
}