{
  "project": "Aether Quant",
  "phase": "v2_multitask_model",
  "version_id": "stage123-1783709428",
  "status": "trained",
  "trained_at": "2026-07-10T18:52:52.582342+00:00",
  "model": {
    "type": "multitask_direction_magnitude_volatility",
    "model_input_features": [
      "close_to_close_return_1d_scaled",
      "close_to_close_return_5d_scaled",
      "close_to_close_return_20d_scaled",
      "rolling_volatility_5d_scaled",
      "rolling_volatility_20d_scaled",
      "momentum_5d_scaled",
      "momentum_20d_scaled",
      "high_low_range_pct_scaled",
      "open_close_range_pct_scaled",
      "volume_change_1d_scaled",
      "regime_confidence_scaled",
      "regime_trend_score_scaled",
      "regime_risk_score_scaled",
      "liquidity_log_dollar_volume_scaled",
      "liquidity_spread_proxy_scaled",
      "topology_correlation_strength_scaled",
      "regime_trend_bullish",
      "regime_trend_bearish",
      "regime_trend_sideways",
      "regime_volatility_low",
      "regime_volatility_normal",
      "regime_volatility_high",
      "regime_risk_on",
      "regime_risk_off",
      "regime_risk_neutral",
      "topology_risk_normal",
      "topology_risk_elevated",
      "topology_risk_isolated",
      "asset_AAPL",
      "asset_SPY",
      "asset_QQQ",
      "asset_IWM",
      "asset_EEM",
      "asset_BAC",
      "asset_IBM",
      "asset_AIG",
      "asset_BNO",
      "asset_FB",
      "asset_GOOG",
      "asset_GOOGL",
      "asset_USO",
      "asset_WM",
      "asset_AAA",
      "asset_BTCUSD",
      "asset_ETHUSD",
      "asset_LTCUSD",
      "asset_XRPUSD",
      "asset_ADAUSD"
    ],
    "hidden_layers": [
      64,
      32
    ],
    "dropout": 0.15,
    "activation": "relu",
    "normalization": "layernorm",
    "decision_threshold": 0.465
  },
  "export": {
    "trunk": [
      {
        "type": "linear",
        "weight_key": "trunk.0.weight",
        "bias_key": "trunk.0.bias",
        "in_features": 48,
        "out_features": 64
      },
      {
        "type": "layernorm",
        "weight_key": "trunk.1.weight",
        "bias_key": "trunk.1.bias",
        "normalized_shape": [
          64
        ],
        "eps": 1e-05
      },
      {
        "type": "relu"
      },
      {
        "type": "dropout",
        "p": 0.15
      },
      {
        "type": "linear",
        "weight_key": "trunk.4.weight",
        "bias_key": "trunk.4.bias",
        "in_features": 64,
        "out_features": 32
      },
      {
        "type": "layernorm",
        "weight_key": "trunk.5.weight",
        "bias_key": "trunk.5.bias",
        "normalized_shape": [
          32
        ],
        "eps": 1e-05
      },
      {
        "type": "relu"
      },
      {
        "type": "dropout",
        "p": 0.15
      }
    ],
    "heads": {
      "direction": [
        {
          "type": "linear",
          "weight_key": "head_direction.weight",
          "bias_key": "head_direction.bias",
          "in_features": 32,
          "out_features": 1
        },
        {
          "type": "sigmoid"
        }
      ],
      "magnitude": [
        {
          "type": "linear",
          "weight_key": "head_magnitude.weight",
          "bias_key": "head_magnitude.bias",
          "in_features": 32,
          "out_features": 1
        }
      ],
      "volatility": [
        {
          "type": "linear",
          "weight_key": "head_volatility.weight",
          "bias_key": "head_volatility.bias",
          "in_features": 32,
          "out_features": 1
        },
        {
          "type": "softplus"
        }
      ]
    },
    "state_dict": {
      "trunk.0.weight": [
        [
          0.09967191517353058,
          0.10917115956544876,
          -0.04597112163901329,
          0.11590069532394409,
          -0.03472105786204338,
          0.019037369638681412,
          -0.0821189135313034,
          0.06394611299037933,
          0.11595810204744339,
          -0.09961709380149841,
          0.11690863221883774,
          0.014414546079933643,
          0.09456326067447662,
          0.018572190776467323,
          0.058100149035453796,
          -0.03638875484466553,
          0.09410972148180008,
          0.010271401144564152,
          -0.09596655517816544,
          0.02523726597428322,
          -0.08031053841114044,
          -0.0346069261431694,
          -0.07614556699991226,
          0.08670792728662491,
          -0.14461025595664978,
          -0.08255824446678162,
          -0.062240250408649445,
          -0.0922841802239418,
          -0.00030922036967240274,
          -0.1379597932100296,
          0.10501761734485626,
          -0.11517994105815887,
          0.10616658627986908,
          0.02341015823185444,
          -0.05720832198858261,
          0.08947224915027618,
          0.015881728380918503,
          0.10343468934297562,
          0.0036536871921271086,
          -0.0573405846953392,
          0.034251756966114044,
          -0.04306695610284805,
          3.875769483130398e-09,
          0.1125497967004776,
          0.06405413895845413,
          -0.06625150889158249,
          0.07248684018850327,
          0.006962549407035112
        ],
        [
          0.05905682593584061,
          -0.09511467814445496,
          -0.147898867726326,
          -0.040909215807914734,
          -0.09576251357793808,
          0.10882160067558289,
          0.0334073044359684,
          0.057605814188718796,
          0.03209695219993591,
          -0.0022195088677108288,
          0.11744611710309982,
          -0.10929115861654282,
          0.0012919687433168292,
          -0.09737271815538406,
          0.05657130107283592,
          -0.026749327778816223,
          0.032081156969070435,
          -0.03655964136123657,
          0.09147462993860245,
          -0.09761425852775574,
          -0.11377201229333878,
          -0.07966272532939911,
          0.1114027202129364,
          0.04446002468466759,
          0.10846836864948273,
          -0.1326051652431488,
          -0.12708410620689392,
          -0.13753825426101685,
          -0.11299693584442139,
          0.051333069801330566,
          0.031911883503198624,
          0.11545658856630325,
          -0.08659923821687698,
          -0.10110439360141754,
          0.06489929556846619,
          -0.05156109482049942,
          0.10724486410617828,
          -0.04258621856570244,
          0.08013604581356049,
          -0.1262543648481369,
          -0.08493298292160034,
          0.0294797383248806,
          -3.809252913100636e-11,
          -0.06120234727859497,
          0.05665147677063942,
          0.08027639240026474,
          -0.10411036014556885,
          -0.07486214488744736
        ],
        [
          0.13646240532398224,
          -0.0480506531894207,
          -0.06026555970311165,
          -0.12980560958385468,
          -0.07884585857391357,
          0.03520622104406357,
          -0.028667619451880455,
          -0.09944320470094681,
          0.015040288679301739,
          -0.0764552652835846,
          -0.1303064078092575,
          -0.08732733130455017,
          -0.12519560754299164,
          -0.09395288676023483,
          0.1367821842432022,
          0.019747823476791382,
          0.014671962708234787,
          -0.13953299820423126,
          -0.09427984058856964,
          -0.06757234036922455,
          0.017122890800237656,
          -0.13601776957511902,
          -0.0912698283791542,
          -0.09222438186407089,
          0.007526139263063669,
          -0.06478530913591385,
          -0.021894115954637527,
          -0.08876879513263702,
          -0.10380639135837555,
          -0.08398241549730301,
          -0.06324475258588791,
          -0.10640493035316467,
          0.11157570779323578,
          -0.024984758347272873,
          0.12188994139432907,
          0.05032975971698761,
          -0.10683712363243103,
          0.08876606822013855,
          -0.05295145884156227,
          -0.06536224484443665,
          -0.11053114384412766,
          -0.14981256425380707,
          1.2348830291664115e-10,
          -0.03441411256790161,
          0.015288867987692356,
          -0.13403303921222687,
          0.0566803403198719,
          -0.11701524257659912
        ],
        [
          -0.000890155031811446,
          0.055563293397426605,
          0.07567469030618668,
          0.10161755234003067,
          0.11762681603431702,
          -0.08785311877727509,
          0.03787342458963394,
          -0.07954244315624237,
          0.008830048143863678,
          -0.08214957267045975,
          0.13226346671581268,
          -0.09838365018367767,
          0.09270808845758438,
          0.05376533418893814,
          0.029719214886426926,
          -0.07159613817930222,
          0.11786753684282303,
          0.010365812107920647,
          -0.011369211599230766,
          -0.1265564113855362,
          0.039862535893917084,
          -0.05227609723806381,
          -0.08176620304584503,
          0.10306784510612488,
          0.0029307003132998943,
          -0.10097069293260574,
          -0.09472814947366714,
          -0.019299296662211418,
          0.06316016614437103,
          -0.04997309669852257,
          -0.09673850983381271,
          -0.05445865914225578,
          -0.11038865149021149,
          0.052888162434101105,
          0.10438739508390427,
          -0.1430903524160385,
          0.017695195972919464,
          0.07746492326259613,
          0.014705539681017399,
          -0.07511480152606964,
          0.05582642927765846,
          0.06010618433356285,
          -6.227431903482739e-10,
          -0.04310443252325058,
          -0.05301244556903839,
          0.01609082520008087,
          -0.027003969997167587,
          -0.0549653097987175
        ],
        [
          0.08943202346563339,
          0.1258275806903839,
          -0.031033681705594063,
          -0.0377768911421299,
          -0.009168989956378937,
          -0.005826947279274464,
          0.01755153015255928,
          0.03531871736049652,
          -0.13567909598350525,
          -0.060849618166685104,
          0.11402031779289246,
          0.041326455771923065,
          -0.027600767090916634,
          -0.08429783582687378,
          -0.10276400297880173,
          -0.13821451365947723,
          -0.03152104467153549,
          0.08538152277469635,
          0.10386303067207336,
          0.08461344242095947,
          -0.08688747137784958,
          -0.08274203538894653,
          -0.008266485296189785,
          0.1711990237236023,
          0.05606348440051079,
          0.005000296980142593,
          0.0625050738453865,
          -0.04506026208400726,
          -0.08026773482561111,
          0.10085999965667725,
          -0.05335812643170357,
          -0.010736302472651005,
          -0.11022040247917175,
          0.11638355255126953,
          0.12029348313808441,
          0.05457325652241707,
          -0.08573687821626663,
          -0.1496606171131134,
          -0.08442501723766327,
          0.12063287943601608,
          0.08604204654693604,
          0.11860712617635727,
          1.61024786393682e-07,
          0.0472220815718174,
          0.004265591036528349,
          -0.09496314823627472,
          -0.10001193732023239,
          -0.10217252373695374
        ],
        [
          0.0780361220240593,
          -0.08173675090074539,
          -0.06527256965637207,
          -0.09377602487802505,
          -0.040633950382471085,
          -0.1121048778295517,
          -0.12961240112781525,
          0.03928089886903763,
          -0.023031173273921013,
          0.07595516741275787,
          -0.05011443793773651,
          -0.1393233835697174,
          -0.025779912248253822,
          -0.07528018951416016,
          -0.046063054352998734,
          -0.12579426169395447,
          0.1077888086438179,
          -0.0668809711933136,
          0.10543636232614517,
          0.09124577790498734,
          0.13489830493927002,
          -0.07424859702587128,
          0.13068591058254242,
          -0.03716511279344559,
          0.1037684977054596,
          0.1722509115934372,
          -0.015925902873277664,
          0.02823059633374214,
          -0.004193741362541914,
          -0.09511183947324753,
          0.07618501782417297,
          -0.12693819403648376,
          0.09470560401678085,
          0.11763671785593033,
          0.15672890841960907,
          -0.016384994611144066,
          -0.08886124938726425,
          0.04747430980205536,
          0.10531928390264511,
          -0.12743858993053436,
          -0.016872847452759743,
          -0.07714419811964035,
          3.975596327837616e-12,
          -0.05134061723947525,
          -0.06385579705238342,
          -0.016687817871570587,
          -0.10775549709796906,
          0.0352092869579792
        ],
        [
          0.0979074090719223,
          -0.05257968232035637,
          -0.048947520554065704,
          -0.09785594046115875,
          -0.15944422781467438,
          -0.16929970681667328,
          0.020217588171362877,
          -0.10298161208629608,
          -0.10587988048791885,
          -0.02106727845966816,
          -0.04353440925478935,
          -0.08197162300348282,
          -0.005661417730152607,
          -0.01813059113919735,
          -0.0815901979804039,
          -0.0713462084531784,
          -0.0968976840376854,
          0.15700463950634003,
          -0.031994372606277466,
          0.06894376873970032,
          -0.014940142631530762,
          0.012201664038002491,
          0.1626325100660324,
          0.09933295100927353,
          -0.10949954390525818,
          0.0895664244890213,
          0.15136709809303284,
          0.05923542007803917,
          0.1026693657040596,
          0.15861915051937103,
          -0.002133643953129649,
          0.0393509715795517,
          -0.08944469690322876,
          -0.011865347623825073,
          0.09000339359045029,
          0.07788395136594772,
          -0.08139947801828384,
          -0.09320704638957977,
          -0.07747989147901535,
          -0.11783039569854736,
          -0.09478703886270523,
          -0.023533277213573456,
          9.777745435712859e-05,
          0.024693939834833145,
          -0.05837831646203995,
          -0.0925416573882103,
          0.04359779134392738,
          -0.012634741142392159
        ],
        [
          -0.033675555139780045,
          0.08444923162460327,
          -0.047562286257743835,
          -0.01339790504425764,
          -0.024666909128427505,
          -0.01793212629854679,
          -0.05386180430650711,
          -0.1265868991613388,
          -0.13585352897644043,
          -0.06279373914003372,
          0.14425289630889893,
          -0.05003749206662178,
          -0.08343349397182465,
          0.04296061396598816,
          0.02948864735662937,
          0.0801992192864418,
          0.11133810877799988,
          0.07179882377386093,
          -0.17525699734687805,
          0.015319506637752056,
          0.07991073280572891,
          -0.02887984737753868,
          -0.08477199077606201,
          0.12166490405797958,
          -0.04822676256299019,
          -0.08743634819984436,
          -0.12384993582963943,
          -0.008846791461110115,
          0.06587366759777069,
          0.00870626512914896,
          0.03950798511505127,
          -0.11493717133998871,
          -0.15007998049259186,
          -0.011195970699191093,
          0.12716728448867798,
          0.07026778906583786,
          -0.10705947130918503,
          -0.004798930138349533,
          -0.0832895040512085,
          -0.06718562543392181,
          0.015329062938690186,
          0.09018371999263763,
          0.0009994142455980182,
          -0.1384267657995224,
          0.09313398599624634,
          -0.10146649181842804,
          0.05156857520341873,
          0.12929068505764008
        ],
        [
          0.02472708746790886,
          0.14120180904865265,
          -0.11929876357316971,
          -0.04420699179172516,
          0.10650226473808289,
          -0.020362211391329765,
          -0.026585036888718605,
          -0.04763403162360191,
          0.12100552022457123,
          0.08565157651901245,
          0.05904341861605644,
          -0.07668112963438034,
          -0.10359829664230347,
          -0.04042482376098633,
          0.06865131855010986,
          -0.08292454481124878,
          -0.05858955159783363,
          0.08051512390375137,
          -0.001737563987262547,
          -0.020669493824243546,
          -0.050991982221603394,
          -0.11850960552692413,
          -0.15415823459625244,
          -0.08231915533542633,
          -0.09146358072757721,
          0.02190423011779785,
          -0.04883977398276329,
          -0.03915408253669739,
          0.11913970857858658,
          0.03472079709172249,
          0.08242766559123993,
          -0.08177769929170609,
          -0.07967562973499298,
          0.03258006274700165,
          -0.10520632565021515,
          -0.09939828515052795,
          0.03078388422727585,
          -0.07380975037813187,
          -0.13150770962238312,
          0.053076788783073425,
          0.11418593674898148,
          0.0043906522914767265,
          1.475130260997215e-11,
          -0.10365983843803406,
          -0.09168087691068649,
          0.03413670137524605,
          0.02318006567656994,
          -0.04058966040611267
        ],
        [
          -0.06099681928753853,
          0.06650414317846298,
          -0.12109982222318649,
          0.09692782908678055,
          -0.04147355258464813,
          -0.011361226439476013,
          -0.03565886616706848,
          0.023417623713612556,
          -0.0561477355659008,
          0.10105614364147186,
          -0.018528446555137634,
          0.1022474467754364,
          0.12071023881435394,
          -0.07058195769786835,
          -0.09183337539434433,
          0.09286525100469589,
          0.09389057755470276,
          -0.1265416294336319,
          -0.027982553467154503,
          -0.16193823516368866,
          -0.13798847794532776,
          0.01631956174969673,
          0.01860029622912407,
          0.015063965693116188,
          -0.048202116042375565,
          0.11257297545671463,
          0.010639090090990067,
          -0.10192028433084488,
          -0.01876247674226761,
          0.020253609865903854,
          0.04152148962020874,
          -0.11792565137147903,
          0.045155368745326996,
          -0.0805702731013298,
          -0.12164084613323212,
          -0.09588393568992615,
          0.11098447442054749,
          0.10574749857187271,
          0.11648616194725037,
          0.0603967010974884,
          0.0885622650384903,
          -0.020735502243041992,
          -1.4783438473386923e-06,
          0.05915319547057152,
          -0.06659447401762009,
          -0.09093577414751053,
          -0.04431711137294769,
          0.010311334393918514
        ],
        [
          0.09151452779769897,
          -0.04751116782426834,
          -0.06592383980751038,
          0.0154632069170475,
          -0.09168010205030441,
          -0.0851694867014885,
          0.0930042639374733,
          -0.03228994086384773,
          0.14384561777114868,
          0.138518825173378,
          0.06098508834838867,
          0.06736578792333603,
          0.05058561637997627,
          0.021201610565185547,
          -0.004066061228513718,
          -0.008113187737762928,
          0.07997250556945801,
          0.13671402633190155,
          -0.019527927041053772,
          -0.04065246134996414,
          -0.016245132312178612,
          -0.04226531833410263,
          0.05069465562701225,
          0.10674118250608444,
          0.12682503461837769,
          0.08363933116197586,
          -0.08808694034814835,
          -0.03662623465061188,
          -0.019166547805070877,
          -0.02300923503935337,
          0.035619061440229416,
          -0.12803448736667633,
          0.05479308217763901,
          -0.09735517203807831,
          -0.07601331174373627,
          -0.09528058767318726,
          0.10656585544347763,
          -0.12040579319000244,
          0.11805915832519531,
          0.013277888298034668,
          -0.019726669415831566,
          0.10983656346797943,
          -8.148232956417534e-12,
          0.1308286041021347,
          0.11450976878404617,
          -0.12726759910583496,
          0.055939383804798126,
          0.03825172781944275
        ],
        [
          0.04634762927889824,
          0.027311643585562706,
          0.0481235645711422,
          -0.05995174124836922,
          -0.01224896777421236,
          0.14253994822502136,
          0.10516265779733658,
          0.007838794961571693,
          -0.1095501184463501,
          0.0033756298944354057,
          -0.0901678204536438,
          0.12456650286912918,
          -0.06471691280603409,
          -0.017063383013010025,
          -0.021370939910411835,
          0.00998216774314642,
          0.11117248982191086,
          -0.015138297341763973,
          0.06684493273496628,
          0.09494753926992416,
          0.08950100839138031,
          -0.06574353575706482,
          -0.05354222655296326,
          0.040662046521902084,
          -0.05445988103747368,
          0.04315846785902977,
          -0.04494437947869301,
          -0.11404015868902206,
          0.03354819864034653,
          0.006861994508653879,
          0.05652137100696564,
          0.12889239192008972,
          0.08035719394683838,
          0.11779946833848953,
          -0.009454949758946896,
          -0.1260720193386078,
          -0.11551645398139954,
          -0.09441937506198883,
          -0.14253653585910797,
          -0.0815148875117302,
          -0.14243341982364655,
          -0.13790832459926605,
          -1.2212110959808342e-05,
          -0.14859642088413239,
          -0.09787974506616592,
          0.033922456204891205,
          0.09563347697257996,
          -0.010312673635780811
        ],
        [
          -0.04743194952607155,
          0.07624688744544983,
          -0.0641496405005455,
          -0.06894969940185547,
          0.07250670343637466,
          -0.12516635656356812,
          0.024041566997766495,
          0.11567668616771698,
          0.005288636311888695,
          0.022499173879623413,
          -0.08659917861223221,
          0.00414014607667923,
          0.005047249607741833,
          0.06194479390978813,
          0.03788502886891365,
          0.11977527290582657,
          -0.1087823435664177,
          0.008232024498283863,
          -0.07548919320106506,
          -0.12704065442085266,
          -0.011211801320314407,
          -0.1335902363061905,
          0.0999125987291336,
          0.021787287667393684,
          -0.08080878853797913,
          0.07416395843029022,
          -0.12456115335226059,
          -0.07698283344507217,
          -0.04730211943387985,
          -0.11821876466274261,
          -0.08176445215940475,
          -0.041338346898555756,
          0.1206323429942131,
          0.134893000125885,
          0.09446801990270615,
          -0.1091015487909317,
          -0.12585234642028809,
          0.13942986726760864,
          0.06061912700533867,
          0.019483013078570366,
          -0.0007015256560407579,
          -0.10744845122098923,
          -1.1591261284138454e-10,
          0.14201976358890533,
          -0.008974764496088028,
          -0.0008353876182809472,
          -0.1059710681438446,
          -0.06515632569789886
        ],
        [
          0.015512625686824322,
          -0.07426654547452927,
          0.0014618163695558906,
          0.07180121541023254,
          -0.12675830721855164,
          0.05722478777170181,
          -0.07537619769573212,
          -0.05286024883389473,
          0.07535714656114578,
          0.11795733869075775,
          -0.029249833896756172,
          -0.03991163149476051,
          -0.120152547955513,
          -0.07610780745744705,
          -0.11381828039884567,
          -0.01841020956635475,
          0.009224027395248413,
          -0.15287189185619354,
          0.10744063556194305,
          0.07560598105192184,
          -0.1635686308145523,
          -0.08541206270456314,
          0.0308945681899786,
          -0.048935797065496445,
          -0.035395264625549316,
          -0.08295942842960358,
          0.09994211047887802,
          -0.09997814893722534,
          0.10601911693811417,
          0.005597360897809267,
          0.017827562987804413,
          0.09572502225637436,
          -0.035458751022815704,
          -0.09025134146213531,
          -0.018269475549459457,
          0.09724164754152298,
          -0.10927537083625793,
          0.02354065328836441,
          -0.15241912007331848,
          0.06823549419641495,
          0.03681599721312523,
          -0.010936861857771873,
          6.114638573251341e-09,
          -0.024691836908459663,
          0.029175598174333572,
          -0.11461084336042404,
          -0.0443183109164238,
          0.011801200918853283
        ],
        [
          0.13339295983314514,
          0.09090571850538254,
          -0.06254206597805023,
          0.12983928620815277,
          -0.010289563797414303,
          -0.012761194258928299,
          -0.0885326936841011,
          -0.005692177917808294,
          0.08285610377788544,
          0.04666741564869881,
          -0.0697459876537323,
          0.08654190599918365,
          -0.027129698544740677,
          0.11904085427522659,
          -0.10807566344738007,
          -0.033843785524368286,
          -0.15403223037719727,
          -0.09160079061985016,
          0.011197974905371666,
          0.10987723618745804,
          -0.0067923301830887794,
          0.1254182606935501,
          0.004097390919923782,
          0.0521722212433815,
          0.08431286364793777,
          0.08845306187868118,
          -0.08896539360284805,
          0.09958595037460327,
          0.05810299515724182,
          -0.07611258327960968,
          -0.08050043135881424,
          -0.12378338724374771,
          0.02316681481897831,
          -0.1320975422859192,
          0.02726314216852188,
          0.026997970417141914,
          -0.1344362199306488,
          0.026384422555565834,
          -0.042924024164676666,
          0.05873531848192215,
          0.06003781408071518,
          -0.15319746732711792,
          0.0023236735723912716,
          0.11351442337036133,
          0.053983259946107864,
          -0.14960026741027832,
          -0.05131492018699646,
          -0.001359957386739552
        ],
        [
          -0.04542011767625809,
          0.07504939287900925,
          0.049482062458992004,
          0.10249414294958115,
          -0.06361123919487,
          0.04244561120867729,
          0.04836961627006531,
          -0.11882691830396652,
          -0.1411818116903305,
          -0.05781629681587219,
          0.07859029620885849,
          -0.1380152702331543,
          -0.13175129890441895,
          0.08293015509843826,
          0.05697375535964966,
          0.10787130147218704,
          -0.12019448727369308,
          -0.1107877865433693,
          0.07210076600313187,
          0.11663872748613358,
          0.07925479114055634,
          0.0064393323846161366,
          0.0357741080224514,
          0.12685373425483704,
          -0.08187199383974075,
          -0.07255861163139343,
          0.0849732905626297,
          -0.10614082217216492,
          -0.06475234031677246,
          0.09576942771673203,
          0.03380601853132248,
          0.04955141618847847,
          -0.05940847098827362,
          -0.011348764412105083,
          0.13248074054718018,
          -0.07979841530323029,
          -0.004916921723634005,
          0.05345258489251137,
          -0.09723290801048279,
          0.12265821546316147,
          -0.07924234122037888,
          -0.03723101690411568,
          3.650895558093836e-12,
          -0.11077871918678284,
          -0.13738854229450226,
          0.0773378312587738,
          0.03324549272656441,
          -0.12740129232406616
        ],
        [
          -0.08306100219488144,
          0.13439464569091797,
          0.06207131966948509,
          0.04178883135318756,
          -0.1008843258023262,
          -0.06868821382522583,
          -0.013171878643333912,
          -0.028108185157179832,
          -0.08501355350017548,
          0.022822527214884758,
          0.018647978082299232,
          -0.012206420302391052,
          0.029080672189593315,
          -0.055910103023052216,
          0.022580811753869057,
          0.03673367202281952,
          -0.11115174740552902,
          -0.165301114320755,
          0.0534481517970562,
          0.02052418887615204,
          -0.1021101251244545,
          0.10509737581014633,
          -0.09491507709026337,
          0.07351816445589066,
          0.043047722429037094,
          -0.14709842205047607,
          0.0633276104927063,
          -0.14712372422218323,
          -0.11070745438337326,
          -0.03972409665584564,
          -0.10986693948507309,
          0.1304103583097458,
          -0.060396064072847366,
          0.03990360349416733,
          -0.14219513535499573,
          0.07107581943273544,
          -0.047210365533828735,
          -0.12096870690584183,
          -0.006285736337304115,
          0.04844721034169197,
          0.09884468466043472,
          -0.08981393277645111,
          6.853362322090106e-08,
          0.01789592020213604,
          0.025707803666591644,
          0.03026408888399601,
          0.05794355273246765,
          -0.01737711764872074
        ],
        [
          0.07730741798877716,
          0.10831654816865921,
          -0.033233243972063065,
          0.09410951286554337,
          0.06025029718875885,
          0.1289246529340744,
          -0.07695437967777252,
          -0.0712159052491188,
          -0.047839805483818054,
          0.00438379542902112,
          0.07413195818662643,
          -0.07682042568922043,
          0.07236122339963913,
          -0.04345213994383812,
          0.07305602729320526,
          -0.010292243212461472,
          -0.1419883370399475,
          -0.10401146113872528,
          -0.12694035470485687,
          0.05438932776451111,
          -0.11803913861513138,
          -0.029409414157271385,
          0.01365733239799738,
          -0.10155382007360458,
          0.014111555181443691,
          -0.16196554899215698,
          -0.1123238056898117,
          -0.14944477379322052,
          -0.07745172083377838,
          -0.0652993693947792,
          0.011763148009777069,
          -0.050417449325323105,
          0.059676941484212875,
          0.12132558971643448,
          0.03690967708826065,
          -0.06285306066274643,
          -0.1371106058359146,
          0.036563243716955185,
          -0.0917787030339241,
          0.05385015904903412,
          0.09214714169502258,
          0.044581230729818344,
          0.002753020031377673,
          0.12167571485042572,
          0.023625070229172707,
          -0.11213697493076324,
          0.11825486272573471,
          -0.06228695809841156
        ],
        [
          -0.0802120566368103,
          0.1135588064789772,
          0.10440552979707718,
          0.05655573680996895,
          0.01848316565155983,
          -0.12703417241573334,
          -0.021469326689839363,
          0.14148658514022827,
          0.01355535164475441,
          0.011823336593806744,
          -0.04188693314790726,
          -0.05718149244785309,
          0.06329736113548279,
          0.016221262514591217,
          0.082772396504879,
          -0.019509177654981613,
          0.04687632620334625,
          0.06504832953214645,
          0.032141439616680145,
          0.08951619267463684,
          0.08361171185970306,
          0.14528918266296387,
          0.09812821447849274,
          -0.031299203634262085,
          -0.10939399898052216,
          0.02174476720392704,
          0.011803091503679752,
          -0.049676090478897095,
          -0.030578244477510452,
          0.023961368948221207,
          0.10187818109989166,
          0.04509791359305382,
          -0.06322828680276871,
          -0.06740783900022507,
          -0.03572651743888855,
          -0.050898414105176926,
          0.1203862652182579,
          0.07925162464380264,
          0.10447415709495544,
          0.006962926592677832,
          0.019675426185131073,
          0.06590941548347473,
          -0.002932405797764659,
          0.004916766192764044,
          -0.004491560161113739,
          -0.06358182430267334,
          -0.09819117188453674,
          0.11319530010223389
        ],
        [
          0.15084713697433472,
          0.0972408726811409,
          0.12224581837654114,
          -0.09642001241445541,
          -0.0649506002664566,
          0.08510306477546692,
          -0.03753548488020897,
          -0.06832375377416611,
          -0.08145877718925476,
          0.003288149368017912,
          -0.12402518838644028,
          -0.0018783938139677048,
          0.18561208248138428,
          -0.02412765845656395,
          -0.08004549145698547,
          0.12899351119995117,
          -0.0036761790979653597,
          -0.044934701174497604,
          0.18978381156921387,
          -0.015015430748462677,
          -0.04266620799899101,
          -0.06598245352506638,
          0.009266289882361889,
          -0.0970841497182846,
          -0.0067597199231386185,
          0.11585899442434311,
          0.04322727769613266,
          -0.04911959543824196,
          -0.07614423334598541,
          -0.02066148817539215,
          -0.04404756799340248,
          -0.016833258792757988,
          -0.09088993817567825,
          0.06899594515562057,
          -0.0824403166770935,
          -0.08569450676441193,
          -0.09200181812047958,
          0.08149664849042892,
          -0.03818874433636665,
          -0.04872192069888115,
          0.13752971589565277,
          0.0863206759095192,
          4.769760380440857e-06,
          -0.1089264303445816,
          -0.07464339584112167,
          -0.019886363297700882,
          0.10155101120471954,
          0.008719725534319878
        ],
        [
          -0.1350701004266739,
          -0.013089155778288841,
          -0.12421981990337372,
          -0.03839287534356117,
          -0.04920697584748268,
          0.11038495600223541,
          0.03173721209168434,
          -0.036731161177158356,
          -0.006118312012404203,
          -0.046496085822582245,
          0.06321663409471512,
          0.04363139718770981,
          0.024110831320285797,
          -0.06391395628452301,
          0.11278172582387924,
          -0.025811344385147095,
          -0.03551774471998215,
          0.11818579584360123,
          0.1342320591211319,
          0.15879857540130615,
          0.06966908276081085,
          -0.02035154588520527,
          0.09225379675626755,
          0.14900054037570953,
          -0.1172013133764267,
          0.0033438990358263254,
          -0.07137086242437363,
          0.04650917649269104,
          0.08199269324541092,
          -0.018098482862114906,
          0.0013652335619553924,
          0.07347242534160614,
          -0.004991692490875721,
          -0.10939878225326538,
          0.1112448126077652,
          -0.062229570001363754,
          -0.008351128548383713,
          0.026989253237843513,
          0.012456769123673439,
          -0.11361133307218552,
          0.08033841103315353,
          -0.04531245306134224,
          -6.457064216647268e-08,
          0.05979236215353012,
          -0.07200326770544052,
          -0.04052142798900604,
          -0.03443699702620506,
          -0.03807751461863518
        ],
        [
          -0.05170778930187225,
          -0.03361855074763298,
          0.030710771679878235,
          -0.14245988428592682,
          -0.11376909911632538,
          0.0072258044965565205,
          0.013394838199019432,
          0.05212849751114845,
          -0.08651605248451233,
          0.02524421736598015,
          0.09383537620306015,
          0.07508814334869385,
          -0.11779622733592987,
          -0.04669346660375595,
          -0.13868020474910736,
          -0.07596509158611298,
          0.0982370674610138,
          -0.026910115033388138,
          0.10064642876386642,
          -0.04751142859458923,
          0.04353708773851395,
          -0.07534191757440567,
          0.09787745028734207,
          -0.07049357146024704,
          -0.012097571976482868,
          -0.09491592645645142,
          0.002636393066495657,
          0.13570697605609894,
          0.08106034249067307,
          -0.05558404326438904,
          0.010951039381325245,
          0.008778320625424385,
          -0.08714934438467026,
          0.11686619371175766,
          0.015791986137628555,
          0.05269768834114075,
          -0.04007486626505852,
          -0.0478287898004055,
          0.03401056304574013,
          0.06653248518705368,
          0.0418212004005909,
          -0.06958530843257904,
          0.0035041198134422302,
          -0.01775153912603855,
          -0.09366271644830704,
          -0.06920865178108215,
          0.13653399050235748,
          -0.004489098209887743
        ],
        [
          -0.028892286121845245,
          -0.061004653573036194,
          -0.03569537773728371,
          -0.11904815584421158,
          -0.1171850860118866,
          0.08223814517259598,
          0.12377365678548813,
          0.12404843419790268,
          -0.11845123022794724,
          0.05588904395699501,
          -0.10773786157369614,
          0.08627113699913025,
          0.08867722749710083,
          0.1244518905878067,
          0.10704202204942703,
          0.10314090549945831,
          0.011436820961534977,
          0.09405365586280823,
          -0.0394883006811142,
          0.06158098205924034,
          -0.012778921984136105,
          0.009608219377696514,
          -0.1143312081694603,
          -0.010773800313472748,
          -0.06387245655059814,
          -0.030235454440116882,
          -0.06979872286319733,
          -0.13084250688552856,
          0.011314766481518745,
          0.11075599491596222,
          0.1510237455368042,
          0.08314765989780426,
          -0.07412084192037582,
          -0.15164247155189514,
          0.0612417571246624,
          0.08119706064462662,
          -0.129995197057724,
          0.07451243698596954,
          0.1136145368218422,
          0.019480064511299133,
          -0.08686977624893188,
          0.12432535737752914,
          5.603432828849009e-09,
          0.11981908977031708,
          -0.07976372539997101,
          0.07769060134887695,
          -0.08231475204229355,
          0.1386076807975769
        ],
        [
          -0.05818427726626396,
          0.07980921864509583,
          0.04379977658390999,
          0.04683453589677811,
          -0.008620227687060833,
          0.05228845402598381,
          -0.04414454475045204,
          -0.1173294261097908,
          -0.04442639276385307,
          0.1275572031736374,
          -0.003578253323212266,
          0.05543651431798935,
          -0.053478263318538666,
          0.08632704615592957,
          0.09838613867759705,
          0.029035212472081184,
          -0.09576668590307236,
          -0.1505327969789505,
          -0.02187158353626728,
          -0.09726084768772125,
          0.08227258175611496,
          -0.1559479832649231,
          0.045261725783348083,
          0.11113961786031723,
          0.03354806452989578,
          0.016822002828121185,
          -0.1519271731376648,
          0.1240825280547142,
          -0.0392594039440155,
          -0.13805902004241943,
          0.11345062404870987,
          -0.06790687888860703,
          -0.036212414503097534,
          0.11167210340499878,
          -0.11349082738161087,
          -0.12005055695772171,
          0.017768336459994316,
          -0.045246537774801254,
          -0.003203929401934147,
          -0.14727795124053955,
          -0.00784599781036377,
          -0.07015500962734222,
          6.802080321222093e-08,
          -0.13931511342525482,
          0.0458962507545948,
          0.011965148150920868,
          -0.08376943320035934,
          0.08827776461839676
        ],
        [
          0.06633425503969193,
          0.048155009746551514,
          -0.06380670517683029,
          0.02776133269071579,
          0.14930640161037445,
          0.1196204423904419,
          -0.0911344587802887,
          0.1293341964483261,
          0.04002143070101738,
          0.06304579228162766,
          0.12725041806697845,
          0.1432826817035675,
          -0.08757832646369934,
          0.10000491142272949,
          -0.07727476209402084,
          -0.0047612497583031654,
          -0.11285825073719025,
          -0.061791080981492996,
          -0.024903038516640663,
          -0.03250980004668236,
          -0.055795811116695404,
          -0.003845604369416833,
          0.12109817564487457,
          0.05466362461447716,
          0.05318007245659828,
          0.031041622161865234,
          0.08455203473567963,
          -0.014248534105718136,
          -0.008191519416868687,
          0.011323502287268639,
          -0.12937873601913452,
          -0.1367713063955307,
          -0.0034709458705037832,
          -0.07799510657787323,
          -0.020409202203154564,
          -0.035112787038087845,
          0.01263677142560482,
          0.08421897143125534,
          -0.0474734790623188,
          0.10810866206884384,
          0.09943175315856934,
          -0.10882273316383362,
          -0.0005042899283580482,
          -0.10499882698059082,
          -0.08562951534986496,
          -0.05758167430758476,
          -0.02028479613363743,
          -0.020756658166646957
        ],
        [
          -0.05417151376605034,
          -0.029448017477989197,
          -0.04901840165257454,
          0.12796741724014282,
          -0.056657467037439346,
          -0.08659769594669342,
          0.06228294596076012,
          -0.018081756308674812,
          0.15209120512008667,
          0.09167300909757614,
          0.14125436544418335,
          -0.09911748766899109,
          0.10049708932638168,
          0.10803991556167603,
          -0.07573424279689789,
          0.13607466220855713,
          0.10383204370737076,
          -0.002155805006623268,
          0.07294219732284546,
          -0.03766251355409622,
          -0.13570603728294373,
          0.02310742251574993,
          0.04331208020448685,
          -0.10428712517023087,
          0.06542874872684479,
          -0.12154444307088852,
          0.11376866698265076,
          0.13693904876708984,
          0.0351857990026474,
          -0.07820367068052292,
          0.043705135583877563,
          0.019789285957813263,
          0.04500071704387665,
          0.04773954302072525,
          0.12470541149377823,
          -0.05450401455163956,
          -0.025439156219363213,
          0.02428201399743557,
          0.02336149662733078,
          0.10875599831342697,
          -0.06468449532985687,
          -0.034533917903900146,
          6.277964259560065e-15,
          -0.04575217887759209,
          0.07722760736942291,
          0.03155655041337013,
          -0.14669501781463623,
          -0.005413432605564594
        ],
        [
          -0.08131435513496399,
          -0.012507816776633263,
          -0.05086145177483559,
          -0.1581418663263321,
          -0.04193691909313202,
          -0.04005905240774155,
          -0.07637382298707962,
          0.11981530487537384,
          -0.040981192141771317,
          0.07995335757732391,
          0.03919737786054611,
          -0.1561356484889984,
          0.037374742329120636,
          0.13620705902576447,
          -0.10790596902370453,
          -0.0980401337146759,
          0.1578970104455948,
          0.15078066289424896,
          -0.05180025100708008,
          0.10670750588178635,
          0.010479681193828583,
          -0.10585305839776993,
          0.03102688118815422,
          0.08529358357191086,
          -0.007953180000185966,
          0.07626181840896606,
          -0.11241062730550766,
          0.12070246785879135,
          0.12028629332780838,
          0.09062681347131729,
          0.041795019060373306,
          0.06587932258844376,
          -0.07687260210514069,
          -0.01436807494610548,
          0.011590765789151192,
          -0.0421258769929409,
          -0.09992892295122147,
          0.11164631694555283,
          0.09874555468559265,
          -0.10072875767946243,
          0.07893962413072586,
          0.06719860434532166,
          0.0030088061466813087,
          0.10528115928173065,
          0.12494129687547684,
          -0.020750828087329865,
          0.0642659142613411,
          0.025937519967556
        ],
        [
          -0.1193876564502716,
          -0.10915005952119827,
          0.01775481551885605,
          0.08027108758687973,
          -0.08136200904846191,
          0.021488221362233162,
          -0.011345729231834412,
          0.030268143862485886,
          -0.08434553444385529,
          0.07974240183830261,
          0.08138788491487503,
          -0.1084640696644783,
          -0.014108859933912754,
          0.037689920514822006,
          0.03339041769504547,
          0.13220997154712677,
          0.03446558117866516,
          -0.022456079721450806,
          0.13465575873851776,
          -0.06382539123296738,
          -0.028138160705566406,
          0.011455744504928589,
          -0.11584380269050598,
          0.027653954923152924,
          -0.08669290691614151,
          0.02125825174152851,
          0.022447755560278893,
          -0.009589347057044506,
          -0.1265910565853119,
          -0.133514404296875,
          0.08394591510295868,
          0.13166645169258118,
          -0.15117476880550385,
          0.05777527391910553,
          -0.10845054686069489,
          0.022061076015233994,
          0.08611490577459335,
          0.1129511371254921,
          -0.10301681607961655,
          0.08978122472763062,
          0.07682288438081741,
          0.013096105307340622,
          0.0034505720250308514,
          -0.0762762650847435,
          -0.017593583092093468,
          -0.0696219652891159,
          0.04868325963616371,
          0.043054673820734024
        ],
        [
          0.000599882856477052,
          -0.0833684578537941,
          -0.06764199584722519,
          0.06750108301639557,
          -0.10732389241456985,
          -0.02520829439163208,
          -0.006806899793446064,
          -0.04283856600522995,
          0.05623118206858635,
          0.042355284094810486,
          0.1078486517071724,
          -0.016486937180161476,
          -0.08459233492612839,
          0.059279683977365494,
          0.042656317353248596,
          -0.04735667258501053,
          -0.11088836938142776,
          0.0060993521474301815,
          -0.14352676272392273,
          0.02612958662211895,
          0.04835698381066322,
          -0.12179521471261978,
          -0.10714519768953323,
          -0.11992926150560379,
          0.10361988842487335,
          0.10259030014276505,
          -0.009487869217991829,
          0.13001611828804016,
          -0.06504585593938828,
          -0.1629967987537384,
          0.03247104957699776,
          0.05879421532154083,
          0.11896735429763794,
          -0.004337456542998552,
          0.10732685774564743,
          0.08908308297395706,
          0.14104978740215302,
          -0.1726236194372177,
          0.08035864681005478,
          -0.15191525220870972,
          0.13703849911689758,
          -0.025542406365275383,
          -0.0017793085426092148,
          0.054017774760723114,
          -0.06322362273931503,
          -0.13195958733558655,
          -0.04636745527386665,
          -0.0264495350420475
        ],
        [
          0.12515272200107574,
          -0.04884432628750801,
          0.0694025382399559,
          0.00844216626137495,
          -0.0003126162919215858,
          0.022342028096318245,
          -0.1086680069565773,
          -0.12410322576761246,
          -0.020722316578030586,
          -0.12278792262077332,
          -0.10328040271997452,
          -0.008322007022798061,
          -0.10746940970420837,
          -0.0687989667057991,
          -0.02663026563823223,
          0.00972727406769991,
          -0.09190769493579865,
          0.0076791890896856785,
          0.011261113919317722,
          0.041930779814720154,
          0.031041033565998077,
          -0.07001999020576477,
          -0.047553930431604385,
          0.004259543493390083,
          -0.06201215088367462,
          0.033466972410678864,
          -0.006741656456142664,
          0.0571567602455616,
          0.042413096874952316,
          0.12412609159946442,
          -0.003937970846891403,
          -0.09343250095844269,
          0.06984849274158478,
          -0.08229589462280273,
          -0.0083390474319458,
          -0.028434304520487785,
          -0.010296490974724293,
          -0.06185359135270119,
          0.12643982470035553,
          0.06523861736059189,
          0.05158284306526184,
          0.11233197152614594,
          -0.0021212140563875437,
          0.014305204153060913,
          0.04491979628801346,
          0.10490097850561142,
          -0.10112815350294113,
          0.03438170999288559
        ],
        [
          -0.1349092721939087,
          -0.05492608994245529,
          -0.04242902994155884,
          -0.1367044746875763,
          -0.1511905938386917,
          -0.1431560069322586,
          0.05159303545951843,
          0.0660756379365921,
          -0.1782287210226059,
          -0.05220942944288254,
          -0.012240507639944553,
          -0.1437862664461136,
          0.08214998245239258,
          0.16311746835708618,
          -0.0008519188850186765,
          -0.11787901818752289,
          0.06117202341556549,
          0.09836588054895401,
          0.1388193815946579,
          -0.05358828231692314,
          -0.09139055758714676,
          0.08893121778964996,
          0.03710709512233734,
          -0.006964548956602812,
          -0.029717329889535904,
          -0.03187934681773186,
          0.1450255960226059,
          -0.009008524939417839,
          0.11686847358942032,
          0.1369914412498474,
          0.028642427176237106,
          0.046601396054029465,
          0.037788450717926025,
          0.11479073017835617,
          -0.10877595096826553,
          0.05481036752462387,
          -0.03947872295975685,
          0.09440287947654724,
          0.01674070581793785,
          -0.06403075903654099,
          -0.00436057522892952,
          0.09240128844976425,
          -0.00014501150872092694,
          -0.09259440749883652,
          0.008440292440354824,
          -0.03940163180232048,
          0.0524459145963192,
          0.03651426360011101
        ],
        [
          -0.01423063687980175,
          0.13958685100078583,
          -0.09571973979473114,
          -0.0987807884812355,
          -0.0858691856265068,
          -0.09439153969287872,
          -0.13605806231498718,
          -0.15435181558132172,
          -0.14467152953147888,
          0.001240612007677555,
          0.0755903422832489,
          0.1040111780166626,
          0.12770307064056396,
          0.012378029525279999,
          0.010434322990477085,
          -0.07641509920358658,
          0.0838145837187767,
          -0.08285824954509735,
          0.10425068438053131,
          0.056470151990652084,
          0.08061640709638596,
          0.10021445155143738,
          -0.03716377913951874,
          0.17773452401161194,
          0.11301068961620331,
          0.12977100908756256,
          0.05573749914765358,
          0.12312909960746765,
          0.12821799516677856,
          0.08639781922101974,
          0.13866713643074036,
          0.006698195822536945,
          0.11638752371072769,
          0.051474522799253464,
          0.10432658344507217,
          0.16076835989952087,
          0.0495833158493042,
          -0.02538209594786167,
          0.012628133408725262,
          0.07326856255531311,
          0.03255483880639076,
          -0.006767885759472847,
          0.000585583969950676,
          0.13264156877994537,
          -0.07712547481060028,
          0.019829167053103447,
          0.00224972958676517,
          -0.008301666006445885
        ],
        [
          0.018425147980451584,
          -0.05381609499454498,
          -0.07833122462034225,
          -0.044914208352565765,
          -0.04598863795399666,
          0.12671111524105072,
          0.0501260869204998,
          0.140951469540596,
          0.034353580325841904,
          0.02825506217777729,
          0.042950067669153214,
          0.019212521612644196,
          -0.12979213893413544,
          -0.10561676323413849,
          -0.0284440815448761,
          -0.007850287482142448,
          0.04285789653658867,
          0.07203520089387894,
          0.12941385805606842,
          0.03604477643966675,
          -0.03188765048980713,
          -0.10397923737764359,
          -0.10190701484680176,
          -0.06810138374567032,
          0.0497724786400795,
          0.08996522426605225,
          0.12507283687591553,
          -0.029311995953321457,
          -0.011410144157707691,
          -0.04980342462658882,
          0.0007468907861039042,
          0.030742522329092026,
          0.0023332254495471716,
          0.009321431629359722,
          0.00021825010480824858,
          0.06311192363500595,
          -0.05031471699476242,
          -0.09634483605623245,
          0.06078578904271126,
          -0.009813200682401657,
          -0.05710179731249809,
          0.07444218546152115,
          -5.217613450667069e-13,
          0.0010518461931496859,
          -0.07171794027090073,
          -0.003600224619731307,
          -0.09490587562322617,
          0.023419484496116638
        ],
        [
          0.020269382745027542,
          0.10491018742322922,
          0.000146102873259224,
          0.007987636141479015,
          0.043572764843702316,
          0.12707243859767914,
          -0.07702487707138062,
          0.08236955106258392,
          0.06641753017902374,
          -0.10071227699518204,
          0.05010814964771271,
          -0.08950018882751465,
          -0.029344532638788223,
          -0.09947368502616882,
          -0.09787407517433167,
          0.12791508436203003,
          -0.11970333009958267,
          0.055031124502420425,
          -0.11986690759658813,
          -0.015147036872804165,
          0.018614163622260094,
          0.0942702665925026,
          -0.03966163471341133,
          0.03063865564763546,
          0.010780070908367634,
          0.09253731369972229,
          -0.0017017447389662266,
          0.06549109518527985,
          -0.08416232466697693,
          -0.1389937847852707,
          0.12048420310020447,
          -0.11362392455339432,
          -0.02754840813577175,
          -0.011562542989850044,
          0.14183293282985687,
          -0.011911256238818169,
          -0.08009562641382217,
          -0.04632420092821121,
          0.05553888529539108,
          0.0635577142238617,
          0.1455124020576477,
          -0.047101184725761414,
          -2.690565992224947e-08,
          -0.128388449549675,
          0.026858480647206306,
          0.053008757531642914,
          0.07635664939880371,
          -0.09697987139225006
        ],
        [
          -0.035246655344963074,
          0.04394681751728058,
          -0.09457390755414963,
          -0.11993387341499329,
          -0.14107254147529602,
          0.017423415556550026,
          0.09615744650363922,
          0.03483043238520622,
          0.013601567596197128,
          0.04729333519935608,
          -0.09217725694179535,
          0.022929323837161064,
          -0.0327535942196846,
          -0.07325766235589981,
          0.11188144236803055,
          -0.12216977775096893,
          0.01858569122850895,
          -0.1366666704416275,
          -0.010680973529815674,
          -0.07620245963335037,
          0.04874489828944206,
          -0.09116294234991074,
          0.08542963117361069,
          -0.12652085721492767,
          0.08383096754550934,
          -0.1257367730140686,
          0.0680413469672203,
          -0.05138919875025749,
          0.002516819629818201,
          -0.04487532377243042,
          0.07523222267627716,
          0.022670114412903786,
          -0.14195308089256287,
          0.01404094323515892,
          -0.08278319984674454,
          0.09484738856554031,
          0.03027220070362091,
          -0.031551457941532135,
          -0.06577354669570923,
          0.04339766129851341,
          -0.07882034033536911,
          0.06373405456542969,
          1.1154749017805443e-06,
          0.07060497999191284,
          0.02538253925740719,
          -0.11669499427080154,
          0.1040601134300232,
          -0.03954223915934563
        ],
        [
          -0.05633968114852905,
          -0.027293207123875618,
          0.10161027312278748,
          0.11048626899719238,
          0.025836780667304993,
          0.056596092879772186,
          -0.136270672082901,
          0.015823975205421448,
          -0.12371902912855148,
          0.04064582660794258,
          -0.09599184989929199,
          -0.05712667852640152,
          0.08936827629804611,
          0.12842370569705963,
          -0.07431109994649887,
          -0.092978335916996,
          -0.00011824865214293823,
          0.06405384093523026,
          -0.034161049872636795,
          -0.040419355034828186,
          -0.11130565404891968,
          0.05360957607626915,
          0.12415918707847595,
          -0.06334751099348068,
          0.055431414395570755,
          0.053553592413663864,
          0.1028735339641571,
          -0.009612633846700191,
          0.010890360921621323,
          0.10238301753997803,
          0.06804053485393524,
          0.13097155094146729,
          -0.03775452449917793,
          0.07594001293182373,
          0.09166198968887329,
          -0.08668143302202225,
          0.024985421448946,
          -0.04803941771388054,
          0.08832590281963348,
          -0.06896399706602097,
          0.0038150192704051733,
          0.06419392675161362,
          -0.002304905094206333,
          -0.10938480496406555,
          -0.07535120099782944,
          0.08987967669963837,
          0.07361429184675217,
          -0.0707150474190712
        ],
        [
          0.04141589626669884,
          -0.05190921202301979,
          -0.03992096334695816,
          0.1362764686346054,
          0.08241404592990875,
          -0.015085691586136818,
          0.04782376438379288,
          0.04487839713692665,
          0.05194537714123726,
          -0.01798214390873909,
          -0.07961215078830719,
          0.12208526581525803,
          0.038113467395305634,
          0.03958970680832863,
          -0.03163547441363335,
          0.03808203712105751,
          0.07557234913110733,
          0.061014872044324875,
          0.008327411487698555,
          0.11574781686067581,
          -0.03218875825405121,
          0.0018228654516860843,
          0.10708281397819519,
          0.11286202073097229,
          -0.0843779519200325,
          0.09776099026203156,
          0.02525237947702408,
          -0.027368834242224693,
          0.09988729655742645,
          -0.10043025761842728,
          0.0701720267534256,
          0.11498508602380753,
          -0.11884656548500061,
          -0.10097198188304901,
          -0.1467646360397339,
          -0.041226305067539215,
          -0.15450440347194672,
          -0.07196760177612305,
          0.030292626470327377,
          0.07499716430902481,
          0.05232609435915947,
          0.06839506328105927,
          2.109374896974714e-09,
          -0.0958000123500824,
          -0.11291571706533432,
          -0.020259257405996323,
          0.1213698461651802,
          0.013906422071158886
        ],
        [
          -0.01356414519250393,
          -0.09081663191318512,
          -0.06973657011985779,
          -0.1263115108013153,
          0.09593106806278229,
          -0.017079459503293037,
          -0.1250375360250473,
          0.00031728099565953016,
          0.011220801621675491,
          -0.014436016790568829,
          0.011167190037667751,
          0.0789155662059784,
          -0.13586778938770294,
          -0.08331679552793503,
          -0.032133251428604126,
          -0.11990369111299515,
          -0.16659671068191528,
          0.12365978211164474,
          -0.02273602969944477,
          -0.09479086846113205,
          -0.051220573484897614,
          -0.13683727383613586,
          0.06758053600788116,
          -0.03578696772456169,
          -0.06481172144412994,
          -0.11125434190034866,
          0.07537971436977386,
          -0.04364903271198273,
          -0.005949495825916529,
          -0.04544024169445038,
          -0.08398618549108505,
          0.015727391466498375,
          0.11632967740297318,
          -0.0787757858633995,
          -0.006685588508844376,
          -0.12627355754375458,
          -0.08510440587997437,
          0.13839121162891388,
          0.022064784541726112,
          0.1253163367509842,
          -0.034259650856256485,
          -0.07817758619785309,
          -1.2184000297565944e-05,
          0.10289287567138672,
          -0.07038265466690063,
          0.06065469980239868,
          0.02970413863658905,
          0.03055763617157936
        ],
        [
          0.08639989048242569,
          -0.03415922075510025,
          0.10589971393346786,
          -0.1145382672548294,
          -0.04963754117488861,
          0.1079055592417717,
          0.05986020714044571,
          -0.006570242810994387,
          -0.029949067160487175,
          -0.09010695666074753,
          0.11146913468837738,
          0.013054996728897095,
          0.015991538763046265,
          0.058068640530109406,
          0.11473838984966278,
          -0.09382189810276031,
          -0.014116719365119934,
          0.10509102791547775,
          0.09355834126472473,
          -0.04903801530599594,
          -0.12478207051753998,
          0.049281056970357895,
          0.10436223447322845,
          0.019514072686433792,
          0.12287478148937225,
          -0.09084425866603851,
          0.08683498948812485,
          -0.06777997314929962,
          0.09754902124404907,
          0.11003618687391281,
          0.04537846893072128,
          0.13250517845153809,
          -0.08753305673599243,
          -0.1341133415699005,
          -0.1414564698934555,
          0.07752960920333862,
          0.03299977630376816,
          -0.10634233802556992,
          0.08550620079040527,
          0.13723498582839966,
          -0.1358078569173813,
          0.11937878280878067,
          -1.861957636684064e-11,
          0.03401877358555794,
          0.15007513761520386,
          0.13828201591968536,
          0.0765698105096817,
          0.11499907076358795
        ],
        [
          0.06722652912139893,
          0.019291605800390244,
          -0.11957661062479019,
          0.03736017644405365,
          -0.0919433981180191,
          0.040004901587963104,
          0.030266333371400833,
          0.012545166537165642,
          -0.09254447370767593,
          -0.05344004184007645,
          0.09626173973083496,
          0.07268710434436798,
          0.06437215209007263,
          -0.04731318727135658,
          -0.011282647028565407,
          -0.04661468788981438,
          0.07749605923891068,
          -0.09169041365385056,
          0.06997057050466537,
          0.08217110484838486,
          -0.1560097634792328,
          -0.016616182401776314,
          -0.0520140714943409,
          -0.11417114734649658,
          0.027614764869213104,
          -0.043913405388593674,
          0.10993225127458572,
          -0.0968148335814476,
          0.05518748611211777,
          -0.1123567521572113,
          -0.08549503982067108,
          0.0020337607711553574,
          0.0859328880906105,
          0.05719127506017685,
          -0.14079636335372925,
          0.007887528277933598,
          -0.09460324794054031,
          -0.006520462222397327,
          -0.13722103834152222,
          -0.05121760070323944,
          0.08139573037624359,
          -0.12234783172607422,
          -0.0030873497016727924,
          0.02047407068312168,
          0.020762678235769272,
          -0.05146803334355354,
          0.09098520874977112,
          -0.007034324575215578
        ],
        [
          -0.08262211829423904,
          -0.10453281551599503,
          -0.020625898614525795,
          -0.0342315211892128,
          0.10373838990926743,
          -0.005577618721872568,
          0.05156349763274193,
          -0.036969881504774094,
          0.12704254686832428,
          0.13285475969314575,
          -0.11610610783100128,
          -0.03142642602324486,
          -0.12607941031455994,
          0.04815678298473358,
          -0.1123858168721199,
          -0.056186188012361526,
          0.12169727683067322,
          -0.14396169781684875,
          0.085835300385952,
          0.004105182830244303,
          0.08827319741249084,
          -0.08724599331617355,
          0.07153032720088959,
          0.007091669365763664,
          -0.00908590666949749,
          0.07575313001871109,
          -0.14018851518630981,
          -0.129670649766922,
          0.11719409376382828,
          -0.07649529725313187,
          -0.11150254309177399,
          -0.004296541213989258,
          -0.054085273295640945,
          -0.029383866116404533,
          -0.10772020369768143,
          0.039122480899095535,
          -0.11206621676683426,
          -0.007998969405889511,
          0.05943284183740616,
          0.0008053466444835067,
          0.032049328088760376,
          -0.005319464951753616,
          -8.425181385884883e-11,
          -0.04807726666331291,
          -0.05207088217139244,
          -0.08623242378234863,
          -0.05351473018527031,
          0.09760697931051254
        ],
        [
          -0.05088116601109505,
          0.03553329035639763,
          0.08681193739175797,
          0.0037146685644984245,
          -0.061650607734918594,
          -0.11172688752412796,
          -0.06449291110038757,
          0.06724629551172256,
          -0.14699414372444153,
          0.006798374932259321,
          0.04430510476231575,
          0.10346885770559311,
          0.028627654537558556,
          0.03250342234969139,
          0.09953119605779648,
          0.06764204800128937,
          0.03782225027680397,
          -0.03339654579758644,
          -0.13741588592529297,
          -0.05074121057987213,
          -0.035798318684101105,
          0.015134657733142376,
          -0.02778242714703083,
          0.07180603593587875,
          0.07613988220691681,
          -0.07220307737588882,
          -0.11717385053634644,
          -0.09741202741861343,
          -0.07005002349615097,
          0.07422942668199539,
          -0.12025877088308334,
          -0.014058257453143597,
          -0.043506328016519547,
          -0.10189979523420334,
          0.051788974553346634,
          -0.06389588862657547,
          -0.007431191857904196,
          -0.09902433305978775,
          -0.014286884106695652,
          0.010477419942617416,
          -0.006078682374209166,
          -0.05577187240123749,
          2.8479597152797353e-11,
          -0.0624963715672493,
          -0.06703613698482513,
          -0.0921393632888794,
          -0.023670943453907967,
          -0.12229186296463013
        ],
        [
          0.12033101916313171,
          -0.05254172906279564,
          -0.05397041514515877,
          0.02558547630906105,
          0.0446440652012825,
          0.0016297915717586875,
          0.10271281003952026,
          -0.06205267831683159,
          0.062176238745450974,
          0.0008623862522654235,
          -0.10271775722503662,
          -0.048744723200798035,
          0.03737432882189751,
          0.025729402899742126,
          0.12102397531270981,
          0.08177703619003296,
          -0.1079297661781311,
          -0.08139882236719131,
          -0.05398160591721535,
          -0.13233685493469238,
          -0.06894735246896744,
          -0.12326940894126892,
          0.022124173119664192,
          0.08161883056163788,
          -0.008975101634860039,
          -0.13754814863204956,
          -0.10157471150159836,
          -0.07746826857328415,
          0.03394540026783943,
          -0.012192881666123867,
          0.011888924986124039,
          0.11601456254720688,
          0.059328384697437286,
          0.01789584942162037,
          -0.049975935369729996,
          0.058234311640262604,
          0.032573629170656204,
          -0.13997286558151245,
          -0.10823386162519455,
          -0.011439156718552113,
          0.04292140528559685,
          0.06150902062654495,
          -1.1272563824604731e-05,
          -0.151066854596138,
          0.0016454842407256365,
          -0.02112414687871933,
          0.031218571588397026,
          -0.013368522748351097
        ],
        [
          0.09461751580238342,
          -0.007635325193405151,
          0.10801025480031967,
          -0.08691786974668503,
          0.0723429024219513,
          -0.00012714636977761984,
          -0.068391352891922,
          0.08081205934286118,
          -0.15668633580207825,
          0.12160079181194305,
          0.015447950921952724,
          0.014538061805069447,
          0.06297960132360458,
          0.007202322129160166,
          0.07711677998304367,
          0.07912418246269226,
          -0.10978280007839203,
          0.08633781224489212,
          -0.020734967663884163,
          -0.05907602980732918,
          0.01812312938272953,
          0.12655377388000488,
          -0.07979483902454376,
          -0.10251858830451965,
          0.09271164983510971,
          -0.08381021022796631,
          0.0523415133357048,
          -0.0070780199021101,
          0.010226649232208729,
          0.1176031082868576,
          -0.08884250372648239,
          -0.08748070150613785,
          0.0599510632455349,
          0.0023375796154141426,
          -0.031790055334568024,
          -0.13508287072181702,
          0.11400428414344788,
          0.005897454917430878,
          -0.04671080783009529,
          -0.055917613208293915,
          -0.019803961738944054,
          0.06342337280511856,
          -1.7926114152105876e-12,
          0.13301140069961548,
          0.005817803088575602,
          -0.01819964312016964,
          0.08535414189100266,
          0.016080323606729507
        ],
        [
          -0.02872319519519806,
          0.04652968421578407,
          0.10829640924930573,
          0.024457262828946114,
          0.0809963196516037,
          0.09131396561861038,
          0.03640732914209366,
          0.05994473025202751,
          0.050266332924366,
          0.02276584692299366,
          0.11495194584131241,
          0.12724806368350983,
          0.07016785442829132,
          0.00706915557384491,
          0.10369478911161423,
          -0.12565350532531738,
          0.09314948320388794,
          0.04258427396416664,
          0.06666003912687302,
          -0.029707046225667,
          -0.12066317349672318,
          0.08652794361114502,
          -0.0762060135602951,
          0.010175789706408978,
          0.04353165253996849,
          -0.16282965242862701,
          -0.0047666761092841625,
          -0.05983121693134308,
          0.11584505438804626,
          -0.09468148648738861,
          0.055695898830890656,
          0.07286573946475983,
          0.06787922233343124,
          0.1368902623653412,
          0.0209670253098011,
          -0.13811282813549042,
          0.08946751058101654,
          0.01107734814286232,
          -0.04839160293340683,
          -0.15378433465957642,
          -0.05566864088177681,
          -0.07162942737340927,
          0.003719031810760498,
          0.08636011928319931,
          0.10898428410291672,
          0.0704619362950325,
          -0.07394350320100784,
          -0.02443736232817173
        ],
        [
          -0.05361412838101387,
          -0.05250116065144539,
          0.10049588978290558,
          0.059947896748781204,
          0.13333207368850708,
          -0.0016852888511493802,
          -0.13883386552333832,
          -0.03396061062812805,
          0.11107105016708374,
          0.07774069905281067,
          0.039032045751810074,
          -0.05095670744776726,
          -0.14981453120708466,
          -0.09350317716598511,
          0.08404632657766342,
          -0.027106527239084244,
          0.07842333614826202,
          0.055178046226501465,
          -0.04109534993767738,
          0.09105440229177475,
          -0.02671686001121998,
          0.003170858370140195,
          -0.04475549980998039,
          -0.11679959297180176,
          0.03410034626722336,
          0.060454025864601135,
          -0.06509854644536972,
          0.08547258377075195,
          -0.1096833124756813,
          -0.15814200043678284,
          -0.08498293906450272,
          -0.04527413100004196,
          0.007278221193701029,
          -0.013647651299834251,
          0.07484856247901917,
          -0.12179485708475113,
          0.054608993232250214,
          0.01123938150703907,
          0.04339650645852089,
          0.15343976020812988,
          0.10600103437900543,
          -0.09866693615913391,
          -0.0009048163192346692,
          -0.042135149240493774,
          -0.08331708610057831,
          0.06569735705852509,
          -0.006678706966340542,
          0.10240752249956131
        ],
        [
          0.07191192358732224,
          -0.01651391014456749,
          -0.004884821828454733,
          0.02220001071691513,
          -0.04272909089922905,
          0.12515264749526978,
          -0.1211012452840805,
          0.054694388061761856,
          -0.07932921499013901,
          -0.1209319606423378,
          -0.021110769361257553,
          0.06354636698961258,
          0.14191092550754547,
          0.047938186675310135,
          -0.0285732913762331,
          -0.011651421897113323,
          -0.04000243917107582,
          -0.05013790726661682,
          0.018176311627030373,
          0.1626625657081604,
          0.08668606728315353,
          -0.11961391568183899,
          0.034601666033267975,
          -0.12659797072410583,
          -0.010391264222562313,
          -0.08764276653528214,
          0.025564387440681458,
          -0.07920296490192413,
          0.16661374270915985,
          0.1247410774230957,
          -0.12232527881860733,
          -0.12430083751678467,
          0.0064804269932210445,
          -0.008877910673618317,
          0.046107396483421326,
          -0.11514048278331757,
          0.05982671678066254,
          -0.12206307798624039,
          -0.07800766080617905,
          -0.08577653020620346,
          0.08221835643053055,
          0.004355395212769508,
          -0.0032647415064275265,
          -0.07565134763717651,
          -0.07502073794603348,
          -0.1415133774280548,
          0.002652484457939863,
          0.039610885083675385
        ],
        [
          -0.05210934579372406,
          -0.06992903351783752,
          0.01271623745560646,
          -0.11038412898778915,
          -0.08236300945281982,
          -0.016975395381450653,
          0.13897442817687988,
          -0.04046432301402092,
          0.03781278058886528,
          -0.03282206878066063,
          -0.03333236277103424,
          -0.12219440937042236,
          0.11953502148389816,
          0.13899724185466766,
          -0.004330744501203299,
          0.07832055538892746,
          0.1127713993191719,
          0.02791857160627842,
          0.05988442152738571,
          -0.1473729908466339,
          -0.1454908549785614,
          -0.11242063343524933,
          0.038813937455415726,
          -0.15764285624027252,
          -0.14649967849254608,
          -0.08027666062116623,
          -0.1352393478155136,
          -0.008384020999073982,
          0.02754173055291176,
          -0.09984244406223297,
          0.10154189169406891,
          -0.08130816370248795,
          -0.04359343275427818,
          0.09785419702529907,
          0.11459685862064362,
          -0.021776927635073662,
          -0.11036977171897888,
          -0.08273996412754059,
          0.029084039852023125,
          0.0780172124505043,
          0.0476042814552784,
          -0.06860139220952988,
          -0.0029061371460556984,
          -0.14295631647109985,
          -0.021212441846728325,
          -0.028141112998127937,
          -0.03802284970879555,
          -0.019330335780978203
        ],
        [
          0.025753503665328026,
          -0.08969759941101074,
          -0.055377762764692307,
          -0.09863054007291794,
          -0.026564866304397583,
          0.15064281225204468,
          0.11027872562408447,
          0.009179712273180485,
          0.040674805641174316,
          0.07981676608324051,
          0.020312843844294548,
          -0.06428376585245132,
          -0.07079873234033585,
          -0.062484271824359894,
          -0.0024038979317992926,
          -0.1124938353896141,
          -0.044137995690107346,
          -0.08808130025863647,
          0.1076257973909378,
          0.09297306835651398,
          0.04314295947551727,
          -0.007959718815982342,
          -0.072120800614357,
          -0.0018011677311733365,
          -0.12722206115722656,
          -0.10158760100603104,
          -0.03280140459537506,
          -0.062333397567272186,
          -0.14185652136802673,
          0.06395868957042694,
          0.1015579029917717,
          -0.07907765358686447,
          0.03698314353823662,
          -0.029198884963989258,
          -0.009590738452970982,
          -0.01897781901061535,
          0.08603016287088394,
          0.0035998723469674587,
          -0.10063659399747849,
          -0.0697624534368515,
          0.043556056916713715,
          0.03857225179672241,
          1.5664110633584194e-12,
          -0.03570474311709404,
          -0.03834017366170883,
          -0.07734061032533646,
          -0.055351581424474716,
          0.035179175436496735
        ],
        [
          0.0317809022963047,
          0.10298291593790054,
          -0.039193812757730484,
          0.012681733816862106,
          0.08838259428739548,
          0.05552379786968231,
          0.01161178294569254,
          0.03153960406780243,
          -0.008381009101867676,
          -0.10506909340620041,
          0.007346509490162134,
          -0.039047323167324066,
          0.1288868635892868,
          0.13267411291599274,
          0.025405457243323326,
          0.13383938372135162,
          -0.07597590982913971,
          0.11423302441835403,
          0.12547703087329865,
          -0.007279592100530863,
          -0.11675911396741867,
          -0.03807641565799713,
          -0.03849747031927109,
          -0.005479128565639257,
          -0.13536441326141357,
          0.024402718991041183,
          -0.051006000488996506,
          -0.04383193328976631,
          -0.0724666491150856,
          -0.031036080792546272,
          -0.12657012045383453,
          -0.07440095394849777,
          0.008754609152674675,
          0.08331063389778137,
          0.11590936779975891,
          -0.10677795112133026,
          0.06109479069709778,
          -0.06970922648906708,
          -0.11900878697633743,
          0.0008537613903172314,
          -0.09342457354068756,
          -0.11878670752048492,
          -0.0026732345577329397,
          -0.09638405591249466,
          0.12250401824712753,
          0.06375596672296524,
          -0.03262047842144966,
          -0.07467782497406006
        ],
        [
          -0.10562475770711899,
          -0.08117114752531052,
          -0.060997579246759415,
          0.10677681118249893,
          0.061510439962148666,
          -0.051818203181028366,
          0.0961230918765068,
          -0.08418107777833939,
          -0.1318517029285431,
          0.022021347656846046,
          -0.08400179445743561,
          0.03927134349942207,
          0.1002831906080246,
          -0.03961823508143425,
          -0.08784334361553192,
          0.05233608931303024,
          -0.15145564079284668,
          0.1389145851135254,
          -0.08679546415805817,
          0.051786672323942184,
          -0.11697997897863388,
          -0.1004275381565094,
          -0.009681199677288532,
          0.06748166680335999,
          0.1046203002333641,
          0.107468381524086,
          -0.013425767421722412,
          -0.03509568050503731,
          0.014791176654398441,
          -0.03619543835520744,
          0.017193792387843132,
          -0.14154742658138275,
          -0.1112319827079773,
          0.08895741403102875,
          -0.09893835335969925,
          0.10023272037506104,
          -0.04149748012423515,
          0.031118430197238922,
          0.13941887021064758,
          -0.08078010380268097,
          -0.038150493055582047,
          0.023521412163972855,
          3.6314565243777963e-10,
          -0.12317338585853577,
          0.050125349313020706,
          -0.06105513125658035,
          0.016166627407073975,
          0.06218717247247696
        ],
        [
          -0.0016573573229834437,
          -0.00699471915140748,
          -0.00523795373737812,
          0.12463410943746567,
          0.0840754583477974,
          0.021620962768793106,
          -0.08061429858207703,
          -0.06249729543924332,
          0.115042544901371,
          0.0997810959815979,
          0.0739980936050415,
          -0.10681594908237457,
          0.0967830941081047,
          -0.017768049612641335,
          0.10152042657136917,
          0.11305994540452957,
          -0.008637264370918274,
          -0.07142264395952225,
          0.12254849076271057,
          -0.10146357864141464,
          0.07468923926353455,
          -0.1423122137784958,
          -0.07533147931098938,
          -0.13518816232681274,
          -0.06529586017131805,
          0.031080888584256172,
          -0.09779345989227295,
          -0.1649152785539627,
          0.09895186126232147,
          0.05527028441429138,
          -0.0015257623745128512,
          -0.10041474550962448,
          -0.05202548950910568,
          -0.057801179587841034,
          0.06678944826126099,
          -0.0547918900847435,
          -0.058015283197164536,
          -0.11648695170879364,
          -0.06650198996067047,
          0.06591104716062546,
          0.08387234807014465,
          0.017736908048391342,
          7.258846301816391e-10,
          0.13338609039783478,
          0.020125985145568848,
          -0.05875050276517868,
          -0.0365523137152195,
          -0.00747542642056942
        ],
        [
          0.06941112875938416,
          0.04988313093781471,
          0.11551401019096375,
          0.010171478614211082,
          0.1348598152399063,
          -0.06073920801281929,
          -0.054257094860076904,
          -0.032075896859169006,
          -0.09760423004627228,
          -0.07020528614521027,
          -0.10795001685619354,
          0.0021048602648079395,
          0.016856074333190918,
          -0.04878196492791176,
          -0.07408834248781204,
          0.12223989516496658,
          -0.07176990807056427,
          0.042148344218730927,
          0.07995055615901947,
          -0.11188330501317978,
          -0.04264168068766594,
          0.06237208470702171,
          0.11917410045862198,
          -0.04337858408689499,
          0.07907596230506897,
          -0.1370656043291092,
          -0.11164236813783646,
          0.1022786945104599,
          -0.03090883418917656,
          0.1190771609544754,
          -0.0051187933422625065,
          -0.06594657897949219,
          0.11318604648113251,
          0.11180801689624786,
          -0.0022677499800920486,
          -0.10881297290325165,
          -0.0039671361446380615,
          -0.07998070865869522,
          0.0737922340631485,
          -0.009561036713421345,
          0.01381626632064581,
          0.060050684958696365,
          3.078536731093706e-11,
          -0.12183186411857605,
          0.10931176692247391,
          0.06057820841670036,
          -0.10115387290716171,
          0.05370064079761505
        ],
        [
          0.058021001517772675,
          -0.03281401842832565,
          -0.138279989361763,
          -0.0433533750474453,
          -0.14209598302841187,
          0.07714415341615677,
          0.067528635263443,
          -0.050738636404275894,
          0.15559817850589752,
          -0.08101668953895569,
          0.025750458240509033,
          -0.132468581199646,
          -0.006651782430708408,
          0.031221091747283936,
          0.07223310321569443,
          0.004518513102084398,
          -0.0494522824883461,
          0.11800429224967957,
          0.12089698016643524,
          0.04424281045794487,
          -0.03644421696662903,
          0.04235851764678955,
          0.02231214940547943,
          0.15441103279590607,
          0.03956313803792,
          0.043295588344335556,
          0.012415390461683273,
          0.09829062223434448,
          0.0005686969961971045,
          0.128538116812706,
          0.07610522210597992,
          -0.09592415392398834,
          -0.0038946475833654404,
          -0.10167714208364487,
          -0.09155789762735367,
          0.05006216838955879,
          0.08544988930225372,
          -0.01002767775207758,
          0.13095694780349731,
          -0.06769251078367233,
          -0.02106071077287197,
          -0.03243756294250488,
          -4.943507083722543e-13,
          0.006552749313414097,
          0.10923761129379272,
          -0.04016590863466263,
          -0.08162519335746765,
          -0.004888116382062435
        ],
        [
          0.1351235955953598,
          0.039338186383247375,
          0.05622934550046921,
          0.01840168610215187,
          0.12195084989070892,
          0.09150655567646027,
          0.0815974548459053,
          -0.024170013144612312,
          -0.08270127326250076,
          -0.09923398494720459,
          0.022352905943989754,
          0.08311805874109268,
          -0.07148142158985138,
          0.12515196204185486,
          0.021599264815449715,
          0.040574055165052414,
          0.046586234122514725,
          0.013293227180838585,
          0.17973721027374268,
          0.05102290213108063,
          0.12902221083641052,
          -0.09359455108642578,
          -0.028963962569832802,
          0.055250417441129684,
          0.14852985739707947,
          0.11336877197027206,
          0.052492257207632065,
          -0.10620743781328201,
          0.024538645520806313,
          -0.06661409139633179,
          -0.09638651460409164,
          0.03679990768432617,
          -0.0516597218811512,
          0.16661128401756287,
          -0.04637962952256203,
          0.0815151035785675,
          0.14584189653396606,
          -0.08595964312553406,
          0.09274895489215851,
          0.004259410314261913,
          0.10914112627506256,
          0.1393519937992096,
          -5.385005330538206e-09,
          -0.0489419586956501,
          0.10072771459817886,
          0.0558604933321476,
          -0.014861400239169598,
          0.09929998219013214
        ],
        [
          -0.08195825666189194,
          0.004525868222117424,
          0.11364856362342834,
          0.07653572410345078,
          -0.08050626516342163,
          0.04835255816578865,
          -0.09067969769239426,
          -0.06439236551523209,
          0.07428430020809174,
          -0.028761975467205048,
          -0.05443912371993065,
          0.026255615055561066,
          0.0395570769906044,
          -0.07269630581140518,
          -0.08114884048700333,
          -0.12936700880527496,
          0.023620959371328354,
          -0.12374301999807358,
          -0.02042054384946823,
          -0.04418164864182472,
          -0.13054849207401276,
          -0.04117228835821152,
          -0.12778088450431824,
          -0.11072126775979996,
          -0.03871934860944748,
          -0.1626145839691162,
          -0.14527861773967743,
          0.09366624802350998,
          -0.0063139768317341805,
          -0.07084167748689651,
          -0.02344435825943947,
          0.08466087281703949,
          -0.12737147510051727,
          -0.07860488444566727,
          -0.12277434766292572,
          -0.019589295610785484,
          -0.016213199123740196,
          -0.1257198303937912,
          0.05416850000619888,
          -0.136640727519989,
          0.10902021825313568,
          -0.09484967589378357,
          -1.2567204221713979e-11,
          0.017862673848867416,
          -0.04168801009654999,
          0.10153616219758987,
          -0.06730745732784271,
          -0.00318202655762434
        ],
        [
          -0.1057535856962204,
          0.048016488552093506,
          0.1277795135974884,
          0.1286681443452835,
          0.0031584056559950113,
          -0.06381639093160629,
          0.14486247301101685,
          0.00024134415434673429,
          0.09666890650987625,
          -0.09094493091106415,
          -0.07027001678943634,
          -0.11284269392490387,
          0.14898741245269775,
          0.02830912172794342,
          -0.11165302991867065,
          0.037925660610198975,
          -0.04143700748682022,
          0.027921531349420547,
          0.07929722219705582,
          -0.04811960458755493,
          0.05045655369758606,
          -0.07245628535747528,
          0.05061493441462517,
          -0.11245311796665192,
          0.054377563297748566,
          0.1704205721616745,
          0.15090438723564148,
          0.06771378964185715,
          0.13062720000743866,
          0.14702294766902924,
          0.052051614969968796,
          0.07347273826599121,
          0.03037569858133793,
          0.1405913084745407,
          0.1352471262216568,
          -0.044308118522167206,
          0.010851477272808552,
          -0.043346110731363297,
          0.06650805473327637,
          -0.11167047917842865,
          0.07316064834594727,
          -0.03208991885185242,
          1.8412646407561795e-10,
          0.06371186673641205,
          -0.05751386657357216,
          0.09670698642730713,
          0.05798523500561714,
          -0.10669784247875214
        ],
        [
          0.12585586309432983,
          0.10912513732910156,
          0.0975320115685463,
          -0.0007090546423569322,
          0.06729352474212646,
          -0.0918564423918724,
          -0.04029993340373039,
          0.083661749958992,
          0.05140463262796402,
          0.07433658838272095,
          -0.118801549077034,
          0.124363973736763,
          -0.07459121942520142,
          0.0955752357840538,
          0.12639938294887543,
          0.04552040621638298,
          0.1196696013212204,
          0.06044614315032959,
          0.06349474936723709,
          -0.06770152598619461,
          0.10973794758319855,
          0.00888119451701641,
          0.06290437281131744,
          -0.05270720273256302,
          0.08023100346326828,
          0.10490155965089798,
          -0.13343067467212677,
          0.09945229440927505,
          -0.11618872731924057,
          -0.11401508748531342,
          -0.13977229595184326,
          0.022978704422712326,
          -0.12669692933559418,
          -0.0677809864282608,
          -0.08554444462060928,
          0.019938237965106964,
          -0.14057090878486633,
          -0.09295632690191269,
          -0.022785048931837082,
          -0.011922438628971577,
          -0.07579705864191055,
          0.034933462738990784,
          -7.011885463725775e-05,
          -0.15272971987724304,
          -0.03550179302692413,
          -0.0956081673502922,
          0.07763156294822693,
          -0.10704945772886276
        ],
        [
          -0.03132490813732147,
          0.04506495222449303,
          -0.11542646586894989,
          0.1212187260389328,
          -0.06165148317813873,
          -0.05302651971578598,
          -0.0778336301445961,
          -0.04268977791070938,
          -0.07352402806282043,
          -0.09512098878622055,
          0.06675973534584045,
          0.006155102048069239,
          0.1514643281698227,
          0.08469980210065842,
          0.1286475658416748,
          0.027703478932380676,
          0.06927631795406342,
          0.12105029821395874,
          0.09878748655319214,
          -0.10832393169403076,
          -0.05088261514902115,
          -0.1396949589252472,
          -0.006292497739195824,
          -0.0647360160946846,
          0.1097140982747078,
          0.004237488843500614,
          0.00359749561175704,
          -0.10257631540298462,
          -0.12786078453063965,
          0.014201781712472439,
          -0.08252514153718948,
          -0.09023422747850418,
          0.09357770532369614,
          -0.0860171690583229,
          -0.06812591850757599,
          0.09843625128269196,
          0.04613759368658066,
          -0.08373463153839111,
          0.04257991537451744,
          0.05260186269879341,
          -0.12681691348552704,
          0.0426221564412117,
          3.2027960145120105e-11,
          -0.0057429163716733456,
          0.13283374905586243,
          -0.10147405415773392,
          0.07313401252031326,
          -0.05002151057124138
        ],
        [
          -0.14130273461341858,
          0.0874483585357666,
          -0.0659063309431076,
          0.03519617021083832,
          0.08951523900032043,
          -0.12975497543811798,
          -0.11972036212682724,
          0.06069837883114815,
          0.09673143923282623,
          -0.023296508938074112,
          0.09384389221668243,
          0.05050494521856308,
          0.022344056516885757,
          -0.07101380825042725,
          0.15252245962619781,
          0.0654338076710701,
          0.04331938922405243,
          0.12698936462402344,
          -0.1315246969461441,
          0.01669883169233799,
          -0.0383845679461956,
          0.016375308856368065,
          0.06374058872461319,
          0.08016443252563477,
          0.05113214626908302,
          -0.09451357275247574,
          -0.0588403083384037,
          0.013266533613204956,
          -0.008748548105359077,
          -0.1204376071691513,
          0.14652949571609497,
          0.019600972533226013,
          -0.1117926612496376,
          0.06837864965200424,
          0.06224023550748825,
          -0.06541137397289276,
          0.05590707063674927,
          -0.072703056037426,
          0.05110331252217293,
          0.15194112062454224,
          0.08724857866764069,
          0.08676951378583908,
          -5.257387841045569e-12,
          0.037962134927511215,
          0.0665588229894638,
          0.04582253098487854,
          -0.0010525162797421217,
          0.026495223864912987
        ],
        [
          -0.0311015285551548,
          -0.06466811150312424,
          -0.11890875548124313,
          -0.11882122606039047,
          -0.09633141756057739,
          0.1531328409910202,
          0.04142642021179199,
          -0.1392085701227188,
          -0.06228812783956528,
          0.03739605098962784,
          -0.04603485018014908,
          -0.025826096534729004,
          -0.030692046508193016,
          -0.019691210240125656,
          0.009694593027234077,
          0.010457942262291908,
          0.10115823894739151,
          0.07021629065275192,
          0.12158889323472977,
          -0.003244323655962944,
          -0.06300276517868042,
          -0.007670477963984013,
          -0.08879406750202179,
          0.039844851940870285,
          -0.016352998092770576,
          -0.04376406595110893,
          -0.12569667398929596,
          0.05696560814976692,
          0.08049645274877548,
          0.13635537028312683,
          -0.04020140320062637,
          0.048149414360523224,
          0.010255670174956322,
          -0.09218081831932068,
          -0.07415532320737839,
          0.08446215093135834,
          -0.09779578447341919,
          0.10698749125003815,
          0.024225229397416115,
          0.05848401039838791,
          0.0854308158159256,
          0.07290074229240417,
          6.523560358573377e-09,
          0.06069371849298477,
          -0.03896687179803848,
          -0.08657306432723999,
          -0.014327935874462128,
          0.06468048691749573
        ],
        [
          0.07432996481657028,
          0.08326464146375656,
          -0.046160902827978134,
          -0.004867765121161938,
          -0.08931781351566315,
          0.06602490693330765,
          -0.0961320772767067,
          -0.059416141360998154,
          0.06624238938093185,
          0.03506002575159073,
          -0.06844411045312881,
          -0.10169406980276108,
          -0.119945228099823,
          0.11268708109855652,
          -0.12526996433734894,
          0.11046196520328522,
          0.1081872284412384,
          0.03218303620815277,
          -0.03812834247946739,
          0.08875811845064163,
          0.07295028120279312,
          0.1279047131538391,
          0.09983880817890167,
          -0.07251080125570297,
          0.07851118594408035,
          0.06555747240781784,
          -0.10648798197507858,
          0.07178223133087158,
          -0.07026836276054382,
          -0.10966378450393677,
          0.011981697753071785,
          -0.031867802143096924,
          -0.04498303681612015,
          -0.11163324862718582,
          0.07075877487659454,
          0.11215567588806152,
          -0.0440797321498394,
          -0.09577427804470062,
          0.003094589803367853,
          -0.1141747534275055,
          -0.12644165754318237,
          -0.021680474281311035,
          3.173146251356229e-05,
          -0.106166310608387,
          0.004933321848511696,
          -0.0699518695473671,
          -0.11735832691192627,
          -0.025790667161345482
        ],
        [
          -0.013326515443623066,
          -0.0275424774736166,
          0.115943044424057,
          0.09134731441736221,
          0.12184955924749374,
          0.052619073539972305,
          0.026228073984384537,
          0.10348577052354813,
          -0.09260087460279465,
          0.07105830311775208,
          0.0736975371837616,
          -0.050953179597854614,
          -0.017365770414471626,
          -0.1300455778837204,
          -0.09345049411058426,
          0.014995862729847431,
          0.07426486909389496,
          -0.0018000147538259625,
          0.06710128486156464,
          -0.10135801881551743,
          -0.03285711631178856,
          0.14633432030677795,
          -0.09435252100229263,
          0.04605497792363167,
          0.14321427047252655,
          0.14814910292625427,
